784.000000
10.000000

-0.069705 -0.099911 -0.044565 -0.086668 0.075852 0.031569 0.016752 0.083222 0.087913 -0.013132
-0.117872 -0.156435 0.061732 0.016220 -0.077873 -0.134094 0.072412 0.029615 -0.082210 -0.003516
-0.119042 0.095349 -0.104665 -0.003505 0.139670 0.144034 0.117185 -0.016311 -0.185915 -0.165258
0.084199 -0.002698 -0.057111 0.133933 -0.086581 -0.063228 -0.128242 0.072359 0.010453 -0.100106
-0.052420 -0.023392 -0.027242 0.059319 -0.036157 -0.063186 0.090718 -0.067505 0.184383 -0.019812
-0.084153 0.056563 -0.067387 -0.094332 -0.187723 -0.035992 0.070035 -0.065992 -0.037583 -0.034854
0.100658 0.097123 -0.012613 -0.096164 0.074004 0.017648 0.056251 -0.043415 -0.006148 -0.018594
-0.083403 0.031231 0.157083 -0.056880 0.134524 -0.016442 -0.068899 0.036932 0.145340 0.042504
0.054112 0.075953 0.004162 -0.053257 -0.127676 0.005177 0.064981 -0.068680 0.084244 0.023659
-0.102601 0.030938 -0.005263 0.116848 -0.087565 0.075905 0.010663 -0.106652 0.017157 0.106956
0.033702 0.003235 -0.012479 -0.012189 0.019114 -0.051659 0.031270 -0.029203 -0.029727 -0.128378
-0.026749 0.053646 0.105131 -0.131675 -0.074511 -0.022839 0.067097 0.176646 0.108511 -0.079753
-0.121609 0.024932 0.016364 -0.138293 -0.123624 0.071683 -0.006564 -0.113640 0.191557 -0.015026
0.080414 0.034421 0.077566 -0.048950 0.040273 0.031539 0.120333 -0.037539 0.131799 0.043075
-0.156195 -0.011163 -0.028850 -0.136925 0.121814 0.054161 0.019805 0.048458 -0.069923 -0.154491
-0.000950 0.085806 0.129467 -0.135852 0.087170 -0.097737 -0.073049 -0.010424 -0.092618 -0.060320
-0.045327 0.084392 -0.166404 -0.037530 -0.150683 -0.000520 0.010864 0.134991 0.048005 0.070701
0.119658 0.174483 0.078849 0.169087 0.010985 0.092080 0.151169 0.049403 -0.043410 0.013593
-0.026030 0.163227 0.146453 -0.102323 0.064285 -0.105733 0.119782 -0.005884 0.015357 -0.015524
0.021967 0.130258 -0.038852 -0.179256 0.177065 -0.042411 0.079546 0.148354 0.012890 -0.065044
-0.011819 0.019458 -0.155752 0.038993 -0.084423 -0.064040 0.180621 -0.078912 -0.116857 -0.033854
-0.047339 0.019782 -0.095442 -0.068691 -0.035702 0.050870 -0.128065 0.027008 0.134952 0.002956
0.057604 0.148741 0.010548 -0.033760 0.054751 -0.061648 0.026061 0.037965 -0.043481 -0.042283
-0.017348 -0.153324 -0.008355 0.026203 0.122448 0.033109 0.064047 -0.019311 -0.007514 -0.027890
-0.153596 0.043803 0.072193 -0.022650 0.071830 0.000169 -0.109957 0.076117 -0.015339 0.134339
0.042606 0.072693 0.020277 0.070309 0.038531 -0.022586 -0.098242 0.104476 -0.001000 -0.037508
0.029123 -0.097077 -0.004109 -0.003680 0.061841 -0.079439 0.132227 -0.069829 -0.133128 -0.011709
0.035493 0.162120 0.039566 -0.072474 0.016379 -0.103639 0.061964 0.146527 0.069821 -0.005306
-0.049693 0.036557 -0.104454 0.026033 0.000614 -0.028320 0.145470 -0.102329 0.041397 0.014479
-0.057540 -0.043599 0.060333 -0.006300 -0.012936 -0.029359 -0.037657 0.031373 -0.041873 0.001470
-0.008152 0.240019 0.036871 -0.078614 -0.123904 0.058105 0.143814 -0.040172 0.023662 -0.005052
-0.102525 0.174646 -0.000634 0.058994 -0.042632 -0.035388 -0.014127 0.112288 0.058569 -0.093823
-0.038741 -0.050533 0.153559 -0.138891 -0.016976 -0.063644 0.088745 0.037122 0.054812 -0.135312
-0.065416 -0.048861 0.182556 0.071253 -0.045159 -0.018260 0.016637 0.006833 -0.109161 0.072143
-0.173467 0.048252 0.000195 0.065917 -0.067829 0.023420 -0.028159 -0.048929 -0.211577 -0.001666
-0.155148 0.036143 0.029164 -0.129588 0.104871 0.123720 0.010468 0.052990 0.078676 0.146369
-0.074203 -0.059207 0.089020 -0.054822 0.076081 -0.039787 -0.130021 -0.149764 0.010146 -0.007316
0.031162 -0.010847 0.001575 0.001217 -0.048266 -0.145884 0.147804 0.077447 -0.109076 0.079988
0.128018 0.002393 -0.081440 0.005759 -0.078546 0.058228 -0.011062 -0.018613 -0.020373 -0.068004
-0.004310 -0.000567 0.091280 -0.004134 0.164342 0.100041 -0.034466 0.158315 -0.144324 0.115648
0.037163 -0.196674 0.126155 0.043151 0.012200 0.035457 -0.058920 0.051040 0.062974 -0.165107
0.056655 0.025019 -0.166659 0.009542 -0.064701 0.012192 -0.011317 0.011363 -0.137023 0.021231
-0.006531 0.008165 0.003266 0.030570 -0.023178 0.040661 0.214008 -0.068174 -0.097735 -0.131480
0.049813 -0.049177 -0.179521 -0.173013 -0.020705 -0.034929 0.034370 -0.097748 0.016004 0.004358
0.114030 0.006294 0.037188 0.004626 0.101038 0.001261 -0.004537 0.078211 0.009118 0.000260
0.042891 -0.068555 0.136436 -0.059216 -0.129760 0.018102 -0.004198 -0.055708 -0.093553 -0.009076
-0.162357 -0.173636 -0.000593 -0.110616 -0.021399 0.095504 0.044228 0.140116 0.076915 -0.102455
-0.100271 0.068563 -0.097312 -0.179764 0.191607 -0.168935 0.070363 0.076350 0.064069 -0.098115
-0.099094 0.006538 -0.024039 -0.119495 0.092434 0.115054 -0.153426 -0.111499 -0.046621 0.166859
0.121484 0.010303 -0.061658 0.073005 -0.008101 -0.034756 0.135870 0.024609 -0.036059 -0.010884
-0.085457 -0.139618 0.175729 0.016141 0.074137 -0.108164 -0.011804 0.070608 0.134971 0.136997
-0.039882 0.035757 0.078427 -0.089826 0.003655 0.055050 0.059002 0.082073 -0.098008 -0.006378
0.152613 -0.028350 -0.120031 0.135446 0.016098 -0.001976 -0.010283 0.046007 -0.052265 0.042450
-0.017937 -0.054608 -0.139349 -0.016818 -0.044049 0.143170 0.050601 -0.010709 -0.011386 -0.027228
-0.080242 0.068479 -0.012503 0.130617 0.034299 0.057516 0.020655 0.026556 -0.203137 -0.012704
-0.016245 -0.144231 -0.079897 -0.066184 0.051060 0.096757 0.094925 0.188706 -0.012687 0.043782
0.018640 -0.034248 0.049627 -0.045968 -0.005236 -0.072620 -0.044629 -0.141666 -0.132898 -0.136843
0.087143 0.170083 -0.055115 -0.095278 0.045480 -0.067143 0.058025 0.054639 -0.133386 -0.073532
0.051717 0.167135 0.155826 -0.005540 0.046461 0.013579 -0.160256 -0.165802 0.043855 -0.047947
0.051048 0.156395 0.010339 0.030976 0.172083 0.000518 0.006618 -0.111660 0.087270 0.072716
-0.012332 0.076546 0.001809 0.058929 -0.120686 -0.045179 0.003815 -0.016131 -0.002070 0.165974
-0.060141 -0.172279 -0.045102 -0.011138 -0.032038 -0.022936 0.049270 -0.100165 -0.077713 0.002729
-0.050020 0.028483 -0.025481 -0.007753 -0.096090 -0.170870 0.054280 -0.051965 -0.158200 -0.002451
-0.047228 0.009086 -0.071364 0.030208 -0.083831 -0.202024 -0.078398 -0.078928 -0.080863 -0.013587
-0.047028 0.115176 -0.084239 -0.114290 -0.028555 0.096143 0.015925 -0.125786 -0.061594 -0.083156
0.035476 -0.072879 -0.001962 -0.034619 0.007627 -0.019316 0.055625 0.055636 -0.088798 0.059599
0.013923 -0.002262 -0.083544 0.014425 0.002336 0.079882 0.114759 0.067063 -0.133177 0.137008
-0.084949 0.044840 -0.122930 -0.034985 0.014223 0.140056 -0.112455 0.153186 -0.016138 0.034733
-0.034047 -0.052654 0.157633 -0.013848 -0.073636 -0.015331 0.121858 -0.092561 0.019031 0.052835
0.052630 0.119833 -0.157852 -0.158404 0.121302 0.014600 -0.054063 0.000582 0.069265 -0.136131
0.038746 -0.056676 -0.036988 0.057258 -0.051856 0.057418 0.218499 0.120337 -0.043343 0.031055
0.105166 0.149271 0.071939 0.013796 -0.085526 0.061017 0.100649 -0.136047 0.044024 0.031639
0.127209 -0.011014 0.066120 -0.028400 -0.142300 -0.092344 0.064510 0.103993 0.095691 -0.115304
0.096956 0.086158 -0.066146 -0.075591 -0.190526 0.085887 -0.170969 0.087658 0.050060 -0.049644
0.042554 -0.089687 -0.024772 0.163656 -0.202809 -0.097424 0.132402 0.065996 0.007734 0.072421
0.115562 -0.077888 0.100977 0.021603 -0.026487 0.039097 0.049283 0.083011 -0.021044 -0.137469
0.032602 -0.036071 0.195569 0.057320 -0.181408 0.047717 -0.006957 -0.008986 -0.030615 -0.114366
0.040040 -0.069998 0.072680 0.077196 -0.173884 -0.036007 0.091447 -0.083082 -0.047991 -0.077236
0.056551 0.059861 0.039886 0.081423 -0.118962 -0.083137 0.158779 -0.166151 -0.006837 0.014976
-0.079358 0.085008 -0.014830 0.031363 0.095535 0.114703 -0.055471 0.051121 -0.014435 0.043578
-0.062642 0.054253 0.201982 -0.058329 -0.072878 0.067007 0.115806 -0.056144 0.084351 -0.002697
0.045230 0.051244 0.196994 0.012096 -0.082851 -0.155486 0.061509 -0.090000 0.011037 -0.030481
-0.160076 0.039558 0.027863 0.102206 -0.046241 -0.071493 0.142791 -0.126253 -0.073822 -0.032820
-0.018462 0.128248 0.022039 0.034930 -0.084829 0.011544 0.032119 0.090278 0.136002 -0.086382
-0.131813 0.166287 0.092036 0.124567 -0.083387 0.175382 0.021154 0.000861 -0.127150 -0.061310
-0.014453 -0.183645 0.020005 0.019104 0.132070 -0.053911 -0.144946 -0.050947 -0.038584 -0.027708
-0.006226 -0.025961 -0.087415 0.191714 -0.226630 -0.036443 -0.033660 -0.090196 -0.060744 -0.023182
-0.031648 0.060263 -0.106070 -0.020957 -0.036429 0.104617 -0.048951 -0.015386 -0.107264 0.065840
0.043314 0.058742 0.204722 0.100867 -0.071112 0.114403 -0.011239 -0.108309 0.033628 -0.107342
-0.083690 -0.011778 -0.015685 -0.126696 0.064348 -0.126898 0.109441 0.090553 0.019796 0.127816
-0.134664 0.005806 -0.052974 0.019670 -0.160474 0.213627 0.037338 -0.001279 -0.019124 -0.048219
-0.031737 0.032853 -0.086884 -0.039356 -0.128229 0.107662 -0.012073 -0.017598 -0.038375 0.124683
-0.103580 0.026986 -0.172207 -0.021757 -0.108318 0.109033 0.137998 -0.009173 -0.023086 -0.037611
0.195320 0.013619 -0.111171 0.092813 0.021573 -0.112489 0.085716 -0.018596 0.101320 -0.066155
-0.023457 -0.114325 -0.120390 0.058360 0.029336 0.205342 -0.054687 -0.189063 -0.145331 -0.045949
-0.064305 0.052950 -0.047615 0.031619 -0.006608 0.061208 -0.156626 0.104047 0.036474 0.131666
-0.152134 -0.189173 -0.035459 0.036590 0.064446 0.133677 -0.100264 0.095140 0.011092 -0.086398
0.159881 0.016168 -0.059791 0.020650 0.101978 0.111054 -0.032131 0.090545 -0.100224 -0.103758
-0.129648 0.112760 -0.135591 -0.102933 0.041565 0.003830 0.207681 0.018326 -0.176372 0.050925
0.106441 0.095789 0.015504 -0.051854 0.015692 -0.067378 0.092754 0.015797 -0.016535 -0.004487
0.001346 0.037688 -0.180155 0.087888 0.033975 0.064927 0.129981 -0.032949 -0.176675 -0.106746
0.010241 -0.014217 0.065659 -0.011216 -0.119714 -0.065320 0.110162 0.090622 -0.029929 0.017320
-0.156876 0.015428 -0.048599 0.023968 -0.045687 0.016938 0.139493 -0.152699 -0.140977 -0.006952
0.004655 0.140842 0.100228 -0.092038 -0.005662 0.115240 0.086882 -0.018085 -0.081721 -0.075390
-0.007405 -0.015654 0.014416 0.119106 -0.048606 -0.002607 -0.035244 0.137126 -0.080497 0.068532
0.008516 -0.100774 -0.114219 0.092217 -0.078895 0.020451 0.022067 -0.049360 0.039988 -0.024278
0.100186 -0.030022 0.018875 0.085052 0.044800 0.078326 0.116053 0.107354 -0.078130 -0.021665
0.180748 0.087380 0.044936 -0.091822 -0.058560 0.030826 -0.018250 0.030959 -0.045192 0.068609
0.086196 0.025476 0.178249 -0.037802 0.028109 -0.018427 0.041962 0.052680 0.032091 0.137179
0.111244 0.005981 -0.102180 0.144214 0.111519 -0.011266 -0.050638 0.100945 0.016402 0.008835
-0.068046 -0.048462 -0.075547 0.000582 -0.076180 0.062679 0.053792 0.153680 -0.028793 -0.097147
-0.018245 0.050377 -0.121239 -0.102490 -0.038507 -0.008701 0.057384 -0.078421 -0.097872 0.110956
0.077201 0.137347 -0.147053 0.124364 -0.066046 -0.000558 -0.050654 -0.083342 0.047634 -0.151110
-0.084684 -0.080434 0.113561 -0.005295 -0.082650 -0.103032 0.119192 0.086191 0.052066 -0.042559
0.131980 -0.062197 -0.042716 0.075519 -0.098610 0.164305 0.055975 0.006511 -0.009605 0.008823
-0.020771 0.036342 0.047782 -0.141965 -0.046997 -0.022407 0.146480 -0.015837 0.010768 -0.114623
0.051068 -0.109714 -0.025443 0.082432 -0.034210 0.058149 -0.046419 -0.002345 0.023191 -0.096828
0.059986 0.082680 -0.161210 0.024918 0.032985 -0.080062 -0.000053 -0.075767 0.041367 0.053581
0.122726 0.100775 -0.077021 -0.051385 0.166737 0.017777 0.124314 -0.157180 -0.138004 0.018790
0.058001 -0.151562 0.026453 0.088596 0.009259 -0.151420 0.061456 0.113875 -0.047916 0.057537
-0.220989 0.197246 -0.076056 0.073959 0.018153 -0.004510 -0.078124 0.140149 -0.003716 -0.005740
-0.115720 -0.117068 -0.045661 0.188815 -0.122647 0.002746 -0.094753 0.061103 0.025281 -0.117983
-0.009780 -0.103718 -0.068169 0.070006 -0.102759 0.082356 -0.082207 0.090929 -0.031411 -0.000223
0.118955 -0.039119 -0.131202 0.080247 0.189779 -0.188573 -0.178495 0.066576 -0.016808 0.007116
0.043996 -0.074766 -0.046606 0.186501 0.187519 -0.002492 0.009849 0.035955 0.067802 -0.019838
-0.062224 0.053259 0.025416 0.171914 -0.118570 -0.238063 -0.131316 -0.055272 0.076131 0.092789
0.034999 0.097091 0.062814 -0.071591 -0.005169 0.033549 0.039049 -0.103869 -0.078506 -0.059647
-0.089667 -0.053017 -0.075312 -0.089468 -0.020059 0.059783 -0.029488 -0.024291 -0.213518 0.042307
-0.046838 -0.045197 -0.063863 0.092128 -0.017899 -0.116322 0.053745 -0.090448 -0.083218 -0.080082
0.147201 -0.074390 0.072152 0.126483 0.167597 -0.120418 -0.004581 0.047827 -0.034437 0.177586
-0.041054 -0.076532 0.175175 -0.041773 0.040791 0.130890 0.127594 0.117590 0.095293 -0.076688
0.011260 0.028395 0.029812 -0.067627 0.102196 0.086222 -0.078031 -0.049075 0.078337 0.040277
0.037714 0.020267 0.109138 0.178736 0.049772 -0.086230 -0.127300 -0.072076 0.054026 0.108509
-0.175302 -0.001659 0.245339 0.110041 -0.077692 0.015210 -0.131419 0.182763 0.035175 0.037372
-0.134829 -0.003024 -0.097005 -0.124840 -0.029418 0.094471 -0.006921 -0.033186 0.047747 0.118742
-0.086369 -0.050798 0.173138 -0.143414 -0.058760 -0.118555 0.118394 0.039873 -0.056081 0.017398
0.020424 0.021330 0.094976 0.142030 0.068531 -0.053564 -0.187814 -0.158880 -0.038847 -0.060755
-0.074066 -0.213808 0.112643 0.238245 -0.016442 -0.050236 -0.162987 -0.043965 0.101887 -0.106411
0.031011 0.023278 -0.114345 -0.142269 -0.103509 -0.023883 -0.000381 -0.003291 0.015076 0.008042
-0.090437 0.227270 -0.036410 -0.048245 0.006075 -0.102992 -0.061908 0.030734 -0.053806 -0.087464
-0.009336 0.044467 0.075216 0.193526 0.111630 -0.029944 -0.053937 0.070203 0.007782 -0.248548
0.101994 -0.221536 0.155333 0.104267 -0.260643 -0.018449 -0.132189 0.024744 0.191356 -0.023219
0.030592 0.136947 -0.132389 -0.015973 0.051308 -0.120026 -0.050507 -0.162646 0.018634 -0.145738
0.086853 0.120073 0.104111 -0.037320 -0.105857 -0.060271 -0.021558 -0.108099 -0.011926 0.003941
0.142526 0.150341 0.117517 -0.041509 0.066305 -0.071890 -0.000221 -0.079689 0.027195 -0.036599
-0.047310 -0.256026 -0.000452 0.009112 -0.194707 0.046156 -0.001774 0.074582 0.165580 0.046858
-0.066578 0.004605 0.036695 0.100561 0.041438 0.057984 0.085345 -0.126226 0.047199 -0.183580
0.028069 0.044200 0.124453 0.070256 -0.014648 -0.077839 0.021060 0.062012 0.025844 -0.078725
0.039429 0.014892 -0.013250 0.077210 0.032494 -0.014310 -0.048973 -0.144690 0.046666 -0.146414
0.052665 -0.186594 0.095634 -0.103999 0.066494 0.064121 -0.139319 -0.112687 0.113052 0.001332
-0.094979 -0.014963 -0.046617 0.120515 0.054553 0.098453 0.130755 -0.001440 -0.081281 -0.058956
0.088508 -0.044279 -0.022545 0.029479 0.028566 0.001624 0.055248 0.097453 0.107829 0.071494
-0.108880 0.154202 0.009407 0.016179 0.025496 -0.015412 0.035064 -0.258642 0.003839 -0.137953
0.084679 -0.089375 -0.075844 -0.087310 0.006332 0.018270 -0.135092 0.086446 0.180973 -0.193642
-0.017431 0.074541 -0.084721 0.037843 0.016051 -0.138672 0.050184 -0.199498 0.073047 -0.083041
0.100064 0.058465 -0.048269 -0.039198 0.077553 0.171365 -0.024407 0.078948 0.164389 -0.065782
0.025384 0.002809 -0.076959 0.082268 0.230144 0.100953 0.027795 0.067442 -0.044466 -0.246794
0.104874 0.051502 0.023477 -0.173346 0.013573 0.192556 0.185361 -0.144192 0.155526 -0.009510
-0.082910 0.000984 -0.074953 0.064232 0.191261 -0.008262 0.054138 -0.128641 -0.023885 0.017449
-0.062174 0.173721 -0.114144 -0.168346 0.133183 -0.015064 -0.042844 0.078470 0.040213 -0.028422
0.014382 0.086662 -0.023195 -0.037309 -0.133889 0.126221 -0.024267 -0.173238 0.149278 -0.126825
0.020439 0.084497 0.026107 0.045132 -0.027705 0.026368 -0.085729 -0.147817 0.114970 0.077085
-0.057497 0.156650 0.079930 0.009896 0.102009 0.117193 0.100025 0.090927 -0.008802 -0.211665
-0.022440 -0.052424 -0.126613 -0.094583 -0.029822 0.099566 0.060535 -0.031089 -0.084268 0.167490
0.000660 -0.166664 0.076912 0.077168 -0.086785 0.032159 -0.114285 0.018876 -0.015915 -0.091120
-0.034235 -0.096426 0.031686 -0.039302 0.030321 0.035826 -0.017966 -0.136508 -0.093177 0.082597
-0.008193 0.043459 0.041446 -0.070408 -0.007116 0.052756 0.058470 0.097764 0.043219 0.000853
0.099130 0.081363 0.058029 -0.056474 -0.116771 -0.048960 0.028841 -0.068640 0.031639 -0.084718
-0.005746 -0.138551 0.115670 -0.168291 0.151434 -0.159461 0.058580 0.031754 0.096788 -0.044286
0.107354 0.058426 0.044805 -0.024026 0.161517 0.058508 -0.194309 -0.071597 -0.047574 0.091859
0.000788 0.131486 -0.145022 -0.164867 0.168821 0.044904 0.084830 -0.123171 -0.022536 -0.082807
0.089198 -0.115722 -0.044984 -0.003556 0.168593 0.139600 0.061710 -0.081298 0.023305 0.101585
0.058844 -0.015720 -0.012825 0.067733 -0.037338 -0.029896 -0.103280 -0.010217 0.104509 -0.044009
0.040633 -0.022576 0.062076 -0.067464 -0.112759 -0.013015 0.002902 -0.015515 -0.074638 -0.062785
-0.133331 0.114538 0.187987 0.059510 0.124934 0.058544 0.021217 0.149513 -0.004776 -0.040428
0.149233 0.075847 -0.005050 0.021983 -0.065073 -0.064159 -0.016611 -0.055969 -0.082497 -0.016472
-0.088670 -0.047359 -0.133661 0.071640 0.070098 -0.039575 0.110824 -0.009353 -0.117120 -0.205057
-0.076609 0.021564 0.085577 0.039477 -0.002969 -0.118174 0.046503 0.075475 0.003209 0.081329
-0.077568 0.071894 0.079563 0.081597 0.119429 -0.085364 0.018107 0.046022 0.107777 -0.153577
0.049981 0.004294 -0.196389 -0.002869 -0.100223 -0.036812 -0.104296 0.076334 -0.172389 -0.059148
0.060829 -0.013700 0.001403 -0.104918 0.161795 -0.058294 0.082725 0.306003 0.110892 0.122898
-0.087171 -0.011943 0.154194 0.317975 0.093189 -0.189677 -0.169044 0.190429 0.000785 -0.026979
0.015219 0.080352 -0.120596 -0.133285 -0.002202 0.156047 -0.047225 0.014466 -0.011891 -0.183566
0.036604 0.129076 -0.098187 0.055477 0.002236 0.096963 0.038693 0.209461 0.086617 -0.030570
-0.083082 -0.259309 -0.059187 0.071308 -0.035672 0.071080 -0.171071 0.055493 -0.037475 0.056841
-0.146216 -0.006904 0.264505 0.213303 -0.018785 -0.202751 -0.171381 0.085952 -0.038705 0.026001
0.039355 -0.049570 -0.086891 -0.110806 0.005123 0.187408 -0.125426 -0.134163 -0.028169 -0.008941
-0.060915 0.197024 0.057330 0.080743 -0.151618 0.013535 -0.054018 -0.020958 -0.075921 0.058753
-0.081665 -0.070445 -0.019359 0.012176 0.121311 0.052737 -0.191917 0.145979 -0.057034 -0.042038
-0.085286 -0.219710 -0.000134 0.213914 -0.269774 -0.177403 -0.254800 0.355988 0.039312 0.198591
0.092653 -0.026402 0.051197 0.021067 -0.071905 0.014188 0.025525 -0.026004 -0.062223 -0.201805
-0.113615 0.091131 0.109640 -0.070674 0.044641 -0.191441 -0.060060 -0.023179 -0.093233 -0.112330
-0.104641 -0.119043 0.140872 0.179677 -0.006881 0.010603 -0.168832 0.010714 0.027041 0.062243
0.023083 -0.207076 0.136201 0.078912 -0.392819 0.007977 -0.187122 0.204837 0.164296 0.444321
-0.096908 -0.056148 -0.057789 -0.043513 0.001854 0.083126 0.023171 0.120882 -0.038549 -0.048938
0.068817 0.109806 -0.047719 -0.130853 0.127598 0.015511 0.060050 0.137227 -0.191533 0.117279
-0.022148 -0.122127 0.128191 0.063616 -0.038272 -0.008727 -0.127109 -0.105174 0.040098 0.218211
0.097017 -0.274604 0.249058 0.258901 -0.493109 0.125018 -0.120537 0.200179 0.233000 0.389201
-0.012784 -0.023699 -0.140236 -0.099362 0.048093 -0.120447 0.090109 -0.167046 -0.000300 0.143736
0.141033 0.164271 0.119904 -0.024398 0.140623 0.077106 0.034702 -0.083749 -0.031780 -0.005834
0.062027 -0.233727 -0.032989 0.054676 -0.074201 0.067798 -0.176059 0.155484 0.191973 0.139289
0.126351 -0.336523 0.156372 0.034567 -0.463227 0.275684 0.013632 -0.017069 0.151715 0.382070
-0.124864 -0.101061 -0.141232 -0.160844 0.106773 0.006039 -0.039925 0.016371 -0.086067 0.195352
0.031251 0.166023 -0.033347 0.113392 -0.122631 -0.076966 0.132157 0.071461 0.156819 -0.121004
0.176999 0.000972 0.121345 0.112437 -0.001215 -0.100462 -0.030177 0.100611 0.154628 0.182028
0.226028 -0.359011 0.091280 -0.074664 -0.138300 0.286808 0.194682 0.047278 0.185881 0.127312
-0.131661 0.016143 -0.088073 0.040769 0.040168 0.028754 -0.171125 -0.013527 -0.025971 -0.098803
0.052361 -0.192380 0.014165 0.017100 0.103004 0.073448 0.084326 -0.154014 0.135697 -0.021891
-0.009257 -0.084720 -0.020506 0.117513 -0.114874 -0.155827 -0.238920 0.066201 -0.041474 0.181015
-0.033422 -0.128916 -0.028070 -0.316115 -0.007444 0.394034 0.147965 0.031684 0.108526 0.168699
0.012734 0.087760 -0.057491 -0.001090 0.207453 0.019133 -0.126148 0.082377 -0.012454 0.050162
0.075945 -0.139371 0.003882 -0.014611 0.052372 -0.082643 -0.177656 0.096543 -0.172509 0.064613
0.022537 0.035171 -0.062674 -0.094112 -0.051272 -0.079767 -0.052157 0.041470 0.097481 -0.169334
0.028821 -0.044052 -0.252150 0.016439 -0.076171 0.285938 0.088518 -0.033016 0.009216 -0.059035
0.119063 -0.060044 -0.030023 -0.086024 0.183588 -0.238485 -0.102081 -0.026031 -0.146765 -0.112111
-0.179533 -0.035073 0.054590 -0.024240 0.163238 0.069569 -0.017660 0.098154 -0.025209 0.051745
-0.169209 -0.207122 0.048885 -0.009775 0.093283 -0.048381 -0.008269 -0.051176 0.157604 -0.109276
0.015131 -0.188058 -0.093842 -0.068681 0.104759 0.091370 0.097759 -0.029613 0.083034 -0.034339
-0.066506 -0.067209 -0.071708 -0.001069 0.185912 0.017387 0.065357 0.017475 -0.107582 -0.037095
-0.085243 0.084612 0.087407 -0.182719 0.121468 0.111248 0.137370 0.163489 -0.080285 0.001055
0.051008 -0.115007 -0.034802 -0.021312 -0.066174 -0.040434 -0.112427 -0.025357 -0.021907 0.036432
0.091838 0.116544 0.106767 -0.018580 0.063115 0.156908 -0.132396 -0.024050 -0.018061 -0.007320
0.038093 -0.125856 0.023436 -0.134758 0.058264 0.166917 0.152907 0.151391 -0.001006 0.039322
0.063703 -0.090608 0.097284 -0.166944 -0.114360 -0.039354 -0.133591 0.086153 0.078352 0.026300
-0.018302 -0.031312 -0.025927 -0.092885 -0.139721 -0.064056 0.148804 -0.130604 0.093561 -0.053494
0.120187 0.064681 -0.047446 0.192591 -0.036489 0.029815 0.164431 0.036241 0.189974 0.111283
0.004787 0.084135 0.091088 0.007169 -0.134492 0.096277 -0.002821 0.223559 -0.001691 -0.048223
-0.117207 -0.040374 -0.066967 -0.164905 0.133468 -0.088662 -0.112230 -0.045157 -0.178635 0.091123
0.009042 -0.097235 0.081635 0.090336 0.071131 -0.030553 -0.008209 0.131769 0.020352 -0.033010
-0.023813 0.105228 -0.017504 0.062938 -0.094415 -0.029789 -0.027933 -0.036976 0.049261 0.029722
-0.112947 -0.071052 0.018301 -0.018216 0.094816 -0.025569 0.155418 0.138798 0.038187 -0.105919
-0.077960 0.162960 0.050890 0.031987 -0.073425 -0.003661 -0.066433 0.072854 -0.151394 0.063883
-0.071217 -0.065860 0.096219 0.051377 -0.169677 -0.008938 -0.075316 0.189830 0.052280 -0.030389
0.009650 -0.095811 0.142031 0.164767 -0.090200 -0.172235 0.022297 0.194068 -0.073158 0.023566
0.095742 0.078537 0.003795 0.078885 0.037226 -0.073769 -0.199754 0.049759 0.156066 0.035005
-0.028885 0.006376 -0.019320 0.081132 0.082698 -0.000170 -0.116132 0.000059 -0.106923 -0.115070
0.069187 -0.171516 0.013879 0.121560 0.074414 0.018019 0.064038 0.009990 0.036819 0.108182
-0.117043 0.007508 0.215238 0.210587 -0.242749 -0.224452 -0.026713 0.106612 -0.062646 -0.160312
-0.108575 -0.059659 -0.136157 -0.009597 0.136657 0.089067 0.006726 -0.046048 0.105287 0.078958
0.003577 -0.011913 -0.031014 -0.066899 -0.040406 0.085533 -0.031971 0.194708 0.121467 -0.024724
-0.067953 -0.109862 -0.052818 -0.133671 -0.152882 0.076992 -0.017013 0.183726 0.226702 -0.121972
-0.082437 0.183784 0.183921 0.258967 -0.130178 -0.342056 -0.126039 0.297212 -0.095667 0.062548
0.048302 -0.113148 -0.074089 -0.114942 0.022515 0.064925 0.082137 -0.078042 0.038503 0.017730
0.012947 -0.037631 0.014961 0.004703 0.002527 0.023857 -0.040004 -0.054872 -0.157748 0.055389
-0.025960 -0.027475 0.031002 -0.278063 -0.027021 0.095715 -0.199560 0.131016 0.052804 0.012584
0.109801 -0.018515 -0.018081 0.332224 -0.287958 -0.171020 0.001800 0.112367 -0.065634 0.119185
-0.042926 0.023598 0.055427 -0.131977 0.042374 -0.089117 -0.074874 -0.044345 0.049644 0.185042
0.085022 0.128512 0.031010 0.007471 0.114441 0.032719 -0.106951 0.118135 0.061420 -0.195431
0.045698 -0.050455 0.076774 -0.132570 -0.157968 0.083593 -0.069342 0.197010 0.148975 0.090944
-0.063052 -0.269441 0.166751 0.233147 -0.471897 0.030107 -0.197611 0.145955 0.088114 0.243484
0.139527 -0.072820 -0.104261 0.005737 -0.074947 -0.044350 -0.166343 -0.046143 -0.024158 0.219643
-0.025762 0.122506 0.072798 -0.116870 0.131091 -0.146088 0.043512 0.062661 0.079823 0.087959
0.128425 0.031029 0.150518 0.072824 0.039088 0.088358 -0.337662 -0.083349 0.033480 -0.010139
-0.208504 -0.227981 0.046567 0.130455 -0.435061 0.188872 0.013972 0.123675 0.168354 0.069088
0.173407 -0.111706 -0.027182 0.164070 -0.098042 -0.233911 -0.130538 0.157884 -0.103141 0.119617
-0.051960 -0.042935 -0.154640 0.100847 -0.027751 -0.037532 0.021523 0.004007 -0.002566 0.018535
0.283891 -0.030851 0.091005 -0.105039 -0.026032 -0.089019 -0.223131 0.108309 0.000408 0.071228
0.082437 -0.368696 0.086491 0.054306 -0.583044 0.300822 0.214970 0.055674 0.167539 0.221297
0.199652 0.106082 -0.010862 0.217835 0.081744 -0.228039 -0.180093 0.265106 -0.037783 0.111729
0.165642 0.135266 0.057148 0.080682 -0.132056 -0.021659 0.015109 -0.016804 0.114160 -0.005761
0.216274 -0.071825 -0.011214 -0.068267 -0.029181 -0.006234 -0.319914 -0.003901 0.044725 -0.075995
-0.065167 -0.155006 -0.102758 -0.094895 -0.241876 0.448531 0.373472 -0.227472 0.178603 0.123120
0.022106 0.015165 -0.109532 0.055450 0.141181 -0.170986 -0.182461 0.009216 -0.061551 -0.068666
0.035606 -0.044304 0.136170 0.012020 0.130911 -0.141667 0.053750 -0.115869 -0.082010 0.156537
0.028403 -0.144750 -0.047461 0.020943 -0.083347 -0.014282 -0.162522 0.135267 -0.004793 0.064043
-0.041845 -0.167184 -0.208344 -0.259379 -0.116474 0.498593 0.404586 -0.194547 0.114330 0.126529
-0.004586 0.086426 0.124986 0.012307 0.106790 -0.105295 -0.037251 0.122388 -0.009489 -0.140523
-0.053512 -0.083968 0.100688 -0.128178 0.017109 0.114652 0.089538 0.144976 -0.116744 0.125926
0.079692 -0.034889 -0.012280 0.105276 0.050184 -0.137088 -0.233402 0.098456 0.112768 -0.073928
-0.003613 0.027364 -0.315935 -0.153134 -0.042252 0.363437 0.197206 0.006841 0.032684 0.117820
0.003803 0.093553 0.164300 0.061713 0.115013 -0.056977 -0.151521 0.020824 -0.010065 -0.024294
-0.134614 0.050441 -0.145700 -0.026213 0.038559 0.107312 0.049444 -0.138806 0.076258 -0.091708
0.132668 -0.164746 -0.066712 0.000494 -0.017525 0.368410 -0.218309 0.078996 0.239669 0.047123
-0.138583 0.005969 -0.003901 -0.056960 0.166147 0.055428 -0.125506 -0.089249 -0.016970 -0.067815
0.053556 -0.201029 -0.018171 -0.124512 0.097643 0.313887 -0.117349 -0.110445 0.098411 -0.111216
-0.069784 -0.082480 0.045506 -0.042412 0.110363 0.027770 -0.167254 0.027055 -0.086103 -0.068910
-0.069991 -0.081791 0.006865 0.045755 0.192907 -0.054480 -0.194285 0.178843 0.028681 -0.155956
0.021790 -0.070440 -0.100682 -0.013193 0.029672 0.098197 0.059692 -0.077783 -0.032543 -0.139522
-0.122025 -0.075591 -0.035230 0.028684 0.073656 0.079381 0.062078 -0.040959 -0.114368 0.004670
0.097416 0.144544 0.040909 -0.082587 -0.051717 -0.043926 0.105082 -0.056711 0.101544 -0.155411
-0.029129 0.007124 0.182592 -0.104444 -0.105205 0.038478 0.193289 0.077974 0.118856 0.005408
0.080269 -0.112593 0.154829 0.040635 0.102966 0.016283 0.154486 -0.155714 -0.056437 -0.092889
0.076214 -0.017323 -0.111526 -0.061399 0.024494 -0.133679 -0.159210 0.110114 0.107618 -0.114857
-0.111827 0.109984 0.106002 -0.147666 0.098445 -0.052463 -0.129691 -0.067325 0.039842 0.015835
0.012104 -0.109558 0.048644 0.039552 -0.141969 -0.059774 -0.158796 0.149701 -0.013788 -0.109671
-0.058770 0.106223 -0.104544 -0.009603 -0.001380 -0.063505 0.163485 0.011904 -0.052797 -0.075363
-0.099431 -0.082786 0.026675 0.054570 0.092596 -0.135720 0.042246 0.002426 -0.017816 -0.063252
0.032619 0.107282 -0.022814 0.014410 -0.039530 0.036238 -0.061101 -0.086414 -0.134854 0.051564
0.052424 -0.072436 -0.010072 0.063897 -0.091353 -0.103704 0.063579 -0.092803 0.017533 0.227996
-0.092408 -0.038475 0.267636 0.144852 0.000668 0.022181 -0.089632 0.293882 -0.123166 -0.098850
0.015140 -0.015063 -0.114806 -0.145590 -0.169772 -0.026689 -0.076117 -0.007599 -0.023461 0.069869
0.119800 0.013217 0.043090 -0.056002 0.189233 -0.075329 0.108719 0.164503 -0.011984 0.039533
-0.146168 -0.182173 -0.229136 -0.117244 0.205034 0.016601 -0.016346 -0.036834 0.100348 0.156344
-0.095229 0.106193 0.381448 0.184043 -0.208657 -0.229356 -0.131789 0.270739 -0.056171 -0.099585
0.027526 0.012843 -0.134390 -0.070866 -0.128987 -0.060380 0.017400 -0.082081 0.097476 0.036200
-0.126226 0.045912 -0.016122 -0.074774 -0.019437 0.009595 -0.047153 0.094131 -0.198393 0.035662
0.027043 -0.017307 -0.315158 -0.167769 0.135262 0.118211 -0.017275 0.093952 0.118552 0.100683
-0.066156 0.071795 0.224329 0.319700 -0.206190 -0.218073 -0.233940 0.090001 -0.235776 -0.135652
0.013396 0.066031 -0.179900 0.024808 0.015955 -0.066627 0.072795 0.084311 -0.064296 0.095069
0.064947 0.102318 0.024318 -0.067902 0.038822 -0.137935 0.118402 0.113117 0.067103 -0.030312
-0.021747 -0.083086 -0.338375 -0.189542 0.217039 0.071714 -0.085734 0.064570 0.206389 -0.005687
-0.151532 -0.090134 0.437422 0.231044 -0.165323 -0.038374 -0.461037 0.002681 0.104689 -0.091036
0.178009 -0.020583 -0.159445 0.013170 0.217836 0.023825 0.064619 0.013022 -0.132275 0.330154
0.188106 -0.177101 0.105817 -0.047428 0.101347 -0.195490 0.145645 -0.035100 0.129463 -0.005844
-0.112560 0.035333 -0.166177 -0.121117 -0.214857 0.183451 -0.187379 0.208414 0.395514 -0.072806
-0.175762 -0.066234 0.202101 0.267628 -0.203764 0.107218 -0.128251 0.040461 0.100742 0.065320
0.007850 -0.030146 -0.244742 0.049840 0.037932 -0.047914 0.157712 -0.029079 -0.074785 0.045994
0.096556 -0.042947 0.108968 -0.021287 -0.022723 0.077696 0.060624 -0.002253 0.065274 -0.185005
-0.096703 0.369617 -0.096226 -0.090439 -0.172076 0.139208 -0.228005 0.256953 0.069864 -0.037210
-0.070202 -0.097426 0.098254 0.239384 -0.292920 0.323861 -0.025702 -0.012970 0.085981 0.058074
0.021140 0.328442 -0.153374 0.049978 -0.135364 -0.259946 -0.127291 0.098379 -0.043056 0.150704
-0.034731 0.077967 -0.068858 -0.246143 0.096784 0.095307 0.020232 0.166599 0.072408 -0.053161
0.081246 -0.048197 0.032230 -0.099432 0.029574 0.100044 -0.082792 0.064496 -0.122256 0.184641
-0.171970 -0.292500 -0.066968 0.076543 -0.361857 0.422453 0.172843 -0.036798 0.090103 0.070598
0.072143 -0.131229 0.001145 0.044043 0.027409 -0.368677 -0.221708 0.226835 -0.000493 -0.000325
0.000326 0.053887 0.117255 -0.137434 -0.168045 0.064245 0.010575 -0.024195 0.024701 0.074916
0.065655 -0.032985 -0.015313 -0.142617 -0.174963 0.048749 -0.088286 0.103467 -0.135789 0.183291
-0.273501 -0.211621 -0.138745 -0.012792 -0.360477 0.369565 0.309448 -0.201358 0.116291 0.167349
0.008067 -0.055528 0.014208 0.129340 0.032403 -0.259783 -0.278635 0.139719 0.121806 -0.014585
0.019960 0.074655 0.015468 0.041788 0.024380 -0.062551 0.037959 0.022574 -0.131496 0.088279
0.022010 0.065544 -0.079597 -0.087648 -0.032897 -0.215661 -0.108423 0.050009 -0.047292 0.121200
-0.163257 -0.151293 -0.298210 -0.023447 -0.207721 0.365142 0.309711 -0.163405 0.106869 -0.145067
0.052255 -0.154230 0.037150 0.002702 -0.015476 -0.258724 -0.063340 0.143646 0.051320 -0.085904
-0.019518 -0.055275 0.042819 -0.017686 -0.030591 0.028825 0.164622 -0.026045 -0.015708 -0.169477
0.182857 0.000465 0.103978 -0.096624 -0.085263 0.024661 0.052828 -0.117876 0.065236 0.186385
-0.232300 -0.039249 -0.115491 -0.083564 -0.026017 0.383461 -0.136967 -0.055195 -0.055552 -0.162440
-0.018769 -0.090670 -0.048512 0.028909 0.023802 -0.251280 -0.087461 0.116254 0.078260 -0.074212
0.105329 0.065275 0.035932 0.045826 0.064048 0.031504 -0.066857 -0.003068 0.052269 -0.099034
0.122182 -0.071307 0.098671 0.062225 -0.029208 0.251244 -0.066228 -0.082800 0.109733 0.113768
-0.095383 -0.030989 0.093720 0.076636 -0.045713 0.269696 0.091714 0.061487 -0.027804 0.085327
0.176289 0.077034 -0.065293 -0.002540 -0.192200 0.245066 -0.055928 -0.016472 0.196169 -0.103254
0.031768 0.171176 -0.080954 0.086115 -0.103780 0.009450 0.104700 -0.077959 -0.021659 -0.025164
-0.044380 -0.007118 0.033125 0.047408 0.112417 0.121520 -0.089907 -0.110207 0.063315 0.058159
-0.001317 0.018937 -0.097378 -0.100579 -0.018195 0.110790 0.125174 -0.024643 -0.038820 0.004745
-0.174821 0.018476 0.131687 -0.101766 -0.099008 0.115403 -0.032814 0.141829 -0.200312 -0.064232
-0.065801 0.004409 0.033763 -0.058857 0.139205 0.088182 -0.083656 -0.023809 -0.165795 0.029128
0.016052 0.045541 0.120814 -0.031159 0.076603 0.070518 0.158312 0.131907 -0.040801 -0.123493
0.023382 0.131248 0.005578 -0.041933 -0.052347 -0.120577 0.072915 -0.082293 -0.127395 -0.195086
0.014743 0.106173 -0.080794 -0.025896 -0.014542 0.023384 0.033981 0.061855 -0.109820 -0.120823
0.008687 0.053713 0.075639 -0.152331 -0.066379 0.080795 -0.002792 0.039703 0.108635 -0.052524
0.022771 0.065049 -0.140947 0.046292 -0.000694 -0.109376 -0.098150 -0.001323 0.032774 0.047284
-0.147595 0.113584 -0.010001 0.156462 -0.074266 -0.060799 0.069276 0.123310 0.075821 -0.162247
-0.213694 0.004566 0.119476 0.053318 -0.106076 -0.164864 -0.106843 0.219574 -0.079962 0.049537
-0.017115 -0.091926 0.081975 0.111223 -0.077038 0.068945 -0.035045 0.036387 -0.053092 0.034194
-0.042522 -0.071527 -0.108522 -0.128637 0.063180 -0.053458 -0.031006 -0.020043 0.138265 0.034532
-0.081174 -0.075510 0.260859 0.146525 -0.072094 0.031729 -0.039879 -0.035023 -0.007293 -0.227206
0.005373 0.107492 -0.104633 -0.168573 -0.045153 -0.033825 -0.048893 0.205320 -0.162574 0.146920
0.143468 0.073743 0.211819 0.135050 0.121398 0.078092 -0.200795 -0.163460 -0.027983 0.016087
0.012044 -0.051952 -0.163360 -0.174240 0.112950 -0.008793 -0.031225 -0.032075 -0.003381 0.249829
-0.093740 0.026277 0.369210 0.150865 -0.292600 -0.028426 -0.196617 0.177509 0.051252 -0.229718
0.162258 -0.068282 -0.214220 -0.204128 0.062967 -0.028528 0.232341 0.026734 -0.230331 -0.017464
0.107927 -0.166913 -0.103547 -0.104960 -0.139241 0.016885 0.152634 0.118086 0.113165 0.034248
0.062708 -0.052037 -0.259982 -0.112537 0.162302 0.044405 0.080799 0.027443 0.158028 0.192155
-0.155186 -0.034535 0.519050 0.068375 0.004169 -0.145529 -0.407806 0.034938 0.138013 -0.200880
0.129156 -0.043084 0.065105 0.118512 0.066456 0.033973 0.198142 0.004578 -0.087953 0.009142
-0.008535 0.173662 0.088214 0.120500 0.158426 0.144814 -0.020469 -0.035777 0.016078 0.045389
-0.096819 -0.047902 -0.214291 -0.218596 0.019310 0.084133 0.117767 -0.120018 0.310444 0.076636
-0.291241 0.012903 0.387335 -0.017418 0.007891 -0.093330 -0.442599 0.126344 0.069451 -0.020803
0.091552 -0.194835 0.029607 0.125145 0.197247 0.062879 0.157318 -0.017424 -0.287345 0.114249
0.148508 -0.054272 -0.060494 -0.186164 0.041028 -0.026768 0.071381 -0.148530 0.257010 0.105736
0.008340 0.155075 -0.009127 0.072285 -0.054945 0.147999 -0.073991 -0.032865 0.325857 -0.113632
-0.091609 -0.204154 0.105287 0.179127 -0.067976 0.212801 -0.076837 -0.132574 0.162809 0.256606
-0.049081 0.095583 -0.091376 0.208786 -0.043572 0.037722 0.046446 -0.183313 -0.072396 -0.151233
-0.142806 0.093760 -0.098446 -0.096091 -0.018056 -0.063250 -0.130787 -0.176487 0.005009 0.031604
-0.349028 0.100905 -0.222738 -0.002713 -0.275219 0.079761 -0.109545 0.156632 0.002866 0.206533
-0.085960 -0.362989 -0.072726 0.223272 -0.367241 0.351607 0.157206 -0.328055 -0.099178 0.091872
-0.172303 0.180563 -0.090819 0.198620 -0.228423 0.000807 -0.110960 -0.037870 -0.155974 0.115731
-0.100431 0.061437 -0.034488 -0.174077 0.161456 -0.125759 0.012345 -0.041705 0.053994 -0.038923
-0.117485 -0.001958 -0.010584 -0.081465 0.134709 -0.109919 -0.075128 -0.117186 0.047183 0.230133
-0.213210 -0.213593 -0.229883 0.174868 -0.447913 0.193153 0.239700 0.015582 0.084605 -0.222726
-0.045110 -0.001042 -0.166706 -0.043700 0.147851 -0.149898 0.029710 0.301624 0.049402 0.050791
0.007688 -0.067977 0.100987 -0.207575 -0.062639 0.118928 -0.073680 0.134191 0.074318 -0.057814
-0.057669 0.005702 -0.071007 0.078078 -0.091357 -0.088415 -0.020088 -0.114083 -0.036348 0.248778
-0.222132 -0.101877 -0.202786 0.300480 -0.008772 0.304428 0.224178 0.017009 0.096839 -0.223238
-0.029130 0.114845 -0.024213 -0.074740 -0.057256 -0.130304 -0.112794 -0.076534 0.082616 0.031842
0.015102 -0.019595 -0.108862 -0.004985 -0.018907 -0.088323 0.089941 -0.094301 0.049783 0.108886
0.003458 -0.023279 -0.136498 -0.100828 -0.049876 -0.106813 -0.016486 -0.047712 0.017989 0.262982
0.050384 -0.095841 -0.166371 0.223378 -0.117398 0.148976 0.000279 -0.062013 0.111468 -0.381665
0.059206 -0.089521 0.153111 -0.203585 0.117366 -0.198094 -0.082684 -0.075004 0.050174 0.071676
0.049434 0.144036 0.045103 0.067214 0.179255 -0.004091 -0.005593 0.120436 -0.125671 -0.154170
0.147924 0.100372 -0.030619 -0.080670 0.095930 -0.257269 0.142671 0.009172 0.031847 0.130401
-0.072239 0.049173 0.080171 0.076104 0.026943 0.217771 0.120273 0.015273 0.048880 0.072845
0.088213 -0.086139 -0.088671 -0.216846 -0.067651 -0.162765 0.044148 0.079757 -0.018051 0.132330
-0.019895 0.072161 -0.056157 -0.122794 -0.022817 -0.182695 -0.037419 0.039746 -0.046776 0.103664
-0.022959 -0.003700 0.151399 -0.176651 -0.010315 -0.040243 0.024554 -0.037221 -0.038441 -0.238903
-0.138733 0.033936 0.013647 -0.135370 0.108061 0.370705 -0.259801 -0.032681 0.080739 -0.028705
0.193146 -0.110120 0.131770 -0.071373 -0.134888 -0.150207 0.177449 -0.003564 0.029693 -0.078736
-0.069748 0.068854 0.026554 -0.141691 -0.081189 0.093285 0.024423 0.061380 -0.069412 0.051886
0.140054 0.001889 0.067158 -0.005610 -0.074440 0.044347 -0.000602 0.145465 -0.145196 -0.165465
0.148626 -0.006161 -0.068484 0.059271 0.123057 -0.112587 0.030051 0.021244 0.045974 0.157879
-0.021305 0.048589 0.157035 0.011857 -0.161365 0.104553 -0.198538 0.176464 -0.003703 -0.028526
0.094677 -0.028066 -0.047571 0.052448 -0.109741 -0.096038 0.161276 0.110101 -0.079737 0.182018
-0.040399 0.007203 0.115983 -0.031381 -0.025942 -0.048981 0.100095 -0.068465 0.041143 -0.122504
0.060634 0.062335 -0.038247 -0.101492 -0.190424 0.158487 -0.060080 0.210964 -0.155689 0.053716
0.041361 0.134434 0.069322 -0.036094 -0.067002 0.024795 -0.022076 0.090794 -0.210941 0.099492
-0.008582 -0.060417 0.006393 0.063991 -0.038038 0.034177 0.036898 0.007148 0.024013 -0.078693
-0.027092 0.037682 0.048013 -0.022473 0.132598 0.056785 -0.031105 0.093544 0.059907 0.004105
-0.050557 -0.070218 -0.038189 0.078409 -0.037731 0.047931 0.023497 0.081601 -0.071349 -0.161675
0.055907 -0.005022 0.053345 -0.029867 0.058292 0.016649 -0.009556 0.059744 0.090735 -0.002156
-0.010223 0.154662 -0.124812 0.040506 0.003769 0.188888 -0.016175 0.017148 0.010607 0.073039
0.052968 0.136662 -0.166625 0.090212 0.039060 -0.015895 0.036935 0.008201 -0.076860 0.126764
-0.099176 -0.011936 -0.087886 0.028421 0.019149 0.134117 -0.156131 0.044945 0.027839 0.002510
0.142560 0.032213 0.132304 -0.068637 0.004394 -0.020195 0.179282 0.129262 0.022287 0.051576
0.057923 0.122609 -0.109186 0.005864 0.113820 -0.103677 0.120939 0.080281 0.062674 -0.003081
0.058779 -0.089271 -0.080180 -0.053886 0.076401 -0.050581 0.225096 -0.036924 0.072127 0.179926
-0.207539 -0.095251 0.004623 0.167956 -0.024255 0.305169 -0.260136 -0.012447 -0.016081 -0.204234
0.172228 0.006589 0.132702 -0.247646 0.107754 -0.313328 0.054430 -0.039468 -0.024821 -0.079628
0.015899 0.014067 -0.050201 -0.106672 0.169657 0.020613 -0.138027 0.023587 -0.058179 -0.068358
0.019954 -0.024221 0.051354 -0.078134 0.011038 -0.120551 0.036817 -0.181353 0.101811 0.160894
-0.329934 0.106138 0.106343 0.051600 -0.020864 0.103023 -0.529784 0.093778 0.107078 -0.018305
0.168541 0.017688 0.061096 -0.058822 0.061445 -0.185088 0.149021 0.180640 0.172809 -0.261973
0.028546 0.047801 -0.096606 0.080032 0.024608 -0.135616 -0.042117 -0.136805 -0.078822 0.083299
0.173838 -0.066448 0.026654 -0.191106 0.111827 -0.019396 0.069471 -0.195521 0.106658 0.097938
-0.256697 -0.147474 -0.029832 -0.006880 0.180461 0.112191 -0.405909 0.007463 0.094461 0.123581
0.141517 -0.034286 0.108179 -0.103812 -0.029380 -0.109576 0.122526 0.056505 -0.183703 -0.305661
-0.139685 -0.039525 0.008985 0.013175 -0.042655 0.035997 0.117822 0.158949 0.048098 0.040512
0.027660 -0.067152 0.048107 -0.029754 -0.104164 0.000194 0.056600 -0.388609 0.108174 -0.071118
-0.095016 -0.492031 0.054599 0.124305 0.263114 0.216331 -0.078486 -0.360051 0.077360 0.415060
0.022737 0.065762 0.198601 0.069700 -0.054071 0.009012 -0.019261 -0.222064 0.094539 -0.018288
0.077801 0.149369 0.073205 0.028903 -0.000750 -0.068581 -0.081608 -0.081405 -0.006078 -0.040940
-0.184355 0.213747 -0.021916 0.050207 -0.120604 0.090563 0.125883 -0.019680 0.157233 0.186244
-0.337963 -0.260915 -0.037717 0.263911 0.051703 0.136709 0.132318 -0.426378 -0.008067 -0.017897
-0.413775 0.169089 0.143156 0.056483 -0.125198 -0.049074 0.088315 -0.092793 0.136465 0.122181
0.005356 0.045987 0.113938 -0.061431 0.239561 -0.138096 -0.091594 -0.028777 0.117532 -0.173976
-0.019427 -0.055795 -0.137684 0.106424 0.072308 -0.030676 -0.009768 0.024223 -0.082318 0.261787
-0.243656 -0.322008 -0.259662 0.224584 0.003854 0.007031 0.115226 0.075556 0.110225 -0.335926
0.044210 0.067979 0.092574 -0.050975 0.132647 -0.076718 0.102813 -0.063219 -0.042736 0.141326
0.173443 0.017447 0.029601 -0.026537 -0.041067 0.054135 0.026332 -0.106361 0.147150 -0.099880
0.013455 -0.085684 -0.027798 0.112159 0.008616 0.151149 0.148936 0.034210 0.051448 -0.017798
-0.027709 -0.067776 -0.195739 0.186851 0.214675 -0.027636 0.025221 0.202525 0.277327 -0.452732
-0.092278 -0.200847 0.036293 0.027319 0.033270 -0.167465 -0.179217 0.233135 -0.276436 0.161853
0.143449 0.113929 -0.105258 -0.082048 0.033304 0.072445 -0.044983 -0.116300 0.078266 0.012610
0.067555 -0.182641 -0.077456 -0.016250 -0.017250 0.144076 0.020757 0.032442 -0.199444 0.020729
-0.027388 -0.006006 -0.062626 0.080550 0.005624 -0.061800 0.124368 -0.043245 0.202827 -0.330395
-0.079185 -0.076278 -0.071506 -0.089728 0.101775 -0.005072 0.062936 0.124725 -0.208911 0.147883
-0.023717 0.037412 -0.118271 0.025035 0.143770 0.121189 -0.105744 0.004023 0.129509 -0.030495
0.091152 -0.108461 -0.058995 -0.113069 0.079786 -0.087303 0.177534 0.008568 0.048962 -0.028715
0.038119 -0.055608 0.237583 -0.156687 0.028454 0.076082 -0.106316 -0.075032 0.071297 -0.178256
0.066767 -0.200588 0.081302 -0.063487 0.064269 -0.106151 0.068559 0.047856 -0.093589 0.144826
0.006859 -0.059968 0.110189 -0.105233 0.119205 -0.028110 0.106682 -0.026027 -0.027373 -0.125621
0.023756 -0.183180 0.246960 -0.068283 -0.257276 0.014881 0.124545 0.015883 0.035858 -0.112452
-0.087138 0.110925 0.158273 -0.038771 0.025400 -0.076420 0.029808 -0.025760 -0.087569 -0.024158
0.130306 0.021868 -0.013511 0.001329 -0.088838 -0.069049 0.106915 -0.093787 -0.078229 -0.136059
0.030846 -0.141275 -0.078482 -0.044158 -0.095936 -0.169674 -0.161477 -0.003158 0.047437 -0.073880
0.166910 0.009050 0.109583 -0.065044 -0.040160 -0.005211 0.007175 -0.071504 -0.022983 -0.063608
0.166407 0.011253 0.177129 -0.084086 -0.079318 -0.044772 0.107509 -0.184802 0.079659 -0.031486
-0.087905 0.024822 0.059903 -0.122053 0.057544 0.058121 -0.129303 -0.042207 -0.150045 0.020901
-0.078244 0.124315 0.062925 -0.028601 -0.027851 0.139047 -0.052537 0.054288 0.009671 -0.129305
0.086347 -0.159240 -0.031884 0.024192 -0.022541 -0.115311 0.034808 0.031655 -0.008133 0.023608
-0.061262 -0.010545 -0.034944 -0.023337 -0.005171 -0.051431 0.128776 0.068182 -0.006213 -0.016384
-0.090283 0.072770 0.114183 0.021051 -0.083647 0.074947 -0.043453 0.030363 -0.108153 0.000222
-0.103477 0.020913 0.003408 -0.008289 -0.086113 0.026996 -0.112304 -0.180356 0.088415 -0.028163
-0.043303 0.112259 0.123737 0.234699 -0.143473 -0.057951 -0.206618 -0.090858 -0.061122 0.036480
-0.122584 -0.020480 -0.046725 0.011174 0.064605 -0.035814 -0.108896 -0.166863 0.085393 0.098143
0.073514 -0.001877 0.023614 0.163335 0.104704 0.040674 0.034341 0.016247 0.050594 -0.032794
0.176802 0.105013 -0.108558 0.074059 0.101625 0.029982 -0.006281 0.093262 -0.094058 -0.154771
0.168292 -0.102945 0.040263 -0.021333 -0.015453 -0.110789 0.109928 -0.017177 0.127012 0.037276
-0.118152 -0.061513 -0.204379 -0.060993 0.051280 0.284414 -0.183283 -0.059002 0.007237 -0.078086
-0.053862 -0.081838 0.106668 0.194559 -0.028824 0.066299 0.061859 0.053638 -0.164678 -0.125743
-0.049858 -0.061557 -0.104831 -0.101415 0.022896 0.112639 -0.094586 0.001353 0.030290 0.156396
0.209973 -0.140764 -0.092182 0.025687 0.089226 -0.102072 0.119500 -0.217281 -0.082499 0.108449
-0.051686 0.002337 0.002291 0.172901 -0.054374 0.290523 -0.260735 -0.131976 -0.065355 -0.026184
0.050219 -0.029118 0.193203 -0.243891 0.079895 -0.126063 0.122430 0.120676 0.080217 -0.119677
0.083188 0.113949 0.125673 0.078125 -0.027622 0.101102 0.038863 -0.003689 -0.087967 -0.172263
-0.020452 0.057824 0.070351 -0.030937 0.010660 0.137269 0.097258 -0.250963 -0.033214 0.049925
-0.305923 0.036730 -0.065277 0.231569 0.066049 0.400277 -0.447118 0.027805 -0.121567 0.171201
0.017536 -0.013204 0.030737 -0.335448 -0.003377 -0.305785 -0.072777 0.139421 0.115007 -0.138745
0.106136 -0.157949 0.049951 0.036772 0.151474 -0.047480 -0.107993 0.019402 -0.146866 0.002610
-0.014885 -0.212299 -0.009292 -0.117918 0.100552 -0.085193 0.129618 -0.156270 0.087589 0.063535
-0.061811 -0.152879 -0.101686 0.237210 0.134124 0.377592 -0.218231 -0.076842 -0.061072 0.302124
-0.035915 -0.055447 0.168836 -0.231365 -0.027155 -0.145641 0.129185 0.134047 0.272015 -0.078450
-0.057221 0.110148 -0.166353 0.164006 -0.043596 0.102378 0.103046 0.118143 0.041504 0.133568
-0.107014 0.194618 0.025031 -0.063552 0.063836 -0.035276 0.007362 -0.132155 0.090908 0.008975
-0.152832 -0.196533 0.033343 0.415102 0.124774 0.172683 -0.092160 -0.141200 -0.169281 0.361044
-0.063584 -0.155591 0.060430 -0.134915 -0.069623 -0.055926 0.222174 -0.070558 0.297460 -0.168056
0.052264 0.052370 0.012453 0.077209 0.100016 0.014010 -0.022294 0.037301 -0.117410 0.046628
-0.265946 0.045331 -0.077200 0.062738 0.249260 -0.058844 0.157960 -0.081186 0.099986 -0.046209
-0.226111 -0.126315 -0.001757 0.382496 0.059281 0.038263 -0.043264 -0.224724 0.050681 -0.028112
-0.254597 0.215826 0.166083 -0.063690 0.175077 -0.058510 -0.061200 0.142907 -0.062912 -0.174443
0.187057 0.113605 0.016191 0.078909 0.103643 0.038878 -0.101990 -0.219457 0.094864 -0.035985
-0.058640 -0.257596 -0.037656 -0.026935 0.172523 0.094586 0.080126 0.141367 0.241734 -0.019551
-0.096142 -0.082808 -0.035556 0.236054 -0.000634 0.022133 0.213788 -0.049014 0.241953 -0.132064
-0.069349 -0.021677 -0.026468 -0.038201 0.229577 0.014707 0.037987 0.053826 -0.054032 0.098601
-0.168767 -0.110504 -0.040129 -0.149102 -0.070033 -0.061434 0.008253 0.139559 0.188759 -0.153539
0.018696 -0.150027 -0.083537 0.081212 0.014126 0.027892 -0.000469 0.209098 0.079431 -0.181771
-0.068149 -0.145254 0.012884 0.050854 0.120776 -0.176317 0.088846 0.160292 0.383162 -0.362522
0.182799 -0.256029 -0.085009 -0.038448 0.045738 0.105565 0.049456 0.183307 -0.118991 -0.080870
-0.130836 -0.051513 -0.057258 -0.015506 -0.062945 -0.185287 -0.156911 0.117790 -0.066683 -0.127347
-0.084165 0.020656 -0.065899 0.063339 0.060493 -0.018029 -0.106216 0.171667 0.062445 -0.130168
-0.136881 0.013595 0.291791 -0.130407 0.044763 -0.163969 0.023857 -0.053904 0.178831 -0.242069
0.162665 0.067950 -0.023825 0.049861 0.014281 0.040195 0.153272 -0.026774 -0.118406 0.150536
0.149294 0.018357 -0.032636 0.021804 0.082446 0.049185 -0.121877 0.005725 0.116327 -0.019930
0.007628 -0.078032 -0.130450 0.113169 -0.006736 0.043395 0.034043 -0.031928 0.001987 -0.137167
-0.137198 0.016665 0.320604 -0.158082 -0.032540 -0.035996 -0.041010 -0.099041 0.020697 -0.179324
0.214239 -0.148257 -0.111014 0.164904 -0.132573 0.073944 -0.102697 0.097402 -0.207487 -0.197853
-0.015664 -0.052467 0.016023 -0.002942 0.020738 -0.085079 0.006713 -0.038950 -0.001106 -0.092184
0.045543 0.076696 0.054824 -0.004884 -0.067848 0.120350 0.042742 -0.056449 0.075481 0.068148
0.115875 -0.044507 0.191891 -0.128521 0.083964 -0.113052 -0.130700 -0.132530 0.044117 -0.174038
0.202614 -0.111950 0.018243 0.107540 -0.073062 0.172567 0.053093 -0.107376 -0.134802 -0.074596
-0.143172 -0.040511 0.057075 -0.047425 -0.101820 -0.157412 -0.022683 0.074351 -0.019976 0.047194
0.001384 -0.073194 0.125218 -0.014471 0.071623 -0.019317 -0.029233 -0.083715 -0.152543 -0.042152
0.155260 0.041116 0.063394 -0.112269 0.098076 0.047963 -0.089428 0.097278 -0.060440 0.051593
-0.082418 -0.044116 0.244544 0.010591 0.046005 0.148099 0.160968 0.029744 -0.091017 -0.026710
-0.052544 -0.027756 0.161985 -0.173758 -0.087536 0.059511 0.010282 0.154636 0.075734 0.160623
-0.037132 0.022506 0.059657 -0.072546 0.144530 -0.095422 -0.106059 0.077243 -0.156989 0.016083
0.117495 -0.089634 -0.032564 -0.086171 0.011992 -0.131743 0.062609 -0.089733 0.084185 -0.100725
-0.088414 -0.039836 0.037830 0.000197 -0.026708 -0.074872 0.187642 0.017603 -0.050651 -0.060399
-0.020414 -0.169394 0.057469 0.112463 0.084894 -0.027028 -0.082201 -0.045866 -0.020248 0.118436
0.126361 -0.010363 0.112290 0.198301 -0.168460 0.072386 0.050869 0.045143 0.080412 0.035465
-0.026743 -0.145435 0.033547 0.009856 0.118414 -0.103689 -0.144772 0.168749 -0.076069 -0.147085
0.013645 -0.111753 0.089974 -0.110966 0.055975 0.140225 0.017080 -0.054053 -0.061876 -0.221782
0.070943 -0.040441 0.004147 0.080460 0.069484 0.045975 0.139780 -0.128474 -0.103518 0.030814
0.106691 -0.295307 0.061503 0.084384 -0.146591 0.017280 -0.030130 -0.152306 0.049416 -0.138276
-0.028220 -0.142533 -0.045060 -0.093075 0.030795 0.342542 -0.067507 -0.045343 -0.202168 -0.133999
0.077338 -0.049349 0.097434 0.226055 -0.052745 0.119955 -0.028405 0.004641 0.067478 0.007423
0.018148 -0.138021 0.035852 0.165431 0.181751 0.017656 0.055533 -0.051218 -0.152575 0.030789
-0.042126 -0.170886 0.129964 0.011124 0.000534 0.103899 -0.130308 -0.262771 -0.068913 -0.069499
-0.160175 -0.038639 -0.041943 0.099358 0.012497 0.316809 -0.164995 0.073064 -0.232166 0.073827
-0.171496 -0.060033 0.220996 -0.133727 -0.072399 -0.009631 -0.034307 0.006136 -0.002649 -0.014978
-0.040451 -0.013235 -0.032721 0.111269 -0.020116 -0.007165 0.063617 0.047929 -0.159269 -0.006486
0.046961 0.083917 -0.045171 0.084963 -0.172518 -0.009443 -0.036373 -0.023491 0.012206 0.043375
-0.100848 -0.136825 -0.224957 0.158531 0.155821 0.344539 -0.056995 -0.044265 -0.164881 0.238974
0.167417 -0.062013 0.032596 -0.260896 0.004891 -0.245182 -0.045045 0.006210 0.156896 -0.102691
0.034910 0.117647 0.019647 -0.060332 -0.025180 0.131822 0.144883 0.158278 -0.159878 -0.119956
0.014418 -0.154057 0.021417 0.076787 -0.038273 0.040218 0.024985 -0.197279 -0.192284 -0.033448
0.026420 -0.158574 -0.025238 0.372666 -0.100334 0.296905 -0.065204 -0.114245 -0.196233 0.337303
0.173657 -0.173144 0.247011 -0.255698 0.032533 -0.139333 0.121018 -0.043794 0.104195 -0.134626
-0.111406 -0.136487 -0.110219 0.023573 -0.004297 -0.187603 0.102565 0.128585 0.140403 -0.010940
-0.196130 0.206852 0.079058 0.143877 0.032634 -0.041198 0.012007 -0.055311 0.061401 0.091584
-0.146942 -0.226859 0.085232 0.318040 -0.087408 0.042411 -0.129157 -0.258271 -0.037541 0.310929
0.062892 0.033968 0.121947 0.000920 0.021107 -0.000408 -0.002299 0.116585 -0.021247 -0.233851
0.046391 0.033134 -0.029533 0.036675 -0.002611 0.021737 0.072732 -0.122623 -0.034993 0.031476
-0.091457 -0.122856 -0.048030 0.165927 0.304908 -0.072702 0.020088 0.064651 0.175037 0.035625
-0.005908 -0.182893 0.094382 0.182445 -0.222363 0.106488 0.054661 -0.139607 -0.004301 0.064633
-0.121188 0.130368 -0.006687 -0.043030 0.068350 -0.035302 -0.083510 0.153612 -0.107056 -0.120643
-0.066476 -0.016152 -0.046706 -0.091853 0.048267 -0.050896 0.130510 0.077972 0.045082 -0.133010
0.075433 -0.090976 -0.105791 0.121298 -0.112339 0.033864 0.054327 -0.104453 0.265306 -0.063649
0.133512 -0.237916 0.149451 0.181767 0.047827 -0.118193 0.188982 -0.196399 0.155839 -0.121874
0.066551 -0.105514 0.006841 0.068209 -0.131424 0.073374 0.068676 -0.030962 -0.101408 -0.161949
-0.086847 0.025352 0.029913 -0.023612 -0.071655 -0.042774 -0.030457 0.007770 -0.008235 0.049675
-0.099460 0.043596 -0.128392 0.199051 -0.099361 0.082789 -0.095994 0.083371 0.182950 -0.172179
0.018046 0.069244 0.340545 -0.135423 0.104620 -0.037287 0.288950 0.206285 0.010634 -0.201128
-0.114823 0.105532 -0.043270 0.018065 0.093202 -0.034156 0.015094 -0.011126 -0.124398 -0.122335
0.040423 -0.041215 -0.126773 -0.206471 0.130616 0.084471 0.084762 -0.078852 -0.019131 0.012937
-0.157205 0.012371 -0.057178 -0.037880 0.016917 0.004460 -0.031701 -0.087302 -0.000307 -0.021653
-0.082845 0.074516 0.417290 -0.097015 0.207390 -0.066042 -0.083082 -0.012462 -0.120074 -0.222365
0.091663 0.018014 -0.096491 0.055570 -0.039672 0.074913 -0.071001 -0.025369 0.115953 0.097125
0.038425 0.026688 -0.088272 0.019401 0.038118 0.023668 -0.069232 -0.030204 -0.038655 -0.002230
0.044832 0.120818 -0.030696 -0.058799 -0.009437 0.038257 0.146088 -0.158117 0.057331 -0.041617
-0.117046 0.069842 0.348600 -0.136694 -0.011980 -0.106023 -0.057235 0.034700 -0.184464 -0.016372
0.083540 0.156081 -0.054127 0.095093 -0.013706 0.146040 0.184650 -0.068262 0.124960 -0.162671
0.054536 0.080878 0.163212 0.033329 -0.100036 -0.031197 0.038996 0.102388 -0.001079 -0.088784
-0.132603 0.034595 0.092562 -0.078243 -0.082740 -0.017813 -0.107916 0.053585 0.065902 -0.074154
0.048330 -0.029407 0.305825 -0.097318 -0.016447 -0.039419 -0.022099 -0.144465 0.096582 -0.101114
-0.003770 0.108906 -0.014571 0.083794 -0.137252 0.067637 -0.045055 -0.069337 0.043108 0.028853
0.030439 0.040345 0.023931 0.124667 0.027688 -0.085353 -0.043447 0.067622 0.054267 -0.018310
0.049188 0.059289 0.169300 -0.084100 -0.112444 0.160002 -0.066892 0.134212 -0.161689 -0.090781
0.132727 0.082389 -0.020223 0.070579 0.102217 -0.049693 -0.167062 -0.054601 -0.002682 -0.151096
-0.001143 -0.047008 0.078705 -0.071940 -0.206005 0.053410 0.031514 0.012580 0.004009 -0.142843
0.058979 0.013713 0.063114 -0.096355 0.119701 0.143958 0.020520 0.047313 0.058686 0.031431
0.129136 0.073960 -0.063750 0.044252 0.004925 -0.078027 -0.011537 -0.054291 -0.090567 0.037793
0.166037 -0.092790 0.054396 0.119292 -0.122926 0.053178 -0.015906 -0.055086 -0.078999 -0.059724
0.185782 0.039361 -0.153443 0.006032 0.091241 -0.188883 -0.035012 0.110744 0.075106 0.125298
-0.014147 0.089814 -0.101388 -0.091635 0.157775 -0.018713 0.005177 0.138453 -0.166912 -0.098196
0.028903 -0.016395 0.149282 0.149309 -0.058265 0.016568 -0.011809 -0.101970 -0.185993 -0.094842
0.040778 0.030037 0.126173 -0.008214 0.030742 -0.033295 -0.019137 0.171961 -0.179363 0.018624
0.005366 0.026037 -0.003083 -0.018045 -0.029087 0.135341 0.060822 -0.042320 0.135252 -0.020403
-0.094219 0.004629 -0.060826 0.026321 0.113216 0.137370 0.069204 0.133058 -0.037582 -0.034712
0.164672 0.049249 0.112450 0.102198 0.092400 0.005940 0.006016 -0.228724 0.111815 0.031045
-0.172429 0.093048 -0.112442 0.039319 0.081451 0.266292 -0.091333 -0.090560 -0.075091 0.130514
0.065407 0.072866 -0.017879 0.111245 0.006508 0.067069 -0.029815 -0.073042 0.059290 -0.064496
0.079160 0.008382 -0.185936 -0.202567 0.021557 -0.059260 0.030116 0.050206 -0.099523 -0.064570
0.106215 0.141030 0.079285 0.065848 0.047501 0.154515 0.038521 -0.140686 0.141844 0.052994
0.034094 -0.007330 -0.043084 0.231243 -0.037231 0.114909 0.024990 0.034939 -0.247937 -0.001479
-0.118690 -0.004590 -0.081810 -0.004211 -0.110306 0.099555 0.030585 -0.046734 -0.057525 -0.248870
-0.049420 0.153920 0.053072 0.031904 0.053839 -0.012859 0.021581 -0.112082 -0.179805 -0.026036
-0.060911 0.000925 0.084247 0.058785 -0.025017 -0.015512 0.033947 -0.092183 0.038502 -0.027137
-0.056689 0.051247 -0.149203 0.284490 0.030164 0.223198 0.035550 -0.009884 -0.146560 0.175951
-0.092712 0.073713 0.075946 0.030422 -0.087768 0.189757 -0.123127 -0.117483 0.011308 -0.064064
-0.055972 0.063269 0.066195 -0.023113 -0.097405 -0.058153 0.067949 -0.046568 -0.098335 -0.015874
0.305641 -0.011409 0.129843 0.009375 -0.199428 -0.054888 0.201766 -0.180991 0.087674 -0.011441
0.060521 -0.057127 -0.019440 0.016569 -0.000365 0.121364 -0.003352 -0.325696 -0.118212 0.237899
-0.068072 0.149866 0.000337 -0.189091 -0.035214 0.104411 0.087826 0.002210 -0.214718 -0.079493
0.053591 0.123497 0.007465 0.086739 0.063190 0.022628 0.109764 0.039491 0.162750 -0.184333
0.026415 -0.095871 0.003789 -0.005591 -0.059184 -0.018158 0.357923 -0.016697 0.099067 -0.012724
0.255902 -0.202093 0.026167 0.160644 -0.286643 -0.018911 0.170516 -0.211915 0.121912 0.198750
0.002726 -0.041405 0.067075 -0.140521 -0.012659 0.079010 0.100655 -0.027192 -0.071067 -0.032989
0.118885 0.055955 0.044373 0.004883 -0.123635 0.043587 0.152918 -0.052701 0.146940 -0.122565
0.062187 -0.039537 -0.048435 0.201489 -0.115251 0.086575 0.081344 -0.046244 0.162815 -0.019877
0.078795 -0.036949 0.138154 0.142227 -0.121932 -0.067280 0.213528 -0.278441 0.064819 -0.219312
-0.177427 -0.181125 0.188017 0.053977 0.071801 0.074897 0.074740 0.125897 -0.153294 -0.091634
-0.007862 0.056208 0.026663 -0.032891 0.061550 0.051514 0.041966 0.026194 0.198573 0.121349
-0.054878 0.122796 0.098018 0.076812 -0.071325 0.204826 0.138129 -0.098278 0.136314 -0.021238
0.026419 0.091171 0.162011 0.024408 -0.093740 -0.033621 0.055486 -0.204847 -0.047452 -0.257772
0.012154 0.058428 0.110863 0.107463 0.009844 -0.042456 0.141277 -0.093548 0.041010 -0.153641
-0.061726 0.034829 -0.157736 -0.087394 0.029501 -0.044107 0.042631 0.000141 0.166471 0.014070
-0.123924 0.265212 0.037273 -0.059321 0.112405 0.007090 -0.004019 -0.042918 0.012008 0.089332
-0.052722 0.170974 0.359113 -0.187314 0.097945 -0.173444 0.237866 -0.065142 -0.095415 -0.191551
-0.189045 0.048342 0.049954 0.009945 -0.185576 0.025771 0.008957 -0.018742 -0.108503 -0.090307
0.043495 0.074919 0.096058 -0.167603 0.051937 0.142569 0.068441 -0.017804 0.058093 0.012578
0.029011 0.046007 -0.064877 0.078948 -0.053030 -0.097189 -0.054487 -0.008751 0.003191 -0.099729
-0.004246 0.010074 0.383931 -0.134443 0.114490 -0.048452 -0.057708 0.122996 -0.168222 0.116722
0.027566 -0.022428 0.089533 0.136255 -0.076983 0.196308 -0.050169 -0.150124 0.004535 -0.097862
0.085913 0.060974 0.079930 -0.053070 0.045654 0.020443 -0.074622 0.018958 0.063411 0.086525
-0.000860 0.096370 0.026797 0.140617 -0.049328 0.109603 0.151791 -0.244263 0.054258 0.066778
-0.071164 -0.044579 0.367560 -0.168464 -0.102344 -0.116906 0.077730 -0.059894 -0.012022 -0.067872
0.149405 0.104442 -0.016403 0.024607 0.038864 0.243232 -0.107377 -0.156121 0.108711 -0.037400
-0.123086 0.152783 0.021863 -0.022435 0.060354 0.084650 0.062912 -0.046852 -0.162631 0.051256
-0.072580 0.020927 0.085281 -0.135005 -0.118788 0.121332 -0.030255 -0.024836 -0.041408 -0.012440
-0.010897 0.131668 0.011272 -0.118887 -0.003728 -0.077639 -0.093988 -0.075955 0.027872 0.063639
-0.021249 0.193605 0.097142 0.014909 -0.082476 0.037921 -0.154595 -0.074216 -0.114628 -0.103484
-0.080381 0.004108 -0.060264 -0.150402 0.131411 -0.069122 0.004775 0.166717 0.019435 -0.007695
-0.037497 -0.026153 -0.026532 0.021248 0.093951 0.030818 -0.098680 0.049531 -0.043140 -0.172169
0.196291 -0.088581 -0.031677 0.127365 -0.005876 -0.044577 -0.107701 -0.048949 0.130123 0.021656
0.123191 -0.016769 -0.115592 0.029639 0.034795 0.183133 -0.127519 -0.037996 -0.082770 0.002797
0.083854 0.011224 0.002453 -0.033148 0.027590 0.089507 -0.143749 0.069499 -0.024780 -0.037573
-0.061152 -0.073317 -0.051507 0.065498 -0.133452 -0.093815 -0.103079 0.123441 -0.041218 -0.083636
-0.184838 0.044137 0.084175 -0.199322 0.069111 0.035676 0.147270 0.101110 -0.063818 0.063448
-0.017408 0.048479 -0.071012 -0.004177 -0.087644 0.014361 0.099452 0.068397 0.001574 -0.008720
0.089814 -0.027719 -0.077603 -0.164743 0.105918 0.140010 -0.104882 0.111954 -0.098418 -0.081781
0.094588 -0.012670 0.031112 0.010290 0.068912 -0.056327 -0.060732 -0.063999 -0.143081 -0.144297
0.043676 -0.039381 0.183385 0.119077 0.085647 0.083621 -0.122530 -0.110187 0.055372 -0.164860
-0.110322 0.076740 -0.006296 0.057891 0.161389 0.035597 -0.110281 -0.110577 -0.082287 0.059002
-0.037391 0.138366 0.126216 -0.094164 -0.037256 0.017222 -0.069001 0.139748 -0.008554 0.068334
-0.058512 0.285909 -0.025224 -0.184485 -0.244872 0.008930 -0.147747 -0.060453 -0.114057 -0.125573
0.039143 0.151656 0.037087 -0.023221 -0.095585 -0.005628 -0.243827 0.103873 -0.010095 0.082058
-0.130949 0.215097 0.048749 -0.075542 -0.040533 -0.094490 -0.177587 0.044864 -0.036616 -0.058511
0.055601 0.001546 -0.139056 -0.130408 -0.128825 0.066084 0.140970 -0.084577 0.076246 -0.067115
-0.028184 -0.030727 0.018416 0.142394 -0.217638 -0.032865 -0.049830 0.120716 0.186088 0.026915
0.103347 0.109031 -0.017762 0.191604 0.001925 0.104359 0.063422 -0.108304 -0.020935 0.094991
0.150453 -0.002926 0.041042 -0.093319 -0.031547 -0.255122 -0.110219 0.016869 -0.125739 -0.019687
0.075273 0.156523 -0.058823 0.118495 0.022000 0.016543 -0.037680 -0.099343 -0.041695 -0.005369
0.014611 0.011828 0.091762 0.023719 -0.113038 0.075660 0.164691 -0.030220 0.132833 0.059130
0.010881 -0.012806 -0.024266 0.154703 -0.096258 0.028553 0.101506 -0.142032 0.099600 0.092301
0.037298 0.125262 -0.017981 -0.130358 -0.055058 0.008763 0.007565 -0.030705 -0.342370 -0.053744
0.146333 -0.018546 -0.034005 -0.057529 0.093982 0.002659 0.051833 0.023609 0.012004 -0.078691
0.203971 -0.123314 0.006558 -0.040587 -0.080174 -0.014347 0.116662 0.098526 0.109898 -0.067765
0.097576 -0.134389 0.058109 0.184578 -0.093563 0.199650 0.116004 -0.249456 0.150347 -0.063345
-0.013200 0.155071 -0.030920 0.047045 -0.044842 0.034929 -0.104462 -0.053529 -0.250831 0.108545
0.103285 -0.052363 0.098058 -0.106377 0.072449 0.087500 0.015542 0.051429 0.023583 0.054958
0.097837 -0.027306 -0.013060 0.018334 -0.145442 -0.072339 0.021780 -0.100876 0.252015 0.035944
0.148823 -0.053185 0.043356 0.174013 -0.218189 0.030427 0.152155 -0.247239 0.233278 -0.187857
0.172521 -0.134936 -0.008279 0.037776 -0.002752 0.223501 0.142593 -0.049200 -0.067170 0.123397
-0.135225 0.036534 -0.037433 -0.040160 0.115612 -0.140566 0.143198 -0.137834 -0.057238 -0.095557
0.050902 0.048141 0.034767 0.017189 0.076987 0.068788 0.012411 -0.035660 -0.021547 0.148598
-0.033553 0.056644 0.007227 0.006483 -0.242970 0.093112 0.085684 -0.273831 0.211405 -0.133624
0.111846 0.071001 -0.056560 -0.092261 -0.157854 -0.058893 0.061723 -0.197583 0.025707 -0.050969
0.026231 0.028083 0.022480 -0.063086 0.077752 -0.064749 -0.013438 -0.027199 -0.123821 -0.033133
-0.177922 -0.008326 0.102170 -0.140641 0.012967 0.086943 0.041461 0.026725 -0.165520 -0.041814
-0.014281 -0.071343 -0.050515 -0.014223 -0.016750 -0.018017 -0.007854 -0.267945 -0.042435 -0.083595
0.118130 0.132620 -0.000026 0.076072 0.047618 -0.063371 0.026031 0.087108 -0.112445 -0.046162
0.044992 0.169329 -0.047558 -0.020984 -0.002826 -0.076759 -0.036315 0.042529 -0.161513 -0.172336
-0.137944 0.094237 0.158277 0.031979 0.096018 -0.100493 -0.058952 -0.104330 -0.082082 -0.074721
0.060277 0.064707 0.154200 -0.145721 0.040188 -0.046645 0.213445 -0.118120 -0.004893 -0.133935
-0.025927 0.073771 0.166233 0.005439 -0.090290 0.051010 -0.021119 -0.100474 0.021501 -0.096980
0.083900 0.052980 0.125889 -0.117056 -0.048209 0.021799 0.036756 0.034069 -0.159588 -0.181154
-0.094909 0.082866 0.152423 -0.027232 -0.048692 -0.059856 0.052875 -0.060884 0.063340 -0.002940
-0.016725 0.099701 0.252808 0.019175 0.057705 -0.112325 0.125780 0.075624 0.009303 0.002807
-0.016672 0.050865 0.091074 0.041418 0.164137 0.116910 0.090950 -0.226945 0.020422 -0.105159
0.089931 0.007512 -0.012644 -0.025671 0.057720 0.039305 -0.025982 -0.071435 0.066622 -0.079617
-0.123659 0.041082 0.144136 0.034928 -0.006040 0.113662 -0.013607 -0.051865 0.010945 0.055300
-0.036184 0.057066 0.031836 -0.058455 0.139286 -0.015577 -0.105759 -0.124074 0.054126 0.048128
-0.138912 -0.038206 0.245156 -0.138888 0.048076 0.161479 -0.037278 -0.292789 -0.055915 0.030881
0.077456 0.080845 0.119451 -0.016587 0.086923 0.038080 0.161876 0.076976 0.121850 -0.038605
-0.069612 -0.139556 0.137319 0.081883 -0.040101 -0.146242 -0.082411 -0.050213 0.020772 -0.068960
-0.196217 -0.039279 -0.094734 -0.033298 -0.073795 -0.084088 -0.168337 -0.107353 0.002593 -0.005891
-0.046481 0.101923 0.055710 -0.237704 -0.060271 0.053688 0.029433 0.070366 -0.085995 -0.080976
0.013828 0.086019 -0.094267 0.013610 0.109289 -0.125806 0.054887 0.084134 -0.192642 0.066386
-0.180379 0.077709 0.146642 -0.157054 0.099142 -0.139456 -0.064598 -0.007185 0.122536 -0.088330
0.042282 0.090657 -0.056330 -0.046976 0.032889 -0.037715 0.152629 -0.012949 -0.071396 -0.090034
-0.056017 0.015174 0.109571 -0.182833 0.018460 0.060470 -0.183037 -0.013541 0.086713 0.057522
-0.172729 0.038035 0.096123 0.027869 0.096671 -0.070725 -0.027652 0.017394 -0.192178 0.146705
0.105254 -0.044074 0.063984 0.002048 -0.143377 0.020488 0.070418 -0.012916 -0.171233 0.108515
0.045141 -0.166944 0.168708 0.007589 0.088050 -0.016876 -0.001641 -0.066552 -0.047962 0.080903
0.045599 -0.015169 0.073184 -0.048171 -0.000016 -0.072051 0.126369 0.081904 -0.216226 0.054139
-0.117545 0.161434 -0.047097 0.059112 -0.092139 0.082310 0.111486 -0.156062 0.038413 0.031299
-0.072553 -0.029733 0.085412 0.130642 0.170326 0.065527 -0.016183 0.073142 0.066543 -0.171682
-0.009602 -0.036552 -0.126042 0.033312 0.001006 0.159842 0.127129 0.091265 0.027437 0.107149
-0.178239 0.035481 -0.081390 0.054709 0.054967 0.062811 0.031184 -0.051056 0.107547 -0.030469
0.085450 0.084874 -0.059452 -0.095879 0.011316 -0.046394 -0.073251 -0.105938 -0.064958 0.016882
-0.140936 -0.104075 -0.169201 0.168447 -0.097845 0.041577 0.069050 0.130026 -0.021894 -0.035045
-0.075516 -0.045503 0.009840 0.113371 0.136005 0.121902 -0.106497 -0.047211 -0.042940 -0.108184
-0.059428 0.021605 -0.162340 0.141595 -0.075437 -0.040704 0.070371 0.146627 -0.099100 0.126228
-0.017386 0.012735 -0.162871 -0.006959 0.133875 -0.176861 -0.063124 -0.026082 -0.120268 0.016145
-0.040023 -0.138828 -0.229295 0.115499 0.045965 -0.144627 0.058491 0.057441 -0.086886 0.153284
-0.120730 -0.005964 0.159909 -0.142168 -0.033441 0.062701 0.035523 -0.011960 -0.026912 -0.088671
0.064781 -0.040890 -0.066646 0.191911 -0.064861 -0.031518 -0.193619 0.147138 -0.085914 -0.106053
-0.031409 0.005841 0.197754 0.025234 0.115330 0.174709 -0.018012 -0.108409 0.149174 0.024318
-0.127748 0.048657 -0.263459 0.159656 0.150729 0.177504 -0.218191 -0.133158 0.039865 -0.121124
0.229157 -0.079701 0.209345 0.032820 -0.000412 -0.004732 -0.005841 -0.086169 0.095423 -0.110305
0.011693 0.047346 -0.015306 0.121649 0.059065 0.086611 -0.131313 0.070764 0.060373 0.099508
0.010687 0.044921 -0.064937 -0.059482 -0.020152 0.101772 0.141045 0.038537 0.080344 -0.090146
-0.077297 -0.222165 0.016694 0.202301 -0.167018 0.031260 -0.043856 -0.000683 0.214164 -0.051215
-0.046459 -0.018605 0.041897 0.068841 0.004024 0.115161 0.086038 -0.193998 0.033426 -0.093867
0.061988 -0.085341 -0.115598 0.042548 0.099382 0.027525 -0.159215 -0.073697 0.004371 0.036930
0.105217 -0.029617 0.098417 0.051123 -0.041327 0.032122 -0.003946 0.080799 -0.000805 0.081619
-0.057575 -0.139156 0.015832 0.201252 -0.047778 0.154294 -0.047868 -0.128813 0.128042 -0.028480
0.085425 0.222098 0.161739 0.070252 -0.004320 -0.004570 0.058827 -0.165704 0.087135 -0.239161
-0.024891 0.049097 0.039167 0.105243 -0.215834 0.037912 -0.157620 -0.029611 -0.010067 -0.063509
0.092203 0.112651 0.178898 -0.055685 0.085198 0.094942 -0.089167 -0.173603 -0.100579 0.014418
-0.005274 -0.193394 -0.083047 -0.039580 -0.046512 0.126802 -0.066589 0.031120 0.023318 -0.034385
0.198259 0.035632 0.044480 -0.082206 -0.111237 0.082339 0.120822 -0.128323 0.083521 -0.021461
-0.110689 0.045761 -0.018004 0.190430 0.068855 0.222737 0.045787 0.103478 0.128301 -0.069418
-0.095733 0.018407 0.085659 0.030743 -0.055086 0.093818 0.023188 -0.043092 -0.054622 -0.038772
-0.146440 0.054767 -0.115260 -0.088310 0.059852 -0.087217 -0.007114 -0.080818 -0.037468 0.051910
0.065958 -0.028849 0.141808 0.048706 -0.041080 -0.073420 0.009996 -0.270995 0.032943 -0.110188
0.015096 -0.126213 0.079856 0.143840 -0.059337 0.198548 -0.042913 0.090955 0.185873 -0.069014
0.005179 0.050445 0.112328 -0.050999 0.001731 0.037442 0.135066 0.033925 -0.079598 -0.016079
0.011725 0.120215 0.127008 -0.033792 0.040606 0.069129 -0.054761 -0.141459 0.088221 0.030764
-0.042574 0.075199 0.000400 0.014526 -0.021520 0.013486 0.126589 -0.077634 -0.054976 0.006501
-0.058457 0.077311 0.044033 0.132684 0.022009 -0.033160 0.017155 -0.048000 0.054675 0.021191
0.207670 0.006498 -0.027222 -0.177829 -0.112099 -0.026000 -0.057823 -0.005066 -0.116730 -0.098261
-0.042998 -0.096273 0.025475 0.039100 0.163347 0.040563 -0.198620 -0.066452 -0.052053 0.071121
-0.062878 0.083168 0.055038 -0.035437 -0.120655 -0.150795 -0.047263 -0.117249 0.040243 -0.160805
-0.021815 -0.006786 -0.017930 -0.088142 -0.004206 -0.028326 0.088794 0.041472 0.079733 0.227119
0.010072 0.044237 0.045167 0.105209 0.040000 0.085584 0.198426 -0.079267 0.008649 0.019554
-0.028367 -0.082976 0.052409 -0.018716 0.029349 0.167995 -0.065656 -0.121988 0.056582 -0.003468
-0.083301 -0.121741 -0.005673 -0.015698 0.134280 -0.030548 0.036339 -0.131114 0.084216 0.242035
-0.056099 0.032578 0.010553 0.056167 -0.084460 0.142397 0.057077 0.012330 -0.051356 0.163639
-0.137905 0.054519 0.064459 -0.113012 -0.085812 0.075186 -0.022678 0.007294 -0.212136 -0.040055
-0.044821 0.152396 -0.091091 -0.101437 -0.081693 0.051127 0.031523 -0.085145 0.086771 0.128019
0.051631 -0.080704 0.015999 0.049347 -0.071390 -0.069933 -0.159130 -0.214974 -0.060676 -0.035509
0.069184 -0.121867 0.178430 0.119376 -0.033326 0.035303 -0.014056 -0.034072 -0.164061 -0.041312
0.104657 0.018895 -0.159644 0.015632 0.159633 0.049955 -0.123715 0.186968 0.094586 -0.090699
0.120264 -0.046664 -0.098914 -0.030752 0.078282 -0.132056 0.019966 0.076181 -0.122123 0.115816
0.147699 -0.082341 -0.194327 -0.039451 -0.096352 0.112775 -0.103733 0.058626 -0.188053 0.062337
0.102983 0.116479 -0.174976 0.047808 0.023649 0.048742 -0.006520 -0.063955 -0.050138 -0.063866
0.030584 0.030694 0.022583 -0.093031 -0.096915 0.049259 0.024445 -0.040208 -0.036984 -0.182771
0.140251 -0.047906 0.013777 0.084230 -0.089872 0.060785 -0.001825 -0.019462 0.012335 0.109787
0.033045 0.110857 -0.139309 -0.076558 -0.072312 0.156714 0.010530 -0.068335 0.141899 0.099858
0.063149 0.038971 -0.005276 -0.076850 0.087535 -0.022286 0.147121 -0.124980 0.022305 -0.125283
0.076976 0.061406 0.056643 0.118743 0.060286 -0.129348 -0.006159 0.150759 -0.132954 -0.084612
0.051644 0.141770 -0.138995 -0.080050 -0.170000 -0.011955 0.114645 -0.025653 -0.099256 -0.056443
-0.080738 0.118780 0.082842 -0.059058 0.149928 -0.015308 0.032901 0.117362 0.058952 -0.009154
-0.166419 0.056438 0.043546 0.078416 -0.170880 0.154164 0.083445 0.182787 -0.032190 -0.078090
-0.137755 -0.038073 0.164915 0.079877 0.065985 0.013846 -0.029495 -0.038177 -0.088615 -0.081645
0.081879 0.099379 0.171635 -0.146050 0.000008 0.056191 -0.144367 -0.084505 -0.045047 0.008140
-0.053146 0.100777 0.055954 0.176267 -0.104926 -0.000936 -0.039772 -0.063573 -0.004810 0.148543
-0.106855 0.151780 0.102475 0.114129 0.103118 0.030129 0.119726 0.064389 -0.028509 -0.053691
-0.029284 0.038347 -0.078869 0.033747 0.043264 -0.044858 -0.007801 -0.027921 0.033646 -0.043458
0.010927 -0.135559 -0.057324 0.016791 -0.038095 0.022376 0.058835 0.177803 -0.194815 0.242099
-0.008159 -0.116441 0.009143 0.073496 -0.112614 -0.000873 -0.099282 -0.037954 0.002807 0.176609
-0.063781 0.122545 0.084662 0.097251 0.026597 0.054430 -0.029259 -0.089696 -0.013049 0.027037
0.058884 0.007033 -0.038045 0.093543 0.159825 -0.131944 0.028908 0.071220 -0.026497 0.107117
-0.185050 -0.088228 -0.083593 -0.037301 -0.068895 -0.029500 -0.166616 0.215656 -0.026243 0.124364
-0.176609 -0.133892 -0.198756 0.249295 0.059139 -0.006589 0.167893 0.121569 0.148994 -0.008568
-0.107435 -0.079157 -0.001587 0.103868 -0.136848 0.051544 -0.117227 0.083059 -0.180920 0.063949
0.028973 0.060632 0.022325 -0.118929 0.167198 0.042143 -0.126871 -0.070346 0.048468 0.106101
-0.045755 -0.179090 -0.132048 0.149600 -0.010807 -0.119394 -0.177581 0.043407 0.019523 0.124094
-0.073675 0.130032 -0.130761 0.116804 -0.012627 0.078691 0.088783 -0.059112 0.051366 0.024586
-0.034270 -0.118157 -0.056791 0.077198 -0.160199 0.175379 0.087415 0.105037 -0.164288 0.082624
0.036496 -0.068831 -0.089138 -0.093284 0.147909 -0.015977 0.080292 0.088784 -0.079444 0.058209
-0.014044 0.061589 0.106280 0.143373 0.022783 0.033577 0.111498 0.115630 0.114454 0.163283
-0.223272 0.001385 0.076717 0.048423 0.121042 0.046372 -0.022934 0.043011 -0.014763 -0.049899
-0.094624 0.002056 -0.071881 0.076193 -0.233693 -0.022321 -0.202468 -0.015659 -0.156877 -0.007708
0.162383 0.208552 0.097778 -0.085272 -0.010688 -0.006870 -0.071398 0.064106 -0.180738 0.029455
-0.081710 -0.044124 -0.108534 0.008760 -0.104323 -0.013466 0.064022 0.012623 0.139323 0.127027
0.020115 0.097286 0.037850 -0.014738 0.062926 0.091070 0.008959 -0.037734 -0.049651 0.102219
-0.065488 -0.100802 -0.120527 0.186358 -0.075163 0.198505 0.101916 0.082855 -0.060660 0.123061
0.078439 -0.041229 -0.028445 0.051808 0.075070 0.127293 0.031769 0.048785 0.021479 0.023377
-0.103098 0.088969 -0.028182 0.018801 -0.068880 -0.021011 0.000776 0.040951 -0.006908 0.140652
-0.104017 -0.072636 0.051574 0.142394 -0.016621 0.164202 0.069520 0.055879 0.171992 -0.056644
-0.101966 -0.027961 -0.093763 0.110423 -0.056390 0.009026 -0.066820 -0.006806 -0.131707 0.181863
0.090454 0.022937 -0.015075 -0.132940 0.083577 -0.073165 -0.006984 0.015445 0.028677 0.099108
-0.001382 -0.076211 0.002308 0.094221 -0.050983 0.028167 0.077211 0.016440 0.152064 0.093332
-0.114350 -0.018108 0.019863 0.147159 -0.080446 0.160064 -0.022329 -0.071559 0.041346 -0.001960
0.053630 0.072524 -0.197362 -0.073733 -0.203785 -0.034911 0.153613 0.065096 -0.227843 -0.039246
0.132711 0.034140 -0.094635 -0.098880 -0.039097 0.026936 0.042072 0.090100 0.004342 -0.156874
0.033526 0.027034 0.047630 -0.019837 -0.075292 0.140288 -0.002891 -0.034952 -0.110951 -0.070454
-0.096377 0.032810 -0.035237 0.087717 0.028359 0.004621 -0.013831 0.023762 0.160409 0.121685
-0.121475 -0.002180 0.002977 0.068614 0.055248 0.162117 -0.054412 0.140407 -0.011894 0.065441
0.012177 0.093092 -0.002081 -0.042348 -0.072354 -0.074505 -0.008499 0.056235 -0.068645 -0.098055
-0.043971 -0.078267 0.040713 -0.006130 -0.023856 0.101195 -0.031808 -0.089212 -0.072337 -0.040269
0.093874 0.129782 0.019740 0.015665 -0.057545 -0.060972 0.019784 -0.023757 0.102159 0.028600
-0.190052 -0.016028 0.121134 -0.074579 -0.000438 0.000326 0.034385 -0.104333 0.050360 -0.079016
0.103474 0.076429 -0.010339 0.049071 0.096921 -0.031800 0.098912 0.019725 -0.007914 -0.111106
-0.090194 0.158820 -0.064886 0.051534 -0.027725 0.042957 -0.035826 -0.113004 -0.067456 -0.008793
0.008493 0.151834 -0.012820 -0.067179 -0.090420 -0.012739 -0.075667 0.127663 0.143727 -0.177733
0.093761 -0.126159 -0.094105 -0.010893 0.046853 0.091306 -0.023447 -0.093563 0.099669 -0.040852
0.001357 -0.031249 -0.166496 -0.057047 0.076429 0.047056 -0.060084 0.025604 -0.115725 0.072905
-0.082899 0.183704 -0.019167 0.035120 0.016097 -0.079814 -0.163431 -0.077857 -0.080387 -0.001779
0.117595 0.041221 0.007725 0.111239 0.051552 0.141597 -0.186796 -0.012852 -0.152412 -0.054852
0.122792 -0.110548 0.073939 -0.021768 -0.110113 0.079982 0.102086 0.062176 0.022791 -0.050885
0.147522 0.112266 0.060861 -0.094426 -0.060927 -0.009771 0.142773 0.052392 -0.107649 0.097372
