784.000000
10.000000

-0.024723 -0.052601 0.024216 -0.059692 0.033227 -0.065622 0.038329 0.106562 0.128962 -0.027518 0.146880 -0.019187 0.029313 0.074710 -0.118346 -0.039944 -0.037469 0.096404 0.048501 -0.075104 0.039486 -0.073109 -0.041734 0.028176 0.011207 -0.076360 0.159657 0.031924 -0.149280 -0.071155 -0.016213 0.043263 -0.135443 -0.083767 0.119277 -0.036828 -0.091193 0.008491 -0.098271 0.006354 -0.039804 -0.139625 0.033407 -0.015291 -0.182324 0.096937 -0.041798 0.153457 0.021012 0.109649 0.147752 0.134022 0.160209 -0.003555 -0.002109 0.039206 0.051622 0.101265 0.032839 -0.135104 0.108328 0.026175 -0.104724 0.121643 -0.103888 0.085744 0.065222 0.039914 -0.005005 -0.055406 -0.085574 -0.048283 -0.197548 0.092805 0.010642 0.096508 0.023516 -0.029422 -0.060779 0.120453 -0.215408 0.097969 -0.069421 -0.056741 -0.175766 -0.070290 0.151862 0.194699 0.082428 -0.149661 0.061735 0.102375 -0.221700 -0.098749 -0.027546 -0.002827 0.014586 0.107171 -0.070629 -0.107100 -0.074017 0.028593 0.099820 -0.127903 0.082008 -0.119613 -0.100990 0.130709 -0.107117 0.050877 -0.020353 0.015991 -0.112293 -0.069672 0.057097 0.022909 -0.130121 -0.164797 0.171393 -0.146827 0.009338 -0.128178 -0.015568 0.004163 -0.069298 -0.060849 -0.056920 -0.042054 0.004445 -0.193281 -0.110860 0.122922 0.071308 0.128361 0.174559 0.019003 0.097581 0.102305 0.044878 -0.057766 0.054793 0.010058 -0.053427 0.163508 -0.131065 -0.017557 0.000588 -0.018644 -0.062649 0.040344 -0.119159 0.093931 -0.020411 -0.168664 -0.005996 -0.122947 -0.148678 -0.123284 -0.009533 -0.054581 -0.063292 0.039476 -0.047531 -0.083887 0.012259 0.087089 0.074313 -0.134235 0.140583 -0.135868 -0.053371 0.167397 -0.051652 0.003441 -0.125910 -0.088194 -0.065457 0.013928 0.177837 -0.075055 0.010508 -0.213035 -0.182668 -0.035682 -0.028457 -0.087687 0.077674 -0.000852 -0.014914 -0.080375 0.029298 0.032148 -0.166652 0.032035 -0.067023 -0.119832 0.124438 0.010060 0.003829 -0.037549 0.039514 0.159178 0.017233 -0.077763 0.076540 0.106485 0.074210 0.047014 0.017753 0.094923 0.072060 0.098517 0.177412 0.024488 0.066321 0.019355 -0.005059 -0.058243 0.043550 -0.099275 -0.049107 -0.072294 0.082363 -0.068498 0.109422 0.079031 -0.136029 0.002986 0.061317 -0.071534 -0.035435 0.019461 -0.089172 -0.024565 0.118463 0.060822 -0.081697 0.089664 -0.015523 0.005079 0.026074 -0.055154 0.065330 0.007085 0.151235 -0.108856 -0.065034 0.062828 0.039597 0.189715 -0.110010 0.037559 0.005926 0.099516 0.003619 -0.134349 0.248815 -0.005025 -0.000218 -0.096499 0.143574 0.201804 0.017484 -0.009197 -0.039188 0.140095 -0.065888 -0.065354 -0.020231 0.059220 -0.107875 0.028781 -0.130153 0.113597 -0.077149 -0.165198 0.023958 -0.033012 0.032721 -0.024681 -0.027909 -0.050665 0.014988 0.022637 -0.088744 -0.013168 -0.099418 -0.043496 0.124790 -0.050864 -0.091002 0.092220 -0.050046 -0.023067 -0.063823 0.111668 0.015176 0.130374 -0.065695 -0.028960 -0.013520 0.222413 0.051996 -0.150765 -0.094089 0.175283 -0.144005 -0.088799 -0.133707 -0.042581 -0.002775 -0.073597 0.002168 0.060050 -0.191787 -0.193935 0.027725 0.093948 -0.095792 -0.246002 0.170587 0.191588 0.176320 -0.058495 0.123404 0.214511 -0.169298 -0.035141 0.063999 0.014823 -0.066585 0.103122 -0.001088 0.060498 0.006474 -0.132505 -0.054074 0.109496 -0.059169 -0.105318 -0.007137 -0.071654 0.052210 0.009009 0.202761 0.018809 0.014759 -0.119218 0.129153 0.143699 0.036193 -0.012447 0.037575 0.129452 0.097704 -0.145217 0.049585 0.144819 -0.046225 -0.143267 0.012024 -0.026580 -0.073531 -0.200751 -0.474508 0.127343 0.123127 -0.098494 -0.140966 0.226166 0.091259 -0.174688 0.004552 0.123670 0.065513 -0.123513 -0.062827 0.208400 0.043424 -0.102347 0.172758 0.233419 -0.101202 -0.111797 0.099943 -0.048685 -0.086043 -0.124974 -0.021000 -0.066877 -0.029973 -0.010561 0.194914 -0.171981 0.056203 0.079312 -0.018544 -0.157356 -0.013482 -0.046342 0.122570 0.043433 -0.112535 0.033934 0.125582 0.229157 0.053327 -0.021256 0.006434 0.048362 -0.074012 -0.194619 0.156275 0.065873 0.031419 -0.079293 0.047828 0.080762 0.017509 -0.168553 -0.542579 0.113833 -0.027733 -0.010124 -0.073694 0.040447 -0.092200 -0.223731 0.010966 0.060125 0.098166 -0.107332 -0.003925 0.157186 -0.082410 -0.157877 0.221699 0.133917 -0.102746 -0.053628 0.180732 -0.049954 0.082895 -0.117932 -0.112908 -0.148513 0.083708 0.075712 0.134375 0.072616 -0.195203 -0.057907 0.082109 0.096353 0.054440 0.000944 0.264726 0.018489 -0.122820 0.052998 0.187286 0.212870 0.102917 -0.139877 -0.001951 0.120288 -0.012101 -0.108670 0.067575 0.106527 -0.027711 -0.283828 -0.191877 0.015639 -0.073893 -0.238035 -0.205992 0.123300 0.012251 -0.038910 -0.085311 0.001289 -0.037773 -0.031875 -0.044303 0.144964 -0.127966 -0.079180 -0.059699 0.017453 -0.106342 -0.016286 0.127140 -0.028864 -0.076934 0.020894 -0.026925 0.157016 -0.162520 0.057842 0.140958 -0.188592 0.009206 -0.030664 0.053092 0.175457 0.026955 -0.066489 0.062223 -0.060639 0.128518 0.009618 0.097387 0.088667 0.021038 -0.131737 -0.059367 0.133892 0.140609 -0.202211 0.098060 0.155587 -0.015909 -0.135949 0.153086 0.098020 0.136458 -0.172866 -0.094667 -0.028146 -0.033543 -0.230877 0.014370 0.036276 0.044731 0.024118 0.158510 -0.000376 -0.057778 -0.020538 -0.024632 0.105065 -0.010989 0.033200 -0.116911 0.037370 -0.046478 -0.020153 0.146608 0.016082 -0.053323 -0.084417 -0.125158 -0.030606 0.005292 0.067286 0.138594 0.078460 -0.086545 0.064994 -0.060857 0.033759 0.088982 -0.091220 -0.084409 -0.058236 0.087697 0.166640 -0.001210 0.087565 -0.038508 -0.030408 -0.032521 0.113924 -0.052122 -0.055154 0.055874 0.055675 -0.038965 -0.098703 0.091694 0.228608 -0.035088 0.114361 -0.013429 0.102565 0.096970 0.190982 -0.100949 -0.025663 -0.076786 0.040292 -0.092043 -0.135022 0.121613 -0.083750 -0.073714 -0.128892 0.014422 0.016335 0.054559 0.005060 -0.110539 0.054236 0.056603 -0.103602 0.152805 0.098684 -0.227022 0.168730 0.173346 -0.064008 0.081514 0.134021 0.053998 0.081865 0.119213 -0.013533 -0.181873 0.157898 -0.017848 -0.009975 -0.046245 0.117490 0.065691 0.015917 0.021400 -0.090766 0.031418 0.212041 -0.029422 0.047862 -0.024923 0.027972 -0.033033 -0.008777 0.129721 0.078767 0.036092 0.088427 0.036704 0.076673 -0.093702 0.187102 0.066245 -0.156185 -0.093512 -0.063215 0.070451 -0.275939 0.016377 -0.022122 -0.113466 -0.294238 -0.004765 -0.017481 -0.170013 0.044411 0.027031 -0.054859 0.033980 0.075528 -0.101958 -0.021103 -0.158378 0.013271 0.147947 0.090268 -0.100556 0.046377 -0.137634 0.099479 0.077904 -0.127864 -0.022565 0.077805 -0.181861 -0.042879 -0.153873 0.008519 0.000178 -0.034543 0.126727 0.152079 -0.085887 0.070285 -0.098575 -0.052664 -0.146150 -0.064312 -0.177280 0.075738 -0.102924 -0.110741 -0.040486 0.043024 -0.080516 -0.104470 0.027745 0.153600 -0.108758 -0.206509 -0.000472 0.163057 -0.031462 -0.057455 -0.162308 0.165371 -0.191207 0.021943 -0.039972 0.041331 -0.233598 0.040217 -0.123323 -0.050302 -0.005658 -0.074839 0.009789 -0.093494 0.052721 -0.016290 -0.006496 -0.097690 -0.124632 -0.006684 0.025180 -0.033200 0.053757 -0.011390 -0.049372 0.097149 0.047956 -0.114717 -0.056438 0.116488 0.106580 -0.137807 -0.111691 0.193880 0.071148 -0.018667 -0.008366 -0.050575 -0.248922 -0.212327 -0.160369 0.135933 -0.078404 -0.062504 0.148372 -0.040677 -0.116011 -0.171014 0.076770 -0.024536 -0.191996 -0.180580 0.110004 0.010531 -0.025445 0.041194 0.004597 0.111838 -0.002565 -0.098625 -0.074142 0.068689 0.167018 -0.145175 0.154162 0.017392 0.018533 -0.069766 0.011256 0.086169 -0.067698 0.076258 0.162067 0.070359 -0.010095 0.037062 -0.018946 -0.000419
-0.076231 0.065526 0.096453 -0.002599 -0.188539 0.010219 -0.168513 -0.044214 0.045366 -0.191626 0.078180 0.170277 -0.091611 -0.098369 -0.105978 0.037004 -0.066660 0.035528 0.035174 -0.050956 0.025023 -0.166406 0.091494 -0.003153 0.128471 0.010238 0.058748 0.047113 0.048984 -0.158007 0.067113 -0.098683 0.190031 -0.058411 -0.100758 0.153732 -0.013964 0.018502 0.114926 -0.076617 0.016396 -0.050415 -0.057480 0.055196 -0.079430 0.025822 0.000285 0.223318 -0.039393 0.032897 0.018990 -0.052646 0.051027 0.029117 0.103395 0.000302 -0.062185 -0.064664 0.045931 0.144904 -0.113031 -0.110275 -0.028482 -0.017684 0.047625 0.053066 0.064513 0.010695 0.099086 0.048724 -0.038142 0.040568 -0.023133 0.025831 0.016831 0.002184 -0.165720 0.196989 -0.101613 0.161777 0.090462 0.075051 -0.110732 0.058658 0.157317 0.194316 -0.042549 0.196224 -0.045864 0.132491 -0.001871 0.166991 -0.021139 0.122469 -0.103888 0.141407 -0.091527 0.016891 -0.019815 0.082851 -0.024624 0.096342 -0.027111 0.113059 0.137129 -0.000390 0.029346 0.044788 0.130448 -0.080895 -0.063148 0.018443 0.040687 -0.050787 -0.159818 0.011879 0.055968 -0.044182 -0.106808 0.118509 0.075057 -0.009457 0.152556 -0.021177 0.067166 -0.025255 -0.082423 0.156976 -0.160198 0.089517 -0.073150 -0.040714 0.022930 0.069834 0.072908 -0.016853 0.004542 0.272272 0.008862 -0.118244 0.075103 0.269909 0.137221 -0.123866 -0.044840 0.215989 -0.109446 -0.109695 0.047262 0.179575 -0.010707 -0.007290 0.179360 0.225770 -0.058388 0.002744 -0.025399 0.095125 -0.100570 -0.055373 -0.032073 0.157548 0.061118 0.125348 0.018116 -0.062157 -0.052703 0.033725 -0.022211 0.173723 0.024147 0.172108 0.045342 -0.053015 -0.047115 0.011969 0.010937 0.004090 0.071486 0.163924 -0.056763 -0.069205 0.059184 0.093449 -0.160919 0.127569 -0.045015 0.011452 -0.050174 0.120649 0.121966 -0.111534 -0.076589 -0.011938 -0.023000 -0.346667 -0.108816 -0.072625 0.028210 -0.197665 -0.266322 0.015388 -0.016806 -0.394566 -0.039295 0.036810 0.117659 -0.335396 0.053467 0.043693 0.046939 -0.055491 0.008649 0.119866 -0.083745 0.067660 -0.134037 -0.018542 -0.044843 -0.124254 -0.012456 -0.126006 0.102460 0.195977 0.123028 -0.067218 -0.121096 -0.085097 0.061018 0.051126 0.024472 -0.000399 -0.190553 0.008518 0.104647 0.189099 -0.077264 -0.033158 0.086837 0.048722 -0.070450 -0.110365 0.043257 0.163248 -0.137400 0.058476 0.099066 -0.082622 -0.208659 -0.000959 -0.001054 -0.134235 0.072935 -0.066244 0.192636 -0.181297 0.043163 -0.088290 -0.102998 -0.118249 -0.100814 -0.049455 -0.034990 -0.165950 -0.020157 -0.013956 -0.035003 0.019422 -0.176392 -0.118519 0.113866 -0.049624 0.003778 0.068764 -0.132917 -0.103462 -0.008971 0.088832 -0.049791 0.057942 -0.030664 -0.038002 -0.025844 -0.085755 -0.033704 0.016115 -0.057266 0.010272 -0.060473 -0.098121 -0.066365 -0.102274 0.013454 -0.020136 0.017156 0.086253 0.074598 -0.113495 0.051439 -0.002729 -0.080944 -0.105602 0.088345 -0.093099 0.133623 -0.021941 0.082227 -0.059728 0.383863 -0.001396 0.100372 0.006817 -0.091370 0.042720 0.045675 0.006149 -0.060682 -0.209016 -0.096552 -0.202703 0.101169 -0.063064 -0.111364 -0.047569 -0.115862 0.010486 -0.025982 0.058595 -0.059756 -0.049752 -0.121310 -0.076421 0.046445 0.067509 0.093792 0.017060 0.051906 -0.016807 -0.122864 0.084479 -0.016890 -0.046343 0.061047 -0.027098 -0.154871 -0.011459 -0.040646 0.081956 -0.114849 -0.155226 -0.117907 0.120281 -0.121313 -0.095426 0.188784 -0.070665 0.005938 -0.000159 -0.193820 -0.017045 0.226582 0.218308 -0.123298 -0.146364 0.339057 0.239348 -0.000583 -0.127837 0.051648 0.075589 -0.063548 -0.218571 0.030318 0.042592 -0.086609 -0.054118 -0.127585 -0.135803 0.042938 0.085500 -0.103037 -0.077727 -0.140723 0.120670 0.031103 0.024474 0.112688 -0.101759 -0.140058 0.067499 0.136414 0.116867 0.067380 0.127707 -0.118686 0.051013 -0.066298 -0.013598 -0.006751 0.114590 -0.194680 0.112863 -0.061943 0.062288 0.167554 0.064936 0.026441 0.009350 -0.179338 -0.037347 -0.121327 0.047057 -0.019074 0.019702 -0.006332 -0.201803 0.095301 0.093094 0.054777 -0.136512 0.181821 -0.040009 0.020249 -0.275269 -0.104216 -0.110872 -0.141558 -0.057724 -0.252834 -0.042673 0.130685 -0.103555 -0.165012 0.037248 0.072428 0.014057 -0.155522 0.152378 0.025139 0.106526 -0.031631 -0.002179 -0.127584 0.047850 -0.017130 0.045578 -0.097166 0.050284 0.012404 -0.130412 -0.101303 0.065950 -0.036239 -0.098222 -0.103822 0.035390 -0.145759 -0.115277 0.081238 0.036977 -0.308506 0.055730 -0.008241 0.248746 -0.008370 -0.196090 -0.057511 -0.073264 -0.081985 -0.127719 -0.134588 -0.004479 0.085552 0.168889 -0.008149 -0.148288 0.121880 0.125260 0.051116 -0.060519 -0.274244 -0.166418 0.035268 -0.066130 -0.275759 -0.004281 0.070025 -0.005661 -0.011169 -0.171743 0.088240 0.179676 -0.054961 0.021199 -0.076721 -0.063387 -0.036861 0.036036 -0.022238 -0.023270 0.109432 -0.015107 -0.094935 -0.024497 -0.047329 -0.020247 -0.110500 0.129193 0.079438 -0.042166 0.066335 0.122262 -0.151663 -0.160016 0.130901 0.198438 -0.073988 -0.142363 -0.037967 0.003194 -0.011615 -0.089990 0.001955 -0.086453 -0.112933 -0.285273 -0.018624 0.006956 0.248902 0.009429 0.140628 -0.085519 -0.117908 0.004105 -0.130002 -0.172589 0.007198 -0.110719 -0.175546 -0.055209 0.065101 -0.136089 0.145301 0.053832 0.200630 -0.048016 0.128249 0.145380 0.028136 -0.015924 -0.063940 -0.067333 -0.006685 0.141058 0.043826 -0.041663 0.198567 0.063552 0.121334 0.238083 -0.048416 0.043975 -0.030346 0.102799 -0.057717 0.018328 -0.074149 0.065972 0.206421 -0.055505 -0.040523 0.133436 0.130279 -0.026739 -0.098926 0.202519 0.100947 0.054945 0.025882 -0.122958 0.191645 -0.063833 0.122717 -0.050789 -0.023912 -0.040227 0.174544 -0.148555 -0.084802 -0.036355 0.121233 0.024072 0.155249 -0.228766 0.187709 0.058436 0.196862 -0.011641 0.062092 0.170624 0.027853 -0.073021 -0.068731 0.047417 0.014098 -0.066316 0.080288 0.187659 -0.011615 -0.052374 -0.005097 0.135651 -0.038650 -0.042476 -0.057216 0.044431 -0.089734 -0.146584 -0.059984 0.052674 0.091176 0.158008 -0.033401 0.175377 0.074734 0.036415 -0.083124 0.073186 0.225205 -0.062234 0.051427 -0.019971 0.113160 0.037433 0.064886 -0.036948 -0.212393 0.209476 0.055870 -0.211439 -0.097528 0.117434 0.050841 -0.212823 0.158715 0.094025 0.025579 0.012160 -0.054503 0.158189 -0.133913 0.085323 0.109265 0.076875 -0.020980 0.145626 0.022583 -0.014036 -0.108381 0.118770 -0.111695 0.068961 0.111411 0.152114 -0.120438 -0.036270 -0.108003 -0.022054 0.042349 -0.091889 0.002828 -0.076419 -0.040458 -0.055101 -0.122510 0.095440 -0.013743 0.094680 0.056758 0.029843 -0.061330 0.010548 -0.156769 0.055686 -0.026044 0.013435 0.038884 0.070946 -0.228857 -0.089679 -0.092667 -0.016720 -0.163029 -0.045589 -0.040562 0.054611 -0.077590 -0.022751 0.023523 0.106240 -0.142905 -0.001080 -0.088151 0.097821 0.013131 -0.078966 0.049071 0.128130 -0.063056 0.042210 -0.127412 0.034832 0.001963 0.041825 -0.078975 0.010048 0.039109 0.131769 -0.137756 0.040999 0.089111 -0.068298 -0.109017 0.151950 -0.010874 -0.081617 -0.044487 -0.048724 -0.061012 0.012702 0.133920 0.158011 -0.162052 -0.006569 0.042023 0.097411 0.042946 0.043308 0.010512 0.049223 -0.120566 -0.027977 -0.156463 0.074849 -0.047819 0.013014 -0.093848 0.033305 -0.235745 -0.089300 -0.052448 0.119554 -0.136769 0.154787 0.013140 0.036631 -0.201677 -0.162860 -0.015409 0.099965 -0.021870 -0.156050 0.009637 -0.044787 -0.107600 0.030464 -0.007643 -0.036265 0.092413 -0.008213 -0.021264 0.046125 -0.056811 0.039722 -0.054137 -0.098539 -0.001065 -0.057135 0.087464 0.045894 -0.000120 0.037913 -0.096088 -0.060286
0.025313 0.131001 0.016203 -0.014689 0.011351 -0.015906 0.080399 -0.093727 -0.176863 0.065690 -0.027806 -0.136531 0.084048 0.024126 -0.057730 -0.032993 -0.031167 0.144178 0.093611 -0.113479 0.035434 -0.019676 0.115598 0.165659 -0.114293 -0.093362 0.021820 0.003926 -0.115154 0.188998 -0.028414 -0.017918 0.084046 -0.103476 -0.047209 0.028369 -0.041226 0.059414 -0.004717 -0.060382 0.008432 0.073622 -0.103260 0.165553 0.200206 0.007261 -0.062930 -0.104951 -0.058967 -0.080777 0.083833 0.060605 -0.074038 -0.073147 0.092178 0.120503 -0.019063 -0.021681 -0.197688 0.062669 -0.006708 0.116542 -0.073327 0.126723 -0.005313 0.100208 0.054337 -0.036772 -0.109146 -0.049928 0.094116 0.003008 0.079659 0.139484 -0.021426 0.049855 0.119456 -0.030597 0.119804 -0.192637 0.134649 0.068989 0.083636 0.178474 0.009105 -0.064344 0.062243 0.101291 -0.002069 -0.046064 0.053960 0.037497 -0.064913 -0.240248 -0.074239 0.058658 -0.111179 -0.117370 0.172915 -0.085265 -0.113580 -0.019421 -0.118993 0.023293 -0.009421 -0.008225 0.107058 -0.002308 -0.177166 -0.050582 -0.032838 -0.007978 0.027063 0.009756 0.120820 -0.025170 -0.089856 0.106406 -0.005189 -0.196554 -0.026788 0.025905 0.073685 -0.117045 -0.116838 -0.094503 0.194246 0.174589 0.038932 0.000283 -0.064563 0.185850 0.101711 -0.082188 0.036615 0.096403 0.052248 0.044201 0.090091 0.225853 -0.030250 0.092363 0.066576 0.068369 0.019368 -0.137920 0.042390 -0.060017 -0.018934 -0.099209 -0.102662 0.023915 -0.025271 0.072264 0.095529 -0.211619 -0.027345 -0.039192 0.063562 -0.166824 -0.094112 -0.079668 -0.081004 0.127065 0.064970 -0.037361 0.147137 -0.062474 -0.005895 -0.137751 -0.013983 -0.053876 -0.047799 -0.006605 0.070716 -0.059489 0.076751 0.024375 0.057083 0.134404 -0.150272 0.038219 0.112292 0.086203 -0.069253 -0.178022 0.017616 0.179370 0.029593 -0.051450 0.158442 0.093910 0.069886 -0.146064 0.183301 0.060057 0.050752 -0.078633 -0.118661 0.091574 -0.099408 0.150463 -0.190595 0.068379 -0.173572 0.054591 0.170595 0.006236 0.030025 0.067644 0.137738 0.041816 -0.098363 0.073002 0.021946 0.047767 -0.183542 0.061429 0.069994 -0.128886 0.095671 0.052206 0.082643 -0.126012 -0.052552 0.078576 0.001512 0.039586 0.042172 0.027046 -0.120161 -0.006840 0.087625 -0.034952 -0.126297 0.184320 -0.160586 -0.145608 -0.074589 0.057351 -0.047570 -0.070290 -0.114331 0.113033 0.046433 -0.181503 0.004649 0.076049 0.020671 0.002093 -0.028487 0.141587 0.029396 0.183511 0.189052 0.087872 0.062316 0.106863 -0.002102 -0.090984 -0.084139 0.293705 0.186833 0.007941 -0.019284 0.246950 -0.028663 -0.199725 0.115390 0.009471 -0.080926 0.011816 -0.041954 -0.036805 -0.122482 0.087274 0.079721 0.025590 -0.019784 0.016897 -0.007246 -0.079964 0.027300 0.039499 -0.119402 -0.001059 0.018646 0.047079 -0.009311 -0.105836 0.071552 0.029393 -0.178633 -0.159589 0.188414 0.163984 -0.246312 -0.168652 0.009952 0.284563 -0.148639 -0.323527 0.111776 0.126123 -0.095631 -0.215497 0.043143 0.240193 -0.172324 0.037296 0.077908 0.039290 -0.146004 0.290532 0.026753 -0.123707 -0.031026 0.314158 0.094677 -0.278612 0.015156 0.214768 0.102642 -0.059431 -0.097989 -0.027398 -0.001449 -0.119761 0.124970 -0.009271 0.007084 -0.045545 0.061250 -0.094633 -0.196722 0.051043 -0.015761 0.061189 0.082042 0.096811 -0.057352 -0.017994 0.194808 0.050138 -0.377005 -0.046850 0.009249 0.215024 -0.089134 -0.227046 -0.079776 0.386734 -0.105937 -0.389393 -0.061908 0.402224 0.068981 -0.338258 0.109659 0.276774 0.086855 -0.171145 -0.062734 0.077997 -0.150204 -0.154032 -0.183504 0.151039 -0.107171 0.057124 -0.000472 -0.132682 -0.073769 0.236980 0.053355 -0.193330 -0.077285 0.086399 -0.053883 -0.146657 -0.011512 0.054226 -0.096536 0.026829 0.094995 -0.062163 -0.095690 0.097879 0.302115 -0.062376 0.120483 -0.057843 0.080827 -0.099713 -0.037009 -0.149323 -0.095543 0.120812 0.099406 0.021881 -0.018007 -0.041039 -0.131139 0.110383 0.009014 -0.080443 -0.052789 0.042492 0.108169 -0.236834 0.041242 0.163969 0.167825 -0.191714 0.057425 0.137513 0.247313 -0.033935 -0.009943 -0.034502 0.131177 -0.052112 -0.041203 -0.089533 -0.165035 -0.017639 0.027252 -0.038099 0.026561 -0.098568 -0.063217 -0.054198 -0.129203 -0.076073 0.103209 -0.177090 0.050096 -0.227086 -0.023264 0.274734 0.321692 0.005955 0.017007 0.140183 0.177741 0.095674 0.052558 0.041286 -0.073668 0.032254 0.004306 -0.002254 0.085490 0.133222 0.053176 0.045055 0.159712 0.055402 0.063650 -0.045890 0.170477 -0.023457 -0.039338 -0.017973 0.001856 0.025855 -0.062254 -0.096771 0.188754 0.016186 0.167447 -0.181854 0.040187 -0.027653 0.048100 -0.104098 0.070950 0.030638 0.029735 -0.095818 -0.105853 0.084294 0.149192 -0.005499 -0.149566 -0.277278 -0.018827 0.135166 0.003523 -0.286990 -0.012861 0.159239 -0.141622 -0.407534 0.071856 0.374890 0.306312 -0.094658 -0.127852 0.174234 0.229334 0.040664 -0.163173 0.080178 0.128724 -0.184717 -0.041344 -0.045666 0.231587 -0.044907 -0.050332 -0.046396 0.073988 -0.020171 -0.142383 0.021385 0.259094 0.114894 0.107564 -0.208190 0.064423 -0.025342 0.101510 -0.218404 0.191832 0.058734 -0.125260 -0.207285 0.050203 0.004919 -0.104078 -0.017810 0.054653 -0.053130 0.029596 -0.012782 0.063771 -0.154651 0.049615 0.142077 -0.077389 -0.337960 -0.105024 0.169763 0.083189 -0.100952 0.012339 0.432636 -0.058224 -0.138709 -0.192187 0.301876 0.133106 -0.036131 -0.152752 0.225113 0.131253 -0.184223 0.024759 -0.042717 -0.109456 0.137373 0.175309 -0.053856 0.161869 0.054478 0.061502 0.023767 0.121285 0.021059 -0.033919 -0.069632 -0.042223 0.106334 -0.111758 -0.187909 0.016482 0.104474 -0.092976 -0.166619 0.121559 -0.067483 0.124229 -0.033114 -0.003642 -0.111254 0.080326 -0.002005 0.139716 -0.205448 -0.180096 0.180257 0.104246 -0.050619 0.054166 0.124230 0.113849 -0.069204 -0.073704 0.348004 0.117671 -0.095700 0.153700 0.250844 0.111431 0.018184 -0.132960 0.351877 0.094680 0.063394 0.129728 0.064282 0.007180 -0.069724 -0.018929 -0.074882 0.051101 0.000522 -0.088522 -0.007617 0.074310 -0.081066 0.065406 -0.114056 -0.054059 -0.122465 -0.058891 0.155949 0.232243 0.029389 -0.064399 -0.104040 -0.046148 -0.014440 -0.101591 -0.091686 0.006401 -0.128152 -0.016801 -0.144756 0.098734 -0.146802 0.030215 -0.077799 0.081974 -0.118911 -0.002737 -0.008362 0.097386 -0.113668 0.090853 0.063339 0.278987 -0.035731 0.052892 0.203137 0.155956 0.158823 0.006606 0.111503 0.114519 -0.097668 0.009457 0.100496 0.136670 -0.081759 -0.038592 0.015831 -0.047897 0.003858 0.100317 -0.087557 0.106590 -0.060059 -0.039285 0.115795 0.075672 0.085271 -0.043230 -0.045934 -0.119114 -0.028322 0.025379 0.089004 -0.148948 -0.034556 0.059142 -0.015841 -0.222432 -0.265821 0.127216 0.029688 -0.134972 -0.011237 -0.144158 0.000434 -0.012198 0.021655 0.008297 0.005307 -0.049871 -0.162542 -0.095742 0.016717 0.072193 0.027561 -0.028799 0.106551 0.090019 0.047930 -0.054975 0.019770 0.043127 -0.018511 0.074576 -0.005310 0.011378 0.045872 -0.002750 -0.012406 0.050660 -0.082849 0.000418 0.002573 -0.061986 0.009373 -0.114620 0.054123 0.062108 0.096096 -0.034277 -0.131037 -0.075362 -0.119881 -0.031554 -0.028996 -0.141131 0.011479 -0.112158 -0.145435 -0.069785 0.159388 -0.111807 0.066616 0.069656 -0.083338 0.001073 0.042415 -0.065624 -0.044759 -0.155149 -0.050301 -0.115421 0.062463 0.111048 -0.101553 0.087047 -0.035177 0.021252 0.174594 -0.024483 0.059659 0.117479 0.103388 -0.143574 -0.024627 -0.051845 -0.116235 -0.029589 -0.171181 -0.096155 -0.109564 0.069225 0.141832 -0.067626 0.026176 -0.002535 -0.047221 0.115588 0.004891 -0.140647 -0.031572 0.024143 0.103454
0.080482 0.050301 0.010278 0.045041 0.010068 -0.144526 0.025448 -0.125664 0.054247 0.043015 -0.071809 0.116556 0.076332 0.033661 -0.025930 -0.126049 -0.179233 0.157056 -0.035052 0.169702 -0.035407 0.017722 -0.002613 0.102762 0.081226 0.048049 -0.138846 -0.070246 -0.196536 0.044662 0.051896 0.053770 -0.012971 -0.055667 0.098112 -0.210977 -0.065529 0.072423 0.028257 -0.027882 0.132540 -0.115274 -0.073351 0.039605 0.101343 -0.027742 0.144869 -0.042193 -0.084630 -0.144256 -0.087115 0.110035 0.022381 -0.159604 -0.112642 -0.093976 0.006268 -0.017935 -0.097387 -0.111817 0.087534 -0.046985 0.038927 -0.091219 0.237842 0.086009 -0.005886 -0.121921 0.054950 0.058465 -0.009699 0.017985 0.064082 0.187553 0.060759 0.063919 0.144861 0.096112 0.058115 -0.179717 -0.057324 0.108128 -0.036450 0.159243 0.060837 -0.032637 -0.018346 -0.146020 0.068741 -0.081261 0.021880 -0.059141 0.003155 0.012798 -0.071785 -0.163554 0.024013 -0.068153 -0.082267 0.024511 -0.013301 -0.129065 0.034079 0.073047 0.028899 0.034918 -0.080356 0.083789 -0.012711 -0.018577 0.046576 -0.187515 0.030101 0.014244 0.002464 -0.068233 0.037538 -0.146411 0.072763 0.119649 0.254704 0.087216 0.007638 -0.111815 -0.095664 0.156282 0.049482 0.076106 -0.006471 0.030213 0.006538 0.070223 0.003799 0.022549 -0.025161 0.174841 0.093741 -0.041597 0.065497 0.223618 0.143564 -0.032579 -0.039815 0.129040 0.040422 -0.102756 -0.071020 -0.111537 0.096648 -0.137698 0.099597 -0.121179 0.129263 -0.132962 -0.070886 -0.014666 -0.025496 0.159670 -0.007861 -0.077253 0.030338 0.071258 -0.154036 0.084195 0.178666 0.134696 -0.185090 0.090136 -0.095063 -0.093788 0.047630 -0.031600 0.025274 -0.097312 -0.045958 -0.136058 0.217691 -0.203366 -0.038821 0.070886 0.032934 -0.142210 -0.145708 0.167721 0.041066 -0.040534 -0.071782 0.211340 0.035648 -0.079013 -0.007121 0.190070 0.111696 -0.138531 0.012667 0.122140 0.062826 0.056557 -0.039967 0.058925 0.004667 0.093325 0.076237 -0.111681 -0.029211 0.315080 -0.133300 -0.267466 -0.059228 0.222616 -0.102080 -0.168672 -0.049925 -0.025941 -0.054190 -0.152831 -0.068320 -0.047794 -0.078888 -0.147217 -0.012656 -0.022038 0.050712 -0.091017 0.174341 -0.016545 -0.136094 -0.099106 0.076929 0.032007 0.010151 -0.057327 0.033135 -0.064229 -0.073943 0.091965 -0.035348 -0.178385 0.027672 0.022681 -0.191464 -0.294669 -0.006495 0.212969 -0.113964 -0.369687 0.048330 0.147429 0.154024 -0.234353 0.001401 0.375568 0.192623 -0.105109 -0.055975 0.064495 0.062219 0.122466 -0.029536 -0.090202 -0.030479 0.143385 -0.108949 0.014121 0.080052 0.136484 -0.162985 -0.200777 0.134053 -0.081889 -0.078186 -0.140757 -0.084707 0.021432 0.022643 -0.177381 -0.095598 0.034047 0.053519 0.115647 0.131234 0.043125 -0.116917 0.065079 0.001319 -0.017155 0.042000 -0.019162 0.040655 -0.193159 0.053177 0.067753 -0.122802 -0.075216 0.013063 0.213637 -0.031006 -0.228970 0.117016 0.224508 -0.132265 -0.208737 0.033525 0.222988 0.117803 -0.398789 -0.072814 0.142325 0.103983 -0.374126 0.008805 0.097044 -0.033245 -0.206055 -0.115815 0.136634 -0.054926 -0.055755 -0.105893 -0.103530 -0.021810 -0.042938 0.086833 -0.150948 -0.129645 0.016537 0.031370 -0.056338 -0.176184 0.137933 0.142927 -0.113029 -0.141049 -0.065761 0.027200 -0.011302 0.112555 -0.000659 -0.003223 -0.085027 -0.032923 -0.047357 -0.033003 -0.101742 -0.028092 -0.116933 -0.025041 0.049775 -0.301474 -0.035699 -0.134071 0.080328 -0.000926 -0.003053 -0.066768 0.094494 -0.122877 -0.043799 0.078140 -0.028957 0.221373 -0.084426 -0.125412 0.029591 0.105084 -0.150943 0.025210 0.148619 0.072254 -0.205463 -0.063385 0.264765 0.024417 -0.293247 -0.056679 0.168286 -0.274882 -0.393096 -0.083973 0.143595 -0.145957 -0.042679 0.076141 -0.010480 -0.008035 -0.088653 -0.155969 -0.034882 -0.108292 0.089861 -0.040625 -0.201531 -0.126189 0.100077 -0.102712 0.081463 0.028882 0.021349 0.052753 0.050586 -0.173216 -0.004964 0.002682 0.116471 -0.043679 0.030392 0.009566 0.175081 -0.196779 0.004865 -0.073781 0.096428 -0.238236 0.033078 -0.084649 -0.007410 0.082945 -0.122407 -0.095701 0.074700 -0.012276 -0.259109 0.010463 0.239997 -0.086760 -0.294012 -0.092208 0.213972 0.092384 -0.045512 -0.022972 0.287934 0.011749 0.023149 0.068019 0.102235 -0.056282 0.171822 0.128884 -0.095648 0.097771 0.018237 -0.019869 -0.207166 -0.188610 -0.138053 0.046511 -0.108228 0.074357 0.055790 0.163275 0.008976 0.219868 0.153508 -0.149170 -0.088272 0.163926 -0.017723 -0.027095 -0.039023 -0.119368 -0.148250 0.178448 0.168895 -0.227994 -0.154320 -0.056918 0.155784 -0.234054 -0.182710 -0.059994 0.207873 -0.064887 -0.246739 -0.002681 0.191084 0.089551 -0.248695 -0.060092 0.264704 0.078454 0.037011 -0.040879 0.204332 -0.058933 0.004133 -0.067918 0.092691 0.077403 -0.029342 0.016643 -0.085986 0.040315 0.042851 0.076298 -0.204658 -0.038622 0.066770 -0.045968 0.069308 -0.098182 -0.067166 -0.080106 -0.075086 -0.008755 -0.178091 -0.122609 -0.168516 0.032168 -0.043322 -0.063483 -0.125817 0.087704 -0.088465 0.085334 -0.059491 0.039658 -0.003361 -0.122772 0.133193 -0.141862 -0.246592 0.034476 0.122379 0.060320 -0.368888 0.070418 0.236278 0.082237 -0.269055 -0.140003 0.297133 0.252288 -0.040902 0.039636 0.015030 0.197360 0.017637 0.037995 0.059232 0.009029 0.156137 0.138874 -0.019633 -0.001798 0.168196 0.135672 -0.258862 0.082730 0.071572 -0.117276 -0.041644 0.042202 -0.074766 -0.160865 -0.144241 0.103760 -0.047130 0.074762 -0.069717 -0.021107 -0.080614 0.008091 0.081761 0.086770 -0.092290 -0.008324 -0.023718 0.105117 -0.056322 -0.042308 0.130213 0.078486 -0.099653 0.154963 0.044407 0.092191 -0.100991 0.101678 0.054708 -0.197393 -0.196309 0.078341 0.169142 0.017961 -0.208189 0.043478 0.158022 0.130076 -0.195228 -0.088953 0.052984 0.116400 0.128961 0.093882 -0.031551 -0.002377 0.069660 0.008453 -0.152684 0.017867 0.060702 -0.131554 -0.220017 0.005389 0.086120 0.053155 -0.064542 -0.096522 0.023123 0.057728 -0.006520 -0.024385 -0.002697 0.165196 0.078926 -0.113963 0.038701 -0.090018 -0.037757 0.104501 0.079347 0.112291 0.056326 -0.124766 -0.072179 0.079834 0.004577 -0.065346 -0.074627 -0.083471 -0.003826 0.022974 -0.267299 0.195403 0.232874 0.057728 -0.053107 -0.073227 0.189765 0.040596 -0.154862 -0.078842 0.065753 0.091178 -0.186784 -0.063496 0.046899 -0.007569 -0.109924 -0.103234 -0.074111 0.044350 -0.103803 0.053345 -0.138729 -0.045965 -0.135921 0.053283 -0.084382 -0.151777 0.133710 0.014410 -0.053252 -0.117166 0.099865 0.193417 -0.111441 0.114036 -0.092000 0.179388 -0.092667 0.105335 0.069047 -0.055799 0.004618 -0.008341 0.128627 0.103023 -0.002187 0.121812 0.031644 0.032107 0.116549 0.385168 0.098104 -0.118802 -0.035366 0.158231 0.024040 0.097959 -0.090120 0.184808 -0.150041 0.128781 0.056456 0.212970 -0.136287 -0.062584 0.021046 0.113141 -0.104844 -0.106172 -0.012023 0.129292 -0.010705 0.049511 -0.038465 -0.038687 0.133561 -0.108830 0.035666 0.058100 0.026128 0.078770 0.007646 0.066640 0.161398 0.032290 -0.083421 -0.114266 0.012580 0.093510 -0.071812 -0.087588 0.009739 0.078243 0.158210 -0.142136 -0.123994 -0.016459 0.010052 -0.026922 -0.138015 -0.048797 0.083112 0.166454 0.057323 -0.158306 0.040260 0.012953 -0.072603 0.019514 0.016424 0.080256 -0.109870 0.060888 0.164138 0.044854 0.189068 0.056243 0.042227 0.040287 -0.058653 -0.048474 0.163599 0.068990 0.086598 -0.003928 -0.029417 -0.039830 -0.026647 0.068589 0.072971 -0.081441 0.128373 -0.079887 -0.039347 -0.117836 0.022064 0.083006 -0.011565 -0.098900 -0.025731 0.014409 -0.073802 0.031734 0.121596 0.008608 0.094681 0.143134 -0.167662 -0.170262 0.049203
-0.088747 -0.000350 0.041234 0.179941 0.102743 -0.115646 0.047820 -0.057762 -0.041281 0.057231 -0.032171 0.122594 0.006582 -0.183486 0.068939 -0.113858 0.114981 -0.092759 0.109247 -0.106249 -0.176736 0.066402 0.032330 -0.004578 0.036716 -0.021444 0.003713 0.150642 -0.220076 0.041463 -0.078898 0.110588 -0.015155 0.030064 0.138873 0.158307 0.073576 -0.028464 0.008625 -0.033820 -0.065684 0.089554 -0.115359 0.001702 -0.079169 0.038250 -0.069746 -0.022324 -0.056114 -0.042218 -0.040494 -0.160898 -0.134970 -0.056220 -0.012530 0.000960 -0.083655 -0.041769 0.042425 -0.069924 -0.139068 0.123653 -0.121881 -0.129528 -0.037786 0.041920 -0.063344 0.059485 -0.187119 -0.132572 -0.059399 -0.149316 0.000291 -0.111149 0.060775 0.117500 -0.197291 -0.160491 -0.006116 0.053309 -0.053103 0.013377 0.072392 0.119950 -0.069107 0.055427 -0.016552 0.157920 -0.126579 -0.160275 -0.193855 -0.054677 0.000375 -0.061774 -0.018741 -0.030565 -0.053773 0.018362 -0.101494 0.144693 0.060628 0.047115 0.133155 -0.019860 -0.084476 0.046333 0.017267 -0.037008 0.019039 -0.126291 0.039835 0.115756 -0.070359 -0.089515 0.155634 -0.148956 -0.110116 -0.040493 0.112560 0.064343 0.003281 0.013074 0.140403 0.198390 0.163182 -0.165426 0.058627 -0.016473 -0.018384 0.038466 0.057965 -0.057718 -0.037825 0.075764 0.028914 -0.111336 0.008685 0.161257 0.034395 -0.114084 -0.167354 0.211954 0.019664 -0.213379 -0.084569 0.110826 0.027311 -0.055251 -0.103444 0.395286 -0.071353 0.004393 0.099887 0.172972 0.048592 -0.017087 0.211689 0.126318 0.083443 0.200275 0.050899 0.052827 -0.054708 -0.130597 0.087016 0.023902 -0.044118 0.156997 -0.026017 -0.004333 0.036347 0.072905 0.030408 0.095986 -0.070862 0.200494 0.119138 0.003460 0.002708 -0.010313 -0.042244 -0.013562 -0.089377 -0.002076 -0.009068 0.076208 -0.153860 0.090401 -0.031142 0.264016 -0.040745 -0.058651 -0.161547 0.421907 -0.019164 -0.406579 -0.035583 0.525302 0.059670 -0.399002 -0.117723 0.454335 0.036977 -0.339679 -0.006667 0.205422 0.088050 -0.193391 -0.039166 0.264053 -0.030391 -0.120475 0.206239 0.070390 -0.094028 0.077851 0.169023 0.082285 -0.025441 0.032025 0.136365 0.033955 0.151912 0.072432 0.118918 0.045874 0.063172 0.065030 -0.062204 0.006694 0.031847 0.008446 -0.011789 0.019585 -0.057738 0.034107 0.166966 0.172838 0.114268 -0.019450 -0.131615 0.102993 -0.125027 -0.192919 0.008566 0.316596 -0.007850 -0.057748 -0.272122 0.422276 -0.075453 -0.345437 -0.092945 0.381200 -0.087936 -0.491212 -0.063419 0.228468 -0.128623 -0.455436 -0.045655 0.375223 -0.089609 -0.211154 0.087777 0.252625 -0.096276 -0.106943 0.096762 0.185716 -0.032390 -0.102532 -0.018960 -0.203836 -0.020623 0.010487 0.107978 -0.131400 0.027725 0.180308 -0.142344 -0.057817 -0.141014 -0.079073 -0.035069 0.089235 0.053270 0.007942 -0.073693 -0.101185 0.121931 0.032663 0.043915 0.057069 -0.007539 -0.127734 0.147558 0.365394 0.018071 -0.229279 0.237511 0.248496 0.006872 -0.100329 -0.170680 0.130309 -0.180066 -0.191536 -0.193810 0.158593 0.148791 -0.218513 -0.025425 0.263633 -0.061487 -0.347270 -0.161954 0.184543 -0.015238 -0.139148 -0.031269 -0.005435 -0.055942 -0.210134 -0.118940 -0.092285 0.068317 -0.004337 -0.064525 0.080134 0.128307 0.031017 0.073716 -0.096452 -0.136222 0.007409 -0.116817 0.024217 -0.049139 -0.053914 0.011480 -0.148186 -0.005915 -0.130748 0.116113 0.148197 0.095540 -0.014380 0.189490 0.059275 -0.144120 -0.085384 -0.024967 0.062158 -0.061778 0.011756 0.181450 0.232665 0.041860 -0.045410 -0.042750 -0.080550 0.003045 -0.038469 -0.238127 -0.011248 0.055977 -0.188508 0.078994 0.058750 0.036431 -0.211326 -0.063788 0.130265 -0.157571 -0.130872 0.132450 0.112327 0.060437 -0.008611 0.001505 0.068999 0.087120 0.131269 -0.269232 -0.116118 -0.025898 -0.003927 -0.033186 -0.026603 -0.072011 0.080496 -0.087243 -0.035703 -0.138863 0.117170 -0.039094 0.015042 -0.157998 -0.183860 0.042424 -0.124815 0.073889 0.151133 0.094895 0.104591 -0.115379 0.038261 0.169238 -0.037378 -0.128004 0.050374 0.116286 -0.015930 0.070259 0.108441 0.017038 0.022010 0.052845 0.184349 0.010993 0.126758 -0.033604 0.088357 0.221341 0.059660 0.051406 0.136092 0.029945 0.016817 0.015021 0.123038 0.102033 -0.058147 0.009012 0.061975 0.066170 -0.028289 -0.038412 0.155712 -0.120411 -0.106893 -0.070955 0.004456 0.105923 0.083848 -0.116805 -0.002798 0.026572 -0.066720 0.010452 -0.081096 -0.072619 0.023364 0.090503 0.123869 0.078255 0.073121 0.050679 0.040339 0.033860 0.054792 0.087698 0.181412 -0.047107 -0.193097 0.025369 -0.068458 0.065017 -0.110944 -0.016808 0.116899 0.088612 -0.173098 0.152956 0.167066 0.219034 -0.001409 -0.020399 0.068918 0.128766 -0.083747 -0.117536 -0.004452 -0.011169 -0.124427 -0.002348 0.058006 0.122191 -0.018869 0.039739 0.030138 -0.018122 -0.038973 0.003835 0.117448 -0.117473 -0.043224 0.077481 0.027905 -0.010047 0.077714 -0.028999 0.049644 0.023857 -0.107991 0.003266 0.050147 -0.011402 -0.050026 0.022920 0.036622 -0.096594 -0.090917 0.072197 0.037722 0.042930 0.055603 0.137952 -0.105843 -0.058458 -0.075183 0.064768 -0.067146 0.086119 -0.023115 0.083639 0.002963 0.104569 -0.007557 -0.088416 -0.152414 0.143792 0.055895 -0.039999 -0.127562 -0.091210 0.024465 0.050137 -0.062295 0.033877 -0.049900 -0.082318 0.159863 0.028615 -0.016897 -0.071536 0.074386 0.005980 -0.081906 0.016979 0.129109 -0.115244 -0.147481 -0.168355 -0.149877 -0.111301 0.012547 -0.169985 -0.068098 0.020197 -0.156458 -0.149067 -0.014106 -0.010205 -0.031643 0.004313 -0.081760 0.028061 -0.103994 0.025150 -0.049886 -0.291010 -0.050959 -0.040187 0.097636 -0.020009 -0.011272 0.131244 -0.112610 -0.109419 0.160500 0.021564 -0.049810 -0.148187 0.082916 0.017949 -0.154325 -0.119815 0.171649 -0.151952 0.088372 -0.091736 0.086452 -0.000867 -0.041370 -0.102731 0.019024 0.032965 0.001230 0.047098 0.006861 0.036324 0.041712 -0.117606 -0.010447 -0.011574 -0.153256 -0.178937 -0.042968 -0.170295 -0.142470 -0.082183 0.009602 -0.073140 0.060928 -0.160248 0.076147 -0.191027 -0.039589 -0.099939 0.076057 0.008455 0.107084 -0.029109 -0.191645 0.192173 -0.037916 0.072361 0.173144 0.027109 0.068494 -0.011507 0.092167 0.057864 -0.003012 -0.140290 0.155717 0.051121 -0.170179 0.008244 0.292529 -0.041568 -0.170079 -0.056552 0.231715 0.031882 -0.214915 -0.039698 0.107244 -0.056355 0.027273 -0.040634 0.176857 0.030738 0.002483 -0.004352 0.025211 -0.038045 -0.017067 0.082606 0.006709 0.167298 0.162694 0.014897 0.094206 0.026379 0.042753 -0.081082 0.050230 0.071942 0.072193 -0.136987 -0.033580 -0.068622 -0.046560 -0.076922 0.144225 0.073532 -0.164536 -0.040364 0.119871 -0.016371 0.020005 -0.008408 -0.073068 -0.181696 -0.102381 0.075636 -0.084545 0.012695 0.136794 -0.157545 0.053144 -0.103021 -0.107734 -0.058671 0.063324 0.025799 -0.165671 -0.083226 0.095323 -0.068942 -0.054782 -0.000885 0.127141 -0.077315 -0.001444 -0.152475 0.076340 0.053206 0.028874 0.092836 -0.036708 -0.096736 0.023018 -0.108867 -0.058906 -0.046694 -0.108979 -0.065684 -0.128425 -0.051004 -0.086865 -0.170630 -0.019856 -0.033046 -0.011249 -0.149260 -0.056804 -0.066894 0.074570 0.013692 0.112672 0.045856 0.143588 0.153922 0.068576 -0.133128 0.054206 -0.225631 0.033922 0.128909 -0.032993 -0.072142 -0.004475 -0.074802 -0.111181 -0.183506 -0.194040 0.011233 0.152006 -0.029544 -0.079130 -0.012055 -0.000081 -0.217787 0.104817 -0.137624 -0.104390 -0.251948 -0.013254 -0.170743 0.015429 -0.219843 -0.117653 0.099874 0.004222 -0.143219 -0.011346 -0.127228 0.033927 0.055866 -0.020238 -0.041082 0.089754 0.067879 -0.056981 0.067985 -0.035050 -0.042019 0.083879 0.065259 -0.087639
-0.116898 0.116419 -0.102814 0.007783 -0.111547 -0.068130 -0.102842 0.131575 0.013816 0.100613 0.076038 -0.039221 -0.032607 -0.026168 -0.013166 0.159158 -0.121566 -0.030495 -0.087499 0.030442 0.112484 -0.085141 -0.003412 -0.122201 0.047787 -0.087144 -0.050404 -0.061442 -0.000218 0.044744 0.080387 -0.123795 0.141200 -0.075060 0.089826 0.095683 0.084673 -0.122043 0.024636 -0.045779 -0.132084 0.128837 0.016667 -0.059535 0.111003 -0.020760 -0.064956 0.012487 -0.028532 0.038999 0.070565 0.085929 -0.058368 0.081651 0.115432 -0.018801 0.076402 -0.041003 -0.025282 -0.006765 0.131984 0.004200 -0.093916 -0.134616 0.072660 -0.004794 -0.115762 0.063257 -0.081056 0.049785 -0.022874 -0.093307 -0.092792 -0.071620 0.133750 -0.055206 -0.040251 0.051387 0.079833 0.023124 -0.006361 -0.141525 0.028907 0.035067 0.073199 0.138869 0.139168 0.048394 0.205174 -0.038455 -0.105534 -0.116894 0.167342 0.041667 -0.111029 0.172127 0.134399 -0.051599 -0.034797 0.085623 -0.007134 -0.035566 -0.082075 0.042291 -0.003362 0.130596 -0.031053 0.019515 0.095499 -0.008945 -0.013750 0.041274 0.028756 0.127164 -0.007040 -0.010793 0.028436 0.064194 0.010914 0.027997 0.052925 -0.000009 0.010467 0.034681 0.065011 0.154093 0.065380 -0.066146 0.028038 0.156609 0.030864 -0.057222 0.057372 0.132332 0.055579 -0.039383 -0.040301 0.025031 0.028839 0.085607 0.101232 -0.212543 -0.070808 -0.015935 -0.007692 -0.062349 0.127134 0.105667 -0.068064 -0.091119 0.056112 0.025601 -0.027362 0.098600 -0.066046 0.054047 0.066998 -0.019950 -0.088190 0.114867 0.161389 -0.097069 0.023036 -0.001160 0.086729 -0.004673 0.092960 0.095056 0.181192 -0.109581 0.078652 0.063980 -0.203192 0.067104 0.068771 0.013958 0.055910 0.140739 0.101399 -0.071292 0.046911 -0.035391 -0.073092 -0.095812 0.089068 0.004638 -0.005702 -0.201215 0.031136 -0.047570 -0.069293 -0.248302 -0.130556 -0.175831 -0.018912 -0.068322 0.053905 -0.262120 0.079674 -0.017237 0.169005 -0.520263 0.076718 0.302768 0.046185 -0.413899 0.034826 0.181664 0.078363 -0.484202 0.042902 0.239959 -0.130983 -0.226357 -0.071890 0.133129 0.183186 0.131568 0.093135 0.181149 -0.101228 0.076222 0.056811 0.051505 -0.020110 -0.127643 -0.066374 -0.002337 -0.202362 -0.151904 0.084967 0.157633 -0.146186 -0.013200 0.157843 0.024533 0.046521 0.116749 0.004232 -0.207896 -0.050931 0.005256 0.122696 -0.290646 -0.003497 0.105219 -0.120590 -0.193905 -0.232583 0.004177 0.190900 0.051959 -0.251675 -0.334920 -0.072880 0.231236 -0.060911 -0.595226 -0.113043 0.195107 0.018534 -0.673192 0.050564 0.430409 -0.073961 -0.460580 -0.153420 0.280199 0.069150 -0.193235 0.168157 0.205949 0.353356 -0.070946 -0.073091 0.142878 0.237200 0.159108 0.024307 0.034849 0.096637 0.139264 0.050762 -0.011169 -0.170363 -0.078563 0.076766 -0.000680 0.137709 0.049420 0.105063 0.038310 -0.087874 0.148289 -0.016320 -0.186912 -0.114509 0.182298 0.161843 -0.200116 0.011869 0.093242 -0.020932 -0.199286 0.056387 0.027848 -0.098830 0.171698 -0.178424 -0.258504 -0.097712 0.260674 -0.197333 -0.395312 -0.061054 0.390226 -0.116503 -0.508095 0.015485 0.286628 -0.020408 -0.415695 -0.052175 0.383250 -0.092081 -0.413823 -0.067561 0.119278 0.479607 -0.081095 0.077620 0.249477 0.179741 0.201399 -0.078916 0.139603 -0.105991 0.037547 -0.062585 0.032060 -0.094009 -0.020569 -0.104489 0.186220 -0.061899 -0.088553 0.025954 0.096325 0.017235 -0.086193 -0.045933 -0.000492 -0.065697 0.005921 -0.035893 -0.165546 0.034634 -0.056384 0.069356 -0.038127 0.166623 0.009171 0.043578 0.030814 -0.035253 0.012288 -0.088663 0.191761 -0.080450 0.028381 0.085374 0.306025 -0.091540 -0.086433 -0.063318 0.214432 -0.073090 -0.174770 0.031030 0.116029 -0.339036 -0.218619 -0.013549 -0.009954 -0.098921 -0.017172 -0.148644 0.236725 0.034664 0.042651 0.008593 -0.068250 -0.098766 -0.018532 0.025996 -0.087986 0.154904 0.072558 -0.039554 0.016399 -0.134578 -0.105232 0.003158 0.066001 -0.086997 0.040290 -0.042533 0.219206 -0.298227 0.024262 -0.082688 0.063258 -0.131815 0.007218 0.100135 0.223814 0.036576 -0.063347 -0.041755 0.072237 -0.006539 -0.075176 -0.019808 0.125788 -0.103094 0.067110 -0.105353 0.104372 -0.092849 0.094983 -0.042879 -0.084951 0.079471 -0.068706 -0.184573 0.139901 0.088059 -0.044917 0.057855 0.050014 0.041324 -0.064944 0.073773 -0.005168 0.035595 0.050255 0.179938 -0.111335 -0.020313 -0.011194 -0.016695 -0.034641 -0.115173 0.026501 0.012324 0.005710 0.125887 -0.085846 -0.018652 0.258478 -0.076668 -0.138550 0.060240 0.210801 -0.084160 -0.090872 -0.125400 0.394585 -0.061041 -0.063301 -0.060920 0.170100 -0.049864 -0.089067 0.091264 0.203875 0.011404 0.053325 -0.065589 -0.075020 0.025151 0.186425 0.125552 -0.071936 -0.060484 0.101216 -0.091039 -0.170537 0.082177 0.034689 0.069729 0.003019 0.038480 0.125176 -0.038728 -0.153134 0.060641 -0.064916 -0.059116 0.079375 -0.094032 -0.069167 -0.037721 0.024174 -0.069547 -0.116851 -0.019782 0.113832 0.102881 -0.069595 -0.120950 -0.133745 0.251378 0.036088 -0.179737 0.149744 -0.029916 -0.093092 0.046271 0.326512 -0.094679 -0.201982 0.147873 0.193539 -0.045557 -0.359824 -0.040726 0.182470 0.188798 -0.309370 0.061039 0.105119 0.032293 -0.066503 -0.031382 0.021956 0.032152 0.052250 -0.179690 -0.150993 -0.030135 0.171926 0.170060 -0.140401 -0.003817 0.120957 -0.091290 -0.062878 0.021814 -0.045231 -0.180024 -0.088554 0.217155 -0.022378 0.193840 0.115282 -0.142768 0.071674 -0.019781 -0.000911 -0.040553 0.064285 -0.133528 -0.020661 -0.016796 0.051549 0.160278 -0.051624 -0.053455 -0.074510 -0.084005 0.066272 0.076236 0.023334 -0.084041 0.052430 0.192673 -0.109230 -0.162674 0.224623 0.147927 -0.109549 0.043245 0.083483 0.178634 -0.108411 -0.057195 0.021266 0.081707 -0.050670 -0.197445 -0.135368 0.054388 -0.086316 0.042685 0.047236 0.042245 0.065212 0.075269 -0.150345 0.072661 0.194736 0.036357 -0.091000 0.189925 0.075512 0.000238 -0.130856 0.088587 -0.047483 -0.082680 -0.016460 -0.094575 0.110898 -0.007776 0.014436 0.054048 0.099230 0.158918 0.120054 -0.069767 -0.020497 -0.000419 -0.007874 0.073749 -0.111020 -0.078639 0.064204 -0.190645 0.002704 0.026580 0.104978 0.006802 -0.181853 0.048797 0.048302 0.094662 -0.141114 -0.077139 0.078083 0.099564 -0.009389 -0.112258 0.011980 -0.003385 -0.016050 -0.036695 -0.057709 0.094375 -0.029575 0.100197 0.042404 -0.084919 -0.049387 -0.004534 -0.004744 0.040029 0.101952 0.091704 -0.105385 -0.017211 0.035070 -0.051485 -0.025695 0.094797 0.074159 -0.033542 0.135173 -0.121569 -0.028221 0.019634 0.003078 -0.111353 -0.078068 -0.016948 0.070833 0.138150 0.101685 -0.113279 0.219077 -0.153973 0.011611 -0.111280 0.149357 0.074549 0.018622 -0.077263 0.040056 0.050277 -0.027991 -0.011790 0.039044 0.114171 0.026532 -0.157747 0.049739 0.080801 -0.130025 0.064281 0.036115 0.243132 -0.038255 -0.163606 0.078533 0.092440 -0.079865 -0.053254 -0.010390 0.064394 -0.040446 -0.121593 -0.000122 -0.016173 -0.018995 0.080700 0.039716 0.060777 -0.069195 0.004738 -0.068653 0.157035 0.105486 -0.006568 0.182478 0.129580 -0.066404 0.075098 0.075753 0.063564 0.185662 0.036905 -0.032662 -0.013994 0.030451 0.057977 0.045847 0.069620 0.089687 -0.091391 -0.015865 -0.039419 -0.033460 0.009321 0.119610 0.005930 0.108234 -0.032149 0.041992 0.059427 0.048675 0.126684 -0.068828 0.058293 -0.159055 0.150022 0.080055 -0.016722 -0.072654 -0.011880 0.169199 0.142824 0.091256 0.038913 -0.062510 -0.033029 -0.149521 0.106338 0.052436 -0.059080 0.083905 0.079875 0.129140 -0.010573 -0.002562 -0.081216 0.035777 0.030728 -0.073645 -0.023773 0.041831 -0.110745 -0.019625 -0.059928 0.114294
-0.133614 0.095170 0.021822 0.098313 0.126364 0.007900 -0.046835 0.069066 0.086349 -0.088009 0.019878 -0.025742 -0.143114 -0.000217 -0.024692 -0.032626 0.140095 -0.046794 0.161299 0.061417 -0.062334 0.107990 -0.161405 0.063081 -0.080340 0.169860 0.031676 0.109245 0.096978 0.013340 0.053514 -0.061507 -0.027884 -0.045332 0.065317 -0.024433 0.057974 0.094299 -0.090617 -0.038351 -0.023970 0.077969 0.131258 -0.059758 0.001310 0.052539 0.034283 0.076544 0.117638 -0.037444 0.029237 0.092432 0.052937 -0.139393 0.009076 -0.158906 0.070185 -0.001804 0.139418 0.054777 -0.020468 -0.185979 0.042134 -0.010873 -0.089347 -0.092616 0.007733 -0.009139 0.159685 0.047001 0.161566 -0.101529 0.123512 0.061381 0.125733 -0.070046 0.035290 0.211734 -0.094736 0.100128 0.074182 0.077263 -0.181777 -0.056130 0.013976 0.154336 0.105814 -0.074552 -0.032032 0.263642 -0.166437 0.021155 0.037431 0.143053 -0.149775 0.203678 0.183152 0.079478 -0.150191 0.093422 0.086398 -0.163685 0.132268 0.067808 -0.018896 -0.141383 0.017866 -0.054589 0.001191 -0.159353 -0.104099 -0.032341 -0.161880 0.181775 0.042857 0.046070 -0.016262 0.221931 0.021745 -0.031910 0.100272 0.167998 0.001499 0.073350 -0.036294 0.093245 -0.061938 -0.084702 -0.120582 0.228858 -0.124722 -0.090025 -0.079027 0.139342 0.092609 -0.071637 -0.114633 0.134544 0.031170 -0.091745 -0.058045 0.144953 -0.119597 -0.079047 -0.041931 -0.057157 0.089176 -0.091559 0.086859 -0.022984 0.028556 -0.011655 0.146353 -0.101465 -0.076905 -0.069461 0.084353 -0.057036 0.031421 -0.008458 0.082309 0.010610 0.052971 0.155715 0.005332 -0.007582 0.072521 0.028213 -0.132991 0.032026 -0.050755 0.096997 0.000983 0.099856 0.115456 0.019325 -0.033268 0.030217 0.028667 -0.076678 -0.066821 0.048221 0.016017 -0.078862 -0.156924 0.038590 0.014147 0.073300 -0.161129 0.054852 -0.140616 -0.203595 -0.090525 0.013196 0.080082 -0.105530 -0.150604 -0.018567 -0.119410 -0.112646 -0.122032 -0.151052 -0.164160 -0.039054 -0.129667 -0.182416 -0.087641 0.053340 0.047989 -0.184970 -0.092268 0.079773 -0.045801 0.030855 -0.029068 0.000938 -0.017167 -0.014234 -0.129769 -0.035512 -0.078262 0.083110 -0.117016 -0.038155 -0.043739 -0.108463 0.039930 0.079882 -0.128955 0.048207 -0.017505 -0.093865 -0.137494 0.121830 0.104920 -0.090756 0.079259 -0.043481 0.114719 -0.083708 -0.017471 0.088067 0.055357 -0.020657 -0.107642 0.011289 -0.008584 -0.166230 -0.156547 0.125447 -0.198754 -0.021452 -0.310642 0.070808 0.018228 -0.081713 -0.374967 -0.183765 -0.045023 0.179418 -0.095677 -0.287418 0.013695 0.223196 -0.035612 -0.174317 0.098123 0.072340 -0.196885 -0.095964 -0.110226 0.104168 -0.140797 -0.037404 0.021884 0.156850 0.084691 0.103098 0.109218 0.023652 -0.053814 -0.163151 0.131153 0.159504 -0.123889 -0.161047 0.148540 -0.101764 -0.101247 0.076683 0.165397 0.026166 0.157222 0.130731 0.010585 -0.068531 -0.065902 0.154240 0.117137 -0.207916 -0.017614 0.093670 0.117423 -0.269166 -0.010559 0.107170 -0.072325 -0.355107 -0.256192 -0.163891 0.087969 0.072776 -0.322138 -0.084280 0.075356 0.040910 -0.163527 -0.289102 0.003436 0.223617 0.035142 -0.079188 0.046817 0.131348 0.032709 -0.010706 0.178272 0.134400 -0.152740 -0.177864 0.115318 -0.038681 -0.170656 -0.068266 -0.031193 0.008418 -0.071260 -0.155081 -0.114979 -0.102061 0.113926 0.054586 -0.010870 -0.019332 -0.018136 0.237068 0.081699 -0.102448 0.157980 0.028849 -0.017901 -0.263613 0.091213 0.189020 0.122813 -0.240654 0.200655 0.066911 0.141488 -0.213160 -0.122360 0.146640 0.122696 -0.203848 -0.080249 -0.024072 0.065676 0.070865 -0.009813 0.003193 -0.012675 0.232647 -0.082566 -0.074866 -0.062545 0.172603 -0.001178 -0.161698 -0.002438 0.043088 0.225597 0.168676 -0.099320 -0.152597 0.081756 0.099023 -0.008385 0.101965 0.063011 -0.086075 0.033447 0.121185 0.071809 -0.012948 -0.080886 -0.061425 -0.206209 0.080437 -0.115224 -0.030950 0.008566 0.149533 -0.124953 -0.083746 0.177607 0.173684 0.126699 -0.212917 0.049324 0.257436 -0.182556 -0.343340 0.096464 0.336492 -0.081530 -0.318468 0.071934 -0.006566 -0.099595 -0.140227 0.163259 0.064073 -0.003762 0.083837 -0.064183 0.015960 0.091921 0.250006 -0.125028 0.041823 -0.187452 0.038253 0.180853 0.194116 0.176018 -0.044776 0.140229 0.371051 0.082349 -0.202420 0.106442 0.004063 0.116574 0.010968 -0.045010 0.157927 0.064518 -0.046686 0.021897 -0.074964 0.002492 -0.177106 -0.095580 0.012669 0.004703 -0.038194 0.164424 0.053258 -0.161548 -0.029660 0.101291 0.200483 -0.181528 -0.217935 0.023326 0.019554 0.057645 -0.183969 0.097745 0.238223 -0.060169 -0.118446 0.111658 0.171836 0.088172 -0.188569 0.009554 0.213767 -0.166483 -0.009482 0.087161 0.074153 0.048583 -0.020896 0.162401 0.176342 -0.094766 0.179557 -0.080229 0.000520 -0.084446 0.021673 -0.070620 0.159098 0.063504 -0.094356 0.094270 0.180138 0.100603 -0.079264 -0.034876 -0.104134 0.048135 0.087855 0.028188 0.053671 0.053533 -0.103470 -0.068135 -0.169783 -0.005108 0.029562 0.143156 0.005811 0.082633 -0.039692 -0.032998 0.190811 0.068796 -0.127893 0.165949 0.202675 0.042202 -0.127500 0.085335 0.331180 0.008651 -0.109268 -0.040150 0.056847 0.053929 -0.078993 -0.028154 -0.041735 0.035038 -0.045898 0.051177 0.039465 0.020134 0.145882 -0.071065 -0.021077 -0.106411 0.032482 -0.045540 0.131956 -0.092788 0.009631 0.035913 -0.031838 -0.106062 -0.143243 -0.037361 0.002951 0.180504 0.124410 0.083830 -0.136906 -0.062822 0.076727 0.107738 0.146150 -0.022432 -0.174323 -0.109756 -0.008185 -0.015295 0.071553 -0.193662 -0.132378 -0.037215 0.130224 0.036665 0.014788 0.084077 -0.075521 0.042528 0.253947 0.068667 -0.101998 0.166018 0.165676 0.027690 0.050974 0.277869 0.080068 0.109314 0.076172 0.188194 0.092209 -0.053908 0.169842 0.183234 -0.082627 0.182422 0.157301 0.102288 -0.026961 0.133611 0.015305 0.031618 0.016520 0.027449 0.054475 -0.050032 -0.000443 -0.159342 -0.015107 0.020248 -0.000781 0.003330 -0.062101 0.066301 0.153189 0.016673 -0.025893 -0.057307 0.129285 -0.003590 -0.134799 -0.062574 -0.015833 -0.080504 -0.138391 0.003730 0.008290 0.046376 -0.033937 -0.142552 0.036318 -0.002403 0.096918 0.067940 -0.139150 -0.130558 0.051802 -0.077069 0.052209 0.040632 0.058318 -0.030101 0.073435 0.099709 0.045127 0.024448 -0.083842 -0.132713 0.027445 0.034912 -0.109942 -0.022378 0.041433 -0.066514 0.023508 -0.012654 -0.028119 0.015425 0.087041 0.066614 0.003572 -0.035208 -0.116569 0.079274 -0.110052 -0.148685 0.033936 0.041603 0.091850 -0.106797 -0.121938 -0.183679 0.123072 -0.042566 0.007291 -0.013502 0.052902 -0.029289 -0.114380 0.151048 -0.042278 -0.090666 0.044920 0.002547 0.072930 -0.191764 -0.054775 0.045027 -0.031819 -0.094265 0.038683 -0.003004 -0.005910 -0.079247 -0.148927 -0.094429 -0.110785 -0.144380 0.035298 -0.076637 0.072947 -0.047339 0.034541 0.012660 0.050067 -0.043078 -0.196055 -0.149931 0.146963 0.077392 -0.146642 0.040035 0.079630 -0.003921 0.028367 -0.096102 0.067338 0.021579 0.107724 -0.082673 0.046232 0.078540 0.026883 0.180070 -0.000276 -0.087228 0.004453 0.020664 -0.169224 0.079512 -0.158602 0.004724 -0.019685 0.000651 0.084222 0.093017 0.146759 0.026591 0.139104 0.002273 0.064422 -0.082857 -0.132805 -0.128921 -0.174883 0.077558 0.113766 0.110424 -0.110613 -0.017837 0.034375 -0.044733 -0.102715 0.003315 0.044497 0.036894 0.037084 0.017611 -0.014341 -0.126294 -0.048112 -0.105084 -0.055131 -0.103756 -0.011301 0.010229 -0.052644 0.074986 0.127868 -0.014825 -0.150348 -0.084411 -0.042772 0.020325 -0.005102 0.076806 0.082593 0.054593 0.088044 0.129569 -0.135275 -0.030929 0.102654 -0.039383 0.169669
0.031869 0.002205 0.016130 0.207572 -0.030996 0.133917 0.060687 0.056027 0.182453 0.007244 0.024123 0.237822 -0.067022 -0.079206 0.045045 0.042075 -0.150546 -0.125048 0.107911 0.009778 -0.189027 -0.076860 0.064908 -0.016176 -0.153202 0.081499 0.065235 -0.003357 -0.064999 -0.027800 -0.070964 0.176991 0.044997 -0.073873 -0.126504 -0.045500 0.027484 0.054357 0.090805 0.088965 -0.053018 -0.078340 -0.030977 0.069074 -0.086801 0.020875 0.057304 -0.105437 -0.021513 -0.100448 0.009683 -0.083988 -0.064036 -0.017703 -0.001107 -0.009596 0.072872 0.134717 0.002704 0.048600 0.052852 -0.073304 -0.039853 0.087209 0.085368 0.020894 0.031509 -0.058789 -0.158581 0.157133 0.131236 -0.003037 -0.093518 -0.131585 -0.093472 -0.026812 -0.060851 -0.039680 -0.044489 0.231736 -0.200055 0.015383 0.111347 -0.094751 0.068608 -0.014080 0.061860 0.228132 -0.125214 0.081704 0.002623 0.119478 -0.138801 -0.158101 0.088384 -0.029345 0.118728 -0.099351 -0.001399 0.167939 -0.115700 0.162104 -0.177905 0.002881 0.020574 -0.007945 0.042120 0.027540 0.038945 0.035523 0.041671 0.036622 0.042606 0.089391 -0.012399 0.042186 -0.073747 -0.151614 -0.056985 0.032104 0.156593 -0.046063 -0.141043 0.062687 -0.040835 -0.031731 0.158064 0.017871 0.083995 -0.131403 0.057778 0.097205 -0.060426 0.181152 0.106440 0.100049 -0.040530 0.021409 0.014324 -0.067112 -0.057231 -0.074090 -0.097388 0.092218 -0.065284 -0.205145 -0.007521 0.124521 -0.193044 -0.146791 0.068112 -0.037711 0.029871 0.100788 0.052828 0.186843 -0.015307 0.022849 0.158560 0.015698 -0.023741 -0.052297 -0.009437 -0.037149 0.062085 0.110657 -0.038501 -0.044743 0.013894 0.035559 -0.079385 0.053416 0.000225 0.073803 -0.049353 0.146115 0.050009 0.094045 0.003824 0.077312 0.207280 -0.028543 -0.100306 0.151052 0.128172 0.100271 -0.113537 0.163762 0.200695 -0.032423 -0.066897 0.290713 -0.079476 -0.026160 0.084716 0.126374 -0.035939 -0.248748 -0.122432 0.142756 0.092195 -0.076180 0.101441 0.070861 0.138068 -0.171713 -0.096040 0.077992 0.055828 -0.074733 0.042728 -0.163830 -0.008562 0.080377 0.032511 -0.056248 -0.108745 -0.042764 0.023089 0.037956 -0.067794 -0.113967 0.054022 0.131643 0.147106 -0.062001 0.058908 0.108578 0.157191 0.046989 -0.024126 0.138244 -0.040189 -0.082613 -0.006549 0.059290 0.052470 -0.067522 0.020875 0.112295 0.008931 -0.184982 -0.074601 0.053305 0.166756 -0.116772 0.186039 0.161313 0.187888 -0.217824 0.032049 0.079646 0.228427 -0.076561 0.095772 0.110240 0.126102 -0.114339 0.011282 0.076224 0.096010 0.065216 0.111981 0.014764 0.159326 0.188291 0.141672 -0.166234 0.062494 -0.146720 0.066959 0.047441 0.070243 -0.038265 0.165580 -0.001537 -0.044818 0.143125 0.147559 0.091770 0.009555 0.051115 0.128058 0.161709 0.171028 0.029894 0.096485 0.178092 -0.067694 0.022884 -0.047960 0.148417 -0.067685 -0.292490 -0.005356 0.212266 0.116657 -0.147842 0.011164 0.025393 0.049577 -0.234779 0.198267 -0.090525 0.187644 -0.129635 -0.011350 0.003988 0.231430 0.054434 -0.039191 -0.136664 0.223307 0.152778 0.065980 0.057498 -0.018877 0.048541 0.003637 -0.113518 0.152056 0.128034 -0.025296 -0.146236 -0.074609 0.064942 0.056846 0.004393 -0.080187 -0.105386 0.118333 0.079148 -0.000540 -0.017468 -0.040439 0.055506 0.144873 0.011709 0.163692 0.112279 0.013008 0.102796 -0.068108 0.131099 -0.027769 0.051221 0.069552 0.079834 -0.096225 -0.071175 -0.088350 0.117311 0.056303 -0.221225 0.085787 -0.005273 0.010390 -0.126685 -0.066705 0.107581 -0.224921 0.234622 -0.059545 -0.210917 0.054725 0.259965 0.043955 -0.272013 0.090878 0.116477 0.019736 -0.013976 -0.041010 0.075566 0.177994 0.112263 -0.051463 -0.073109 0.095557 0.032443 0.041337 -0.040238 0.022683 0.101871 -0.178135 0.093057 -0.074656 0.085033 -0.029092 -0.129164 -0.172053 0.009509 -0.055754 -0.095709 0.093500 0.056609 -0.057871 0.014519 -0.021518 0.173987 0.032821 0.008631 -0.081892 0.011010 -0.021842 -0.109585 0.147901 0.096591 0.093443 -0.162530 -0.049302 0.039473 -0.106045 -0.015470 -0.197414 0.156840 -0.441887 -0.016528 -0.109268 -0.363673 -0.068042 -0.149829 -0.005248 -0.206775 0.009181 0.063623 0.015028 -0.017582 0.219370 0.076730 -0.049000 0.294279 0.117285 0.205237 -0.039466 -0.046517 0.052324 0.001643 0.141508 0.060956 0.081080 0.007198 -0.023635 0.027099 -0.175845 -0.080848 0.040169 -0.006282 -0.028732 -0.019557 0.097734 0.057292 0.150509 -0.033888 -0.077802 0.210023 -0.039863 0.061964 -0.082411 -0.049558 0.097529 -0.024361 0.029020 0.063700 -0.010610 0.186081 0.125955 -0.149024 -0.102544 0.151062 0.030361 -0.060615 -0.105158 0.048110 0.031303 -0.254150 0.090227 -0.031468 -0.120088 -0.151919 0.115395 -0.060212 0.104166 0.065340 0.192784 0.013505 0.093703 0.048569 0.113712 0.059501 0.021500 0.131568 -0.169940 -0.193571 -0.093190 0.054176 -0.000604 -0.156879 0.105971 -0.027855 -0.020229 -0.028347 -0.127933 -0.026228 -0.087474 0.006359 0.018406 0.226537 -0.121662 -0.081759 -0.016909 0.087308 -0.029644 -0.053440 0.034000 -0.023307 -0.084817 -0.018454 -0.130624 0.076433 -0.081702 -0.026641 0.004311 -0.035222 -0.241732 0.194268 -0.053422 -0.206471 -0.008944 0.043552 -0.025559 -0.145981 0.031149 0.058869 0.119191 -0.202149 -0.059885 0.113907 -0.030064 -0.072839 -0.092442 -0.064021 -0.158086 0.021623 0.021902 -0.135814 0.092548 -0.045067 -0.160638 -0.071650 -0.043059 0.128662 0.004013 0.025987 0.080794 0.163837 -0.016292 0.031206 0.188931 0.164849 0.059186 0.001810 -0.025154 0.071283 -0.185372 0.060234 -0.072721 -0.005471 -0.170241 0.045335 -0.006181 0.083568 -0.218852 0.082100 -0.100766 0.169941 -0.023915 0.089836 0.111883 -0.088997 0.011462 0.041158 0.161082 -0.158213 -0.052751 0.353658 0.084840 -0.210471 -0.103717 0.254979 0.072805 -0.159732 -0.184220 0.043272 0.071258 -0.183641 -0.168818 -0.137625 0.106650 0.031814 -0.063692 -0.190146 0.151533 0.094627 -0.206565 -0.149032 0.021208 -0.066640 -0.086074 -0.038286 -0.013854 0.190190 -0.036453 -0.124896 0.007404 -0.013304 0.120384 0.043908 -0.030146 0.153083 0.138823 -0.016008 0.032904 0.024221 0.165263 0.043281 -0.028252 -0.051653 0.090371 0.047686 0.030461 -0.049971 0.004833 -0.013209 -0.044077 0.051242 -0.202630 0.222900 0.046946 -0.110605 -0.238030 0.190289 -0.094082 -0.263373 -0.260311 0.250039 0.115038 -0.214325 -0.123130 0.188429 -0.119458 -0.098530 -0.169015 0.087701 -0.076295 -0.121460 -0.175590 0.012095 0.065938 0.133278 -0.359257 -0.011065 -0.007293 0.130288 -0.043629 0.103507 0.087781 0.100366 0.187579 0.009208 0.069977 0.089874 -0.047419 -0.091956 0.154984 0.061404 0.070639 0.184151 0.016066 -0.135964 -0.046425 0.096211 0.051197 0.155535 0.251938 0.078835 -0.027718 0.033171 0.058985 0.064168 0.021829 -0.117989 0.116897 0.068710 -0.087313 -0.228038 0.026928 0.138377 0.158608 -0.012639 0.077456 0.290874 0.009240 -0.218789 -0.073787 0.150434 0.069472 0.033134 -0.167274 -0.069878 0.012554 -0.098442 0.104246 -0.073690 0.031529 -0.093059 -0.081275 -0.005154 0.041936 -0.152324 -0.006281 0.048285 -0.026494 -0.071490 0.059004 -0.065023 -0.028340 0.231579 0.166262 -0.128461 0.139065 0.197481 0.083908 -0.069214 -0.111406 0.121437 0.049318 -0.071566 0.050367 0.096273 0.105772 -0.011329 -0.119446 -0.012012 0.048629 0.089414 -0.089676 0.008620 0.138436 -0.053025 0.149295 -0.063920 0.152405 -0.068134 -0.005234 -0.020824 0.005368 0.004398 -0.162881 -0.077903 0.131198 -0.072201 0.130714 -0.071485 0.183206 0.045388 0.121806 -0.085902 -0.067682 -0.054089 0.059016 0.131259 0.053307 0.015538 0.062220 -0.106590 0.069810 -0.138322 0.094878 -0.045925 -0.034160 -0.000360 -0.040341 0.047201
0.029013 -0.139650 0.033148 -0.193172 -0.122604 0.017373 0.090343 -0.029181 -0.110116 0.037242 -0.066593 0.071259 -0.028014 0.054293 0.131125 0.109590 -0.165835 -0.091854 0.094968 -0.184113 0.096960 0.008682 0.021413 -0.135486 -0.073672 0.100345 0.039264 -0.150044 -0.018920 -0.031640 0.012887 0.006553 -0.001028 -0.083249 -0.020201 0.022091 -0.063296 0.099193 0.001475 -0.020642 0.086099 0.029833 0.021894 -0.204887 -0.144939 0.033597 0.008829 -0.090690 0.045317 0.055117 -0.100098 0.013468 -0.094854 -0.046524 0.127210 -0.222114 -0.087541 -0.096965 0.081454 -0.080310 -0.062947 0.028711 0.023849 0.061111 -0.043790 0.070746 0.043727 -0.175052 -0.069353 0.049371 -0.062516 -0.080395 -0.009429 -0.020390 0.136034 -0.108247 0.083558 -0.150919 0.159561 -0.073327 0.054563 -0.016951 -0.023143 -0.086253 0.096653 -0.113054 -0.128353 -0.026575 0.048207 -0.084318 -0.024568 -0.026554 -0.081159 -0.040210 -0.093707 -0.060031 0.104360 -0.060959 0.027325 -0.119048 -0.188466 -0.095616 0.015453 -0.185526 -0.133414 0.072354 0.135265 -0.064768 -0.103623 0.040004 0.087653 -0.113403 0.038397 0.001911 -0.049188 0.015545 0.072397 -0.024268 0.086963 -0.084866 0.028567 0.044309 0.059974 -0.024559 0.010906 0.006726 -0.030038 -0.159650 -0.018825 -0.088220 -0.164207 0.037955 0.069373 -0.184325 -0.014231 0.039372 0.127905 -0.189752 0.004705 0.114402 0.081118 -0.015967 -0.085940 0.030252 -0.018153 0.061205 0.164386 -0.018513 -0.043562 0.010612 -0.009258 -0.045598 0.063093 -0.056970 -0.129726 0.085914 -0.004873 -0.012726 -0.085318 0.023610 0.035998 0.003205 -0.058900 -0.179219 -0.135444 0.002956 0.023617 -0.229340 0.053970 0.054639 0.067680 0.021349 0.008094 0.014319 -0.076769 -0.153725 0.101422 0.013194 -0.082352 -0.132605 0.091641 -0.079264 -0.062101 -0.163863 -0.004987 0.070272 0.027528 -0.052282 -0.021926 0.025783 -0.078980 0.043014 -0.006030 0.022892 -0.012606 0.052539 0.012950 0.020948 0.172503 0.144414 0.024215 -0.022319 0.020100 -0.044458 0.081053 0.146851 0.006401 0.080104 -0.011060 0.096319 -0.154217 0.156021 -0.053193 -0.004532 -0.100836 0.011057 0.153844 -0.091592 0.082997 0.036721 0.040847 -0.021392 0.041286 -0.018631 0.138975 -0.163593 -0.132149 -0.205272 0.074585 0.026051 0.066775 -0.180005 0.066534 0.166032 -0.119428 -0.180291 0.128077 0.155410 -0.086491 -0.115959 0.018607 0.077528 -0.059439 -0.151841 0.056654 0.116531 0.054442 0.013978 -0.051189 -0.020910 -0.129646 0.159233 -0.147811 -0.034289 0.051867 0.105141 -0.077884 0.043519 -0.032885 0.088935 0.025531 0.137296 -0.109305 0.172773 0.014799 0.181524 -0.104032 0.079114 0.059238 0.313022 -0.110850 -0.065036 0.222297 0.218822 -0.179207 -0.131153 0.002761 -0.032991 0.039545 -0.183939 0.011432 -0.049772 0.031484 -0.127557 -0.063087 -0.052350 0.142829 -0.094505 0.046780 -0.022320 -0.135234 -0.025538 0.088212 -0.027609 0.104016 -0.204036 0.022152 0.194804 0.001811 -0.068872 -0.065512 0.182184 -0.154221 -0.016693 0.134775 0.342493 0.092806 0.119504 -0.062147 -0.011010 0.038381 0.131357 -0.055944 0.006433 0.003711 0.086784 -0.018656 0.034012 -0.071047 0.180441 0.022172 0.039323 -0.152191 0.233343 0.147721 0.142208 -0.024530 -0.165562 0.192958 0.059226 0.033338 -0.032357 0.054978 -0.021134 -0.021460 0.009749 -0.007855 0.166173 -0.007881 -0.129806 0.085897 0.048160 0.068810 -0.094311 0.081944 -0.044430 -0.068743 -0.114645 -0.091171 0.015310 0.076497 0.070690 -0.156891 0.024291 0.083626 0.162554 0.119496 0.038501 -0.023450 0.149585 0.005481 0.151245 0.152944 0.068212 -0.086364 0.055198 0.158020 -0.028906 0.056846 -0.053415 -0.083860 0.069609 0.111200 -0.131644 -0.070462 0.268622 0.094478 -0.080887 -0.197787 0.017339 0.069389 -0.109933 0.157888 -0.121256 0.045606 -0.196115 0.061979 -0.130218 0.041980 0.109012 0.106530 -0.063356 -0.078316 0.009251 -0.054163 0.021225 0.043364 -0.033133 0.043620 -0.076607 -0.195201 -0.012701 0.053409 0.029298 0.006449 0.128319 0.101510 0.082084 0.121515 -0.120015 -0.078449 0.194676 0.131107 0.036938 -0.184001 0.166712 0.121138 0.152350 0.056118 0.041875 0.149036 -0.194442 -0.004626 -0.026083 -0.102590 -0.123792 -0.053977 0.240281 -0.203983 -0.287332 0.090394 0.260612 -0.179254 -0.363328 -0.048440 0.132350 -0.136104 -0.150205 -0.157229 -0.015801 -0.012277 0.024801 0.102923 -0.154725 -0.092730 -0.120180 -0.173486 -0.101397 -0.053187 -0.065580 0.051717 -0.181867 -0.109124 -0.064049 0.062924 -0.237659 0.090238 0.029484 0.028338 0.079852 0.169738 -0.048421 0.101123 -0.099357 0.112621 -0.066523 0.013466 -0.160965 0.322800 0.120983 0.095986 -0.059358 -0.056507 0.186964 0.094888 -0.172087 0.002414 0.056395 -0.048345 -0.057856 0.162414 -0.060853 0.053231 0.215113 -0.019520 0.086032 0.037068 0.248279 -0.011206 -0.097276 -0.095342 0.212791 0.011119 0.064704 -0.005125 -0.098666 0.092270 0.021807 -0.002030 -0.038697 -0.085064 -0.097895 0.023794 -0.044006 -0.073012 -0.093873 0.118279 -0.113935 0.032186 0.000228 -0.039993 -0.138743 0.140368 -0.064043 0.124463 -0.233626 0.143495 0.098301 -0.071809 -0.188454 -0.015097 0.268315 0.022017 -0.342651 0.076216 0.230616 -0.161210 -0.199622 -0.142508 0.199032 0.001505 -0.070012 0.029397 0.120251 0.041385 -0.056903 0.021844 0.263809 0.069293 0.045557 -0.092338 0.112577 -0.126241 -0.041839 0.076477 0.150361 -0.040324 -0.059536 0.088606 0.205847 0.085828 -0.177634 -0.077446 0.000051 -0.059717 -0.032521 -0.184615 0.120363 -0.098880 -0.077234 0.024159 -0.053685 -0.044222 -0.045593 -0.093587 -0.061945 0.033525 0.006371 0.218964 0.032523 -0.177073 -0.260840 0.105143 0.090706 -0.101875 -0.305389 -0.043372 0.161601 0.049101 -0.133942 -0.116156 0.200581 -0.003678 -0.204210 -0.099371 0.279220 0.000286 0.032588 -0.053274 0.159278 -0.062751 0.076881 0.052946 0.126036 -0.106844 0.018566 -0.020255 0.156395 0.074883 -0.126684 0.118440 0.209570 0.038857 -0.165667 -0.004439 -0.026071 -0.092908 -0.109392 0.084841 -0.148326 -0.184769 -0.050677 -0.088238 0.131571 -0.006216 -0.176489 0.162268 0.112342 0.128535 -0.144601 0.015139 0.050721 0.026990 -0.201758 -0.203341 0.042121 -0.058276 -0.023950 0.005732 0.123134 -0.013097 0.067693 -0.007927 -0.003796 0.034402 0.022099 -0.058160 0.129687 -0.184047 -0.015685 0.056449 0.011273 0.009803 0.209170 0.090631 0.036839 -0.076299 0.067556 -0.031241 0.015179 -0.077288 0.011828 -0.011600 0.049283 -0.049511 -0.069706 0.033003 0.084058 -0.115390 -0.196958 0.004477 -0.035303 -0.028760 0.036482 0.032714 0.017103 -0.049346 0.069077 -0.075717 -0.092782 -0.007170 -0.128572 0.032192 -0.186493 -0.019413 -0.145842 -0.175491 -0.000918 0.087966 -0.004518 -0.179815 -0.061908 0.041492 -0.030992 -0.041851 -0.031385 0.027048 0.028568 -0.005997 -0.074561 0.033817 -0.075123 -0.015837 -0.100906 -0.011114 0.008387 0.075477 -0.123786 -0.015981 0.083312 0.027119 -0.076307 0.004573 0.182430 0.054702 0.007031 -0.166877 -0.053458 0.059454 -0.102144 0.048143 -0.031143 -0.023246 -0.036435 0.003752 -0.110471 -0.051447 -0.054440 -0.112493 -0.066411 0.011243 0.017273 0.068569 -0.156064 0.083014 -0.015879 -0.084636 -0.096475 0.064100 0.086716 0.166408 -0.253897 0.124284 0.058492 0.070647 -0.079841 -0.138303 -0.017969 -0.080155 0.045602 0.090869 0.037007 0.073205 -0.105879 -0.112917 -0.109204 0.090710 -0.004034 -0.080996 -0.024590 -0.029540 0.007500 0.047860 0.091446 -0.068577 0.096092 -0.058336 -0.052028 0.000617 -0.007906 -0.124853 0.061714 -0.018235 -0.104280 -0.072932 -0.040763 0.133536 0.014803 -0.038285 0.039452 0.050840 -0.119071 -0.207334 0.011222 0.122750 -0.125310 -0.157959 -0.032612 0.134385 -0.148436 -0.039132 0.112172 -0.047333 -0.150657
0.140728 0.007536 0.133321 0.032841 -0.075128 -0.053459 -0.154762 -0.002455 -0.094983 0.017713 -0.043644 -0.074787 -0.165129 0.068064 -0.063375 -0.008347 0.033503 0.108822 -0.100634 -0.090336 0.103109 0.056429 0.066625 -0.119559 -0.102317 -0.052848 -0.068480 -0.061002 0.154866 0.026330 0.011862 0.077423 0.145421 0.065444 -0.053565 0.088524 0.051853 -0.040829 0.150705 0.013234 0.132371 -0.028575 0.017416 -0.130501 -0.089370 0.040251 0.136921 -0.097907 -0.119205 -0.108216 0.027426 -0.129734 -0.063172 0.059131 -0.039420 -0.062563 -0.168224 -0.036057 -0.041371 0.150445 -0.149087 -0.148676 -0.082347 -0.121264 0.032119 -0.002006 0.001448 0.046607 -0.009294 0.004226 0.034067 0.070863 -0.125091 0.159886 -0.067401 0.073583 -0.118358 0.047144 0.115787 0.116807 0.089167 0.000844 0.064791 -0.103331 -0.177096 -0.064663 -0.046580 -0.109944 -0.130879 0.054161 -0.109777 0.069150 -0.084868 -0.118811 0.081473 0.159593 -0.115113 0.037144 -0.019473 0.050741 -0.002180 0.006066 -0.090159 -0.118389 0.034019 0.143016 -0.027448 0.037738 -0.079590 0.052859 0.044732 -0.123458 0.064571 -0.017472 0.072019 -0.210918 0.100919 -0.025541 -0.002139 -0.012075 -0.000378 0.067134 -0.163452 -0.045470 -0.038500 -0.105084 0.054040 -0.086926 0.014595 -0.019932 -0.077564 -0.041236 0.119503 -0.012748 0.088985 -0.160004 0.078598 -0.230339 -0.124354 0.098044 -0.138416 -0.306523 0.061479 -0.045203 -0.110013 -0.068083 0.003017 0.059997 -0.056673 -0.118829 0.101113 -0.172452 -0.008410 -0.260505 -0.011200 -0.172819 -0.004598 -0.055947 0.023608 0.146534 -0.159594 -0.059706 -0.121173 -0.185162 -0.057792 -0.111771 -0.075271 -0.019817 -0.084814 -0.021070 0.005083 0.067245 -0.082768 -0.022431 -0.053264 -0.166697 -0.195402 0.056371 0.176504 -0.135715 -0.158617 0.022436 0.085276 -0.109826 -0.015885 -0.241726 -0.070297 -0.113334 0.040443 -0.389061 -0.001017 -0.013433 0.257142 -0.059811 0.038516 0.325219 0.277444 -0.019380 0.028687 0.277375 0.220191 0.040598 0.082806 0.316212 -0.033179 0.063973 0.139646 0.143240 0.154083 -0.062852 -0.110618 -0.160390 -0.071043 -0.111522 0.179388 0.062959 -0.030715 -0.067524 0.125698 0.051062 0.024514 0.015174 -0.141579 0.132416 -0.135641 -0.139497 -0.096424 0.009265 -0.173809 0.082250 -0.163159 0.029452 -0.004476 -0.109771 -0.052064 0.101224 0.073907 -0.014545 0.044759 -0.214838 -0.016119 -0.133994 0.066036 -0.073456 0.201695 0.005966 -0.071896 0.067306 0.093285 0.160216 0.018318 0.134487 0.017429 0.314941 -0.169661 0.189894 0.022432 0.012943 0.090839 0.220734 -0.070479 0.087298 0.013445 0.204445 -0.085991 -0.103542 0.023024 0.059183 -0.014239 -0.005227 0.062100 -0.073084 -0.023021 0.109296 -0.107003 -0.159329 -0.102913 -0.000332 -0.099149 -0.173067 -0.232629 0.025879 0.081646 -0.012026 0.074610 0.144997 0.055775 0.005103 0.159303 0.235587 0.018406 0.004709 0.080313 0.127480 0.021652 -0.280763 0.067789 0.383248 0.098543 -0.115940 -0.046248 0.308979 0.050326 -0.247988 -0.002886 0.096454 -0.012686 0.098708 0.038658 -0.182077 0.011262 0.083716 0.237256 -0.120737 -0.007187 0.013968 0.028447 -0.081992 0.038343 0.143684 0.140187 0.121231 -0.126221 -0.207308 0.034145 0.093525 -0.076365 0.005034 -0.126360 -0.110854 0.133106 -0.145107 0.029050 0.033075 -0.077565 -0.046987 -0.115564 -0.081650 -0.058760 -0.118735 0.074674 0.130194 0.124967 -0.028349 0.053455 0.252446 -0.092005 -0.021581 0.141622 0.244834 -0.024122 -0.275889 -0.033555 0.179023 0.084837 -0.091417 -0.096345 0.145812 0.063435 0.073477 -0.222721 -0.036755 -0.097751 0.210278 0.279537 -0.207504 -0.075305 0.162183 0.260085 -0.059621 -0.014589 -0.103454 0.156943 0.165271 -0.018916 -0.208897 0.219600 0.125149 -0.092176 -0.328943 0.124173 -0.041504 0.013743 -0.068342 -0.193543 0.010916 0.033050 -0.035490 0.031171 -0.014219 0.086666 0.050166 -0.053676 0.033032 0.054775 0.085949 0.019565 0.108618 -0.092590 -0.013319 -0.092820 0.137867 0.035726 -0.046127 -0.115690 0.140294 -0.144591 -0.163169 -0.020537 0.109897 0.072729 -0.026324 -0.232576 0.033175 0.103694 0.195179 0.126000 -0.267247 -0.139799 0.372232 0.157282 -0.135172 0.176341 0.153938 0.254579 -0.078429 -0.054030 -0.201566 0.005279 0.059055 -0.040804 -0.514082 0.190236 0.070290 -0.087050 -0.314706 -0.095217 -0.149405 0.037785 -0.017008 0.001185 -0.129025 -0.115761 -0.159361 0.053586 -0.014721 0.010229 -0.057117 0.078679 -0.064664 0.022966 -0.090155 0.006887 0.082473 -0.028908 0.087452 -0.088295 0.093343 0.035324 0.063516 0.011666 0.049645 0.031746 -0.035376 -0.162145 -0.081552 0.100455 -0.012668 -0.060171 -0.197835 0.032983 0.364637 0.059149 -0.309626 -0.109140 0.309147 -0.121240 -0.007713 0.094088 -0.093843 0.059016 0.083037 0.106893 -0.227261 -0.332881 0.020551 0.003822 -0.333334 -0.068623 0.069600 -0.034174 -0.133964 -0.132872 0.047704 -0.019120 -0.164472 -0.177425 0.024674 0.155624 -0.223087 -0.000284 0.003725 -0.044975 -0.028051 -0.112955 0.136813 0.077666 0.023278 -0.087234 0.019975 -0.036583 -0.171398 -0.214479 0.030607 -0.049221 0.078621 -0.048649 -0.047047 -0.103103 -0.072770 -0.040148 -0.072568 0.014304 0.198835 -0.061049 -0.269887 -0.199340 0.202031 0.097573 -0.159654 0.108480 0.286147 -0.017239 -0.051729 0.043594 0.138143 -0.242717 0.076231 0.107852 -0.163135 -0.082036 0.145937 0.072269 -0.231570 -0.053550 0.029352 -0.095346 -0.144545 -0.089776 0.000416 -0.007465 -0.056844 -0.143721 -0.034287 0.049257 -0.084930 -0.098272 0.127111 0.131015 -0.038343 0.014768 0.143490 0.060767 -0.098612 0.032290 0.006624 -0.006190 -0.101907 -0.124000 -0.136488 -0.086239 0.020644 -0.058786 -0.092710 0.149130 -0.080056 -0.102068 -0.109110 0.045702 0.121755 0.101168 -0.169060 0.094093 0.179208 0.043796 0.035148 0.028920 0.102899 0.011814 0.131791 -0.115085 0.006714 -0.146323 0.051207 -0.024746 -0.331093 -0.057633 -0.036612 0.005082 -0.011283 -0.027008 -0.138468 -0.100544 -0.054304 -0.052663 -0.027023 -0.054419 -0.104712 0.059701 -0.029759 -0.004865 0.010203 -0.037254 -0.020103 0.000173 -0.061351 0.120106 -0.032692 0.149824 0.049838 -0.005004 0.038254 0.154973 -0.184764 -0.099987 -0.141199 -0.111218 0.130080 0.149743 -0.014119 -0.004172 0.183763 -0.128054 0.042874 0.152129 0.036393 0.046665 -0.065360 0.033118 -0.001862 -0.098402 0.097029 0.006425 -0.063775 -0.101087 -0.001733 0.199215 -0.110441 -0.100318 0.033910 0.073686 -0.109549 -0.190713 -0.005036 0.029931 -0.125496 -0.013212 -0.094618 0.004936 -0.140372 0.008561 0.138008 -0.134889 -0.104770 -0.031803 -0.112156 0.056195 0.043444 -0.066151 0.126993 0.025707 0.037598 -0.133755 0.113690 0.024871 0.034284 0.011241 -0.058278 0.139415 -0.036200 0.034427 0.079537 0.100333 0.064562 0.168428 0.100312 0.013438 -0.104638 0.059464 0.019923 -0.077805 -0.142084 0.071904 0.181707 -0.085904 -0.120915 0.033975 0.151577 0.076896 -0.144936 0.048885 0.320285 -0.094386 -0.071280 0.057464 0.169389 0.113587 -0.132762 0.029031 0.167205 -0.183561 -0.030459 0.136395 0.057049 0.024728 -0.117020 0.102076 0.159078 -0.165969 0.211911 -0.155969 -0.037009 -0.106960 -0.029013 -0.141692 -0.075023 -0.188095 0.056401 0.111911 0.089747 -0.064345 -0.063715 0.017288 0.043916 -0.026329 -0.097939 0.139405 0.065430 0.048162 0.051247 0.238307 -0.093429 -0.098803 0.073434 0.081148 0.136378 -0.160483 -0.022528 0.119419 0.024002 -0.090758 0.080178 0.133970 0.150319 0.089022 -0.107608 0.146114 0.003644 -0.057139 -0.117232 -0.027198 0.118052 0.043422 -0.124666 0.018772 -0.128952 0.005294 0.062709 -0.028247 0.035689 0.141283 0.100347 -0.018882 -0.046592 0.006769 0.121989 -0.047626 0.003671 -0.000713 -0.046802 0.064136 -0.191292 0.071285 0.072154
