10.000000
784.000000

-0.087301 0.096590 0.098819 -0.006629 -0.067604 -0.097478 -0.050837 0.164074 -0.054365 -0.073740
0.032189 -0.088838 0.086955 -0.129437 -0.005725 0.007451 -0.107114 0.081778 0.001378 0.153952
-0.039757 -0.114184 -0.119403 0.083103 -0.076569 0.003509 -0.061843 0.067207 -0.036031 -0.006069
-0.015456 -0.135577 -0.127993 -0.081461 -0.100109 0.040992 0.047801 -0.093936 -0.122997 -0.003097
0.039043 -0.143698 0.131888 -0.188252 -0.158098 -0.004277 0.038908 -0.084100 0.160962 -0.020948
-0.158156 -0.080566 0.136799 0.033665 -0.065077 -0.051218 -0.142468 0.207923 -0.113947 0.111468
-0.066590 -0.133060 -0.046961 -0.113619 -0.002092 0.017012 -0.132183 -0.031577 0.075893 -0.056025
0.021994 0.103160 0.143256 -0.040535 0.001824 -0.191764 0.012012 -0.037569 0.155967 -0.101145
0.173844 -0.045579 -0.025736 -0.098339 0.072118 0.069650 0.127821 0.085919 0.049800 -0.111722
0.069776 -0.076703 -0.047186 -0.025836 -0.145365 -0.099413 -0.040707 -0.046389 -0.108508 0.079954
-0.030091 0.125540 0.181973 0.084803 -0.048810 -0.132373 -0.046665 -0.082344 -0.027668 -0.013079
-0.105475 0.094400 0.121165 0.053395 -0.070221 -0.027433 -0.039893 -0.085050 0.132253 -0.032415
0.026821 0.046836 0.008359 -0.071675 -0.096799 0.022607 0.155428 0.024729 0.009575 0.054221
0.142063 0.128369 -0.005638 0.008491 0.040887 -0.084610 -0.022324 -0.050532 -0.056825 0.017740
0.015211 -0.076987 -0.035506 0.010852 0.131740 0.064761 -0.043880 -0.025328 0.054402 -0.029390
0.029255 -0.044511 0.122506 0.015433 -0.122469 -0.056978 0.017466 0.116920 0.054193 0.181590
0.069915 0.116349 0.165017 -0.000345 0.070865 -0.035021 -0.022988 -0.115156 0.119335 0.058244
-0.006547 0.117501 0.045253 0.053883 0.044222 -0.009777 -0.087042 -0.110266 -0.174157 -0.076371
-0.119919 -0.109461 -0.035074 -0.156533 -0.036198 -0.066425 0.072376 -0.154739 -0.051286 0.014835
0.090630 0.108808 -0.010495 -0.017365 0.029784 -0.047881 0.046365 0.027024 -0.155954 0.059354
0.159693 -0.145040 -0.006194 0.042388 0.073926 0.042721 -0.000873 0.106102 0.001553 0.138689
-0.072908 0.007017 -0.042615 -0.143202 0.074488 -0.191567 0.104354 0.038802 0.137633 -0.039800
0.045674 -0.013525 -0.026041 -0.021150 -0.089868 0.067853 0.007045 0.034504 -0.127114 0.069905
0.017048 0.044798 -0.192878 -0.034573 -0.138922 0.094158 0.085372 -0.027245 -0.044934 0.109350
-0.063664 -0.059894 0.035079 -0.132783 0.133810 -0.039411 0.130056 0.123251 0.120884 -0.089847
-0.046202 0.115274 -0.123628 -0.056409 -0.066733 -0.077698 -0.070913 -0.093821 0.104684 0.176336
0.186931 0.042272 -0.078020 -0.191526 -0.174091 -0.064397 0.174346 -0.091543 -0.150146 -0.025044
0.005530 -0.032367 -0.005117 0.044766 -0.002775 -0.013530 -0.046249 0.033527 -0.039977 0.181346
-0.041733 0.031745 -0.115604 0.035805 -0.089941 -0.040250 0.175659 0.063232 -0.089958 0.065075
0.067550 0.038489 -0.042904 0.053122 -0.130402 -0.076744 -0.087489 -0.103496 0.023359 0.004074
0.119856 0.055476 -0.004894 -0.029476 -0.187714 -0.072036 0.129954 -0.081143 0.008718 -0.118439
0.106787 -0.100391 0.053066 -0.031314 0.053478 0.130624 -0.168168 -0.052762 0.126451 -0.058504
0.080174 -0.092127 -0.142519 0.070061 0.032638 -0.022842 -0.047882 -0.190561 -0.111458 0.086903
-0.107893 -0.157558 0.083277 -0.032148 0.140668 -0.101968 0.059336 -0.103265 0.097528 -0.105887
-0.017520 -0.097411 0.082584 -0.079901 0.065307 -0.000586 0.015780 0.064186 0.088811 -0.024309
0.020499 -0.058940 -0.020057 -0.003072 -0.170034 -0.150515 -0.161430 -0.146643 -0.047640 0.046309
0.045707 0.090060 -0.005756 0.017140 0.037885 0.094395 -0.106924 0.044531 0.151366 0.010646
0.098741 0.121762 -0.110411 -0.031290 -0.119222 -0.012445 -0.061455 -0.011377 -0.070174 -0.042745
-0.035877 0.155816 -0.054599 0.002895 -0.054869 -0.066235 -0.067121 -0.003901 0.169930 0.131132
0.086748 0.057673 -0.041120 0.109333 0.039079 -0.024026 -0.042845 0.053980 -0.035059 0.005022
0.068911 -0.010092 0.002241 -0.046068 -0.082365 0.127540 0.014201 0.042306 -0.030546 -0.015675
0.069913 0.028092 -0.046207 -0.139390 -0.038588 -0.091377 0.059983 -0.000726 0.049480 0.078197
0.007996 0.089345 0.116256 0.000206 -0.121607 -0.142210 0.089853 0.072594 -0.005292 -0.126356
-0.083411 0.006380 -0.051493 -0.058229 0.161428 -0.017262 0.040358 0.057010 0.127428 -0.079166
-0.022146 0.037399 0.062572 -0.124555 -0.094455 0.092725 0.146284 0.157715 -0.072709 -0.190694
-0.184314 0.018299 0.143848 -0.096531 -0.058385 -0.002152 -0.129728 -0.062404 -0.057956 0.044677
-0.035658 -0.063939 0.194074 -0.188200 0.101914 -0.094442 0.100270 -0.174534 -0.128305 -0.072957
0.066462 0.161513 -0.035422 0.016020 0.186691 -0.054283 0.021790 0.167464 0.024772 0.123177
-0.130013 0.061878 0.194405 0.066624 0.040965 -0.051884 0.075856 0.029830 -0.091739 -0.070348
-0.005906 0.070804 -0.053257 0.071008 -0.009962 0.067478 -0.145193 0.097172 -0.080358 -0.042122
-0.018045 0.033973 0.024158 -0.011687 0.009109 -0.161780 -0.057832 -0.052148 0.038559 0.059864
0.160350 0.140086 -0.143023 0.176600 0.137563 -0.139208 -0.169816 0.041538 0.063919 0.145604
0.098109 0.010282 -0.079581 -0.100641 -0.004975 -0.085005 -0.020192 0.077587 0.167122 0.057278
-0.050504 -0.093922 0.008226 0.050027 -0.055291 0.025008 -0.084696 0.104112 -0.033016 0.062400
-0.086912 0.172221 0.040634 -0.094903 0.002581 -0.106976 -0.046235 -0.004193 -0.157635 -0.199726
-0.135595 -0.052573 -0.091422 0.013808 0.132962 0.028555 0.025279 -0.088798 0.123706 0.073802
0.013335 -0.092471 0.067752 -0.009106 -0.172015 0.188294 -0.085121 -0.014267 0.082810 0.029586
0.011507 -0.149956 -0.011974 -0.014945 -0.085375 -0.088550 0.124770 0.030982 -0.100683 0.019630
0.077158 0.137104 0.074497 -0.013399 -0.074795 -0.029946 0.118602 0.086453 0.037014 -0.097406
-0.061003 -0.076200 -0.036085 -0.092257 0.141316 -0.022184 0.091287 -0.001937 -0.096736 0.009358
-0.149666 -0.027418 0.135551 0.084374 0.114009 0.144835 0.081346 -0.079082 -0.004436 0.137953
-0.016493 -0.066075 0.039846 -0.019390 -0.187001 -0.009767 -0.061517 0.030178 -0.147667 -0.031299
0.004503 -0.019249 -0.065864 0.138163 -0.063471 -0.067945 0.098564 -0.052171 -0.005402 0.096120
-0.069114 -0.026580 0.039379 0.121937 0.087789 -0.094013 -0.038410 -0.022304 -0.047740 -0.120271
0.026713 0.108271 -0.042316 -0.134047 -0.020524 -0.028317 0.039631 0.078172 -0.005861 0.166976
0.124153 -0.020554 0.004826 0.081632 0.023598 0.109212 0.114376 -0.056518 -0.088800 -0.028632
-0.079060 0.190295 -0.075650 0.049654 -0.010489 0.080601 0.076100 -0.147124 0.015705 -0.038394
-0.083857 0.022045 -0.056153 -0.124949 0.066459 -0.047292 0.048292 0.034022 0.013025 -0.002437
0.092722 -0.070108 0.144601 -0.075754 0.104091 -0.171652 0.172350 0.118480 0.163363 -0.047390
-0.132447 -0.104144 -0.006316 0.046813 -0.023279 0.022724 -0.029215 0.001899 0.038825 0.119514
0.109568 0.056430 0.007324 -0.028644 -0.047987 0.134253 -0.047810 -0.152384 -0.007879 0.039148
-0.192401 -0.046617 0.073921 -0.013674 0.179929 0.097743 -0.109852 -0.048707 -0.075641 0.009711
-0.083114 0.017371 0.041465 -0.111088 0.028724 0.119892 -0.186232 0.005057 0.179717 -0.132068
0.107898 -0.081754 -0.029127 -0.084583 -0.132835 -0.177746 0.138165 -0.163796 0.093252 0.024234
-0.107218 -0.124455 0.154227 -0.138005 -0.080100 -0.097986 0.077679 0.021119 -0.083988 -0.097225
-0.012732 0.069023 0.065343 0.027788 0.062088 0.110692 -0.029408 0.015060 0.027862 0.011882
0.125449 -0.165186 0.067412 0.034316 -0.090844 0.014027 -0.084643 -0.158194 -0.074455 -0.045308
-0.118577 0.060669 -0.107703 -0.109409 -0.166417 -0.074974 -0.143436 0.105982 -0.117894 -0.148027
-0.044005 -0.035401 0.098592 0.186135 -0.108751 0.000337 0.346242 -0.114663 -0.062407 -0.015144
0.018398 0.042131 0.153115 0.043891 0.161760 0.086847 0.192886 -0.062471 0.014606 0.162782
-0.016776 -0.109044 -0.004026 -0.098941 -0.150634 0.021152 -0.134728 0.017631 0.106719 -0.095508
-0.047758 0.199651 -0.064398 -0.143347 0.157329 0.007681 -0.114200 -0.045236 -0.019253 0.012856
-0.113404 -0.151393 0.360745 0.270804 -0.403163 -0.116561 0.385916 -0.049083 -0.115450 0.051305
0.041836 0.065099 0.074378 -0.035200 -0.126190 0.018372 -0.047310 -0.047496 -0.047282 0.068721
0.002309 -0.048887 -0.024209 -0.024603 -0.040729 0.130540 0.171142 -0.008988 0.054494 0.069021
-0.005804 0.070857 0.057681 -0.156488 0.047226 -0.053425 0.129624 -0.098644 -0.199251 -0.041976
-0.101082 0.143027 0.074553 0.223403 -0.345230 -0.155731 0.245576 -0.141820 -0.145134 -0.083619
0.059464 0.010102 -0.114260 -0.049513 -0.108510 -0.021756 -0.007874 -0.010891 0.001263 -0.126200
0.087598 -0.105877 -0.059496 0.122914 -0.002642 -0.034802 0.024667 0.082451 -0.093403 -0.036900
0.005417 -0.031073 0.000137 -0.143075 0.029844 -0.096217 0.030873 0.096814 0.046231 -0.062555
-0.216647 0.139582 0.191495 0.376552 -0.093958 0.085312 0.243947 -0.188498 -0.157581 -0.080360
0.030526 -0.002051 -0.189342 -0.003663 0.163146 -0.016841 -0.079946 -0.105780 0.008075 -0.007866
0.014848 -0.067397 -0.044422 0.014699 -0.123932 0.025348 0.091397 -0.089369 -0.051252 0.035289
0.018337 0.049186 0.103624 -0.071546 0.079645 -0.091541 0.001260 -0.039742 -0.112494 -0.147551
-0.251764 0.018795 -0.018901 0.257985 -0.111203 0.232095 0.391126 -0.022880 -0.200957 -0.099043
-0.132387 -0.090385 0.087863 0.136202 -0.062181 -0.037096 0.059372 0.032191 0.062918 -0.193805
0.114894 -0.049308 -0.147106 -0.048479 -0.034967 0.051410 -0.000588 0.128034 0.046746 0.063595
0.041815 -0.076833 -0.016952 0.082681 0.111894 0.008130 0.163605 -0.015754 0.085683 -0.029976
-0.078660 -0.139831 -0.191385 0.013438 0.095418 0.173809 0.284710 -0.057459 -0.053092 -0.034760
0.020398 -0.032836 -0.050549 -0.122240 0.033675 -0.011063 0.125000 0.133788 -0.075509 0.143474
-0.009226 0.169736 0.066549 -0.165204 -0.037797 -0.087905 -0.033877 -0.008148 -0.117414 0.047240
0.041914 0.061394 -0.050037 0.017243 -0.063252 -0.192764 -0.063040 0.077350 0.165878 0.154453
0.027558 -0.021470 -0.129568 -0.055698 0.027855 0.185138 0.215027 -0.001335 -0.069842 0.034839
0.098343 0.071992 -0.151244 -0.026622 -0.020204 0.092893 -0.138268 -0.057131 0.000012 -0.006982
0.010173 -0.010897 -0.075364 0.077059 -0.015577 0.077662 -0.029239 0.084089 -0.182588 0.138064
-0.010794 0.085525 -0.034172 0.076615 -0.025861 -0.102427 -0.091705 -0.069814 -0.174582 0.005884
-0.073007 0.010643 -0.128054 -0.044523 -0.012455 0.103228 0.189509 -0.147195 0.031857 0.072283
-0.021119 0.085555 -0.171440 -0.052641 -0.008981 -0.186921 -0.043097 -0.058914 -0.043553 0.091965
-0.138571 -0.005614 -0.085945 0.151695 -0.031832 0.049363 0.058658 -0.083190 0.001786 -0.085010
0.032339 -0.067426 -0.053650 -0.040127 0.144886 0.169140 0.032767 0.122118 0.012013 -0.052255
-0.082943 -0.143084 0.026484 -0.002402 -0.085585 -0.001297 0.029658 -0.110161 0.111748 -0.070205
0.054386 0.012970 -0.173088 0.045786 0.009603 0.050428 0.048325 -0.004492 -0.083726 -0.000840
0.046229 -0.035664 -0.075169 0.027918 -0.097252 -0.150776 0.022662 0.037514 0.078414 0.067011
-0.065685 0.026326 -0.019264 0.054447 0.092737 0.074365 0.013232 -0.052330 0.074965 0.112043
0.026274 0.152005 -0.108750 -0.015456 -0.143322 -0.013974 0.089119 -0.030273 0.013778 -0.121006
0.034544 -0.042653 -0.146289 0.109925 -0.103556 0.148430 0.134863 0.114377 -0.021261 -0.117318
-0.011043 0.056165 -0.070513 0.162218 -0.014426 0.098517 -0.004171 0.013970 -0.193153 0.010625
-0.161427 -0.082366 0.043248 -0.153618 0.052262 -0.031296 0.053040 0.003117 0.007364 -0.033139
0.071003 0.050184 -0.108126 0.033460 0.060415 -0.157116 -0.042718 0.005212 0.037763 0.151094
-0.020922 -0.110667 0.193726 0.052591 0.015679 0.101294 -0.097215 0.050887 -0.043404 0.035427
0.040276 -0.051902 -0.034815 -0.175080 -0.086082 0.080664 -0.002050 -0.108594 0.035200 0.111095
0.013836 -0.102494 0.115138 0.107274 0.166360 -0.142640 -0.086449 -0.045316 0.159133 -0.187424
-0.122064 -0.045905 -0.090922 0.130444 0.014971 0.096643 -0.109660 0.051549 0.121902 -0.021863
-0.073809 -0.021041 0.136053 0.017293 0.026069 -0.010954 0.000900 0.024447 -0.148980 -0.158891
0.058750 0.072487 -0.066969 0.023460 0.193320 -0.166168 -0.049828 0.102905 0.009774 0.028339
0.186604 -0.058782 0.102084 0.270223 -0.010500 -0.188815 -0.093292 -0.054564 0.040549 -0.057995
-0.119214 0.036780 0.073628 0.212170 -0.105737 -0.066719 0.077247 -0.094332 -0.203529 -0.113453
-0.116227 -0.063197 0.045305 0.047363 -0.055976 -0.035085 -0.043668 -0.103267 0.105318 0.008711
-0.009467 -0.031210 -0.006047 -0.048801 -0.135265 -0.005365 0.112892 0.035118 -0.075555 0.045219
-0.029797 -0.064619 0.153082 -0.041191 -0.173099 -0.161968 -0.110324 -0.094236 -0.145838 -0.022159
-0.122895 -0.093713 0.264691 0.134938 0.131881 -0.022168 0.164945 -0.016208 -0.099840 -0.056712
0.059813 0.057130 0.027189 -0.032378 0.025894 0.120140 0.003883 -0.061013 -0.114164 0.165534
-0.042617 0.198614 -0.015804 0.054946 0.138170 -0.056273 0.053536 -0.015389 0.152381 -0.041949
-0.053242 0.003160 0.266728 0.250652 0.124632 -0.209230 -0.209546 -0.024124 0.017243 -0.071182
0.053962 -0.005164 0.085703 0.045657 -0.162167 0.187771 0.017016 -0.196691 -0.111710 0.047333
-0.048620 0.153523 -0.009287 0.025846 0.006047 0.017038 0.104128 -0.124900 0.094108 -0.101054
0.132664 -0.045031 0.142103 0.083901 0.108176 0.029473 0.116757 0.025985 -0.063910 -0.006120
-0.049326 0.051162 0.257235 0.200880 0.001794 -0.254255 -0.239369 0.056892 0.045586 -0.146992
0.075871 0.105091 0.300077 0.068554 -0.260011 -0.084365 -0.150716 -0.278504 0.011670 -0.058568
-0.131014 -0.034247 -0.004406 0.082147 -0.028067 0.066983 -0.060043 -0.048900 0.116763 -0.137027
0.059291 -0.103084 0.061656 -0.042258 -0.141126 -0.101199 0.096994 0.019173 -0.016219 -0.031193
0.166115 -0.111691 0.182808 0.140676 -0.025491 -0.033840 -0.167243 0.027077 -0.018772 0.074079
0.141064 0.418334 0.139699 0.247672 -0.024307 -0.092986 -0.080245 -0.335186 0.054994 -0.231767
-0.126847 0.020530 0.011360 0.012601 0.185551 0.073938 0.004902 -0.031556 0.003309 -0.001979
0.018678 0.140237 0.062503 -0.009340 -0.043621 0.050145 0.110643 -0.015964 0.037256 0.069220
0.138299 -0.186678 0.121637 0.026394 0.089493 0.036373 -0.246431 -0.106881 0.077565 0.016343
0.129161 0.226314 0.363191 0.208511 0.106380 0.115237 0.009766 -0.422056 -0.015244 -0.519065
-0.097490 -0.011287 0.140274 -0.005863 -0.101062 -0.073667 0.091749 0.073424 0.036927 0.066123
-0.071851 0.075253 0.043132 -0.146325 0.002003 -0.045809 -0.020965 0.034187 0.111306 -0.135629
-0.063122 0.044972 -0.038615 -0.087580 -0.013418 0.099182 -0.098320 0.076884 0.156736 -0.062289
0.041885 -0.009956 0.234063 0.155736 0.019421 0.194021 0.318646 -0.539196 -0.103186 -0.380729
0.017500 -0.014380 -0.086212 0.052479 -0.011055 -0.035129 0.122905 -0.004240 -0.029140 -0.077858
0.130133 -0.013976 0.051195 -0.110259 -0.063946 0.054867 -0.095646 0.066539 0.026195 -0.094411
-0.147209 0.096817 -0.119429 -0.253549 -0.130140 -0.019087 -0.002738 0.008006 -0.065723 0.042952
-0.160315 0.232310 -0.005732 -0.018305 0.177111 0.109092 0.312972 -0.305817 -0.094972 -0.382115
-0.160918 0.011326 0.087127 -0.042919 0.162513 -0.052781 0.092291 0.073971 0.122412 -0.098159
-0.034960 0.074191 -0.046634 0.068047 -0.034336 -0.123740 -0.102797 -0.097199 -0.117080 0.065736
-0.001893 0.069203 0.118744 -0.225763 0.131618 -0.013461 -0.046298 -0.013523 -0.037598 0.010230
-0.215444 0.139594 -0.085318 -0.134512 0.265804 0.176272 0.315961 -0.114179 -0.199202 -0.190541
-0.041062 -0.112918 -0.004734 0.028089 -0.146660 0.073255 0.001896 0.049987 0.113867 -0.041174
-0.018796 0.091889 -0.139508 -0.024135 0.117868 0.047310 0.157469 0.066821 -0.097126 -0.100045
0.165560 0.008984 0.076466 -0.007600 0.026299 -0.138365 0.035856 0.008866 -0.016490 -0.187306
-0.103910 0.028142 -0.208918 -0.147480 0.244331 0.265712 0.297104 -0.012642 -0.165159 -0.103788
-0.101061 0.018319 0.065806 0.006392 -0.168889 0.018906 -0.038114 -0.073830 0.044424 -0.006228
-0.037880 -0.036520 -0.095817 -0.042230 0.022230 -0.005474 -0.038564 0.064274 -0.035473 0.018675
-0.023346 0.161717 -0.008283 -0.071196 0.025527 -0.021522 0.000291 0.021361 -0.025812 -0.082172
-0.099602 0.058970 0.112023 -0.078897 -0.034566 -0.089502 0.083882 0.095239 -0.053091 -0.017080
-0.071958 0.080387 0.082290 0.032047 -0.031375 0.038330 0.048562 0.042201 -0.018280 -0.043928
-0.064852 0.041659 0.159857 0.195846 -0.151340 0.004929 0.184752 -0.009088 0.107257 -0.018710
-0.025585 0.117836 0.039009 -0.057406 -0.009627 -0.044780 -0.056432 -0.087731 -0.090866 0.166040
-0.104624 -0.090219 -0.123796 0.072689 0.157025 0.025431 0.022874 -0.057611 -0.125746 0.120074
-0.100878 0.056323 -0.024203 0.081207 -0.018394 0.101395 0.072991 -0.062742 -0.092838 -0.078588
-0.018040 0.149116 0.088678 -0.075142 0.050900 -0.074195 0.043917 0.064959 -0.092034 -0.008555
-0.119125 0.020204 -0.118645 0.203162 -0.011972 -0.028162 0.024481 0.099632 0.012023 0.000681
-0.051613 0.050053 -0.072221 0.108916 0.178387 -0.120392 0.049672 0.127759 0.052267 0.086110
0.105837 0.001876 -0.157655 -0.184842 0.091175 -0.038487 -0.011825 0.006898 0.090278 0.007186
-0.128172 -0.092884 0.048651 -0.139363 -0.053600 0.055246 -0.127446 -0.116393 0.150539 0.116399
-0.117053 -0.054392 -0.004235 0.292810 0.023819 -0.279004 -0.141756 0.017371 -0.231476 -0.103468
-0.177987 0.109778 0.057555 0.298737 -0.005609 -0.172650 -0.032659 0.070798 -0.111546 -0.242901
-0.067292 0.089613 -0.041439 -0.007421 -0.101054 -0.150747 -0.085571 0.099659 0.069561 -0.114653
-0.077145 -0.112254 -0.141177 0.044232 0.015976 -0.041546 -0.051073 -0.009046 -0.188432 -0.000779
-0.144751 0.047778 0.124573 0.298746 -0.130948 -0.072960 -0.098450 0.313159 -0.026400 -0.074047
-0.068215 -0.169731 -0.082689 0.222368 0.233847 -0.036812 -0.190054 0.142371 -0.150050 -0.352481
-0.146040 0.063101 -0.135428 -0.136621 0.045911 0.141479 0.082506 0.070545 -0.051332 -0.077183
-0.011207 0.024377 -0.123344 -0.018911 -0.031053 0.133725 0.026311 -0.015114 0.039684 -0.003027
-0.034679 -0.023250 0.266492 0.289253 -0.015518 -0.214501 -0.082343 0.347859 -0.254000 -0.159210
0.004951 -0.414264 -0.085454 0.044071 0.226711 0.215059 -0.223640 0.193985 -0.044226 -0.336643
0.044243 0.165321 -0.016206 0.057161 0.007611 -0.031927 -0.087718 0.037848 0.037221 -0.008843
0.067443 0.001013 0.068868 0.076847 -0.077778 -0.009416 -0.106203 -0.061545 0.111868 0.082797
-0.201526 -0.107800 0.272508 0.346882 -0.102622 -0.282838 -0.200401 0.424762 0.004017 0.056395
-0.087048 -0.268078 -0.031830 0.141806 -0.105652 0.333647 -0.261075 0.138557 -0.155892 -0.067767
-0.103278 0.088158 0.068055 0.020497 -0.086686 -0.012918 -0.022921 0.142126 0.010846 0.055857
0.135353 -0.180397 -0.059163 -0.155014 -0.048613 -0.117885 -0.039965 -0.093015 -0.012814 0.022524
-0.046426 -0.336521 0.400464 0.216184 -0.377461 0.034209 -0.100739 0.131559 0.097735 0.272823
0.036758 -0.170436 0.073431 0.240571 -0.151487 0.221158 -0.367163 0.151324 0.038013 0.068747
-0.061003 -0.153932 0.155823 0.035254 0.003474 0.048410 0.109418 0.124335 -0.193519 -0.166723
-0.124260 -0.061656 -0.021701 -0.092326 -0.047734 0.026844 -0.091548 -0.051699 -0.140269 0.000260
0.009438 -0.525933 0.368131 0.070332 -0.395504 0.103839 -0.245522 -0.096500 0.179475 0.479366
0.179507 -0.305455 0.114986 0.189482 -0.288330 -0.054208 -0.282713 -0.106219 0.174058 0.527201
-0.055371 -0.013666 -0.154697 -0.129438 -0.065047 -0.120229 0.167724 -0.025390 0.069143 0.076736
-0.023549 0.000477 0.044837 0.123708 0.112593 0.061081 0.047195 -0.135515 0.095196 0.065438
0.099283 -0.353001 0.199788 -0.198169 -0.533219 0.137284 -0.148923 -0.036925 0.086961 0.311467
0.153542 -0.543736 -0.007992 0.201299 -0.430957 -0.105391 -0.215457 -0.120906 0.174407 0.643834
0.148247 -0.046744 0.148798 -0.019213 0.032469 0.085832 -0.004074 0.067197 -0.047949 -0.134283
0.011064 0.015433 -0.171104 0.159150 -0.016122 0.078454 -0.007006 -0.105445 -0.050311 0.112555
-0.016030 -0.215188 0.253533 -0.205455 -0.186614 0.192494 0.064601 -0.054813 0.109651 0.128147
0.340877 -0.254210 0.042133 0.141334 -0.025364 0.150434 -0.375256 0.163622 0.067707 0.383802
0.075866 0.034381 0.069903 -0.022790 0.059127 -0.003239 -0.027512 -0.156686 0.029036 0.061981
-0.012035 -0.044784 0.056164 0.055949 -0.090115 0.048355 -0.072394 0.032946 0.010391 -0.098336
0.071584 -0.180560 -0.011379 -0.217771 -0.072432 0.315008 -0.003702 -0.066045 0.013311 0.084519
0.033929 0.025446 0.037873 0.234932 -0.145618 0.163716 -0.178287 0.072891 0.002223 0.130479
-0.046535 -0.091491 -0.040930 -0.025352 -0.002994 -0.054633 0.168929 -0.033182 0.028102 -0.117653
-0.090724 0.096939 0.050830 0.143052 0.152912 0.077903 0.167474 -0.104951 0.182333 -0.040172
-0.116989 -0.127504 -0.037893 -0.015789 0.002573 0.210239 0.067383 0.009324 -0.146520 -0.051086
0.142799 -0.058060 -0.054207 -0.107538 0.344750 0.023723 -0.304493 -0.075000 0.035237 -0.317057
0.065692 -0.044949 0.000460 0.092750 0.024701 -0.183145 0.106384 0.057593 0.185333 -0.130955
-0.192138 0.117802 0.029251 0.039549 -0.110545 -0.046761 -0.078684 -0.158863 0.089943 -0.085793
-0.010608 0.033911 -0.026994 -0.155403 0.098868 0.213303 0.101306 0.049638 -0.122968 0.107702
0.039416 -0.102299 -0.283739 -0.295013 0.510607 0.471642 -0.233706 -0.012446 0.339174 -0.311142
-0.058898 -0.039787 -0.157574 -0.128888 -0.184646 0.188607 0.095542 0.029475 0.093077 0.089880
-0.101224 0.098333 -0.046054 -0.056212 0.126961 0.031221 -0.103711 0.100826 0.034329 -0.123360
-0.069498 0.057916 0.166379 -0.052482 -0.057475 -0.009757 0.038098 0.150280 -0.040457 -0.048036
-0.068798 -0.094116 -0.139030 0.052519 -0.026099 0.392219 -0.204260 -0.110937 -0.022688 -0.088474
-0.046954 -0.096104 -0.185649 -0.002768 0.065363 0.158203 -0.049659 0.073605 0.007595 0.064050
-0.019754 0.157026 -0.093321 -0.011499 -0.173352 -0.052213 0.027244 -0.034870 -0.194679 0.080745
0.015560 0.045533 0.023743 -0.069322 0.196771 -0.079606 0.148945 -0.023750 0.039372 0.081042
-0.063740 -0.131340 0.104367 0.019480 -0.121524 0.041679 0.037716 0.168610 0.114614 0.127823
-0.017551 0.056420 -0.061787 -0.067893 0.098722 -0.151516 0.164568 -0.131505 0.012809 0.023335
-0.120231 -0.027496 0.169230 -0.026975 -0.155386 -0.004829 0.023498 0.037472 -0.038307 0.020718
0.135936 -0.073696 0.185032 0.107679 -0.036712 -0.166570 -0.000240 0.066509 -0.109789 -0.055593
-0.147245 -0.092856 0.135200 0.053994 -0.152542 -0.018074 -0.110935 0.190845 -0.032128 -0.060017
-0.077132 -0.100125 -0.046356 0.160025 -0.184271 -0.048703 0.127163 -0.010753 0.172271 -0.026154
0.107577 -0.153310 0.049258 -0.027275 -0.101173 -0.020672 -0.142636 -0.054353 -0.006893 0.019119
-0.206858 0.037571 0.279812 0.079354 0.084151 -0.082070 -0.063874 0.096891 0.107453 -0.239682
0.044050 -0.033878 -0.064845 0.340927 -0.001595 -0.259212 -0.076295 0.342968 -0.012128 -0.176243
-0.095169 -0.054428 -0.078534 0.107277 -0.126793 -0.147003 0.004844 -0.097287 -0.064556 -0.051521
-0.063819 0.000854 -0.106190 0.124938 -0.053534 0.009755 0.145688 -0.117541 -0.087525 -0.077779
-0.223204 -0.127403 0.284316 0.074765 -0.168819 -0.204287 -0.190031 0.413799 0.009627 -0.119584
-0.094753 -0.126380 -0.123502 0.141492 0.117723 -0.046235 -0.167824 0.149871 0.172642 -0.211856
-0.043943 0.048348 0.073323 0.099095 0.014173 0.040336 0.018542 0.003751 -0.011880 0.086781
0.081850 0.071671 -0.134725 -0.193714 0.029964 -0.055367 -0.072419 0.073249 -0.088238 0.099469
-0.205582 0.052925 0.177679 0.191895 -0.077505 -0.247233 -0.285997 0.497478 0.061750 -0.207004
0.008501 -0.395458 -0.192566 0.055669 0.019201 0.253750 -0.064118 0.041590 0.195951 -0.093551
0.009302 -0.040528 -0.072869 0.042185 -0.001117 0.133524 0.066621 0.105281 -0.172253 -0.128139
-0.038244 0.054652 -0.121948 -0.095040 0.028926 0.039444 0.109536 0.183809 -0.001662 0.101616
-0.015929 -0.136730 0.077461 0.261959 -0.356129 -0.123603 -0.260795 0.536166 0.113446 -0.050953
0.048070 -0.425516 0.075571 -0.110443 -0.188974 0.160276 -0.251146 0.285936 0.190417 0.139629
-0.097397 0.108855 -0.080699 0.157719 0.053227 -0.064998 -0.039083 -0.142155 -0.054300 0.122180
0.124603 0.072743 0.090601 0.016875 0.066257 -0.124963 -0.039993 0.166846 -0.096706 0.024171
-0.170069 -0.279995 0.288890 0.078391 -0.508540 0.088206 -0.341913 0.215261 0.106195 0.205620
0.031948 -0.138208 0.196891 -0.212914 -0.245122 0.171206 -0.260225 0.130194 0.143690 0.430450
-0.056640 0.160567 0.075920 -0.048638 -0.004826 0.003844 0.159056 0.053108 -0.164366 -0.013933
0.021386 0.047986 0.039225 -0.018648 -0.078620 -0.051612 -0.155785 -0.104690 0.104631 -0.101699
0.092586 -0.323842 0.062633 -0.060898 -0.700204 0.370194 -0.059269 0.251176 0.392344 0.274878
0.182048 -0.054747 0.370154 0.187625 -0.672727 -0.283025 -0.402606 0.446553 -0.104014 0.462259
0.154917 -0.098469 0.103213 0.064679 -0.048213 0.006162 -0.018424 -0.032148 -0.073409 0.089930
0.090309 -0.191988 0.021120 -0.013461 0.118136 -0.087066 -0.033444 0.013377 0.018624 0.109814
0.058090 -0.276187 -0.051036 -0.283235 -0.738483 0.464442 0.149014 0.171083 0.113958 0.272661
0.523853 0.044470 0.104980 0.365870 -0.336997 -0.507346 -0.653360 0.688399 -0.249837 0.319027
0.094707 -0.100595 -0.099275 -0.195831 0.069097 0.019718 -0.069859 -0.063443 0.065363 0.042908
0.020560 0.166597 0.040064 -0.053496 0.101872 0.051460 0.132511 0.064060 -0.036312 0.101678
0.095338 -0.190230 -0.129204 -0.448067 -0.243160 0.322016 0.148176 -0.239838 0.139106 0.313053
0.634972 -0.068739 0.068300 0.240621 -0.070221 -0.556930 -0.841780 0.540859 -0.019932 0.010879
0.064179 -0.191335 0.037697 -0.028012 -0.195478 0.078067 -0.030941 0.079568 -0.009062 0.030374
-0.070914 0.151583 -0.053148 -0.038470 -0.040349 0.084674 0.086383 0.014063 -0.020767 0.118669
0.174343 -0.103942 0.083217 -0.277762 -0.271026 0.038674 0.159482 -0.106962 0.060306 0.037639
0.181466 -0.279323 -0.003732 0.384559 -0.026631 -0.217990 -0.735301 0.459792 0.062006 -0.324632
0.156534 0.048182 0.009007 0.039718 -0.067969 -0.042811 -0.078971 -0.056541 0.040964 -0.106315
0.033800 0.052835 -0.085178 -0.059681 0.134548 0.096179 -0.038184 0.121767 0.196365 -0.102004
-0.090582 0.048910 -0.003645 -0.120810 -0.054169 0.188141 0.220090 0.041238 -0.054716 -0.011466
0.084255 -0.273954 0.078596 0.205287 0.114796 0.079592 -0.463756 0.274423 0.241012 -0.263901
-0.042685 0.097844 -0.075382 0.189834 0.102899 0.078543 0.062021 -0.052857 0.094388 0.037584
0.017661 0.092761 0.032968 -0.153656 0.005381 -0.036741 0.050298 -0.190589 0.075596 0.061333
-0.038934 -0.112070 0.051380 -0.067311 -0.099078 0.030990 0.047879 -0.175007 -0.047263 0.023307
0.073952 -0.262953 -0.071649 -0.248746 0.074086 0.893952 -0.229105 0.013143 0.319623 -0.365121
0.040583 0.159699 -0.020098 -0.116959 0.006120 -0.061149 -0.130375 0.045464 0.016503 -0.023444
-0.177587 0.036236 0.021373 -0.114298 0.109748 0.186633 0.013579 -0.097464 -0.013846 -0.078362
-0.077283 -0.038720 -0.067846 -0.109853 0.044023 -0.011064 0.029220 0.078918 0.110569 -0.029209
-0.191901 0.111220 -0.110169 -0.067789 -0.039716 0.489247 -0.151831 -0.213514 -0.092790 -0.153092
-0.078440 0.060290 0.008143 0.002299 0.083488 -0.037014 0.007931 -0.082214 -0.015144 0.050399
0.099355 0.043120 -0.102693 -0.066967 0.042841 -0.153174 0.180884 0.071233 0.048865 -0.055851
0.108461 -0.163781 -0.068029 -0.114887 -0.028464 0.022568 0.020162 -0.020458 0.110229 -0.055935
-0.077285 0.017742 0.100416 0.001313 0.034566 -0.109821 0.050709 -0.079288 -0.031290 -0.011896
-0.130242 0.091742 -0.009257 0.013238 -0.042398 0.069925 -0.045947 -0.061499 -0.042561 0.074065
-0.021261 -0.000108 -0.005363 0.128984 0.045596 0.081001 -0.012655 -0.151061 -0.183206 -0.130828
0.080267 -0.155588 0.073823 0.065982 0.133779 -0.062735 -0.139185 0.152583 -0.113436 -0.169214
-0.034107 0.087176 0.158418 0.006584 -0.108716 -0.020603 -0.148146 0.274718 -0.112740 -0.200131
0.049821 0.048397 0.034734 0.018536 0.022453 -0.121966 -0.009875 0.124938 0.074897 0.003408
0.016399 0.077844 0.059825 -0.053925 -0.134962 0.003270 -0.034538 -0.156231 -0.105031 -0.013563
-0.085217 -0.038884 0.196799 0.296044 -0.085509 -0.395131 -0.260154 0.266202 -0.200806 -0.160151
-0.095363 -0.029069 -0.008919 0.124824 -0.151350 -0.248544 -0.010004 0.229282 0.003880 -0.049763
-0.078815 0.042586 0.152793 0.078277 0.050996 -0.128041 0.145112 -0.019518 -0.018065 0.014644
0.136076 -0.116023 -0.067314 -0.144765 -0.002105 0.006301 -0.097899 -0.094842 -0.086716 -0.083889
-0.097502 0.056733 0.350061 0.483572 -0.046093 -0.163891 -0.092336 0.167710 0.013537 -0.187266
-0.050855 -0.226864 -0.356266 -0.292280 -0.128025 0.262165 0.075636 -0.088988 0.240417 0.393695
-0.075477 0.043161 0.013553 0.051691 0.044318 0.001632 0.162865 0.033012 -0.149438 0.012028
0.000811 0.027481 -0.018253 0.009950 -0.082661 -0.067666 0.067764 0.022305 -0.103546 -0.010088
-0.199115 0.149971 0.368790 0.414796 -0.195084 -0.231446 -0.283461 0.114490 0.112631 -0.276236
0.036097 -0.380672 -0.588688 -0.613761 0.107956 0.272404 -0.011045 -0.156529 0.164968 0.217433
-0.157554 -0.146742 0.064457 0.049461 -0.106276 -0.002142 0.135086 -0.057212 0.101246 -0.170749
0.109520 0.040192 -0.086493 0.133583 -0.063936 0.099464 0.021335 -0.024093 -0.106492 -0.097904
-0.062603 0.024040 0.354757 0.203929 -0.357742 0.062176 -0.442839 0.027563 0.429280 -0.080047
0.053845 -0.245848 -0.543173 -0.665074 0.325395 0.113804 -0.057629 0.139251 0.268469 0.355246
-0.121303 -0.073751 -0.129217 -0.027216 -0.083523 0.168124 -0.048768 -0.089113 -0.061670 0.055960
-0.046123 0.034817 -0.024931 -0.084281 -0.061146 0.089469 0.146976 0.069445 0.125726 0.008257
-0.050091 -0.178429 0.439227 -0.069965 -0.381164 0.187621 -0.266906 0.059808 0.246770 0.120392
-0.068921 -0.335611 -0.657123 -0.425473 0.117182 0.467627 -0.103928 0.196707 0.076519 0.184074
-0.091780 -0.108687 0.161400 -0.030416 -0.088025 0.044903 0.024194 -0.057600 -0.123714 -0.005891
0.042017 -0.096102 0.019307 0.066275 -0.024300 0.128761 0.082116 0.086204 0.175609 -0.103324
0.097503 -0.148470 0.200673 0.025565 -0.383765 0.499548 -0.018729 0.015468 0.198934 0.081152
-0.062487 0.920341 -0.608747 0.204277 -0.694015 0.084813 -0.272504 0.484834 0.140170 0.203848
-0.097538 0.181555 0.019964 0.043930 0.047207 0.059336 -0.044579 -0.131379 0.039898 0.043928
-0.069203 -0.124449 -0.131223 -0.061856 0.023960 -0.047729 0.027731 0.011859 -0.189080 0.030852
-0.052972 -0.218592 -0.011119 -0.211974 -0.335938 0.444234 0.059006 -0.156824 0.143828 0.007183
0.009436 0.531862 -0.113870 0.245740 0.130250 -0.547233 -0.746758 0.917196 -0.374690 0.231326
0.009286 -0.115259 -0.001652 -0.050757 -0.095907 0.061185 0.011843 -0.134974 -0.100243 0.074441
0.065143 -0.016104 0.035933 -0.015950 0.043530 0.032268 0.070302 0.105260 0.045161 -0.177758
0.001108 -0.307653 -0.232056 -0.271892 -0.240607 0.475395 0.048017 -0.007057 0.143760 0.215482
0.182431 -0.061860 -0.106450 0.233755 0.153520 -0.577125 -0.809878 0.599684 0.080203 0.147821
-0.021411 0.196050 -0.058096 0.050359 0.012851 -0.075450 0.051162 -0.008342 0.015175 0.170585
-0.133134 0.047950 -0.097747 0.070349 -0.040615 0.064482 -0.035252 0.000759 -0.043064 0.182840
0.133057 -0.170536 -0.116789 -0.079252 -0.147308 0.412932 0.226727 -0.128286 0.049344 0.110441
0.310389 -0.251866 0.178478 0.250995 -0.260537 -0.780693 -0.473278 0.323319 0.213255 0.117877
0.076581 0.080892 0.110982 -0.187345 0.171639 0.044975 0.030809 -0.196563 -0.004434 -0.063984
0.139266 -0.180139 0.005967 -0.159055 -0.081412 0.025989 0.097598 -0.075391 -0.027065 -0.111597
-0.001225 -0.101063 -0.004584 -0.195376 -0.055426 0.284863 -0.143479 -0.133047 -0.127604 0.003705
0.253729 -0.316591 0.109350 0.027389 -0.233078 -0.800519 -0.200321 0.183624 0.498047 0.195590
0.106140 -0.169931 -0.053194 0.048690 0.022620 0.048653 0.002183 0.052667 0.001501 0.082441
-0.006786 -0.064985 0.189584 -0.079441 0.058623 -0.191308 0.108627 -0.168957 0.073270 0.028064
0.025785 0.142740 0.142439 -0.051425 0.140855 0.090676 -0.076370 0.102792 0.082355 -0.069336
0.405606 -0.364535 -0.081189 -0.362086 -0.278314 0.350722 -0.169791 0.002535 0.331831 -0.261884
-0.071896 0.050201 0.191183 -0.097889 0.090547 0.116670 0.008534 -0.017555 -0.079636 0.024607
-0.009421 -0.009453 0.092353 -0.066815 0.046242 -0.013304 -0.056845 -0.037927 -0.044335 -0.044894
0.028991 0.065578 0.096265 -0.076815 -0.037263 -0.001921 0.018611 -0.051181 -0.153895 0.023465
0.033574 -0.034847 -0.072116 -0.005594 -0.123220 0.475880 -0.066584 -0.191279 -0.005830 -0.071804
-0.108789 0.164797 0.017165 -0.112511 -0.025290 -0.090327 0.198384 0.104485 -0.051049 0.005850
0.020944 0.070875 0.006742 0.058519 -0.053260 -0.086381 0.121828 -0.077465 0.103001 0.057538
0.117309 0.104471 -0.135183 0.074771 0.117110 -0.015308 -0.131515 0.029439 0.043709 -0.109341
-0.003948 0.152854 -0.135503 0.024989 -0.179286 -0.029158 0.023898 -0.042272 -0.078163 -0.171314
0.030830 -0.195215 0.070924 -0.028428 -0.094761 -0.050366 0.170354 0.064987 -0.036062 0.042915
0.025765 0.020455 0.035383 0.052643 -0.141606 0.118837 0.019471 -0.060168 0.095978 -0.194017
-0.085120 0.043539 -0.121818 0.071709 -0.158517 -0.082158 -0.051290 0.371471 -0.136057 -0.087083
-0.164005 0.158483 0.072064 -0.002200 0.078181 0.091565 0.152600 0.194154 0.101810 -0.087742
0.043818 0.076477 -0.043250 -0.136550 0.069133 -0.053872 -0.150519 0.090007 0.117297 -0.122042
0.054622 0.089268 0.068276 -0.002447 -0.064503 -0.038816 0.043755 -0.086835 0.104277 -0.056034
-0.200858 0.103571 0.477959 -0.029507 -0.157108 -0.042032 -0.043713 -0.035010 0.093073 -0.020889
-0.045270 -0.080651 -0.207768 -0.043633 -0.207427 0.020580 -0.123093 0.427579 0.037908 0.301932
-0.156188 -0.174094 -0.111067 -0.129734 0.130089 0.052546 -0.038144 -0.099836 0.102811 -0.100984
0.010534 0.157456 -0.013691 0.083541 0.055361 0.039052 0.050541 -0.020232 0.126286 -0.109495
-0.291347 -0.120646 0.416768 0.104784 -0.077927 -0.087993 -0.107418 0.192652 0.084635 -0.204914
0.221430 0.090529 -0.748291 -0.580528 0.273592 0.092686 0.222184 -0.111237 0.078776 0.433746
0.160969 0.103657 0.066951 0.083354 -0.048812 -0.000844 0.009605 0.101528 -0.076989 0.012396
0.149340 -0.124400 0.027176 -0.101734 0.019944 0.098030 0.069224 -0.076733 -0.159430 0.051950
-0.282095 0.146622 0.296610 0.112223 0.013520 -0.068086 -0.519304 0.128144 0.360254 0.104684
0.138597 -0.119993 -0.703128 -0.600712 0.423080 -0.130772 0.223141 -0.048194 0.311690 0.370009
-0.031372 -0.085380 -0.176210 -0.087270 0.038783 -0.054012 -0.183568 0.078654 0.137450 -0.056422
0.158969 0.120334 0.040649 -0.087379 0.017407 0.076083 0.020838 0.160039 0.005230 0.014295
-0.286140 -0.167496 0.112258 0.105092 0.050459 0.269425 -0.469453 -0.123650 0.319290 0.320720
0.194191 -0.477097 -0.517246 -0.347387 0.675273 0.199276 0.237560 0.003710 -0.124091 0.278038
0.094007 0.080215 0.046337 -0.080666 0.165117 -0.092638 -0.180956 0.033729 0.018030 -0.067377
-0.060481 -0.125185 -0.106333 -0.143049 0.028225 -0.013187 -0.052093 -0.087337 -0.096207 0.096180
-0.062702 -0.294645 0.073227 0.158063 -0.401981 0.420216 -0.218451 -0.229487 0.063321 0.154140
-0.116716 -0.211794 -0.684841 -0.002788 0.601206 0.664004 0.294899 -0.620646 0.254698 -0.251767
-0.017843 0.100614 0.059917 0.176691 0.037614 -0.117263 -0.155589 0.058051 -0.030145 -0.037400
-0.002406 -0.141407 -0.063979 0.032261 0.082697 0.008029 0.080335 0.092113 -0.039336 -0.036281
-0.030361 -0.090469 -0.164180 0.129595 -0.308264 0.427696 -0.035872 0.000299 -0.243877 0.038214
-0.526843 1.204754 -0.668807 0.482821 -0.353617 0.260098 -0.113225 -0.392093 0.175301 0.441015
0.006996 0.060011 0.043014 -0.001047 0.030865 0.048104 0.018383 -0.024390 0.106242 -0.149548
0.088286 0.145663 0.048147 -0.017092 0.090229 -0.053584 0.121962 0.065162 0.111786 0.093380
0.070112 -0.307016 -0.305964 0.242060 -0.184368 0.576619 0.186834 0.296725 0.082674 -0.466217
-0.869587 0.516447 -0.591037 0.083321 0.461896 -0.460119 -0.178737 0.454588 0.155177 0.416797
-0.045141 0.058731 0.058034 -0.052928 -0.048081 -0.001076 0.046178 -0.085229 0.045583 0.076593
-0.108295 -0.022611 0.162049 -0.126176 0.001801 -0.036280 -0.100682 0.186839 -0.160546 -0.065641
-0.122312 -0.245181 -0.307581 0.078697 -0.152166 0.329909 0.191939 0.012476 0.032658 -0.281106
-0.156529 -0.087373 -0.130414 0.036866 0.271868 -0.674293 -0.136402 0.159930 -0.004168 0.507350
0.025572 0.046947 -0.031519 -0.043746 0.140513 0.099851 -0.124189 0.016262 -0.081010 -0.035680
-0.090246 -0.165553 -0.147267 0.119628 -0.174461 0.201637 -0.000081 -0.121397 0.026619 0.092377
0.205189 0.127241 -0.214364 0.027356 -0.171297 0.095304 0.094920 0.076554 0.214910 -0.189867
-0.015429 -0.283310 0.152086 -0.153667 0.233163 -0.581746 0.009482 0.097167 0.271864 0.534136
-0.005450 -0.121035 -0.005327 -0.064597 0.121209 -0.005771 -0.117318 -0.014913 -0.017112 0.130816
0.019614 0.014336 0.039252 0.011642 -0.188972 -0.087251 -0.071677 -0.020364 -0.086615 -0.087080
0.001787 0.106141 0.032087 -0.001969 -0.021531 0.271377 0.035633 0.092021 0.037504 -0.086701
0.396911 -0.179929 -0.087562 -0.379292 -0.016474 -0.932076 0.397433 0.064983 0.223814 0.496533
-0.044452 0.101293 -0.089351 -0.069482 -0.078041 -0.060664 -0.004024 0.113841 0.163015 0.092844
0.011467 0.036130 0.063233 0.042863 -0.025475 -0.164042 0.098519 0.077551 0.122111 -0.086463
0.065536 0.114182 -0.089078 0.029755 -0.077780 0.159643 0.010960 0.027476 -0.079456 -0.109610
0.508070 -0.122457 0.011156 -0.202305 -0.193782 -0.563878 0.378903 -0.060752 0.134965 -0.135177
-0.144101 -0.126356 -0.058286 0.061532 0.093517 0.057717 0.120847 -0.000335 0.095622 -0.158606
-0.053196 0.127834 -0.170616 -0.009549 0.014556 -0.057889 -0.167654 0.069885 -0.098992 0.080438
-0.007177 -0.054834 0.172459 -0.192381 -0.063622 0.020968 -0.033325 0.105039 0.052149 -0.155150
-0.063533 -0.098045 0.063347 0.068647 0.070672 0.032754 -0.101084 0.024708 0.078693 -0.120291
0.062083 -0.065201 -0.073325 0.065631 0.101162 0.028822 0.059599 -0.115808 -0.032932 0.074406
-0.109528 0.050814 -0.018071 -0.159738 0.146644 -0.048309 0.086856 0.003140 0.109685 0.013776
0.070202 0.002353 -0.159404 0.076982 -0.064289 0.089980 -0.020455 0.046690 -0.045933 -0.016388
0.006989 -0.131695 0.080546 -0.014282 -0.097421 -0.057247 0.005385 0.006696 0.074476 0.142908
-0.045736 -0.083284 0.035250 0.043137 -0.106591 0.171271 -0.074837 0.048767 0.063714 -0.008614
0.048313 -0.143411 -0.055483 -0.096065 -0.062434 0.050512 -0.115699 -0.119277 0.124392 0.011241
0.098774 -0.005039 -0.075195 -0.132536 -0.059115 -0.049977 -0.140778 0.184156 -0.100622 -0.032570
-0.047082 0.165797 -0.004106 0.152790 0.084372 -0.043086 0.071437 0.213881 0.121202 -0.008422
-0.001570 0.072873 0.099612 -0.022605 0.000815 -0.155804 0.049910 0.009462 -0.067433 -0.050620
0.033790 -0.148370 -0.081867 0.047056 0.033801 0.120831 -0.081197 0.195725 0.155120 -0.143240
-0.238546 -0.036890 -0.082898 -0.077862 0.078511 0.182867 -0.166506 0.064714 0.085957 -0.078439
0.070787 0.085155 -0.194278 -0.013733 0.167986 0.034808 -0.026808 0.071543 -0.156583 0.221983
0.143674 -0.081176 -0.004088 -0.090619 -0.094180 0.066902 -0.040033 -0.084258 -0.149050 -0.065468
0.070441 0.013380 0.029920 -0.104583 0.012008 0.180943 0.100028 -0.180764 -0.087128 -0.006701
-0.269751 0.026252 0.026437 0.120786 0.087730 0.249638 -0.221112 -0.140698 0.085749 -0.103045
0.438657 -0.193208 -0.245018 -0.428005 0.360939 -0.295614 0.253094 0.013717 -0.216388 0.232399
0.024121 0.083675 0.153326 -0.020644 0.032060 0.089496 0.076844 0.113797 0.135070 0.074012
0.022314 -0.081435 -0.117380 0.164577 -0.023645 0.060642 0.064872 0.168919 0.034598 0.014889
-0.278055 -0.094366 -0.044799 0.265362 0.253628 0.182087 -0.425133 0.129207 0.160775 0.267178
0.348824 -0.275244 -0.002131 -0.534962 0.610079 -0.436150 0.263943 -0.118935 -0.143385 0.046626
-0.023804 -0.032704 0.056836 0.142559 -0.115727 -0.050255 0.050096 -0.125309 0.030321 -0.003927
0.030930 0.122531 -0.134024 -0.153559 0.113143 -0.102736 0.083701 -0.077755 -0.064659 -0.083332
-0.175872 -0.224859 -0.075370 0.159860 0.257664 0.344924 -0.459635 -0.230564 0.093406 0.337173
0.394772 -0.523848 0.151702 -0.515067 0.483884 0.037748 0.532812 -0.314916 0.271231 -0.310264
-0.134670 -0.054966 0.074722 -0.118032 -0.065476 -0.022219 -0.016422 -0.166873 -0.025763 -0.035561
0.059201 0.040715 0.031912 -0.048583 0.190797 -0.068641 -0.078191 -0.087458 -0.092503 0.053197
-0.071523 -0.029399 -0.054826 0.215942 0.177782 0.202837 -0.104315 -0.633460 -0.225183 0.457167
0.102972 0.127645 0.348401 -0.147351 0.322593 0.190920 0.232313 -1.234684 0.580573 -0.239513
-0.043035 0.132114 0.033911 0.056196 0.071236 -0.023007 -0.004370 -0.149332 -0.013125 0.025132
-0.093734 -0.022466 -0.068628 -0.052559 0.183747 -0.024586 0.108773 0.105304 0.141588 -0.042650
-0.198767 -0.046175 -0.188061 0.445984 -0.061670 0.342443 0.267801 -0.167321 -0.051879 -0.093409
-1.123987 0.941320 0.252053 -0.051426 -0.406035 -0.182665 0.122309 -0.561041 0.518879 0.180877
-0.105613 0.155216 -0.098302 0.086572 -0.001964 -0.016666 0.064785 -0.000257 0.070555 -0.014466
0.005123 0.016274 0.054328 0.120423 0.073939 0.169921 -0.066426 -0.118214 0.050929 0.114783
-0.161723 -0.029172 -0.407465 0.366433 -0.073164 0.247071 0.225328 0.072584 0.390522 -0.484040
-0.920390 0.367943 -0.054316 -0.281833 0.634847 -0.579350 0.240560 0.184011 -0.024729 0.246750
-0.033963 -0.090782 -0.008757 0.019153 -0.106396 -0.082889 0.043736 -0.081722 -0.138118 0.066832
-0.156994 -0.072138 0.134044 -0.080149 0.116682 -0.052601 -0.072595 0.036362 0.019908 -0.131361
-0.167262 -0.213837 -0.228810 0.216651 0.081245 0.181430 0.051202 0.090596 0.306583 -0.491515
-0.168579 -0.496148 0.068537 -0.016730 0.704090 -0.288285 -0.133006 0.507328 -0.206871 0.182372
0.188589 -0.080755 -0.167909 0.032968 0.101055 -0.010483 0.048128 -0.133615 0.096746 0.042456
0.006656 0.089700 0.197577 -0.001401 0.038826 -0.063314 0.020695 -0.014539 -0.026070 -0.004125
0.002626 -0.108935 -0.041654 0.088820 -0.010693 0.027390 0.012995 0.020664 0.036625 -0.242726
-0.050570 -0.349241 -0.049947 -0.139513 0.510510 -0.115138 0.027863 0.509533 -0.543472 0.145834
-0.112588 0.004591 0.110254 -0.100131 0.005835 0.128957 0.004647 -0.020498 -0.031628 -0.100462
0.009388 -0.074555 -0.029590 -0.084234 0.048209 0.117103 -0.057665 0.086216 -0.151399 -0.076284
0.024246 0.108669 0.149402 -0.123811 0.029424 -0.144701 -0.177536 0.004934 -0.070701 -0.072610
0.396404 -0.071670 -0.178581 -0.303275 0.238953 -0.233740 0.457212 0.182689 -0.411270 0.083298
0.042239 0.020682 0.129020 -0.002754 0.035748 0.046453 0.052180 -0.025765 0.092507 0.119235
0.021073 0.079854 -0.012424 0.123148 -0.050562 0.098836 0.113401 -0.113573 0.097254 -0.004161
0.131527 -0.138111 -0.058174 -0.023878 0.059171 -0.097413 -0.254627 -0.052582 -0.017423 -0.182858
0.350538 0.101806 0.348631 -0.190438 -0.040662 -0.240696 0.389651 0.010906 -0.210157 -0.255240
0.008493 0.061089 -0.045679 -0.073216 -0.175855 0.018034 -0.118127 -0.029628 0.015844 0.001378
-0.077568 0.038054 0.117885 -0.052768 -0.100933 -0.038905 0.055225 0.080656 0.118882 -0.079608
0.135354 0.017588 0.187667 0.044000 -0.041605 -0.183247 -0.114475 0.083019 -0.082832 -0.103056
-0.204848 -0.130323 0.456096 -0.070858 0.030824 0.006875 -0.183827 0.151969 -0.033475 -0.017653
0.084180 -0.199379 -0.093891 -0.086853 0.106978 -0.006194 -0.173168 0.111508 -0.120744 -0.089468
0.045058 0.096830 -0.059706 -0.084880 -0.056006 0.131007 -0.162195 -0.005408 -0.100963 0.025098
0.108823 0.008846 -0.115660 0.042814 -0.109586 -0.136571 0.036964 0.023306 0.015819 -0.113030
-0.136453 0.067629 0.037931 0.142157 -0.188023 -0.104474 -0.065962 -0.109617 -0.146192 -0.154050
-0.056484 -0.032699 -0.154450 0.095042 -0.036754 -0.104236 -0.094416 -0.015671 -0.193024 0.121506
0.084238 0.159892 0.051079 -0.107842 -0.075506 -0.001478 -0.017377 0.056301 -0.089251 0.025840
0.065678 -0.055423 -0.037694 -0.106194 0.048940 0.026656 -0.155091 -0.084064 0.062954 -0.012941
-0.018041 -0.046856 -0.111278 0.158328 -0.032070 0.104608 -0.101083 0.127123 -0.145349 -0.019401
-0.010276 0.033467 -0.014483 -0.170395 0.101667 0.021845 -0.078529 -0.025711 0.001836 0.067455
0.085579 0.068138 -0.153475 0.130794 0.036045 0.154562 0.067399 -0.059765 0.188549 -0.084426
-0.000221 0.053524 0.020359 0.112207 0.170782 0.151947 0.058528 -0.038432 -0.068104 -0.137612
0.180171 -0.134976 0.228174 0.152669 0.016010 -0.101687 -0.103281 0.044221 -0.373598 0.141344
-0.045253 0.102625 0.112034 -0.001589 -0.075661 -0.071388 0.040241 0.018024 0.063065 0.139343
-0.111898 -0.007133 0.012572 0.087889 0.102430 -0.061010 -0.138561 -0.009467 0.109473 0.073193
-0.189187 -0.017640 0.023814 0.065249 -0.039069 0.342028 -0.278179 -0.153087 -0.067578 -0.121929
0.290574 -0.140548 0.216641 -0.125723 0.220723 -0.276922 0.109111 -0.084253 -0.020104 0.117526
0.056957 0.122013 0.018304 0.069439 -0.061640 -0.019251 -0.055777 -0.069025 -0.114597 0.113849
0.120633 -0.165837 0.054848 -0.091893 -0.034852 -0.005050 0.124724 -0.027171 0.058190 -0.046962
-0.381767 -0.138009 -0.300785 0.313191 -0.045379 0.592014 -0.279949 -0.059740 -0.208908 0.282073
0.309864 -0.282808 0.260203 -0.527092 0.347356 -0.461326 0.293862 -0.202152 0.315438 0.103078
-0.177439 0.026785 0.182138 -0.052819 -0.086002 0.042623 -0.027302 0.016727 -0.022164 0.006707
-0.095094 -0.067858 -0.050415 -0.066952 0.021990 -0.071365 -0.018125 0.155072 -0.005419 0.043561
-0.396007 -0.298903 -0.244488 0.333974 0.201464 0.335510 -0.275441 -0.093738 -0.167822 0.570215
0.360264 -0.226849 0.322125 -0.655101 0.066106 -0.496018 0.483129 -0.419651 0.378142 0.084718
0.056750 -0.028416 0.067610 -0.128231 -0.003642 0.136250 -0.184109 0.077652 0.063379 -0.005789
-0.128753 -0.037558 0.062728 -0.072092 0.176828 -0.088085 -0.051136 0.130324 -0.059585 -0.153182
-0.151277 -0.046041 -0.126959 0.472820 0.186669 0.078980 -0.127131 -0.360478 -0.293017 0.097269
-0.254687 0.085223 0.513060 -0.431404 0.012879 -0.247926 0.413212 -0.499313 0.561325 -0.157536
-0.002186 0.010540 0.060676 0.003513 0.120278 -0.046511 -0.041883 -0.006992 -0.096006 -0.029590
0.072292 0.048343 0.066201 -0.026475 0.157330 0.011441 -0.065026 -0.065297 -0.055647 -0.068316
-0.260691 -0.150156 -0.066414 0.389233 0.300820 0.064373 0.127676 -0.240810 0.204193 -0.273935
-1.040578 1.231937 0.461687 -0.257499 0.473180 -0.397843 0.285954 0.067104 0.139350 -0.369476
-0.030588 0.050646 -0.071028 0.126405 0.135273 -0.098017 0.089436 0.188765 0.098897 0.019286
-0.084943 -0.038894 -0.079227 0.065051 -0.015788 0.017582 0.019177 0.028663 0.049262 -0.052096
-0.163677 -0.224395 -0.247999 0.248395 0.038072 0.049857 0.254312 0.009914 0.495206 -0.466492
-0.397110 -0.046293 0.064711 -0.300751 0.779292 -0.368156 -0.014823 0.197853 0.027377 -0.001043
-0.073839 0.002970 -0.010734 -0.046604 0.036752 0.025212 -0.092510 -0.181571 -0.053205 -0.001106
0.056519 -0.006205 0.013287 -0.124549 0.107192 0.082709 0.105820 -0.037528 0.038392 0.029638
-0.092138 0.047891 0.170690 -0.044743 -0.013557 -0.077449 0.082833 0.149987 0.369041 -0.538121
0.078427 -0.636040 0.004670 0.144118 0.267363 0.141856 0.122237 0.579886 -0.311870 -0.005644
0.089560 -0.092715 -0.160803 0.044530 0.001252 -0.011201 0.072826 -0.194534 -0.056114 0.058538
0.018768 0.157683 -0.051774 0.115288 -0.076444 -0.120424 0.059720 -0.101508 0.076341 0.046001
-0.162692 -0.094912 0.283493 -0.131542 -0.091066 -0.189354 -0.059667 0.084309 0.056688 -0.251583
0.117656 -0.305352 -0.160942 0.106275 0.047475 0.008708 0.251736 0.346547 -0.496897 -0.215805
0.071603 -0.162742 0.064314 0.048858 -0.182897 -0.041085 -0.034890 0.073085 -0.073987 -0.139644
-0.043031 -0.102983 -0.063780 0.125047 0.087050 -0.095363 -0.019514 0.082842 0.023765 -0.158116
-0.060507 0.094502 0.365380 -0.041387 0.122891 -0.021735 0.027949 0.038322 0.000290 -0.013358
0.365765 -0.165849 0.043982 0.352538 -0.005683 0.001708 0.118385 0.112763 -0.334893 -0.224311
-0.085119 0.022728 -0.133929 0.020174 -0.152472 -0.048887 0.126782 0.063209 0.025165 0.064639
-0.090771 -0.055021 -0.108566 -0.038365 0.005065 -0.144596 -0.005350 0.036604 -0.188104 0.112087
-0.103025 0.054220 0.313274 -0.059851 -0.084204 -0.132684 0.062357 -0.104359 -0.198686 -0.022095
0.326530 -0.047935 0.372666 -0.027815 -0.185631 0.008299 0.052565 -0.067671 -0.175835 -0.343663
-0.114356 0.029426 -0.033197 -0.122349 -0.055172 0.030455 -0.090955 -0.054635 0.077895 -0.020207
-0.124537 -0.047086 -0.033936 -0.012244 0.094394 -0.071835 -0.043809 -0.141921 -0.199573 -0.175908
-0.104667 -0.160211 -0.045148 0.100312 -0.031496 -0.144709 0.041684 0.136952 -0.031705 0.022227
-0.072091 0.038752 0.461488 -0.172621 -0.184588 -0.043250 -0.138004 0.089474 -0.111873 0.067415
0.200016 0.106365 -0.002214 -0.038041 -0.168100 0.011594 0.077712 0.118053 0.033769 0.127939
-0.051100 0.034755 0.199967 0.101285 -0.102327 -0.007516 -0.087033 -0.099143 0.028329 -0.069803
0.154834 0.033526 0.101340 0.147842 0.176499 0.033218 0.048142 -0.010438 0.080798 0.067082
0.003472 0.043357 -0.070204 -0.068372 -0.095058 0.012904 -0.161730 -0.023543 -0.127949 -0.128848
-0.014617 -0.093400 -0.124431 -0.016506 0.051194 -0.017505 -0.028692 -0.143817 0.058230 -0.059275
-0.074075 0.021697 0.064576 0.040179 0.041433 -0.119742 0.069830 0.154223 -0.051332 0.087030
-0.104586 0.013796 0.158833 0.125644 -0.142283 0.025001 -0.088778 0.018912 -0.032874 0.040590
-0.046814 -0.071922 0.071613 0.133307 -0.005483 0.075575 0.035307 0.080688 0.093697 -0.082348
0.125661 0.085356 0.000921 0.007334 0.019984 -0.107707 0.062824 0.049111 -0.046619 0.044653
-0.054410 0.006361 0.018154 -0.081320 -0.107060 -0.071798 0.128093 0.026840 0.033756 0.043022
-0.065710 -0.172557 0.162301 -0.061337 0.162844 0.219555 0.046822 -0.061519 -0.280068 -0.065422
0.070668 -0.124628 0.472791 0.362426 -0.244412 0.056285 -0.388222 -0.046289 -0.289908 -0.277083
-0.024351 0.058906 0.096424 -0.119344 0.039297 -0.021204 0.110522 -0.073285 -0.091418 0.103347
0.013916 -0.104881 -0.042213 0.070528 -0.046471 -0.184834 0.089535 -0.024867 -0.145638 0.045928
-0.036721 -0.081914 -0.111501 0.142911 0.154188 0.445993 -0.169562 0.079651 -0.401096 0.338966
0.258831 -0.265285 0.554075 0.161082 -0.341313 0.411395 -0.003612 -0.281798 0.140761 -0.186415
0.189319 -0.126433 0.128308 0.025539 -0.079549 0.054951 0.036335 0.028756 0.143262 0.054285
-0.063908 0.103234 0.180904 -0.076752 -0.064308 -0.015715 0.122056 0.028378 0.114176 -0.127137
0.092862 -0.190200 -0.233922 0.317469 0.008708 0.366806 -0.003487 -0.075776 -0.418240 0.369665
0.155123 -0.147002 0.291216 -0.217239 -0.121558 -0.239279 0.263414 -0.448580 0.430312 -0.008815
-0.011168 0.096107 -0.000277 0.019808 -0.095504 -0.042295 -0.037453 -0.042741 0.179988 -0.196056
-0.080376 0.033444 0.033498 0.023425 -0.093319 0.016260 -0.140331 -0.018784 -0.066254 -0.037172
-0.082948 -0.411736 0.023245 0.405887 -0.061735 0.237922 0.231290 -0.383994 -0.226871 0.245760
0.343005 -0.269692 0.265789 -0.377057 -0.273375 -0.088238 0.523894 -0.435711 0.399728 -0.071707
0.100645 0.101621 -0.131172 0.045248 0.002186 0.013532 0.016159 0.183120 0.032922 -0.012955
-0.108619 -0.029981 -0.007739 0.050373 0.009087 0.051801 0.194384 -0.007711 -0.125715 -0.075627
-0.104615 0.056932 0.158954 0.256406 -0.161807 0.090657 0.038047 -0.127932 -0.078316 0.014321
-0.042955 0.124090 0.646943 -0.378038 0.036966 -0.166422 0.304708 -0.118394 0.158710 -0.377165
-0.046972 -0.017352 0.067462 -0.118542 0.008121 -0.013677 -0.012253 -0.029774 0.028433 -0.094633
0.092658 -0.053216 0.171000 -0.006157 -0.162703 0.124884 0.199313 0.077732 0.097166 0.030593
-0.065318 -0.146893 -0.073835 0.107488 -0.075805 0.054984 0.066686 -0.053360 0.203776 -0.310394
-0.541986 0.570450 0.131769 -0.413281 0.415945 -0.235000 -0.106144 0.237197 -0.183926 -0.271662
-0.030802 -0.066559 0.029782 -0.022882 0.117161 -0.001944 0.027840 -0.194563 -0.105223 -0.121729
-0.109114 -0.014766 0.002525 -0.005541 -0.109447 0.090287 0.028458 0.141331 0.124248 -0.115953
0.052077 -0.125572 -0.022899 -0.016759 0.045993 -0.059006 0.180737 -0.047156 0.200669 -0.449474
-0.054295 -0.398816 -0.002205 0.133700 0.155361 -0.010271 0.123778 -0.077212 0.068587 -0.164200
0.053617 -0.088448 0.004850 -0.050058 -0.016959 0.049738 -0.011763 -0.120466 -0.008717 0.134455
0.010901 -0.012552 -0.032265 -0.018373 -0.069924 0.144881 -0.038491 -0.022663 0.034652 0.033826
0.039258 -0.088598 0.278228 -0.183702 0.036852 -0.149120 0.037269 0.147244 -0.013995 -0.442849
0.078574 -0.082495 -0.097374 0.360902 -0.187087 0.140449 0.299354 -0.070887 -0.066250 -0.323253
-0.068911 0.083336 0.024829 0.177072 0.021171 -0.093653 0.003195 0.080253 -0.179652 0.022601
0.015004 -0.038719 -0.019366 -0.090129 -0.039231 0.146835 -0.087420 -0.110310 -0.074477 -0.122353
0.178297 0.037838 0.432037 -0.228616 0.190679 -0.231330 -0.023904 0.038676 -0.126355 -0.163581
0.076337 0.071768 -0.278624 0.262188 -0.323600 0.145496 0.151226 -0.085932 0.026202 -0.033304
0.155887 0.040159 0.003070 -0.097515 -0.199248 0.011372 0.052682 -0.062651 -0.035404 -0.048373
-0.062749 0.070260 -0.025844 -0.039685 -0.054909 0.034674 -0.057422 -0.036035 -0.134434 0.048562
0.159691 0.047341 0.295789 -0.173826 0.027786 -0.193957 0.113459 -0.090558 -0.068614 -0.051088
0.138970 -0.014219 0.024479 0.305830 -0.187670 0.250614 0.123638 -0.281568 -0.065851 -0.248940
0.100404 -0.086637 0.001805 -0.023457 0.029667 -0.038257 0.082793 -0.041413 -0.007546 -0.078621
-0.053058 -0.089632 -0.159902 0.100986 -0.017441 -0.132367 0.000623 -0.198626 -0.059527 -0.111357
0.045279 0.099878 0.226009 -0.092244 0.019833 0.106350 -0.075357 -0.011613 0.026805 -0.025807
-0.007625 0.040008 0.467836 0.021856 -0.286368 0.290927 -0.076651 -0.179908 -0.019603 -0.220986
0.082161 -0.037019 0.061209 0.077506 0.024986 0.069844 0.084142 0.087390 0.007895 0.136557
-0.090264 0.051369 0.083907 -0.042965 0.177000 -0.198504 0.067932 0.074443 -0.058110 -0.174659
-0.092015 0.040444 0.015363 0.023044 0.051876 0.120530 0.160685 -0.111510 -0.044087 -0.170498
-0.127425 -0.009737 0.279254 0.034183 -0.138605 -0.006443 -0.040617 0.079981 -0.073917 0.041504
-0.073827 0.065236 0.068771 0.108100 -0.026859 -0.018288 -0.106098 0.102567 -0.179999 -0.010452
0.049053 0.122472 0.045106 0.128553 0.107091 0.001563 0.113177 -0.039288 0.109255 -0.063969
-0.028163 0.012313 0.088061 0.104798 -0.060797 -0.013616 -0.009174 0.148928 0.030070 0.015959
-0.051254 0.055310 -0.041070 0.044847 0.037726 0.046217 -0.025207 0.148658 0.045522 -0.053391
-0.027479 -0.088430 0.019556 -0.020713 -0.032521 0.092734 0.044412 -0.129353 0.041299 -0.055631
-0.040771 -0.164359 0.002129 0.097748 -0.111566 0.095918 -0.122552 0.129356 0.119601 -0.011847
-0.071458 -0.039381 0.063686 0.284283 -0.014300 0.146928 -0.023157 -0.029063 0.023357 -0.154886
-0.036359 -0.007051 -0.061075 0.256951 0.002100 -0.016227 0.143243 0.149907 -0.042756 -0.193265
0.056790 0.054815 0.017687 0.033893 -0.066038 -0.086364 -0.026180 0.031643 0.026570 -0.033098
-0.015782 0.074351 0.015880 -0.020866 -0.055479 0.067637 0.068359 0.048033 -0.093968 0.072719
-0.009646 -0.163956 -0.083634 0.247454 0.122762 0.219846 -0.028127 -0.040764 -0.010195 0.039036
0.009536 0.016927 0.116705 0.242480 -0.090214 -0.024526 -0.190564 -0.227587 -0.145087 -0.211997
0.032307 0.092659 0.111465 0.051918 0.171059 0.082359 0.137715 0.094598 0.047048 0.090314
0.080657 -0.087699 -0.008684 -0.020189 -0.081589 0.015995 -0.134524 -0.140465 -0.044645 -0.054239
-0.003226 -0.139880 -0.182934 0.158642 0.184066 0.114885 -0.152785 -0.105482 -0.323974 -0.019710
0.073141 0.152322 0.256506 0.228799 -0.328053 0.089490 -0.178047 -0.281966 0.234431 -0.110908
-0.035620 0.048099 0.046168 0.040596 0.186096 0.058060 0.182601 -0.166750 0.053906 0.111424
0.083131 -0.021481 0.185327 0.049755 -0.004142 0.175442 -0.147509 0.000781 -0.038709 -0.022867
0.067566 -0.175056 -0.030238 0.123196 -0.007493 0.343142 0.034726 -0.268805 -0.054030 0.272162
0.076659 -0.037607 0.262114 0.110547 -0.458478 0.288893 -0.074130 -0.440650 0.144116 -0.323264
0.008740 0.114910 0.053683 -0.100560 -0.169423 -0.048434 -0.118710 -0.065678 0.038036 0.032476
0.053360 -0.050260 0.054820 0.128383 -0.037642 -0.132887 -0.111825 -0.066384 0.012701 -0.095101
0.288579 -0.241891 0.000546 0.252937 -0.152684 0.143495 0.260162 -0.421341 -0.049272 0.184417
0.453416 0.089507 0.288849 -0.189986 -0.602985 0.164073 0.422972 -0.333887 -0.223002 -0.435204
0.112850 -0.074777 0.115109 -0.097438 -0.061884 -0.116695 0.016607 0.176247 0.077002 -0.051052
-0.090554 0.101850 0.064562 0.030611 -0.087608 -0.103507 0.040658 -0.111626 -0.165128 -0.046260
0.200037 -0.081665 -0.045764 0.221390 -0.276049 -0.049675 0.393795 -0.227966 0.252529 0.003863
0.106314 0.068453 0.207327 -0.240023 -0.458927 0.113515 0.796770 -0.030138 -0.502147 -0.424257
-0.081881 0.089638 -0.104471 -0.134112 -0.022151 0.002877 -0.151364 -0.134558 0.169218 -0.160204
0.069317 -0.097459 -0.045526 0.036640 0.004232 -0.100445 -0.075035 0.070274 0.024686 0.026919
-0.030662 0.048525 0.147650 0.020223 -0.078363 -0.048803 0.190076 -0.154934 0.193520 -0.414208
-0.060559 -0.203093 0.099628 -0.089227 -0.192279 0.094301 0.575161 -0.087968 -0.223100 -0.260804
-0.091017 -0.044761 0.026548 0.132878 0.005762 -0.076195 0.008063 -0.173122 0.083454 -0.105697
0.108237 0.069201 0.058658 -0.153644 -0.034747 -0.111217 0.012988 0.087415 -0.030119 -0.006746
-0.068250 0.053950 0.357081 -0.096960 0.035863 -0.163996 0.117104 -0.035845 -0.051387 -0.320250
0.035598 -0.022974 0.210536 0.261528 -0.271767 0.138591 0.645751 -0.377067 -0.078379 -0.384520
-0.111630 -0.027276 -0.020719 -0.052806 0.008446 0.131346 -0.143549 0.093583 0.134549 0.036472
0.112821 -0.060247 0.192464 -0.135464 0.073685 0.003792 0.139865 -0.027051 -0.065964 0.020366
-0.115656 0.206687 0.307840 -0.342048 0.172635 -0.294890 0.035213 -0.035521 -0.034783 -0.143333
-0.150617 0.323052 0.233093 0.326112 -0.309184 0.262028 0.381979 -0.376388 -0.068099 -0.308540
0.036092 -0.048215 0.058738 -0.117836 0.128820 -0.113914 -0.005535 -0.052820 0.118615 0.141970
0.026055 0.167530 -0.014278 -0.065718 -0.013826 -0.054955 -0.023687 0.104549 -0.126717 0.108366
-0.155345 0.058463 0.419903 -0.192357 -0.015236 -0.279890 -0.083263 -0.224104 -0.059327 -0.011507
-0.178247 0.154719 0.111432 0.315512 -0.143520 0.199616 -0.000067 -0.457083 0.017381 -0.118426
-0.156052 0.074808 -0.137834 -0.062450 0.124791 0.100623 0.039442 0.089013 -0.064743 0.018861
0.143350 -0.106176 -0.110325 -0.050623 -0.053831 0.103195 -0.002378 -0.067355 0.014947 -0.027896
-0.080509 0.070948 0.198850 0.002104 -0.035963 -0.001335 -0.067169 -0.087598 0.007109 -0.063662
0.101089 0.009897 0.200781 0.095006 -0.302039 0.284541 -0.013396 -0.557015 0.145237 -0.122477
-0.153841 -0.016901 0.103989 0.068070 -0.063679 -0.030926 0.080019 -0.068621 -0.024116 0.057733
-0.000036 -0.147633 -0.182814 0.030625 -0.003086 0.047439 -0.084166 0.157798 -0.176375 -0.116536
-0.000381 0.020647 0.046862 -0.115516 0.009663 -0.038857 -0.020211 0.056616 0.020927 0.196529
-0.031300 0.025701 0.418224 -0.262410 -0.104415 0.065829 -0.085889 -0.226652 -0.070046 0.172977
-0.020960 -0.109013 -0.095305 -0.119505 -0.022075 0.091422 0.007293 0.100853 0.101301 0.046980
-0.149807 0.116983 0.047246 0.045637 0.124703 0.006175 0.114422 0.023555 0.011595 -0.043487
0.168532 -0.002546 -0.082908 -0.145429 -0.121275 -0.181012 -0.010845 0.098335 -0.047513 -0.064492
0.111612 0.130014 0.006349 0.131416 0.096771 -0.029557 0.128944 -0.095908 -0.058506 0.027034
-0.019671 0.109543 0.012988 0.106171 0.054038 0.079741 0.055990 0.085363 -0.031364 -0.041255
-0.037272 -0.124481 -0.073475 0.055037 0.162075 -0.122956 0.104512 0.014479 0.107052 -0.064793
0.045102 0.150960 0.075153 0.104050 -0.022335 0.016538 -0.035832 0.127243 0.149815 -0.064580
0.156620 0.090666 0.022728 0.026061 0.143047 0.146670 0.105835 0.045874 -0.126492 -0.007363
-0.148643 -0.044717 0.076554 -0.011396 0.074763 -0.044091 -0.108629 0.151915 0.091906 0.052276
-0.021864 0.002618 0.054636 -0.098249 -0.034526 -0.028450 -0.044437 0.012428 -0.070268 0.094815
0.006638 -0.025199 0.023754 -0.016691 -0.120296 0.087883 -0.048735 -0.083178 -0.164741 -0.067253
-0.037660 -0.081888 -0.058408 -0.094994 -0.177061 -0.031859 0.092092 -0.012226 0.172863 0.033435
0.117160 -0.011970 -0.000562 -0.114093 -0.045935 -0.010118 0.056250 -0.012586 0.003945 0.012701
-0.067915 0.151298 -0.163832 -0.066287 0.034646 -0.044875 -0.070006 -0.007722 -0.130997 0.137614
0.074823 0.032322 0.096777 0.161875 -0.208682 -0.066326 -0.147314 -0.058531 -0.048267 -0.061587
-0.162646 0.088662 0.201094 0.313228 -0.018542 0.039182 -0.075801 -0.070573 -0.272047 -0.091879
0.010014 -0.018425 -0.060957 -0.003167 0.080157 -0.061496 -0.029782 -0.149383 0.055038 -0.124857
0.071919 -0.066450 -0.004214 0.181145 0.058691 0.014374 -0.086322 -0.016798 -0.060631 -0.093659
-0.034507 0.150896 0.119992 0.095723 -0.060525 0.013064 0.114669 -0.222849 -0.091746 0.148740
0.056693 0.286507 -0.019288 0.246475 -0.182430 0.093707 -0.284977 0.025977 0.050145 -0.308981
-0.176811 0.109891 0.022258 0.021030 0.078160 0.157454 -0.066345 0.089318 -0.084629 -0.188779
0.121675 -0.025779 -0.030927 0.042320 0.030020 0.029777 0.129193 -0.147055 -0.161304 -0.142384
0.021331 -0.045113 -0.006610 0.116270 -0.328673 0.140138 0.207750 -0.375966 -0.075438 0.029738
0.196264 0.136660 0.125390 0.159277 -0.420640 0.019460 -0.150814 -0.157891 -0.073822 -0.090732
0.030145 0.065667 0.159352 0.075688 0.131008 0.090851 -0.101250 -0.028179 -0.081347 -0.103497
-0.114515 -0.014927 0.019125 -0.051733 0.194933 0.127641 -0.116536 0.020390 0.009193 0.077725
0.268013 -0.218283 0.048320 0.031304 -0.332790 0.136456 0.374339 -0.506786 0.193484 -0.230819
0.241937 -0.139351 -0.035985 0.056339 -0.088598 0.133585 0.058613 -0.180388 -0.101828 0.002366
-0.067775 0.093241 -0.072080 -0.057073 -0.196490 -0.048423 0.031382 -0.000202 -0.071607 -0.004498
-0.093335 -0.065042 -0.115683 0.144940 0.026117 -0.021500 -0.050554 0.003456 -0.047602 0.090802
0.159799 0.042679 -0.178488 0.144656 -0.334100 0.055103 0.310946 -0.206886 0.253557 -0.336412
0.499236 -0.654154 0.041497 0.006278 -0.221839 0.257102 0.113119 -0.290780 0.175411 -0.026398
0.174189 -0.056523 0.026319 -0.056289 -0.069690 -0.046396 -0.035646 -0.068197 0.071324 0.042109
-0.036087 0.049289 -0.113837 -0.105004 -0.095111 0.087058 0.034655 -0.037160 -0.068439 0.034872
0.132438 0.141938 0.123812 -0.042666 0.043406 -0.135320 0.115447 0.004584 0.201866 -0.233814
0.247192 -0.316994 -0.079665 0.087244 -0.305622 0.167681 0.103194 -0.302571 0.409073 -0.242964
-0.155242 0.078537 -0.112473 -0.106668 0.011767 -0.009310 0.141107 0.142458 0.131673 0.035185
0.151320 -0.069056 0.010120 -0.115293 -0.040345 -0.067392 -0.010994 0.046409 -0.185760 -0.026509
0.010066 0.306358 0.287657 -0.107340 0.185008 -0.106378 0.196225 -0.013490 -0.069034 -0.222914
-0.050753 0.132279 0.033880 0.071623 -0.164691 0.305029 -0.095805 -0.123698 0.191081 -0.292378
0.085827 0.167018 0.028380 -0.094656 0.085338 0.073852 -0.014534 0.020375 0.142388 -0.091051
0.028585 0.034335 -0.081057 0.075101 -0.170010 -0.110983 -0.030500 -0.060493 -0.000908 -0.008957
-0.030681 0.257211 0.277880 -0.098712 0.155031 -0.106904 0.187883 -0.092718 -0.174351 0.018936
0.002023 0.212166 0.402187 0.092736 -0.111904 0.122484 -0.182456 -0.357229 0.087625 -0.469017
0.057586 -0.054633 -0.024722 0.116717 0.026581 -0.019205 0.040595 0.038248 -0.041559 -0.051364
0.047669 0.099928 -0.062560 0.046956 0.074887 -0.069122 0.052792 -0.044935 0.076433 -0.092451
0.152909 0.231214 0.191368 -0.219132 0.146962 0.004263 0.018955 -0.083735 0.026735 0.106266
-0.160682 0.039828 0.370312 0.185410 0.194200 0.291627 -0.276863 -0.548501 0.031212 -0.163090
-0.139483 0.039107 0.060531 0.107119 0.005877 -0.042230 -0.158385 -0.182475 -0.029689 -0.060830
0.092766 0.046767 0.090172 -0.067720 0.051708 0.080572 0.049535 0.089807 0.070960 -0.101266
-0.169362 0.069259 0.114795 -0.128020 -0.113842 0.109981 -0.009781 -0.020231 -0.134917 0.189679
-0.116732 -0.091049 0.294505 -0.140360 0.043442 0.418378 -0.108548 -0.237146 0.128614 0.198186
0.018340 -0.151803 0.178691 -0.027336 -0.032958 -0.039079 -0.123852 -0.028899 -0.069069 0.010581
-0.100264 -0.111376 -0.000068 0.082643 0.024790 -0.186291 -0.043066 0.123551 0.123606 -0.053524
-0.090775 -0.034482 -0.028881 0.099304 -0.000868 0.104515 0.023003 -0.034943 -0.021852 0.025709
0.065671 0.108593 0.058914 -0.071490 0.041010 0.145396 -0.018374 0.018371 -0.012975 0.027093
0.113058 -0.040990 -0.112639 -0.036980 0.024885 -0.044926 -0.018040 -0.065976 0.026878 -0.001321
-0.087879 -0.078221 -0.072705 -0.062361 0.016847 0.049331 0.061805 0.116883 0.022637 -0.125644
0.075762 -0.038819 -0.059213 0.095631 -0.096178 -0.024620 -0.013813 0.191994 -0.018031 -0.069983
0.189075 -0.095041 -0.056727 0.001031 0.087037 0.143016 -0.001890 0.047820 -0.115022 -0.065447
-0.102693 -0.123545 0.020101 -0.091186 0.045116 -0.124224 -0.074991 -0.105848 0.181896 -0.041452
-0.156049 0.008116 0.102935 0.032108 -0.085707 0.111356 0.046486 -0.045417 -0.070938 -0.108040
-0.067689 0.207455 0.160075 -0.041852 -0.046743 0.060204 0.103184 -0.133267 0.068087 -0.025824
-0.098181 0.015970 -0.020147 0.009933 0.160045 -0.076191 -0.133720 -0.039778 0.004600 -0.112546
-0.006435 -0.080961 -0.061642 -0.079072 -0.073293 0.116429 0.003976 -0.060939 -0.031470 -0.039480
-0.080552 0.027198 0.023834 0.036189 0.038859 -0.007074 0.099830 0.088103 -0.005154 0.092772
0.110934 0.171817 -0.157759 0.204381 -0.180531 -0.031522 -0.083514 -0.017070 -0.199406 -0.097253
0.066107 -0.014170 -0.011156 0.184096 0.017218 0.118250 0.042599 0.121409 0.110038 0.030372
-0.018531 -0.050181 -0.107534 -0.053388 0.030847 -0.005525 -0.053324 0.004010 0.038775 -0.179495
0.140878 0.026420 0.077112 -0.055194 0.028642 0.196150 -0.160499 0.006359 0.053677 -0.017975
-0.069252 0.130439 -0.251736 -0.006706 0.062352 -0.015823 -0.000054 0.219758 -0.256518 0.044918
0.046136 -0.107343 -0.135756 0.190331 -0.183757 0.094439 -0.055844 0.030688 -0.371566 0.139381
-0.002803 0.064110 -0.042191 -0.098746 0.039169 0.171794 0.075935 0.008151 -0.155348 -0.014154
-0.050028 0.133470 -0.050212 0.020345 -0.104102 -0.032694 -0.027260 -0.047006 0.088231 -0.056747
-0.016840 -0.053993 -0.103173 0.009994 0.034590 0.003075 -0.025761 -0.135468 -0.004642 0.130902
-0.177898 0.156256 -0.166828 0.318670 -0.253414 -0.157872 -0.176656 0.339508 -0.422767 0.133798
0.032115 0.046487 0.130349 -0.031397 0.022869 0.034833 0.183697 0.055885 -0.106987 -0.005044
-0.000657 0.078929 -0.032853 -0.041933 -0.063604 -0.023935 0.055259 -0.042261 0.048061 -0.022471
0.195048 0.075533 0.102807 0.049379 0.111689 0.032496 -0.038793 -0.144876 0.085220 -0.266416
-0.163530 -0.031465 -0.140702 0.450254 0.035691 0.076691 -0.291573 0.330697 -0.254642 0.185333
-0.017943 0.041529 0.028056 -0.000919 0.046748 -0.103448 -0.028864 0.160097 -0.101670 -0.168670
-0.081680 -0.153100 -0.018380 -0.031390 0.036203 -0.087150 0.036702 0.126777 0.058067 0.089189
0.248380 0.104128 -0.019956 0.097214 0.045609 -0.034672 -0.149793 -0.225860 0.076952 -0.255481
0.152249 -0.295277 -0.317145 0.367258 0.024208 0.177015 -0.335132 0.236478 0.016741 0.073056
-0.127555 0.054530 -0.061170 -0.197785 -0.108979 -0.144733 -0.135642 -0.031555 -0.048413 -0.126424
-0.110413 0.030531 0.114222 0.128785 -0.115713 -0.001264 0.099535 0.008716 0.079005 0.118002
0.142594 0.217811 -0.100635 -0.089412 0.079855 0.022299 0.092770 -0.222138 0.039071 -0.209897
0.164686 -0.330233 -0.153526 0.330068 -0.106599 0.300812 -0.246732 0.065461 0.198940 0.102953
0.059890 0.132792 -0.030582 0.099835 0.013946 -0.001077 -0.020832 -0.018852 0.017079 0.109527
-0.122088 0.066603 0.174030 -0.054835 0.055074 -0.064266 -0.005940 0.050692 0.083038 -0.028636
-0.049938 0.100090 -0.004669 -0.091617 0.217456 -0.173057 -0.094575 0.070909 0.034019 -0.012574
0.100798 -0.264301 -0.119113 0.181000 -0.130012 0.246332 -0.330717 0.275247 0.168249 -0.061757
-0.045436 0.096236 -0.155674 -0.051222 -0.003081 0.176310 0.169821 -0.043060 0.145529 0.066630
-0.181042 -0.116801 0.002503 0.076980 0.007914 0.009114 0.002655 0.043620 -0.074391 -0.041921
0.054387 0.020663 -0.018036 -0.208025 0.223711 -0.121788 0.081215 -0.152563 0.019543 -0.036021
-0.134226 0.029027 -0.041317 0.037350 -0.116715 0.221993 -0.280246 0.236069 0.145546 -0.099933
-0.011753 0.055744 -0.179454 0.066097 0.024843 0.037172 0.106839 -0.081669 0.018638 0.020084
-0.011120 0.038849 -0.079092 -0.108669 -0.001119 -0.033270 0.065911 0.017424 0.151501 0.010086
-0.080751 0.149652 0.055943 -0.130539 0.216592 -0.015080 -0.027316 -0.293611 0.091865 0.009353
-0.364169 0.145119 -0.060633 0.000795 0.025294 0.048373 -0.149756 -0.017319 -0.029714 0.022094
0.005098 -0.134425 0.107147 -0.079132 -0.010324 -0.140398 -0.059278 -0.052228 -0.078633 -0.039620
0.118188 0.188454 -0.001163 0.055078 0.088272 -0.020504 -0.068087 0.068493 0.050252 -0.084877
-0.097594 0.060433 0.242930 -0.122709 0.139194 -0.201295 0.013228 0.003098 0.005214 0.142940
-0.228237 0.070458 0.075965 -0.116549 0.067789 0.010198 -0.214203 -0.044422 0.064183 0.162239
-0.170453 0.000955 -0.060219 -0.090096 0.157923 0.067397 -0.063378 0.057179 -0.067413 0.028284
0.078012 -0.042092 0.047160 0.023051 -0.056633 0.102388 -0.017623 0.093880 -0.146793 -0.128938
-0.115253 -0.120553 -0.042447 -0.070880 0.070956 0.123739 -0.059017 -0.073734 -0.111811 0.068895
-0.040400 -0.094060 -0.016076 0.006317 -0.005977 -0.058356 0.013416 -0.195925 0.006340 0.301479
-0.103970 -0.045448 -0.141325 -0.179938 0.042961 0.101226 0.065266 0.022523 -0.139545 0.150491
0.139262 0.105726 0.057009 0.083552 0.059176 0.073882 0.111702 -0.054240 -0.049762 -0.119127
-0.042251 0.047589 0.129332 0.078639 -0.181525 -0.108087 0.047709 0.086018 -0.107783 -0.124645
0.086910 0.135150 0.025343 -0.007171 -0.155676 0.083421 0.127294 -0.130248 -0.096802 0.137953
0.028690 0.024673 0.087454 0.063802 0.048197 0.037884 -0.007001 -0.097041 0.056250 -0.081082
-0.141393 -0.046530 0.014342 0.120115 0.186086 0.029975 -0.109158 -0.068925 -0.069457 0.089440
0.053305 0.120285 -0.053870 -0.023372 -0.068508 -0.035625 -0.126402 -0.086525 0.063028 0.123058
0.005244 0.016868 0.105733 -0.084637 0.004876 -0.056655 -0.014827 0.079550 -0.115610 0.065724
0.032659 0.038696 0.024245 0.012532 -0.037058 0.133068 0.038729 0.038357 0.022406 -0.048341
-0.109035 0.176254 -0.142409 0.024470 0.136370 0.066566 -0.073460 0.098374 -0.094354 0.091200
-0.062769 -0.079520 -0.075601 0.069968 -0.114927 0.058590 0.044431 0.167597 -0.128417 0.123957
0.116742 -0.057842 0.006914 0.057938 -0.067769 0.080302 0.065078 -0.107123 0.034801 0.031958
0.147680 0.041954 0.051068 -0.046623 0.038726 -0.145575 0.132409 -0.159284 0.137943 0.091106
0.082303 -0.002030 -0.053116 -0.174159 -0.136654 -0.018725 -0.089289 -0.191549 -0.019419 -0.176329
0.007862 -0.097579 -0.120933 -0.038438 0.175481 -0.129715 -0.046710 -0.115898 0.024994 -0.142113
0.180545 0.189839 -0.011376 -0.104494 0.002039 0.027944 0.076876 0.087944 0.150031 -0.031711
-0.100221 -0.034707 -0.115026 0.164238 0.192859 -0.136950 0.097057 0.122428 0.035373 0.168710
0.074037 0.044147 0.090451 0.050708 -0.008031 -0.062583 0.070141 -0.190124 0.005905 -0.128152
0.171881 -0.046882 0.037538 0.048541 -0.018038 -0.093779 0.061038 0.082752 -0.108148 0.116665
-0.048333 0.172617 0.124969 -0.137667 -0.046027 -0.066548 -0.042612 0.083629 0.169737 -0.002926
0.113679 -0.104406 0.027669 0.016767 -0.009366 0.081158 0.043754 0.035463 0.140683 0.028366
-0.078221 0.010897 0.013774 0.054254 0.066177 0.002232 -0.151752 0.052788 0.029291 -0.021916
-0.058306 -0.113477 -0.167242 0.177196 0.000936 -0.029241 -0.155768 0.069798 -0.174524 0.105929
0.108617 0.063673 -0.055401 -0.000657 0.079819 0.055652 -0.086528 0.106376 -0.017792 0.251490
0.021537 -0.030534 -0.117511 -0.000232 -0.002572 -0.106465 -0.061075 0.052580 -0.040556 -0.169923
-0.113836 -0.085145 0.071652 0.028458 -0.121511 -0.042319 0.033654 0.068008 -0.055339 0.094944
-0.300946 -0.123546 -0.388869 0.154964 0.021155 0.090900 0.004243 0.129601 -0.151770 0.066084
-0.016505 0.073380 0.023588 0.023054 -0.084221 0.002652 0.040086 0.276886 -0.077647 0.185655
0.184549 -0.049572 0.169000 -0.059490 0.052727 -0.110352 0.107353 -0.016657 -0.019931 0.114997
0.082783 0.053844 0.129743 0.071930 0.120006 0.004908 -0.110549 -0.180894 -0.040703 0.053567
-0.282964 -0.103555 -0.167515 0.326018 0.007768 0.039510 -0.021956 0.283956 0.027872 0.138833
-0.107343 -0.064567 -0.023284 0.169483 -0.214284 0.135925 0.038911 0.355945 -0.218816 0.228223
-0.014288 0.025968 0.020246 0.009933 -0.072660 -0.108068 0.032377 0.042651 0.010830 0.062377
-0.111160 -0.012552 0.072841 0.091354 0.151228 0.081854 -0.020042 0.060786 0.008047 -0.148221
-0.029202 0.026190 -0.082762 0.106551 -0.143765 0.189422 -0.014807 0.206161 0.098355 0.048210
-0.154964 -0.128340 -0.144415 0.092717 -0.364943 0.046609 -0.000299 0.397585 -0.296047 0.253277
0.136767 -0.079152 -0.176128 0.002633 -0.006654 -0.025363 -0.030328 -0.036490 0.057473 0.118852
-0.159569 0.011655 -0.092669 -0.003306 -0.009196 -0.008650 -0.125543 -0.024472 0.097462 -0.057391
-0.035100 0.085574 -0.103631 0.057178 0.040748 0.086651 -0.071560 0.172447 -0.000441 0.164324
-0.176068 -0.145979 -0.133480 0.044614 -0.435062 0.002564 -0.061588 0.289196 -0.086489 0.283548
-0.106551 0.026462 -0.096942 -0.140553 -0.032310 -0.029446 0.032204 -0.151300 -0.066561 0.015708
0.108123 -0.075671 -0.010746 -0.099427 0.007954 -0.100871 0.060604 0.006670 -0.030512 0.032787
-0.024779 -0.136021 -0.005219 -0.003933 -0.124815 0.001497 0.049119 0.099434 -0.015846 0.165386
-0.091895 -0.210155 -0.043376 -0.047607 -0.289753 -0.071931 -0.033044 0.437405 -0.035825 0.315594
0.102797 -0.126041 0.005535 0.062685 0.000198 -0.163050 0.087060 0.036925 0.130299 0.077411
-0.101802 0.153209 0.091311 0.072371 -0.044379 -0.052883 0.033294 0.038762 0.028996 -0.130346
0.084924 -0.027745 -0.042213 0.084831 0.099990 0.001734 -0.096191 -0.000322 0.071456 0.358564
-0.099922 0.020459 -0.173706 -0.079897 -0.254741 0.084305 0.121048 0.354707 0.065767 0.259060
0.092440 0.063949 0.063031 -0.040513 0.094443 0.035343 0.037179 0.194515 0.071754 -0.063034
-0.043470 0.001988 -0.044803 -0.077205 -0.054304 0.000969 -0.064529 -0.041444 -0.033989 0.070412
0.066659 0.050858 0.002306 -0.010282 -0.038655 0.179796 0.006389 0.210568 -0.083888 0.045342
0.058254 -0.116210 -0.105407 -0.228434 -0.307550 0.093702 -0.103798 0.089018 -0.151974 0.217970
-0.067829 -0.006609 -0.131571 0.101681 0.019431 -0.041209 -0.045205 -0.069344 0.048069 -0.052889
-0.065015 -0.072676 -0.103903 -0.056001 -0.137239 -0.003856 -0.030921 0.003062 -0.057197 0.154340
0.071234 0.124295 -0.023215 -0.062082 -0.101296 -0.048851 0.109982 0.053978 -0.127615 0.121700
0.100053 0.082932 0.001378 0.069206 -0.105642 -0.090287 -0.057029 0.124441 0.007984 0.098137
0.001762 0.031886 0.124272 0.083982 0.071767 -0.132052 -0.143827 -0.033281 0.013370 0.118730
-0.028862 -0.115913 0.043746 -0.100432 -0.085393 0.097677 0.102379 0.148049 0.016830 -0.011465
0.046014 0.085363 -0.119136 0.064408 0.107551 0.070345 -0.050277 0.178792 -0.099635 -0.046871
0.088463 -0.035298 -0.007720 -0.013613 -0.016162 -0.109954 0.013017 0.103322 0.132582 -0.120143
-0.067557 -0.015988 -0.071497 0.026796 0.056688 -0.067505 0.004684 0.012087 -0.163548 0.152584
-0.083314 -0.087650 0.052192 -0.024123 0.166925 0.159332 0.002189 -0.038799 -0.016103 -0.045915
-0.169059 0.095059 -0.184397 -0.018751 0.082920 0.019461 -0.048058 0.049054 0.070631 -0.027630
-0.029578 -0.095008 0.156218 -0.069950 0.068880 0.036672 0.026730 -0.066729 -0.091936 -0.028219
0.114805 -0.127064 -0.001743 0.112033 -0.068634 0.079174 0.021634 -0.007849 -0.015372 -0.113513
