10.000000
784.000000

-0.091628 0.023255 -0.156906 0.118259 -0.084754 -0.176785 0.017097 0.007128 0.080097 0.086299
-0.046413 -0.077415 0.058648 0.188282 -0.016278 -0.011412 0.062833 0.046737 -0.125174 -0.039326
0.030858 -0.088412 0.050416 0.077190 0.005725 0.184073 0.003209 -0.019604 0.009747 0.093015
0.067654 0.050357 0.009747 -0.002973 0.146888 0.113303 0.180521 0.068021 -0.096044 -0.189784
-0.047789 0.008013 -0.128677 0.197887 0.058199 0.078556 -0.107580 0.153057 -0.079628 -0.002803
-0.006501 0.054212 -0.040226 0.132154 0.125831 -0.137148 0.037127 0.092488 0.078223 0.074771
0.035851 0.057678 0.100438 0.018871 0.031257 0.030987 0.027461 0.127993 0.036769 0.109952
-0.049183 0.049129 -0.113452 -0.100260 -0.023793 0.006351 -0.025902 -0.117623 -0.076965 0.001053
0.015143 -0.007898 0.090400 -0.002592 0.062344 0.068405 0.079357 -0.100068 0.098602 0.095796
-0.055327 -0.106303 -0.040074 -0.043737 -0.003559 0.004580 -0.068764 -0.087662 0.035346 -0.184327
0.139730 0.124718 -0.044672 0.141215 0.088217 -0.011878 -0.036719 -0.072333 0.058941 0.033893
-0.013892 -0.050215 0.089339 -0.123597 0.135832 -0.121395 -0.036999 0.028598 0.072999 -0.046218
0.003744 -0.034787 -0.006334 0.054246 0.140370 0.069732 -0.118805 0.131880 0.085603 0.005325
-0.051007 -0.061669 -0.045594 0.027386 -0.074259 0.063773 0.115328 0.069431 0.175735 0.080878
0.110243 0.007489 0.050529 0.018460 0.129126 -0.173820 -0.038957 0.009568 -0.076186 0.103293
-0.014666 0.030826 -0.084605 -0.005462 -0.083832 -0.035681 -0.152083 0.151937 -0.048892 0.104869
-0.119182 -0.082632 -0.124122 -0.006405 0.141843 0.012891 -0.127820 0.092812 0.118469 -0.099619
-0.026864 0.170728 0.038748 -0.064645 -0.118904 0.069535 0.138361 -0.123859 0.018583 0.000237
0.032208 -0.012559 0.133658 -0.140120 -0.007411 -0.181255 0.021830 -0.020476 0.021263 0.099239
-0.031967 -0.008542 0.059736 0.010269 -0.124402 -0.014845 0.068344 -0.013822 0.103329 0.135661
0.148623 -0.066341 0.099743 -0.013676 0.029221 -0.110052 -0.033534 -0.041288 -0.183827 0.109202
-0.089590 0.169562 0.028046 0.114045 -0.060291 0.071501 0.032281 -0.043543 0.079448 0.163086
-0.121515 0.034234 0.186455 -0.022422 -0.040017 -0.038420 0.171288 -0.007472 -0.035370 0.046227
-0.017894 -0.026056 -0.019957 0.051533 -0.028333 0.115731 -0.010255 -0.129152 -0.005835 0.000884
-0.013755 -0.171467 -0.031744 -0.080820 -0.009105 0.082640 -0.005027 0.111437 -0.027125 0.029314
0.122481 0.000163 -0.019200 -0.116587 0.088019 -0.120122 0.104274 -0.073866 0.174448 -0.126888
0.086315 0.069211 0.065391 0.183420 0.061199 0.094683 -0.186760 0.075764 0.027503 -0.180361
0.041822 -0.118154 0.118831 -0.128183 -0.093565 0.072884 0.014871 0.157963 -0.076063 -0.050493
0.115273 0.073983 0.121699 0.091242 -0.107493 0.040646 -0.021811 0.022499 -0.020244 0.011317
-0.012843 0.001044 0.166526 -0.005084 -0.080157 -0.066926 0.006983 -0.084712 -0.185329 0.002869
-0.026459 -0.000934 0.115784 -0.127846 0.056728 0.161083 0.019382 -0.005663 -0.065385 -0.016230
0.066124 0.094761 -0.081846 -0.060773 -0.181405 -0.143623 0.066085 0.038278 -0.103773 0.013132
0.023852 -0.044533 0.169786 -0.082896 -0.171034 0.078643 -0.021110 -0.066240 -0.057562 0.062994
0.006829 0.097922 0.083656 0.117017 -0.017004 0.010621 -0.045887 -0.051968 0.000970 -0.102888
-0.078678 -0.054892 0.129014 -0.157282 0.188998 -0.120213 -0.140845 -0.107651 0.008711 -0.007786
0.108131 0.006919 0.001465 0.112843 -0.104367 0.150661 0.040882 -0.049616 -0.031461 0.102056
0.015298 0.192472 0.093820 -0.190399 -0.031563 0.074894 -0.144895 0.026968 -0.067440 0.073167
0.090430 0.027628 0.163044 0.106740 0.103906 0.005554 0.070540 0.051138 -0.118652 -0.052329
-0.080648 -0.098508 0.012267 0.025719 -0.152212 0.074528 0.038910 0.065424 0.083834 -0.033515
-0.001485 -0.108970 -0.051516 0.001561 0.033783 0.022365 0.017331 -0.005519 0.051900 -0.032333
-0.165224 0.039022 -0.123849 -0.092370 0.020467 0.162552 -0.050952 -0.170119 -0.155533 0.009697
-0.034769 -0.095914 -0.158273 0.081609 -0.118728 0.087299 0.022170 -0.165399 -0.009426 -0.057392
0.025090 -0.014292 0.159852 -0.053805 0.010938 -0.043167 0.058967 0.026333 0.029413 -0.060180
-0.080842 -0.095365 -0.091247 0.070027 -0.075422 0.015510 0.032086 0.068914 0.159016 0.019052
-0.037642 -0.003290 0.106510 -0.162783 -0.070552 0.036886 0.046089 -0.154890 0.120269 -0.070284
0.020419 0.127568 -0.033185 0.181967 -0.028818 -0.093419 -0.049124 0.091262 -0.008909 0.025134
-0.069649 -0.035715 -0.056079 0.050463 -0.055154 0.101847 0.161973 0.198095 -0.080771 -0.030774
0.046378 -0.019173 0.029334 0.142113 -0.084044 -0.050855 -0.003475 -0.065476 0.014852 -0.041441
0.060098 -0.015467 0.067128 -0.076823 -0.068302 0.075880 0.096132 0.164693 -0.034470 0.045172
0.055651 -0.071373 -0.161608 -0.053236 -0.013614 0.094978 -0.019862 0.023825 -0.037052 -0.020640
0.019096 0.116337 -0.091391 -0.009870 0.086458 -0.116075 -0.074712 -0.119427 0.179864 0.036581
0.008456 -0.013520 -0.152163 0.004289 -0.051006 -0.085706 0.038369 -0.028542 0.056749 -0.144218
0.080012 -0.105411 0.021822 0.067331 0.114647 0.037386 0.085011 -0.072075 -0.048751 -0.052453
0.176283 0.012045 -0.055780 0.075599 -0.195901 -0.092575 -0.100157 -0.043018 0.171657 -0.050359
0.147932 0.006730 -0.026491 0.023069 -0.070157 0.122846 -0.003814 -0.155311 0.172468 -0.057514
0.097495 0.124992 0.060214 0.005156 -0.003020 -0.061167 -0.092936 0.075781 0.089261 0.131271
0.001311 0.097159 -0.164000 -0.201160 -0.139112 0.051842 0.162129 0.069685 -0.005448 -0.050139
-0.047038 0.182802 0.127014 -0.030169 -0.191735 0.022725 0.025185 -0.111734 0.013335 0.115595
0.010987 0.084397 -0.130044 -0.043357 0.119668 -0.172153 -0.041120 -0.142221 0.039183 -0.088101
0.119552 -0.162672 0.013707 0.021602 -0.077340 -0.071752 0.050298 0.080812 -0.065158 -0.105617
0.113048 -0.190166 -0.137352 -0.175383 0.176314 0.094963 0.019485 -0.047693 -0.019104 0.082251
0.096407 -0.123629 0.070665 -0.019120 0.080519 -0.030998 0.030877 -0.108099 0.048031 0.050496
0.104008 0.016356 0.075167 -0.075687 -0.160120 -0.080265 -0.172002 0.012310 -0.037341 -0.058015
0.038440 -0.100017 0.078884 -0.141344 -0.063418 0.082251 0.001164 -0.065291 -0.023877 0.104224
-0.119489 -0.104737 -0.036002 -0.018758 -0.095092 0.040952 0.127400 -0.131226 -0.043930 0.127236
0.145299 0.123637 0.061243 0.084581 0.092199 -0.114577 0.058843 0.188214 0.007305 -0.075171
0.119849 -0.055126 0.075137 0.101251 -0.011831 -0.074187 -0.053916 -0.002127 0.088759 -0.034337
0.056831 0.025413 -0.130238 -0.054454 -0.053045 0.031116 -0.031365 -0.104172 0.037038 0.049794
-0.086787 -0.132893 -0.088157 0.142370 0.138466 0.094268 0.162025 -0.031746 -0.076780 0.022640
0.002712 0.003758 -0.125838 0.016346 0.101589 0.064376 0.039083 0.122183 -0.116527 -0.174387
0.101591 -0.110749 -0.025039 0.187539 0.089936 -0.069855 0.199101 0.030689 0.168036 0.005997
0.151088 -0.012267 -0.045598 -0.018375 -0.184745 -0.067585 -0.156917 0.098453 0.092251 0.135315
0.132913 0.168011 0.090606 0.120701 0.034185 -0.000308 0.082334 0.004575 0.006426 0.077301
-0.108142 -0.038600 -0.018376 0.101681 -0.086744 -0.195163 -0.019997 -0.031150 0.094256 -0.051275
0.028843 -0.123795 -0.094925 0.130034 -0.094759 0.027052 0.107308 0.076714 0.068358 0.066232
-0.085652 -0.095221 0.010296 0.072858 -0.005799 0.080611 0.034288 -0.116549 -0.020780 0.150767
-0.114611 0.141479 -0.005346 0.065532 -0.148364 0.069154 -0.007552 -0.102757 0.047309 0.008794
0.118707 0.067815 -0.026120 -0.122641 0.078420 -0.136233 0.148333 0.053754 0.030777 0.128562
0.019593 -0.063278 0.119850 0.046024 0.022037 0.048667 -0.034165 -0.105771 -0.046545 -0.175770
0.189280 -0.092235 -0.154046 -0.067678 -0.032116 -0.060706 -0.067669 -0.036935 -0.111198 -0.074658
0.062982 -0.144476 -0.124101 0.044557 -0.023293 -0.143631 0.034625 -0.126203 -0.004456 -0.076049
-0.020335 0.045051 0.067292 -0.007909 -0.044717 0.049354 0.041748 0.048503 -0.001044 0.019823
-0.094415 -0.120129 0.031806 -0.156599 0.083411 -0.026818 -0.010086 0.083337 -0.025938 0.069473
-0.044072 0.157014 0.103208 0.100691 0.084348 0.132733 -0.074112 -0.083398 -0.013515 -0.063240
-0.124691 0.076512 0.008067 0.047416 -0.109478 0.148305 0.108972 -0.045772 -0.028796 0.043979
0.079023 -0.110414 -0.043585 0.004717 -0.133121 0.070739 -0.044700 0.155654 -0.092683 -0.091845
0.121043 0.136429 0.152411 -0.084057 0.154037 -0.005654 -0.080927 -0.037471 0.071613 -0.084102
0.122573 0.089927 -0.155681 -0.060123 -0.066289 -0.013076 -0.087055 0.026549 -0.147047 0.139361
-0.070679 0.019006 0.018705 -0.038446 -0.058136 0.061625 0.100622 0.160192 0.018518 -0.040953
-0.046889 0.061427 0.040462 -0.026326 0.078375 0.079840 0.175108 0.023187 0.170301 -0.022674
-0.182960 0.119492 -0.059934 0.005032 -0.018153 0.134800 0.194654 -0.018384 0.086942 0.102756
-0.130044 -0.053804 0.023495 0.097343 0.026443 -0.078516 0.096609 -0.124242 0.108326 0.181328
-0.121948 -0.137364 -0.049606 0.079055 0.022561 0.063371 0.090036 -0.088376 -0.030151 -0.031604
0.018044 -0.005066 -0.151060 -0.115826 -0.011134 -0.082935 -0.097266 0.050097 -0.050151 0.133308
-0.057287 -0.027159 0.118956 0.031184 0.044262 0.121333 0.188641 -0.059411 -0.016436 -0.056314
-0.155505 0.016872 0.076357 0.171753 -0.065389 -0.097109 0.129464 0.014472 -0.032296 -0.084991
0.052465 -0.026351 -0.089926 0.010903 -0.118735 -0.025976 0.114841 -0.063679 0.022517 0.122978
-0.065233 -0.033721 0.042121 0.160118 -0.109219 0.071062 0.056414 -0.022406 -0.093825 -0.016990
-0.170118 0.045647 -0.124416 0.098532 -0.011684 0.021883 -0.088914 0.067403 0.082362 -0.060553
-0.093209 0.080675 -0.054495 0.009147 -0.127010 -0.048376 0.064430 -0.025557 -0.039149 -0.132952
-0.101613 -0.197358 0.105167 -0.120917 0.101696 0.036281 0.002386 0.007944 -0.127323 -0.092022
0.146044 0.143474 0.059666 -0.004111 -0.109189 -0.018784 -0.021457 -0.114241 -0.162664 -0.116998
-0.197609 0.101607 -0.074099 -0.105871 0.083811 0.058695 0.076274 -0.007841 -0.072082 0.157446
-0.112596 -0.082852 -0.111115 -0.061741 -0.191237 -0.016582 0.090636 -0.042033 -0.122129 0.080134
-0.044869 -0.086056 0.038863 0.035366 0.100502 -0.009599 -0.043289 0.076818 0.054852 -0.034282
0.108126 -0.073092 -0.055064 -0.078767 -0.020824 0.075809 0.062604 0.054482 -0.051312 0.032005
0.121244 0.025055 0.040187 0.010314 0.062977 0.130343 0.128557 0.050426 0.059671 -0.083415
-0.079086 -0.061522 -0.038111 0.078040 0.089386 0.076137 -0.172561 -0.011943 -0.011907 0.013629
0.025881 -0.001532 -0.128644 0.108250 0.148179 0.153061 -0.100950 0.000523 -0.021459 -0.086334
0.063976 -0.010864 -0.066650 0.073432 -0.162300 0.023289 -0.060764 -0.074205 0.017011 0.122333
-0.048787 0.067764 -0.021299 -0.021297 -0.097287 0.078499 -0.084358 -0.061226 -0.010452 -0.122234
0.124465 -0.079815 0.087551 -0.043201 -0.130056 0.197116 0.070897 -0.019888 -0.001102 -0.081570
-0.131025 -0.170144 0.018825 -0.103695 0.014183 -0.047006 -0.081515 0.173529 -0.009964 0.068570
0.168308 0.034592 0.082381 -0.012056 0.088652 0.020106 0.043331 -0.028981 -0.099816 0.013484
0.047350 0.023185 0.068264 -0.112594 -0.100453 -0.061996 0.017236 0.107040 -0.180635 0.024223
0.004418 -0.111915 -0.192258 -0.121902 -0.098462 0.081360 -0.109213 0.033387 -0.075022 0.100531
-0.194027 0.056443 0.032910 -0.094997 -0.021707 -0.041090 0.095565 -0.082518 -0.094076 -0.107385
0.011214 -0.020797 0.083905 -0.001722 -0.093069 -0.064759 -0.188581 0.002824 0.063434 0.015272
-0.110840 -0.058135 -0.087251 -0.150164 -0.024273 0.095061 0.001539 0.180972 -0.067828 -0.050470
0.146010 -0.000475 0.083124 0.127944 -0.047889 -0.041557 -0.028874 0.061817 -0.096677 -0.022528
-0.011147 -0.048004 -0.101489 0.037451 0.018854 0.070253 0.014828 -0.040576 0.002628 -0.195482
-0.086101 0.034993 -0.114695 -0.061371 0.137422 -0.190723 -0.148598 -0.098435 -0.022711 -0.176353
-0.171115 -0.059692 -0.171380 0.202654 0.025867 -0.103195 -0.005096 0.058074 -0.019610 -0.032374
0.067258 0.190262 -0.176022 -0.004145 0.135074 -0.059690 -0.019492 -0.022350 -0.175046 0.136035
0.079036 -0.033053 0.025396 0.109932 0.066419 0.011107 -0.037037 0.028443 0.143986 -0.153865
-0.198015 -0.071254 -0.035025 -0.027693 -0.055974 0.134266 -0.036568 0.168392 -0.152960 0.086232
-0.021088 -0.028151 -0.119265 -0.170165 -0.116733 -0.082817 0.051202 -0.101793 0.162084 -0.157634
-0.097982 0.112653 -0.173143 0.099820 -0.092303 -0.124178 0.179651 0.007203 -0.080456 -0.059166
-0.081714 -0.161845 0.046651 -0.083989 0.056735 -0.088683 0.020825 -0.056216 -0.089241 0.118156
0.059612 0.112245 -0.040383 -0.109005 0.087838 -0.049062 -0.128857 -0.050674 -0.069656 0.031954
0.024196 0.113063 0.144064 -0.054482 -0.117300 0.051176 -0.054605 -0.024546 0.029342 0.077926
-0.059410 0.074252 0.074855 0.024024 0.108447 0.028604 0.082558 0.042714 0.055045 0.096538
-0.045677 -0.001132 0.096320 0.146907 -0.166022 -0.070218 0.088601 -0.051995 0.066994 -0.079119
0.033605 -0.039169 0.053599 -0.039846 0.002605 -0.070524 0.124436 0.052675 -0.133128 0.097587
-0.029971 0.006458 0.171337 0.125366 -0.056403 0.053450 0.038960 -0.034789 -0.001392 0.001797
0.095508 0.029424 0.022067 0.004998 0.123628 -0.008543 -0.150106 0.125672 0.061200 0.170784
0.012863 0.007952 0.169917 0.030053 -0.017518 -0.046246 -0.108929 -0.198180 0.033987 -0.006072
-0.065166 0.017661 0.138200 -0.038336 0.204973 -0.091476 0.087031 0.016306 -0.063372 0.062748
-0.057671 0.119405 0.091681 -0.038123 -0.037287 -0.031280 0.073575 0.033693 0.127579 0.009873
-0.074530 -0.006739 -0.034019 -0.015259 0.015824 0.053342 0.021265 0.067218 -0.000639 -0.103057
0.037721 0.096280 0.018935 0.090594 -0.001959 -0.059383 -0.000821 -0.067151 0.138449 -0.057181
-0.082686 0.105128 0.020992 0.035212 0.012123 -0.072786 0.066607 -0.033893 -0.098153 0.044740
0.146830 -0.039561 0.146650 0.058126 0.070008 0.040785 0.029680 0.043644 -0.012887 -0.194672
0.012508 -0.015344 -0.035703 0.006204 -0.022672 0.011402 0.033922 0.160576 -0.131351 0.048477
0.086396 -0.059551 0.113767 0.111212 -0.056815 0.006824 0.102130 -0.169560 0.048692 -0.139567
0.032385 -0.121601 -0.015052 -0.035362 0.097946 0.112053 -0.027145 -0.001500 -0.002292 0.033662
-0.002674 0.027603 0.191802 -0.031598 -0.060937 -0.076460 0.042445 0.014693 0.028762 -0.024594
0.145742 0.015359 0.047593 0.035520 0.064307 0.010246 -0.153678 0.020021 -0.128099 -0.023558
0.029502 0.082156 0.008036 -0.040550 -0.026782 0.018961 0.056633 -0.025814 -0.051794 -0.178941
0.018103 0.026308 0.050917 0.062086 0.098209 -0.012987 0.140832 -0.080235 -0.143211 -0.087719
-0.132329 0.009234 -0.046406 0.098831 -0.070556 -0.105112 0.073556 -0.120984 -0.080906 0.032162
-0.014475 -0.086578 0.107465 0.022795 0.010017 -0.059818 -0.100729 0.123523 0.018395 0.051608
-0.021905 0.183903 -0.024650 0.000533 -0.054049 -0.029302 0.138158 -0.091504 0.010433 0.026931
0.029182 -0.060793 0.035223 0.128192 -0.055726 0.101767 0.046171 0.017659 -0.031206 -0.038904
-0.045362 -0.083025 -0.118912 -0.047987 0.011289 0.059467 0.102063 0.036732 0.111927 -0.061091
-0.027650 -0.079627 -0.171650 0.137887 0.134932 -0.092338 0.118736 0.022155 -0.184690 0.109323
-0.108838 -0.017978 -0.007843 -0.176651 0.045540 -0.016146 0.090749 -0.000614 -0.005329 -0.019665
0.086248 -0.102429 0.133006 -0.072972 -0.074534 -0.019686 0.050380 0.098129 0.000229 -0.032897
0.012349 -0.097587 -0.049990 0.119758 0.101616 0.044702 0.146464 -0.101307 0.129393 0.070498
-0.032681 -0.055960 0.175214 -0.051924 -0.024695 -0.132834 0.010066 -0.150831 -0.070495 0.027668
-0.011363 0.008438 -0.169037 -0.116547 -0.000732 0.006094 -0.081621 -0.084376 -0.034273 -0.003148
-0.045654 -0.186488 -0.159073 -0.023381 0.189560 -0.050155 0.014576 0.043384 -0.001070 -0.027207
0.142163 -0.009661 0.039048 0.120034 0.077275 0.031802 0.044139 0.046263 -0.100349 -0.012238
-0.016313 0.160786 -0.018517 -0.032588 -0.109779 0.024914 -0.034618 0.052415 0.040462 0.066612
-0.093248 0.004639 -0.011493 -0.091815 0.033922 -0.069437 -0.046062 -0.041643 -0.122234 0.096319
0.070389 -0.012225 0.194850 0.015493 0.172501 0.066982 0.058248 0.006287 -0.062859 0.193842
0.169277 -0.123103 0.095441 0.009799 -0.081093 0.182265 -0.031443 -0.129952 -0.059891 0.173524
-0.038544 -0.108510 0.001820 -0.067919 -0.042799 -0.086929 -0.100131 0.137381 -0.117886 0.056110
-0.057420 0.179328 0.160033 0.012733 -0.110900 -0.074663 -0.091013 0.022897 -0.014059 -0.005909
0.010611 0.055513 0.177223 0.010118 -0.029747 -0.026887 -0.022382 0.026550 -0.044841 -0.195737
0.025740 0.038237 -0.109131 0.128586 -0.175243 -0.006918 -0.135660 -0.146160 -0.020009 0.095636
-0.062661 -0.020459 0.073822 -0.161792 0.057355 -0.035971 -0.150133 0.021906 0.049972 0.001067
-0.138327 -0.014573 -0.036637 0.110312 0.196133 -0.057599 0.080776 0.079247 -0.066167 -0.172884
0.036889 -0.059913 0.100933 -0.126438 -0.047688 -0.031780 -0.009353 0.061345 0.048175 -0.023647
0.014117 0.109800 0.023163 0.050552 0.004795 0.058478 0.068111 -0.079972 0.116161 -0.144551
-0.126763 0.180052 0.047320 -0.076737 0.134000 0.158162 -0.121867 0.010760 0.104876 0.059776
-0.002480 0.034035 0.069642 0.057115 0.034323 -0.130127 -0.158741 -0.044664 -0.070027 -0.090365
-0.107999 -0.042098 0.050587 0.046004 0.060622 -0.073532 -0.095638 0.019615 -0.005763 -0.044505
0.054142 0.055255 -0.152097 0.104302 0.059266 0.053300 -0.026624 -0.022700 -0.037980 0.064658
-0.104416 -0.071583 0.166659 0.064925 0.103771 0.056629 -0.059347 0.082219 -0.020854 -0.059705
0.043940 -0.022230 0.175221 0.139130 0.135026 -0.012267 0.046363 0.155341 0.060245 -0.110082
-0.126155 0.042637 -0.103370 -0.005446 0.027174 -0.108703 0.029340 -0.132870 0.067113 -0.163410
0.136929 0.153087 -0.135551 0.179797 0.006512 0.083808 0.062609 0.048264 -0.032381 -0.145906
0.038334 0.022841 0.061247 -0.028618 -0.098370 -0.084590 -0.101536 0.036947 -0.100237 -0.070413
-0.081845 0.006937 0.030347 0.207439 0.090903 0.047739 0.015222 0.079204 0.018957 -0.019755
-0.061322 0.059782 -0.058957 -0.052742 0.021701 0.126575 0.014852 -0.093726 -0.092383 -0.031207
0.009413 -0.012436 -0.086027 -0.101264 -0.040635 -0.018469 -0.090341 0.136233 0.053560 -0.053086
0.110966 0.054357 0.174530 0.067711 0.036098 -0.124255 0.021032 -0.066107 0.009697 0.062294
-0.093952 -0.065706 0.071826 0.014593 -0.050364 0.126364 -0.042382 0.072541 0.040864 -0.120808
0.012350 -0.036109 -0.066899 0.049769 -0.013075 0.026413 0.045674 0.032804 -0.004333 -0.014660
-0.022887 -0.050505 0.006777 -0.049327 0.163803 0.006875 -0.013516 0.179059 -0.157035 0.117537
-0.053134 0.003474 0.128872 0.090859 -0.052346 -0.097368 -0.045587 0.060265 -0.208726 -0.012568
0.212381 -0.083489 -0.031500 0.068494 -0.090141 0.075523 -0.175653 0.064383 0.011996 0.155223
-0.049205 0.028530 -0.019816 -0.219211 0.079541 -0.063785 0.149121 -0.076020 -0.039722 -0.074928
-0.128059 0.025215 -0.014089 -0.177604 0.012182 0.039919 0.040121 -0.175824 -0.125653 -0.152398
-0.146131 0.076552 -0.005138 0.010821 -0.090188 0.032078 -0.066921 -0.045485 -0.017942 0.096893
0.021945 -0.080824 -0.060966 0.083448 -0.174013 -0.086721 -0.161034 -0.006154 0.120292 0.336051
0.105297 0.163441 0.171429 -0.172018 0.277141 -0.073961 0.030181 0.149716 -0.078450 0.054843
-0.179123 0.065207 0.163731 -0.011531 -0.038259 0.142741 0.064933 0.194329 0.177747 -0.017370
-0.135784 -0.184965 0.096312 0.021995 -0.194604 0.120090 0.075913 0.040274 0.077489 -0.024433
0.097944 -0.085404 0.092440 -0.027562 -0.076600 0.142654 -0.187902 -0.081297 0.147764 0.106395
-0.107858 0.065294 -0.057383 -0.070801 0.281580 -0.070202 -0.004990 0.108091 0.092804 0.000440
-0.062009 -0.004965 -0.057566 0.213981 -0.099476 -0.121432 -0.101940 0.176731 0.004866 0.013328
-0.077192 -0.076751 -0.108946 -0.006017 -0.082614 0.169345 -0.203546 -0.188145 -0.022301 0.116162
-0.014146 -0.193404 -0.127736 -0.025695 -0.012668 0.069593 -0.081462 0.076642 0.015900 0.071231
0.075623 0.085042 -0.010470 0.014040 -0.016878 0.043509 -0.097476 -0.106815 0.056807 0.068746
0.024139 -0.008229 0.022411 0.008532 0.023633 -0.079744 0.000949 0.041394 0.121078 0.146460
0.180819 0.048747 -0.009536 0.048756 0.036686 0.062010 0.173967 0.018872 -0.048479 0.006706
0.095901 0.022502 0.009106 -0.028474 -0.003503 0.021439 -0.104951 -0.110994 0.100231 -0.055631
0.114428 -0.039530 0.002881 0.056006 0.052016 -0.051965 -0.001635 0.001211 -0.040808 -0.048751
-0.034386 0.008992 -0.009582 0.036273 0.010360 0.046311 0.025767 -0.097112 -0.093835 0.062704
-0.046203 -0.149575 0.190790 -0.080840 -0.067761 0.041760 0.057014 0.038394 -0.056551 -0.035267
-0.019138 0.083965 -0.128532 0.002790 0.059999 0.109344 -0.028775 0.131238 0.030096 -0.200687
0.105451 0.021293 0.074208 0.176381 0.024383 0.064352 0.030555 0.018421 0.074279 -0.103585
-0.069910 -0.054772 0.035040 0.075231 -0.069034 0.116037 -0.050236 -0.071243 -0.061570 -0.037464
-0.101587 0.099265 -0.016430 -0.063897 0.016204 0.018015 0.121007 0.013401 -0.106467 0.002475
-0.009662 -0.091821 -0.200436 -0.134830 -0.098419 0.180309 -0.028252 -0.089595 0.041173 -0.220197
0.172896 -0.067054 0.046547 -0.021016 -0.188137 -0.047883 0.022784 -0.142208 -0.004422 0.017069
-0.107872 -0.050835 -0.079301 0.139422 -0.036350 0.001378 0.126651 -0.190102 0.020050 0.097285
-0.092765 0.050947 0.073673 0.000374 0.112612 0.092780 0.050820 0.170984 0.106215 0.079132
-0.145751 -0.069026 -0.048796 -0.025124 -0.003518 0.159733 0.056397 -0.146472 -0.041510 0.043799
0.053051 0.192266 -0.108302 0.024298 -0.076289 0.051821 -0.043425 -0.053905 0.043351 -0.087158
0.137272 0.003858 0.079473 -0.128655 -0.082499 -0.026886 -0.085113 0.029623 -0.012536 -0.071040
0.118226 -0.070583 0.084810 0.042783 0.009385 -0.072902 0.035245 0.051443 -0.131197 0.037201
0.079107 0.106022 0.012457 0.098910 -0.062764 0.001616 -0.074159 0.157863 0.012929 -0.037330
-0.071299 0.109686 0.030590 -0.052990 0.017306 -0.118332 0.003707 -0.017177 0.080831 0.113645
-0.063452 0.132389 0.049508 -0.118096 0.077598 0.015620 0.061282 -0.004005 0.130338 0.047262
-0.015301 0.132514 -0.026963 0.033050 -0.119151 0.137968 -0.109643 -0.052457 -0.079044 0.077154
-0.035880 -0.071425 -0.060154 -0.056056 0.026511 -0.104880 0.055306 0.102832 -0.081596 -0.063362
0.073118 0.057877 -0.081487 -0.171319 0.077553 -0.072855 -0.093398 0.010362 -0.135613 -0.005051
0.061044 0.016740 -0.100397 0.109283 0.172210 -0.118485 0.146059 0.016707 0.104355 -0.080583
0.080563 0.060053 0.078342 0.140314 0.050865 0.132375 0.144593 0.119321 0.031083 -0.064803
0.055182 -0.024682 -0.063550 0.192988 -0.082849 0.024707 -0.023297 0.182833 0.019695 -0.057236
-0.086645 0.014452 0.157352 -0.179461 -0.116663 0.080589 -0.069228 -0.031654 0.050259 0.124363
0.011493 -0.032369 0.032185 0.050054 -0.152626 0.121643 -0.067086 -0.127015 -0.060988 -0.188757
-0.070199 -0.057479 0.013752 -0.129171 0.002543 -0.038213 -0.032756 0.044198 0.025459 -0.025437
-0.005990 -0.162201 0.127776 0.085670 -0.034637 0.047761 0.053794 -0.061317 0.047288 -0.004285
0.047366 0.008462 0.023083 -0.114917 0.080321 -0.018304 -0.098008 -0.000478 -0.118982 -0.030746
-0.040735 -0.086233 -0.015679 -0.042841 0.104985 0.145767 -0.059288 -0.087437 0.156423 -0.063057
-0.081973 0.025291 0.103658 0.017718 -0.095309 0.025582 -0.007719 0.099439 -0.155713 -0.173696
-0.096877 -0.001084 -0.040154 -0.048065 -0.146630 0.026799 -0.134816 0.123592 -0.072731 -0.024043
0.000712 -0.111088 -0.097057 0.003025 0.076642 -0.006946 -0.053923 -0.055178 0.073947 0.081589
0.009546 -0.013792 -0.040253 0.008373 -0.029900 -0.004296 -0.039471 0.036834 0.140382 -0.082182
0.024320 0.162713 0.010735 0.195391 -0.069803 -0.160369 -0.144794 0.086433 0.135137 -0.044752
-0.012765 -0.212961 0.145774 -0.049125 -0.083321 -0.037731 -0.118857 0.058666 0.103593 0.008780
0.040608 0.140701 0.039770 -0.124434 0.177500 0.039359 0.078110 -0.020721 -0.097068 0.053142
0.004654 0.106792 -0.076797 -0.006764 -0.067258 -0.139598 0.073992 -0.139983 -0.092458 -0.036851
0.027438 -0.029118 -0.097985 0.003638 0.015299 -0.100313 -0.036225 -0.078238 -0.009652 -0.064727
-0.135715 0.014961 0.006304 -0.007032 -0.145266 0.094140 -0.020847 0.132164 0.015503 0.064253
0.059233 0.155231 -0.008908 0.140977 0.133651 0.059073 -0.011842 -0.129441 0.144031 -0.120258
0.015486 0.017791 0.014937 0.063284 0.003128 -0.021502 0.022382 0.210980 0.024577 0.001193
0.108532 -0.133158 0.002661 0.008366 -0.179938 -0.115923 0.170995 0.133503 -0.041559 -0.022494
0.026543 -0.049042 0.071275 0.070781 -0.231032 -0.166016 -0.002750 0.084887 -0.214182 0.043387
-0.053322 0.054574 0.134333 -0.060458 0.155778 -0.003293 0.038714 0.029123 0.189243 -0.072631
0.171959 -0.043874 0.126102 0.007319 -0.095487 -0.034146 -0.013974 0.013050 0.011807 -0.104909
0.149126 -0.054584 0.016586 0.036931 0.077424 0.210886 -0.013694 -0.001741 -0.011291 0.075002
0.154655 0.055083 -0.043833 0.212004 -0.206565 -0.148640 -0.167286 0.190380 -0.094064 0.149362
0.039780 -0.088630 0.096084 0.095607 0.029040 -0.223102 0.057267 -0.019689 -0.129653 -0.030287
0.114479 0.003988 0.039240 0.095428 0.116261 -0.113162 0.090820 -0.061655 -0.024516 -0.026108
0.088551 0.087278 -0.013475 -0.107191 -0.063125 0.073728 -0.028204 0.059625 -0.044757 0.095310
0.253208 -0.121933 -0.038976 -0.035326 -0.048940 -0.040778 -0.212857 0.146315 -0.015982 -0.049809
0.145307 -0.010280 -0.035113 -0.025553 0.042126 -0.148018 0.038287 -0.022986 0.162576 -0.111312
0.048867 0.072862 -0.132354 -0.047499 -0.163864 -0.112926 -0.024384 0.097836 -0.047084 -0.114690
0.032669 0.032974 0.042611 -0.027820 0.054149 0.109969 -0.005276 0.010378 -0.127495 0.059339
-0.039842 -0.111519 0.072476 0.076836 -0.018527 0.103088 -0.116864 0.028393 0.011314 -0.021657
0.145166 0.011318 -0.109533 -0.010652 0.198976 -0.127063 -0.021625 0.087908 -0.073848 -0.053262
-0.097528 -0.067891 0.001840 -0.096771 -0.140207 0.183991 0.002658 0.063762 -0.048847 -0.101715
0.030450 0.108507 0.164107 -0.026407 -0.044794 -0.020072 0.103907 -0.057058 -0.053786 -0.012974
0.026847 -0.019497 0.098890 0.019788 0.152017 0.134079 -0.146021 0.117915 0.128601 0.010640
-0.029199 -0.166847 -0.041335 -0.121465 0.028761 -0.158994 -0.031958 -0.133294 0.154723 0.016781
-0.060455 -0.086263 0.128787 0.021111 -0.009030 -0.046351 -0.075665 -0.165252 -0.118274 -0.008050
0.032749 -0.131558 -0.045164 0.009265 -0.159804 0.009181 0.058476 -0.057564 -0.025511 -0.180773
0.075079 -0.168845 -0.093663 -0.199723 0.112481 0.284502 -0.002228 -0.067150 0.091361 0.024389
-0.092860 0.152541 -0.075337 -0.042963 -0.008585 -0.044536 0.112300 -0.130609 -0.068329 -0.077427
-0.174234 0.004529 -0.126129 -0.075392 0.055862 0.101634 -0.043716 -0.027435 -0.095796 0.167055
-0.026532 -0.002943 -0.083227 0.034883 0.070313 0.001520 0.063336 0.009498 -0.047251 0.089618
-0.063172 -0.039288 -0.016527 0.175636 -0.116038 0.187419 0.107374 -0.050563 0.142825 -0.063588
0.120271 0.132466 -0.192364 0.113524 0.062779 0.118505 0.094060 -0.005642 0.104501 -0.049033
-0.094835 -0.129039 0.099827 -0.058615 -0.149456 0.003197 0.150957 -0.050592 -0.176259 0.099650
-0.123549 0.039122 -0.088237 -0.169946 0.072831 0.068990 0.074983 -0.080328 0.019212 0.082630
-0.075319 -0.018571 0.040618 0.197458 -0.054995 0.105057 0.030628 -0.149286 -0.004906 0.005101
0.060206 -0.108005 -0.058716 0.114283 0.070700 0.190741 0.091960 0.145230 -0.010816 -0.099459
-0.135985 0.173649 -0.019583 -0.122696 -0.047318 0.000804 0.063357 -0.041716 -0.141147 0.028648
-0.000490 -0.042285 0.049741 0.034920 -0.077069 -0.112081 -0.092366 0.037659 0.052113 -0.148487
-0.012909 0.049178 0.040845 -0.051935 0.058493 -0.106092 -0.088155 0.089079 0.019018 0.001349
-0.125074 0.060925 -0.137715 -0.001738 0.075668 0.012545 0.053289 -0.098623 -0.073819 -0.018419
-0.043672 -0.083557 -0.042254 -0.186948 0.051468 -0.094116 0.096473 0.133254 -0.005300 -0.005442
0.073232 0.082861 0.066229 -0.026118 0.080737 -0.082184 0.066055 -0.049497 -0.067780 0.046078
-0.014806 -0.106629 0.021983 0.152646 -0.028514 -0.044127 -0.102210 0.006425 0.170106 0.100903
-0.099678 -0.126475 -0.095719 0.157860 0.063703 0.095388 0.074138 0.065117 -0.080942 0.000461
-0.007273 -0.091649 0.090455 -0.077034 0.014072 -0.085145 -0.020238 0.189367 -0.186146 -0.125063
-0.005132 -0.050300 -0.039973 0.109533 -0.068420 0.033185 -0.147003 0.086293 0.062604 0.124722
-0.107675 -0.073152 0.037415 -0.088681 0.081413 0.014273 0.060875 0.119185 0.206322 0.089026
-0.044782 0.108581 0.016619 -0.160151 -0.101394 0.096848 0.005145 0.044649 0.074715 0.059858
0.012804 -0.058355 0.098563 0.034598 0.122255 0.194265 -0.134142 0.140400 -0.013624 0.140674
-0.068804 0.107521 -0.131020 0.130453 -0.147135 -0.066933 -0.156414 0.206113 -0.048232 -0.025418
0.003287 0.008305 -0.184244 -0.118365 0.028453 0.045801 0.048457 -0.030628 0.153485 0.104100
0.030537 0.001800 -0.069027 -0.129811 0.143726 0.093368 0.001200 0.054742 0.071919 0.144427
-0.207698 -0.020860 -0.064408 0.050788 -0.063752 0.114940 -0.040111 0.182669 -0.074095 0.059491
-0.036346 0.043470 0.020395 -0.001892 0.002576 -0.019251 -0.072872 -0.141469 -0.046117 -0.058927
0.044974 -0.121272 -0.070183 -0.240398 0.246583 0.135134 -0.061162 -0.024454 0.107154 0.057999
-0.126277 0.040801 -0.181762 -0.008108 -0.055266 -0.119047 0.034776 -0.114801 -0.061672 0.041371
0.117761 0.010401 0.003211 -0.169538 0.042819 0.053945 -0.000957 -0.101273 0.004508 -0.052881
0.092531 -0.024756 0.021325 0.081590 -0.178056 -0.009960 0.007592 -0.133680 0.000270 -0.060184
0.000600 -0.018703 -0.214287 -0.028264 -0.055742 0.181275 0.087371 0.063693 0.090584 0.007914
-0.018145 0.200453 -0.045571 -0.185566 -0.165116 0.036092 0.177300 -0.099418 0.068990 0.000214
0.095413 0.071672 -0.193144 -0.082534 -0.048453 0.071502 0.025663 -0.111073 0.017203 -0.162835
-0.026888 0.065063 -0.005971 0.021896 -0.000498 -0.075336 -0.164430 -0.131676 0.104056 -0.061258
0.028181 0.414792 -0.048599 0.116561 -0.225707 0.020333 -0.231569 0.363776 0.006779 0.028946
-0.132493 0.159899 0.056172 0.066073 0.207962 0.020960 0.004555 0.095180 -0.017326 -0.018830
0.055473 0.006673 0.003815 0.182249 0.096571 -0.049964 -0.118971 0.063514 -0.092816 -0.050175
-0.162134 -0.033526 0.058833 0.021524 -0.057107 0.083223 0.024337 -0.021421 -0.046937 -0.111142
-0.052695 0.066134 -0.055979 0.093101 0.168396 -0.094149 -0.256202 0.318318 -0.017214 -0.033031
0.036120 -0.151676 0.187059 0.037177 0.151812 -0.060636 -0.209225 0.125407 -0.015851 -0.019522
-0.037769 0.111419 0.003347 0.079246 -0.092612 0.089555 -0.140819 -0.065646 -0.023092 -0.014557
-0.118930 -0.126394 -0.027469 -0.097334 -0.165619 0.043063 -0.094191 -0.036849 0.023430 -0.064941
0.000806 -0.076476 0.113814 0.190183 -0.028113 -0.033719 -0.110566 0.208170 0.058746 0.097565
0.065136 -0.038209 0.145430 -0.019346 0.007221 -0.062373 -0.049830 0.038281 0.015423 -0.031932
0.105143 0.065392 -0.076124 0.016099 -0.101511 -0.040766 -0.010208 0.065545 -0.055440 -0.049393
-0.001155 -0.076559 0.147543 -0.015920 0.056076 -0.033664 0.103662 0.064628 0.076571 0.090909
0.104401 -0.103526 -0.089766 0.138994 -0.093030 -0.153319 -0.133861 0.146368 0.165572 0.132006
-0.097251 0.057034 0.080655 -0.069690 -0.027855 -0.085372 0.119637 0.004101 -0.020457 0.046568
0.196637 0.104680 -0.019929 -0.051095 0.047768 0.080410 0.049935 -0.012960 0.140812 -0.082126
-0.117744 0.075510 -0.037056 -0.061004 0.040276 0.176917 0.089950 0.066205 -0.115472 0.019756
0.243435 -0.178637 -0.000606 0.069759 -0.004986 0.057239 0.014082 0.045291 0.181153 0.018065
-0.043711 -0.052362 0.061269 0.125412 -0.019338 0.027176 -0.034743 -0.057226 0.009382 0.028980
-0.136971 -0.037207 -0.074347 -0.057059 -0.148868 -0.069983 0.135131 0.090853 -0.023502 0.174359
0.190057 -0.077820 -0.054892 -0.009572 0.037249 0.179176 0.097620 -0.067642 -0.023204 -0.003581
-0.011843 -0.001040 -0.055587 -0.153875 -0.227440 0.207406 -0.075310 -0.075618 0.069560 -0.117392
-0.056791 -0.134710 -0.072612 0.056873 -0.152897 -0.071783 0.027577 0.127198 0.075044 0.103829
-0.078919 -0.145162 -0.015508 -0.030684 -0.197817 0.029512 0.002012 -0.065027 0.070334 -0.073468
-0.168779 0.114645 -0.020056 -0.018734 0.145470 0.205680 -0.094102 0.084711 0.078952 0.020724
0.052934 -0.148913 -0.116862 0.008648 -0.020875 0.132332 -0.020134 -0.000693 0.061976 0.141027
-0.153591 0.092891 0.141681 0.088811 -0.079829 0.064268 -0.071891 -0.018169 0.104672 -0.139729
0.064275 0.083683 -0.167116 -0.065628 0.080177 0.160444 0.167422 -0.072245 -0.104780 -0.110519
-0.101132 0.115406 -0.103594 -0.076096 -0.034094 0.014062 0.160790 0.190170 0.102355 -0.096588
-0.070595 -0.029466 0.135316 -0.095756 -0.006877 0.060167 0.077851 0.065556 0.024806 -0.045293
0.017605 0.016913 -0.155332 0.061000 0.129716 0.053248 -0.089591 0.188013 -0.030772 -0.166556
0.078818 -0.019387 -0.106104 -0.106092 0.047964 -0.006338 -0.068513 -0.108873 0.102369 -0.096763
0.084086 0.029085 0.025480 -0.047044 -0.005350 0.076549 0.165092 0.022680 0.044384 -0.019942
-0.021669 0.179500 0.057874 0.046402 -0.003942 -0.094064 0.123236 0.126693 0.079632 0.045199
-0.092536 0.030475 -0.063553 -0.000181 -0.042352 0.166435 -0.149450 0.070102 -0.007581 0.025948
0.007845 0.076109 -0.098765 -0.004575 -0.102128 0.014964 -0.141214 -0.015831 0.116253 -0.152216
0.117480 -0.020534 0.058179 -0.168631 -0.005860 0.073106 0.130390 0.139036 -0.048767 -0.018484
0.078337 0.029343 -0.090033 -0.216437 0.033452 0.023663 -0.036335 -0.028820 -0.080227 0.029841
0.197061 -0.111325 -0.079851 -0.175894 0.091091 0.021378 0.123162 -0.211014 -0.007562 0.099794
0.107296 -0.138141 -0.043573 -0.059035 -0.182707 0.000895 0.052940 -0.006633 0.168593 0.089811
0.025036 0.094348 -0.022162 0.000770 -0.130582 0.143727 0.136868 0.121172 -0.042270 0.107919
0.038424 0.073378 -0.288118 -0.110624 0.131810 0.139245 0.084972 0.018035 0.053204 0.072575
0.018397 0.014438 -0.102286 -0.072609 -0.177278 -0.107737 -0.014877 -0.196148 0.110389 -0.053174
0.038695 -0.117417 -0.102087 0.066310 -0.098777 -0.055557 0.042094 -0.089693 -0.150403 0.112852
-0.200199 0.003016 0.054233 -0.088696 -0.002848 -0.100799 0.127999 0.086231 -0.106458 -0.163738
0.057135 -0.074678 -0.225922 -0.174310 0.182694 -0.008505 0.077580 0.002766 0.007347 0.187137
0.069076 -0.023701 -0.217684 0.013138 0.041892 0.112859 0.108615 -0.031334 -0.144055 0.189274
-0.021641 -0.198656 0.099167 0.079760 -0.095295 0.146196 -0.006245 -0.021582 -0.024881 0.090663
-0.070855 -0.185217 0.059376 0.104131 0.008572 -0.138855 -0.073176 -0.191168 -0.017955 -0.012985
-0.028588 -0.272150 -0.214544 0.005238 0.195580 0.146183 0.078912 -0.158880 -0.091664 -0.087053
0.076054 -0.143285 -0.154134 -0.151659 0.158594 0.089039 -0.093150 -0.167182 -0.048530 -0.044701
0.052176 -0.200659 -0.119899 0.103012 -0.135400 0.116640 0.031269 -0.080365 0.080682 -0.065264
0.007181 0.034116 -0.108149 -0.025993 -0.191629 0.176280 -0.180091 0.191406 0.170865 0.040511
-0.047248 0.137310 -0.147359 0.057817 0.087606 0.160900 -0.109345 -0.206846 0.235344 -0.125950
-0.010236 0.142449 0.043672 -0.125731 0.004311 0.173191 -0.103900 -0.024151 -0.127326 -0.004473
0.119703 -0.062201 -0.140037 0.031180 0.116447 0.136440 0.106621 -0.134242 0.166147 0.018710
0.020086 0.180925 0.066059 0.072971 -0.121252 -0.080197 -0.051970 0.141574 0.108230 0.033494
-0.386257 0.330597 -0.215856 0.161861 -0.065453 -0.054676 0.058548 -0.126015 -0.018495 0.210120
0.124796 -0.051180 -0.058936 -0.165172 0.036343 -0.180357 0.022089 0.170800 -0.068403 0.037852
-0.202411 0.104253 -0.135064 -0.024705 -0.049208 0.019103 0.041678 -0.141811 0.143919 0.019719
-0.073446 -0.102124 -0.025849 -0.103891 -0.021115 0.141850 0.013597 0.075513 -0.149894 -0.018316
-0.166639 0.156555 -0.097252 -0.035437 0.125445 -0.128512 -0.136759 0.154677 0.028248 0.090883
0.020304 -0.165001 0.033670 0.051228 0.069563 -0.117757 0.022712 0.036131 0.013934 -0.100010
-0.003187 -0.053967 -0.152360 0.035328 -0.052024 0.096161 0.141576 -0.052713 -0.122204 -0.006461
0.016622 -0.005317 -0.087671 -0.134480 -0.086664 0.139099 -0.082351 -0.044013 -0.168463 -0.166675
-0.119101 -0.079540 -0.023324 -0.059601 0.105616 -0.212778 0.011032 -0.014126 -0.075411 0.336749
0.072991 0.057998 -0.069746 -0.067941 0.065936 0.162344 0.032215 0.031475 -0.105584 0.019009
-0.048586 0.008112 -0.046141 -0.037007 0.083580 0.051642 -0.044934 0.043357 -0.123394 0.077240
-0.108720 0.149136 0.127710 0.056399 0.055768 0.006131 0.002860 -0.040208 -0.208181 0.001677
0.008729 -0.182370 -0.017052 -0.116722 -0.020835 -0.062920 -0.024210 0.008112 0.084314 0.115091
0.008512 -0.077513 -0.090299 0.022778 0.078967 0.068595 0.075520 -0.006183 0.013106 0.052880
-0.091175 -0.144182 0.099461 0.009245 0.071253 -0.053110 -0.013502 0.077244 0.050838 -0.027863
-0.069779 0.034982 -0.030430 0.003876 -0.041675 0.117120 -0.040101 0.137900 0.112897 -0.063886
0.149188 -0.123073 -0.054082 -0.035467 -0.123022 -0.162959 0.207851 0.061812 -0.001121 -0.039951
-0.054449 0.024613 0.049413 -0.130811 -0.155751 -0.112495 -0.092990 -0.091350 0.005514 0.113953
0.014324 -0.007726 -0.180440 -0.116870 -0.063888 -0.155911 0.055424 0.157859 -0.111821 0.094023
-0.054786 0.195261 -0.093399 -0.018537 0.116303 -0.007509 -0.028134 0.151082 -0.154469 -0.134134
0.214630 0.113565 -0.083512 0.011745 -0.142099 0.015173 0.038609 -0.142833 0.182099 -0.033016
-0.140664 -0.046244 0.190160 -0.020507 -0.177222 -0.173945 -0.001842 -0.063326 -0.047928 0.062649
0.008031 -0.066810 0.040320 -0.086486 -0.048181 -0.082108 0.014753 0.053976 0.065205 -0.074438
-0.001334 0.051469 -0.026471 -0.080622 0.020471 0.064240 -0.055051 0.106315 0.094947 0.141707
0.037471 -0.048523 -0.128319 -0.001998 0.029030 0.097250 0.147606 0.035124 0.160077 0.014293
-0.052478 -0.033977 0.134613 0.028070 0.025229 0.042388 0.014666 0.123695 0.005478 0.124289
0.063663 0.124272 0.129301 -0.017440 0.107727 -0.111802 -0.048101 0.021457 -0.175032 0.118714
0.027042 -0.024306 -0.117486 -0.052206 0.029708 0.085781 -0.048552 0.014322 0.120302 -0.024362
0.117648 -0.142563 0.010381 0.047524 -0.023367 -0.042015 -0.022131 0.039895 -0.021065 0.116843
-0.096474 -0.086027 -0.048598 -0.005083 0.097188 -0.078362 0.074287 -0.113028 0.162750 -0.046160
-0.100209 -0.105237 -0.114083 0.139427 -0.044470 0.050332 0.059719 0.087607 -0.051523 0.108484
-0.164122 0.058498 0.117363 0.082258 0.016981 0.064465 -0.047485 0.082604 -0.030923 0.059208
0.034906 -0.131486 0.059148 0.116842 -0.009130 -0.045185 0.009973 -0.034121 -0.096513 -0.104777
0.183939 0.079329 -0.038053 0.087985 -0.116644 0.053247 0.105296 0.097254 -0.082713 -0.029404
-0.135327 0.050062 0.009535 -0.097760 -0.063608 -0.009256 -0.010804 0.035367 0.079389 0.027223
-0.115127 -0.070424 0.137770 -0.018213 0.086638 -0.081082 -0.106771 -0.033806 -0.144920 0.102783
0.052133 -0.060295 -0.223772 0.021586 0.034091 0.071697 -0.035722 -0.036525 -0.095085 0.112210
0.207819 0.023206 -0.081768 0.167082 -0.062210 0.019261 0.049630 -0.131132 -0.141486 -0.006807
0.039946 -0.082418 -0.088524 0.001566 0.015460 -0.203804 -0.020275 0.016143 -0.057048 -0.014642
0.033889 0.038967 -0.092129 0.123628 0.087735 0.029107 -0.042036 0.120415 -0.005496 -0.132696
-0.051732 0.038585 -0.154792 -0.194045 0.176240 -0.115145 -0.022365 0.038104 -0.130405 -0.044124
-0.080350 0.050550 0.078173 -0.066761 0.014929 0.009728 0.065624 0.056118 0.023898 -0.155760
-0.019645 -0.004126 0.024912 0.060846 -0.151064 -0.125025 -0.107002 -0.069594 0.010791 -0.004519
0.137768 0.102994 0.034704 0.140656 -0.093920 0.087401 0.012744 -0.052558 0.102117 -0.029697
0.227429 -0.189180 0.085175 -0.038786 0.200457 -0.020453 0.028587 -0.088937 -0.110641 -0.017150
0.011697 -0.123173 -0.184929 -0.082687 0.079971 0.022789 -0.072252 -0.089491 0.130535 0.005340
-0.121867 0.027242 0.058447 0.021823 0.080147 0.060328 0.109933 -0.019612 -0.068098 -0.175699
-0.015040 -0.088761 0.043142 -0.155966 -0.139896 -0.006994 -0.118211 -0.011030 0.147506 -0.013473
-0.019030 -0.122531 -0.012328 -0.065173 0.132888 0.097423 0.149696 -0.149977 -0.058607 -0.084933
0.093027 -0.088218 -0.121471 0.069017 0.070816 -0.075932 0.037251 -0.204572 0.114180 0.087515
0.128599 -0.004120 0.155315 0.013545 0.035035 0.011426 0.031730 -0.161335 0.150893 0.081477
0.061352 0.124452 0.063724 0.195156 -0.095818 -0.006585 -0.089097 -0.031519 -0.035733 0.055169
-0.031502 0.175833 0.154517 0.046473 0.036568 0.044135 -0.083797 -0.424389 0.151774 0.019869
-0.144077 0.136073 -0.023263 -0.205879 0.101017 -0.103752 0.022951 0.172401 0.088502 0.080308
0.043370 0.045145 -0.015201 0.103747 0.012641 0.149592 -0.105587 -0.115283 0.060507 -0.003153
0.062713 0.085779 0.154479 0.092922 -0.039145 -0.087326 -0.056241 -0.053656 0.000675 0.013216
-0.373340 0.233972 -0.046172 -0.000741 -0.011191 -0.034564 0.058343 -0.066757 0.104362 0.036266
0.150494 -0.007468 0.092007 -0.165887 0.147533 0.009505 0.012849 0.013764 -0.204486 0.052811
-0.041059 0.078941 -0.050609 0.193019 0.045540 -0.033671 0.070131 -0.168699 -0.007568 -0.086428
-0.004816 0.155799 0.043871 0.088915 -0.113283 0.089678 -0.164432 -0.064215 0.006439 0.115024
-0.149282 -0.040702 -0.049519 0.018302 0.161516 -0.176408 -0.012121 0.023774 0.031076 0.035777
-0.015034 -0.172900 0.010784 -0.044255 0.031726 0.097367 -0.023996 -0.032854 0.118683 -0.110111
0.039334 0.015395 0.037767 -0.072602 0.229995 0.003126 -0.070639 -0.128000 -0.046893 0.057643
-0.052796 0.115822 -0.079270 0.056368 0.065798 0.068820 -0.007936 0.095392 -0.159377 -0.071095
-0.034794 -0.232332 -0.111997 0.070420 0.071717 0.000624 -0.079409 0.256140 -0.060375 0.217168
0.139542 0.018461 0.029131 -0.034023 0.023437 -0.046953 -0.017635 0.032524 -0.088649 0.145846
0.003550 -0.140281 -0.163944 0.083547 0.049151 0.119422 0.026231 0.035964 -0.021476 -0.072596
-0.002802 0.010307 0.001797 0.079524 0.005570 -0.071146 0.035720 -0.004436 -0.049862 -0.194564
0.027307 0.018864 0.046003 -0.074441 0.124034 -0.064330 0.045121 0.055988 -0.020584 -0.041764
-0.068180 0.060250 0.068728 -0.149206 -0.081519 -0.015908 0.053212 -0.093029 0.031093 -0.060203
0.028365 -0.028348 -0.179671 0.111117 0.148391 -0.067043 -0.060254 0.001249 0.100557 -0.107185
0.112179 -0.083514 -0.130590 0.018865 -0.072820 0.124935 0.131133 -0.005629 -0.034667 -0.216124
0.255328 -0.103418 0.008505 0.086471 -0.033717 -0.170450 0.147877 0.104936 -0.096290 0.059919
-0.074021 0.174756 -0.025353 -0.009321 -0.181033 0.062914 0.009543 0.082138 0.077520 -0.185128
-0.009344 -0.017390 -0.097802 -0.111446 0.052602 0.131654 -0.007861 0.051083 -0.013688 -0.048068
-0.152240 -0.142492 0.108453 -0.096511 -0.050537 0.078441 -0.025414 -0.125729 0.033378 -0.075439
-0.076354 0.057363 0.099149 -0.015478 0.062168 -0.215353 0.076507 0.121705 -0.138802 0.005837
0.008483 -0.054588 0.080986 0.143310 -0.087293 -0.072841 -0.068738 -0.069546 -0.026711 0.052032
0.059269 -0.027884 -0.158906 -0.056338 -0.037050 -0.038863 -0.162639 0.064159 -0.085444 0.140811
-0.062234 0.037762 -0.070939 0.007186 -0.012034 0.189355 0.149142 -0.019179 -0.120966 -0.193372
0.043089 -0.174073 0.193818 -0.082619 -0.009174 0.126750 0.019467 -0.193074 0.011717 -0.170816
0.093200 -0.096978 0.059398 -0.064716 0.111806 -0.132587 -0.074009 0.028485 -0.007094 -0.017429
0.040260 -0.129878 -0.011112 -0.013948 -0.129598 0.078024 0.010242 0.093247 0.087944 0.027072
0.187930 0.050486 0.141694 0.169552 -0.070627 -0.053158 -0.073773 -0.082436 -0.027006 -0.024964
0.031199 -0.003559 -0.002235 -0.003544 0.016326 0.116415 0.021653 0.075966 0.036951 -0.087418
-0.102682 -0.034646 0.070399 -0.173581 0.101944 -0.137140 0.003911 -0.072039 0.006389 0.013501
-0.043491 0.048960 -0.051320 0.042334 0.146972 -0.088159 0.005918 0.093437 -0.062154 -0.051480
-0.067893 0.124858 0.084592 0.019045 -0.011773 -0.127762 -0.005551 -0.026032 0.174505 -0.002987
-0.030453 -0.008943 0.056917 0.139511 -0.036921 0.045091 -0.137817 0.168875 0.143688 0.067226
-0.000517 -0.077313 0.001186 -0.058751 0.183395 0.089175 -0.007560 -0.036798 -0.161889 -0.044885
-0.046496 0.049047 -0.013478 -0.036566 -0.120149 -0.121586 0.133706 0.022465 -0.043646 0.175479
-0.040498 0.005567 0.050185 -0.143442 0.033162 -0.094004 0.155805 -0.011322 -0.051532 -0.140850
0.011000 -0.031010 0.188909 0.083892 0.012483 -0.202556 0.033635 -0.001909 -0.218640 -0.007504
0.005425 -0.072832 -0.035642 -0.004887 -0.130988 -0.046397 -0.080796 -0.161090 -0.074199 0.030371
-0.189793 0.134671 0.022673 0.099089 0.117627 0.034572 -0.024056 0.016489 0.026413 -0.169030
-0.042868 0.012198 -0.130486 -0.016541 0.016257 0.103632 0.088043 0.049259 0.049293 -0.074060
0.041810 -0.232902 0.000618 -0.196336 0.045621 -0.015046 0.091661 -0.027994 -0.067956 0.020631
0.004336 -0.005266 0.192867 0.124718 0.131210 0.047188 -0.074983 -0.208825 -0.165293 0.036360
-0.091276 -0.134076 -0.056092 -0.037299 0.049621 0.112344 0.013973 -0.043583 0.016530 -0.096977
-0.145132 -0.137920 0.111155 -0.160163 -0.087389 -0.056908 0.036224 -0.100925 0.126231 -0.104203
0.078746 -0.054611 -0.092457 -0.066363 0.092262 -0.089617 0.112441 -0.116862 0.056411 0.157593
0.076448 -0.072003 0.096274 -0.129043 -0.146555 -0.018546 0.095126 -0.095243 0.065641 0.198604
-0.038151 0.103742 -0.079367 0.099445 -0.117848 0.123879 0.107042 0.115369 -0.081106 0.051367
-0.077108 -0.017551 -0.108869 -0.020765 -0.036092 0.084956 -0.033325 -0.125591 -0.164528 0.016928
0.120004 -0.312476 0.038691 -0.235015 -0.013355 -0.125107 0.152905 -0.115454 0.035966 -0.056429
0.044700 0.156111 -0.041047 -0.049792 -0.055088 -0.128164 0.100184 -0.006747 0.200831 -0.012110
-0.046469 -0.134424 0.105045 0.068615 -0.034154 -0.143544 0.089860 -0.082877 -0.004103 -0.023514
-0.139285 -0.062974 -0.169303 0.116029 0.015099 0.141588 -0.067052 -0.112500 -0.141802 0.177599
-0.300247 0.172038 0.164216 -0.037339 0.055098 -0.063313 0.160452 -0.091790 0.068432 -0.081563
-0.099119 -0.031769 -0.026159 -0.087676 0.023189 -0.130812 -0.098774 0.188593 0.104499 0.050715
0.060292 -0.020806 0.135359 0.009806 0.045920 0.144872 0.095203 0.106933 -0.008331 0.016730
0.086563 -0.002919 0.119147 -0.040932 0.134438 0.029011 0.046004 0.001823 0.040337 -0.009216
-0.372311 0.215621 0.086535 -0.033068 0.235725 -0.124232 0.087231 0.070447 0.046653 -0.028654
-0.100954 -0.056365 -0.029718 0.011206 0.034548 0.002956 0.088569 0.168934 -0.068763 0.217273
0.106651 -0.000420 0.031174 0.089175 -0.116965 -0.124983 0.042148 0.005555 -0.004740 0.095520
-0.024850 -0.007588 -0.018730 0.135359 -0.031727 -0.001324 0.020071 -0.032832 0.010130 -0.031158
-0.063225 -0.189201 0.100809 -0.074152 0.253166 -0.127958 -0.146643 0.134864 -0.034428 0.183066
0.057098 0.110667 -0.115743 0.017667 -0.016970 -0.015596 0.008454 0.014688 -0.044710 0.028041
-0.033967 -0.172879 -0.127321 0.003160 0.101941 0.118404 -0.173743 0.011297 0.015673 -0.084252
-0.027353 0.066546 -0.027980 -0.157608 -0.009779 0.009125 -0.038096 0.016678 -0.000857 0.086567
0.067025 -0.091443 0.071529 0.104640 0.062953 0.077575 -0.004187 0.212797 -0.122379 0.005075
0.020949 -0.000787 -0.002956 0.042204 -0.015335 0.017150 0.074922 0.012687 -0.190605 0.045806
0.000278 0.103926 -0.004199 0.097881 0.077102 0.102722 0.085257 0.107059 0.116929 0.147398
-0.126881 0.128648 0.092248 0.137627 -0.029415 0.091123 0.124856 -0.060542 0.032240 -0.178202
0.031272 -0.101443 0.024241 0.133465 0.126531 0.112584 0.133433 0.046129 -0.117887 -0.154470
0.025938 -0.001696 -0.100802 0.024701 0.002539 -0.101084 -0.103506 0.127349 0.098320 -0.084921
0.064053 0.048389 -0.105485 -0.153963 -0.146399 0.091053 -0.030107 -0.013136 0.054774 0.017245
-0.116517 0.187837 0.178077 -0.043636 0.083328 0.108650 -0.042111 0.040273 -0.061930 -0.182512
-0.051276 -0.178047 0.028900 0.039495 0.037340 0.112649 0.007238 0.088344 0.089736 0.011631
0.006658 0.004759 0.136209 0.078950 0.176770 0.096242 -0.050580 0.102316 -0.108613 -0.025199
0.049257 0.166969 -0.051238 0.015520 0.135967 0.098851 -0.006293 0.004145 -0.002979 -0.010763
-0.081009 0.005435 0.126072 -0.060076 0.009691 0.034833 -0.116194 -0.084302 -0.107921 -0.009872
0.138050 0.011001 0.175153 -0.043172 -0.044240 0.125448 0.035142 0.132194 -0.113992 -0.185914
0.107818 -0.022699 0.099156 0.022004 -0.069044 0.112628 -0.116551 0.132830 0.119661 0.098713
0.120735 0.075692 0.078421 -0.087213 0.155878 -0.016582 0.063593 0.148176 -0.073859 -0.014827
-0.068046 0.081981 0.012658 0.078158 -0.133467 0.047859 -0.116044 0.161359 -0.044583 -0.006653
-0.001961 0.009012 0.041841 -0.097818 -0.151228 0.021732 -0.016379 -0.117128 -0.062926 0.036582
0.133720 0.171490 -0.132092 -0.074915 0.055432 -0.026598 0.079717 -0.070860 0.016616 -0.149970
-0.075574 -0.075711 0.095703 -0.078742 0.076691 0.066689 0.042323 0.113831 -0.176733 0.087946
0.124608 -0.089276 0.131910 -0.092039 0.108316 0.193278 0.090576 0.027390 -0.071307 -0.095445
0.018237 -0.178251 0.090816 0.066091 -0.049119 0.008845 -0.118140 -0.047533 -0.092854 0.039553
0.027053 0.038923 0.108268 -0.072796 -0.025494 0.040431 0.152790 0.014456 -0.030504 0.075747
0.107455 0.030530 0.033295 0.028158 0.126579 -0.087424 -0.040181 0.036873 -0.134768 -0.099875
-0.062394 -0.180656 -0.053881 0.103782 0.015188 -0.059063 -0.049769 0.016316 -0.092232 0.051556
-0.100156 -0.105319 -0.000483 0.079545 -0.184961 -0.054986 0.054164 -0.150594 -0.088190 -0.063089
0.095640 -0.010415 0.132597 -0.022961 -0.176546 0.033858 0.001986 0.013070 -0.043061 -0.081065
0.040298 -0.115231 -0.080738 -0.020387 0.054179 -0.116373 0.062368 -0.037288 0.112413 0.022043
-0.075557 -0.076272 0.170028 -0.042332 0.150760 0.113353 0.022575 -0.129033 0.074681 -0.038053
0.073727 0.013559 0.091129 0.125866 -0.026644 0.243642 -0.148742 -0.070914 0.051198 -0.147670
0.054407 -0.112724 0.058612 -0.108504 -0.021028 0.098427 0.050873 -0.049272 -0.069154 0.142792
0.182378 0.038118 -0.013462 -0.074826 0.097631 0.027098 -0.048342 -0.053996 -0.181511 0.028368
-0.202730 -0.072815 0.113648 0.015094 -0.039970 -0.014137 0.057558 0.011974 0.072980 0.059732
0.079241 -0.081863 0.109429 0.025266 0.086059 0.083857 0.021971 -0.052898 0.055074 -0.021085
0.046714 -0.040451 0.143419 -0.123410 0.108916 -0.130001 0.151727 -0.146699 -0.029226 -0.085571
0.040415 -0.031445 -0.089972 0.093992 0.040711 -0.059900 -0.001350 -0.007530 0.072475 -0.050975
-0.100050 -0.120723 -0.011470 -0.022556 0.005097 0.113475 -0.033746 -0.114327 -0.063344 0.027366
0.130225 -0.001688 0.104212 -0.102803 -0.133860 -0.137841 0.033582 -0.240402 0.139787 -0.094742
-0.052289 -0.132736 0.025098 -0.147213 -0.021666 -0.152146 0.210132 -0.068555 -0.014392 -0.094195
0.204579 0.045164 0.012893 -0.105008 0.043422 0.011355 -0.009781 -0.125922 0.140318 0.001272
0.007272 -0.036751 0.055002 0.048288 0.100300 0.045732 0.072313 0.065878 0.040808 -0.063690
0.121445 0.068334 0.031101 -0.079191 -0.107575 -0.175104 0.145729 -0.002772 0.066011 -0.101071
-0.006138 0.119222 0.083721 -0.192123 0.158928 0.094142 -0.023070 0.070947 0.036507 -0.040182
0.006567 -0.022042 -0.045552 -0.142233 -0.079084 -0.002715 -0.048049 -0.198754 -0.057393 0.076073
0.039769 -0.023205 0.104470 -0.102290 0.062377 0.163406 0.052899 0.073475 -0.017755 -0.144340
-0.123604 0.209212 0.238099 -0.212509 0.069527 -0.076370 0.093616 -0.095210 0.077474 0.032115
-0.106782 0.093141 -0.072427 -0.030491 0.051533 -0.011469 0.011820 0.095064 -0.053213 -0.168954
0.031952 -0.002581 -0.060893 0.154106 0.044124 -0.001642 -0.045432 -0.020783 0.003426 -0.072458
0.009153 -0.016464 0.139064 0.211057 0.054380 0.071753 0.121344 -0.007908 -0.022549 0.092910
-0.024125 0.138660 0.023438 -0.026301 0.142701 -0.055399 -0.088710 0.013847 -0.135768 0.005476
0.071228 0.012157 0.081996 0.001497 -0.017651 -0.076285 -0.084586 0.103003 0.193235 -0.039234
-0.022240 0.068911 -0.037864 -0.031715 0.133145 0.067866 0.089160 -0.070669 -0.098003 0.012750
-0.050093 0.193373 -0.131245 0.154901 0.019713 -0.029702 0.070028 -0.164690 -0.051510 0.098913
0.064206 -0.166650 -0.009944 -0.014872 -0.028589 0.088481 0.210950 -0.105734 -0.060608 -0.018106
0.013669 -0.135252 -0.009828 -0.117485 0.046082 -0.001146 0.087274 0.113299 0.105968 0.003840
-0.076345 -0.202788 -0.071856 -0.064917 -0.031618 0.071758 0.072336 -0.052845 0.003966 -0.058453
-0.023210 0.003405 0.091442 0.048214 0.044119 0.189032 -0.108787 -0.015821 0.056859 -0.094646
0.006226 -0.083858 -0.070569 0.074306 -0.116631 -0.086850 0.081688 -0.113002 -0.011068 -0.093914
0.114988 0.006685 -0.045557 -0.018639 -0.022721 0.026496 0.072719 -0.064852 -0.031659 0.048755
0.004757 0.100723 0.093950 0.092008 0.013025 0.072045 -0.132074 -0.117586 0.122077 -0.033754
-0.196130 0.174232 0.033956 -0.033667 -0.099264 -0.100321 0.023738 0.100267 0.008013 -0.124238
0.030612 0.018258 0.143055 0.078985 -0.153613 -0.035307 0.019668 0.035396 0.027119 0.022998
-0.001078 -0.001844 -0.007559 -0.134189 -0.066062 -0.000932 0.027824 -0.082390 -0.008770 -0.112356
0.098055 0.120114 -0.067330 -0.003609 -0.003939 -0.136444 -0.174040 -0.128524 0.146516 0.078171
0.023774 0.011268 0.136003 -0.008398 0.022752 0.038492 -0.129849 -0.120306 -0.072915 0.097984
0.126327 -0.132023 0.088162 0.075330 -0.233770 0.000029 -0.085057 -0.104250 -0.112347 -0.110105
0.034293 -0.113306 -0.046933 0.048698 -0.079750 0.004991 -0.123264 -0.087187 0.020491 0.131263
-0.015103 0.031429 0.051654 0.009718 0.000781 0.071543 -0.005317 0.037640 -0.022233 0.089772
-0.009932 0.057707 0.044204 0.071162 -0.100140 -0.092023 0.021835 -0.056943 -0.137701 0.120507
0.014602 -0.040384 0.211195 -0.048960 -0.044283 -0.007374 -0.093318 0.055472 0.123361 -0.215109
0.142723 0.020149 0.071281 0.012109 -0.032463 -0.131498 0.027383 -0.064903 -0.083878 0.043404
-0.074400 0.053309 -0.088671 -0.114427 -0.047157 -0.020197 -0.095207 0.158839 -0.006716 0.083109
0.130714 0.157503 0.048393 -0.031825 0.112939 0.066169 -0.193384 0.006898 -0.161311 -0.149723
-0.108428 -0.057396 -0.005276 -0.077562 -0.002870 -0.027765 -0.027698 -0.087763 -0.016280 -0.088177
0.068486 -0.063522 -0.117152 0.116268 0.043487 0.097245 0.001798 0.061634 -0.050694 0.084988
0.039363 0.055861 0.130421 0.169269 0.024188 -0.079573 0.160437 -0.010257 0.128011 0.034136
0.021355 -0.109675 0.096345 -0.068126 -0.165619 -0.097269 0.029936 -0.013570 0.089837 -0.188000
-0.013762 0.009237 0.169596 0.182364 0.076842 0.140671 -0.088384 0.017466 0.064186 -0.190902
-0.009457 -0.026855 0.147385 -0.119823 -0.076024 0.171339 0.157221 -0.124528 -0.082460 0.043448
-0.001098 -0.109034 -0.075304 -0.060574 0.045128 -0.150521 -0.019370 0.132896 -0.072476 0.051165
0.090151 -0.005713 0.043372 -0.013252 0.189047 0.016615 -0.190785 0.052662 0.034850 0.148830
-0.045596 -0.024042 -0.079076 0.127595 0.022215 -0.102954 -0.057289 0.074139 0.073249 -0.099063
-0.067903 0.178306 -0.034966 0.066044 -0.030630 -0.006662 0.004539 -0.047452 -0.021709 0.013074
-0.066946 0.057493 -0.155979 0.043417 0.049033 -0.035989 0.106555 0.070181 0.073793 0.002093
-0.024053 -0.078074 -0.005462 0.055239 -0.174425 -0.036824 0.079013 -0.110413 -0.092663 0.070737
-0.048245 0.086764 0.183339 -0.045665 -0.173065 -0.038845 -0.106605 -0.126934 -0.146536 -0.214373
0.028233 -0.093244 0.071197 0.018820 -0.077500 -0.101582 -0.011586 -0.015887 -0.089976 -0.102553
0.109338 0.072951 -0.113612 -0.125074 0.142615 -0.105787 0.108766 0.066062 -0.045191 0.062575
-0.187377 -0.045172 -0.155725 0.002628 -0.172905 -0.065985 0.052963 -0.039038 0.166174 0.100617
-0.052491 -0.023237 0.033641 0.057005 -0.176932 0.020555 -0.219333 -0.221424 -0.029271 -0.054250
0.054670 0.168670 0.086943 0.014848 -0.005131 0.061682 -0.148854 -0.027688 0.078686 -0.039133
0.032744 0.092076 0.003280 0.086132 0.009899 -0.042569 -0.004927 -0.197105 0.128259 -0.096484
-0.011416 -0.113659 0.047309 0.195047 -0.083734 -0.049850 0.019965 -0.051683 -0.092148 0.086960
0.008667 0.085025 0.049743 -0.035702 -0.203992 0.269856 0.141684 -0.197703 -0.035647 -0.240502
0.102620 -0.022948 0.015498 -0.052849 0.037498 -0.086389 0.067411 0.049809 0.021267 0.089144
0.068285 0.030237 0.038746 -0.023384 -0.005379 -0.010104 0.083133 -0.044591 -0.057818 0.026638
0.004241 -0.145694 -0.110674 -0.045649 0.037656 0.068709 0.005723 -0.101304 -0.058984 -0.026079
0.206199 0.018846 0.187267 -0.014762 -0.158872 0.176526 0.215631 -0.060979 -0.052465 -0.062894
-0.113787 -0.186270 -0.018493 -0.149634 -0.027959 0.022664 0.152098 0.206480 0.126199 0.089510
0.077027 0.038087 0.016936 0.082983 0.008915 0.071038 -0.074933 -0.066160 -0.094194 -0.216412
0.036820 -0.056112 -0.056772 0.149746 -0.073770 0.075708 -0.030727 0.089209 -0.106790 -0.000229
0.040950 -0.024629 0.071331 -0.053565 -0.037853 0.118720 0.330837 0.079553 0.008792 -0.134778
0.175895 0.141670 -0.129512 0.005766 0.114786 -0.164241 0.130053 -0.069653 0.155817 -0.011472
0.016553 -0.168753 0.031377 0.172442 -0.002627 -0.105989 0.040702 0.066839 0.044858 0.030703
0.110514 -0.143373 0.078494 0.127701 -0.097772 -0.142300 -0.016040 -0.138011 -0.087473 -0.102099
0.069665 -0.037090 0.036182 0.043344 -0.072442 0.128006 0.220644 -0.023809 -0.160795 -0.025614
-0.011451 0.065140 -0.179281 0.019406 -0.053965 -0.073524 -0.135144 0.038594 0.048003 -0.131263
0.125483 -0.030378 0.106088 -0.070005 0.009537 0.123260 0.034093 -0.006827 -0.164492 -0.150477
0.099508 -0.080302 0.053374 0.121287 -0.151370 0.187436 0.111103 0.035762 0.035562 -0.173062
-0.089443 -0.060456 0.041963 0.111059 -0.016946 -0.019716 0.054725 -0.207002 -0.079157 -0.050489
-0.122688 0.044004 0.074702 0.030692 0.114103 0.079770 -0.041168 -0.095189 -0.079659 0.022467
-0.006134 0.106221 -0.104738 -0.019969 0.079955 -0.104690 -0.035897 0.088838 -0.103278 0.061631
0.060606 -0.107450 0.020852 -0.135722 0.059773 0.086627 -0.003743 -0.113068 -0.149304 0.007332
-0.048515 0.110082 0.103302 0.106122 -0.136196 0.059324 0.008754 -0.214124 -0.076895 -0.181456
0.178820 -0.008574 -0.167046 0.020217 -0.029402 0.042253 0.083165 -0.166597 0.118137 0.146936
0.073725 0.186473 0.047074 0.107001 0.169745 -0.116345 0.080565 -0.058914 -0.003492 0.016985
0.052394 0.081442 -0.036469 0.063662 -0.197312 0.012101 0.084675 0.054525 -0.206204 -0.057078
0.014983 -0.122326 0.109548 0.063093 0.073786 0.143159 0.147711 -0.192756 0.014404 -0.061963
0.050586 0.076444 -0.026953 0.057785 -0.099444 0.042139 -0.159672 0.104856 -0.020412 -0.099923
-0.010435 -0.018526 0.010333 -0.086065 0.045238 -0.075216 0.078579 -0.002543 0.022145 -0.043655
-0.009228 0.011932 -0.021950 0.071119 -0.040865 -0.186062 -0.025038 -0.033213 -0.088975 -0.095239
0.015173 0.017679 0.077864 -0.087056 -0.100497 0.006007 -0.000840 -0.151858 0.069599 -0.039668
-0.039652 -0.140828 0.057357 -0.036025 -0.060405 0.008189 0.091332 -0.025793 -0.005968 -0.058164
0.081451 0.123268 0.086772 -0.175762 -0.117329 -0.014030 -0.082149 -0.121291 -0.127440 0.075119
-0.119274 -0.049669 -0.000474 0.030745 -0.031067 0.015062 0.065352 0.031032 -0.051941 0.131914
-0.027888 0.053404 0.077523 -0.015927 0.038830 0.118624 0.051211 -0.117109 0.131484 -0.051823
0.023787 0.062658 0.115774 0.020074 -0.117873 -0.038133 -0.079975 0.020411 -0.042101 -0.014183
-0.023784 0.015949 0.104692 0.031942 -0.089029 -0.047244 -0.128777 -0.036611 -0.031350 -0.050623
-0.087815 0.026020 -0.096607 -0.026369 -0.140322 0.157530 0.036085 -0.128194 0.158687 -0.186928
-0.034189 -0.036451 0.004615 -0.132510 0.153667 -0.119742 0.119921 -0.012905 -0.012742 -0.009480
-0.047598 0.121250 -0.056478 0.001955 -0.017675 -0.109192 -0.093812 0.035194 0.011051 0.009472
-0.167120 0.043877 0.068625 -0.086712 -0.047572 -0.118215 -0.075952 -0.020872 -0.112930 0.198701
-0.059519 0.040416 0.040572 0.033068 0.086556 -0.039046 -0.124676 0.106473 -0.033963 0.154690
0.021935 -0.175572 -0.014896 -0.018286 0.199118 0.041111 -0.046820 0.027220 -0.108891 0.129502
-0.170192 -0.052388 0.058819 -0.010657 -0.183619 -0.177547 0.014213 0.033170 -0.099602 0.002485
-0.110750 -0.144374 -0.067872 -0.130413 -0.091957 0.121898 -0.187718 -0.036233 0.126363 -0.101556
-0.022857 -0.145679 -0.060159 0.068283 0.003548 -0.052985 -0.098796 -0.045575 -0.115091 -0.024025
0.085685 -0.103369 0.088398 0.073395 0.102545 0.126103 -0.063215 -0.190127 -0.048008 0.181842
-0.085543 -0.009422 -0.083786 0.035621 -0.039060 -0.021398 0.040410 -0.154988 0.133146 -0.041009
0.131787 0.128786 0.113344 -0.054548 0.045171 0.039144 0.005306 0.040541 -0.038031 -0.092362
-0.012672 0.016805 0.118063 0.085729 0.086449 -0.003705 0.088893 -0.148692 -0.034542 -0.035000
-0.050825 -0.056061 -0.072419 0.123250 -0.016549 -0.061290 -0.160284 -0.015862 -0.029712 -0.202372
0.178727 0.096631 0.017034 -0.022432 -0.055380 0.038833 0.118271 -0.052799 0.116292 0.087253
-0.045585 -0.004255 -0.032665 0.110848 0.022338 -0.112743 -0.065288 0.064326 -0.159674 0.113950
0.126886 0.098118 -0.060467 -0.038435 -0.143377 0.082713 0.106884 0.002985 0.024122 -0.117086
-0.045258 0.105296 0.087522 0.155937 -0.089280 0.042158 0.009298 0.130261 0.054280 -0.018652
-0.110015 -0.008897 -0.103721 -0.119271 0.033669 0.117631 -0.088167 -0.115519 0.029368 -0.097577
-0.188855 0.052559 -0.120812 0.002764 -0.009723 0.033362 0.020786 0.029925 0.021035 0.031246
0.019899 -0.061114 -0.183561 0.108883 0.038243 -0.153286 0.147871 0.031937 -0.070457 0.007432
0.074320 -0.029592 0.133766 0.026367 0.037236 -0.119518 -0.121131 -0.061885 0.022802 0.014709
0.032930 0.018366 -0.049076 0.021425 -0.140329 -0.007478 0.038282 -0.025384 -0.105294 -0.111688
0.125778 -0.054291 -0.100895 -0.133351 0.023293 -0.044145 -0.000491 0.038996 -0.040225 -0.005597
-0.065524 -0.062150 0.062458 -0.073071 0.091762 -0.096213 -0.008717 -0.052216 0.013938 -0.180806
0.218868 0.008447 -0.065852 0.024881 -0.140465 0.020664 -0.151782 -0.055188 -0.019230 -0.210740
-0.046054 0.151209 0.066734 0.020002 0.113104 -0.016026 0.146386 -0.110484 0.062183 -0.043953
-0.128882 -0.067690 -0.000595 -0.014964 0.028159 0.078107 0.157724 -0.061594 -0.071510 0.170225
-0.054176 -0.016708 0.051987 -0.057444 0.016025 -0.008630 0.053440 0.094924 0.178593 0.053470
0.229016 -0.023896 0.013755 0.049234 0.054211 0.030671 0.177225 -0.017930 0.131554 0.000807
-0.019179 -0.080764 0.099502 0.027634 0.137109 0.093694 0.010083 -0.028818 0.033960 -0.134122
0.056315 0.049075 0.094209 0.092624 0.158749 -0.033247 0.051232 0.158148 -0.070939 0.079617
0.008424 -0.082630 0.137740 0.021169 -0.151847 -0.026019 0.212501 0.036333 0.000223 0.021914
0.108265 0.075435 0.055067 0.063437 0.058220 0.047701 0.125486 -0.052776 0.274366 0.020900
-0.079132 0.079109 0.039597 -0.051901 -0.048275 -0.003714 -0.012947 -0.114821 0.051041 0.106107
0.026290 -0.024945 -0.054004 0.067673 0.039486 0.110302 -0.145919 -0.081057 0.115205 -0.049381
0.055046 0.075173 -0.044252 -0.069301 -0.090019 0.040408 0.130532 0.100783 0.045315 0.013333
-0.035758 0.117824 -0.000723 -0.120411 -0.084735 -0.021033 0.026755 0.003153 0.011055 -0.254007
-0.107816 0.008220 0.074819 -0.092992 -0.000263 -0.011347 -0.086323 -0.033754 -0.175538 0.011608
0.135931 0.010875 -0.157515 -0.095676 0.031512 0.044794 -0.161004 0.054449 0.105428 0.105600
-0.069231 0.087698 0.040945 0.108641 0.051363 0.107359 0.058197 0.146608 0.011194 0.104098
-0.035296 -0.009763 0.048804 0.045913 -0.048186 0.047646 -0.078014 -0.071155 0.033064 -0.149648
-0.030249 0.015447 -0.000872 -0.073588 -0.078127 -0.139154 0.035146 0.051707 -0.026169 0.039142
0.087161 0.025823 -0.028807 0.074203 -0.039176 0.025617 -0.059419 -0.053510 -0.032045 0.155920
0.061975 0.001268 0.131643 0.000531 -0.002959 0.068915 -0.009346 -0.015915 -0.029147 0.074349
-0.046443 0.134705 0.166565 -0.096201 0.135437 0.040690 -0.088563 -0.176039 -0.026269 0.037672
-0.029662 0.011764 0.076306 0.032793 0.025154 -0.049537 -0.121825 0.046997 0.142153 -0.003144
0.081491 -0.036454 -0.038717 -0.082187 -0.053085 -0.000770 0.035926 -0.075189 0.184043 -0.026061
0.012161 -0.186981 0.078523 0.033585 0.082937 -0.072232 0.063362 0.160839 0.120483 -0.067263
-0.161062 0.023304 0.088321 0.070022 -0.019277 0.020966 0.030708 0.039487 -0.144193 0.181625
-0.022033 0.120903 -0.000320 0.115892 0.005341 -0.119098 0.073021 -0.044246 0.172595 0.098676
-0.034577 -0.144159 0.064078 0.020413 0.000715 -0.118465 -0.011597 0.123364 0.024011 -0.106783
-0.102025 -0.048739 -0.067666 0.082632 -0.046803 -0.055325 -0.012882 0.030911 -0.161970 -0.005464
0.074788 0.001668 0.060242 0.010564 0.102821 -0.056313 0.029548 0.032613 -0.145472 -0.071500
-0.149307 0.168977 -0.066973 -0.010334 0.066866 0.083932 0.003647 0.037554 0.040500 -0.162486
-0.090384 0.109919 -0.141187 -0.108127 -0.060535 -0.089172 -0.025582 0.106235 0.012785 -0.055096
0.179049 -0.021919 0.096410 0.027835 0.018728 0.067764 0.156864 -0.036525 -0.175422 0.058866
-0.047040 0.001588 0.118701 0.088485 0.147577 0.086049 0.122816 0.106373 -0.098993 0.174225
0.055254 0.035305 0.057930 0.164882 -0.065402 0.006765 0.086344 0.073266 -0.097315 -0.071714
0.097946 -0.016994 0.138902 -0.018336 0.074690 -0.196907 0.022260 0.056303 -0.053191 -0.032310
0.042759 0.015680 0.090519 0.027948 -0.079316 -0.019953 0.103475 0.016561 0.042703 -0.100556
0.022410 -0.089704 -0.159932 0.108593 -0.016235 0.019984 0.157247 -0.040504 -0.089249 0.117799
-0.119281 -0.025029 0.156818 0.136303 0.000128 0.058306 -0.042421 -0.045701 -0.021368 0.036689
0.083282 0.050504 0.009515 0.054186 0.043633 -0.060214 -0.020638 0.069337 -0.086337 -0.024525
0.016055 0.045429 0.053825 0.009559 0.123065 0.099090 0.001072 0.091688 -0.112887 0.101139
-0.055839 0.068017 0.028060 0.009106 0.010531 -0.184609 0.002797 0.118303 -0.060696 -0.033919
0.071862 0.067650 0.019457 0.094213 0.016914 0.035039 0.050840 0.127327 0.113868 -0.159320
-0.004293 0.099070 -0.038231 0.115525 0.052346 0.147843 0.061593 0.159122 0.036909 0.012552
-0.080627 -0.078574 0.046508 0.106085 -0.059215 0.144157 0.057395 -0.055370 0.123949 -0.139958
0.050120 -0.062537 0.046142 0.121732 -0.040158 0.130628 -0.008094 0.202151 -0.204101 0.003183
-0.109313 0.052138 0.001063 -0.062790 -0.132225 -0.130154 0.086632 0.057533 -0.007040 -0.052827
-0.118591 0.045241 0.035926 0.042406 0.074410 -0.058856 -0.013383 0.060360 -0.039092 -0.013673
0.136555 -0.107251 0.152366 -0.053709 0.088304 -0.001126 -0.018348 0.165141 -0.047153 0.132757
0.084809 0.068165 -0.174553 -0.010291 -0.057046 0.095043 0.137371 0.039859 -0.078586 0.151597
0.029841 -0.063565 -0.054673 0.052733 -0.102811 -0.143404 0.027623 0.037600 0.149674 0.076514
0.080325 0.061563 -0.207461 -0.063238 -0.159357 -0.114305 0.020896 -0.065945 0.008329 0.168023
0.002442 0.129486 0.150716 -0.010074 0.065028 -0.170165 -0.011162 -0.039786 -0.036058 0.021180
0.119199 0.017958 0.030448 0.120635 -0.021733 -0.036549 -0.090961 0.135329 -0.142990 0.005501
0.082926 -0.078877 -0.049169 0.090405 0.070291 0.087870 -0.183526 -0.021518 0.008631 -0.012812
0.001580 -0.113709 -0.129891 -0.066780 -0.154478 -0.049100 -0.084680 -0.079780 -0.090072 0.049258
-0.040906 -0.056257 -0.080840 -0.077061 0.127532 0.049543 -0.115193 -0.030125 0.065671 -0.057168
-0.107297 -0.198632 -0.035499 0.074801 0.086278 0.175443 -0.148493 0.008506 0.120957 0.118279
0.062696 0.001218 -0.060928 0.056263 -0.095386 -0.038427 -0.158657 -0.049701 -0.085111 0.022233
0.039604 -0.054188 0.041261 -0.035422 0.052185 -0.059915 -0.092695 0.131725 -0.017332 -0.050864
0.107630 -0.028067 0.189073 -0.011493 0.178511 0.030481 -0.066046 -0.060283 -0.036073 -0.009401
-0.006024 -0.065042 -0.063460 0.032958 -0.127811 0.117173 -0.190843 0.067724 0.088274 0.042020
-0.001939 0.085035 -0.026190 0.152651 0.069367 -0.018090 0.023176 0.114507 -0.155909 -0.046417
-0.033273 -0.005342 0.099604 0.091146 0.033757 0.069506 -0.109651 0.059113 -0.032518 0.046928
0.073377 -0.026810 0.119735 -0.031897 -0.016326 0.068774 -0.099535 0.046111 -0.013573 0.083113
0.083077 -0.184805 -0.050048 0.111483 -0.008573 0.188934 -0.163963 0.135249 0.072832 0.014127
-0.207925 -0.058363 0.075832 -0.089083 0.125968 0.113455 0.039407 0.079879 0.045872 0.002314
-0.187696 -0.056439 0.102090 -0.159255 -0.048272 -0.121272 -0.016237 0.037990 -0.051747 -0.019248
0.153941 0.158991 0.070256 0.008068 -0.110718 0.048916 0.169367 -0.093080 0.161385 0.118660
0.052559 0.132529 -0.019877 0.056513 0.051872 -0.018556 -0.050542 0.076243 -0.084277 0.049376
0.142381 -0.040774 -0.061373 -0.080953 0.040545 -0.041387 -0.101693 0.008906 -0.082841 0.211018
-0.083253 -0.100994 0.100169 -0.063075 -0.021809 0.167238 0.069055 -0.050404 0.029061 -0.080627
-0.037649 -0.026423 0.024864 0.088376 -0.003018 0.028656 0.003717 -0.005553 -0.023550 -0.008504
-0.030726 0.020624 -0.130199 -0.031601 0.072972 0.003338 -0.202581 -0.034947 0.138383 0.136056
0.154562 0.070172 -0.055896 0.047090 0.026028 0.041075 -0.172417 0.034746 0.034983 -0.061369
0.140501 0.047943 0.040321 0.074375 0.100839 0.013494 0.032347 -0.106045 0.081995 -0.066546
0.018284 -0.078782 -0.163008 0.039851 0.095771 0.155422 -0.006449 0.034825 -0.026359 0.035223
-0.185652 -0.000558 0.045659 -0.063586 -0.128677 -0.062709 -0.186163 0.060540 -0.043400 0.086290
-0.049806 -0.062037 -0.026502 -0.058587 -0.106833 -0.107178 -0.027358 0.004435 0.085904 0.001014
0.105639 0.087822 0.009737 0.088346 0.044583 -0.041749 -0.059814 0.135841 0.187894 0.119766
0.077859 0.018913 0.136582 -0.022881 -0.025785 -0.044886 -0.152067 0.098427 -0.035689 -0.104175
0.077608 0.000859 -0.122646 0.031270 0.036532 -0.028165 0.031756 -0.029711 0.075986 -0.071954
-0.063773 0.031952 -0.047614 -0.048078 -0.072892 -0.148948 -0.166514 0.043659 -0.162664 -0.072833
-0.056059 -0.111974 -0.052739 0.127512 -0.013597 0.101079 -0.039476 0.006044 0.033798 -0.022908
-0.110396 0.097752 0.002164 0.100864 -0.164140 0.016337 -0.060603 0.103047 0.021221 -0.054252
0.032388 0.030411 0.027686 -0.068314 -0.043629 -0.012289 -0.091172 -0.141313 0.128290 0.095567
0.059361 -0.107281 -0.055634 -0.070414 -0.073564 0.047921 0.159505 -0.054350 -0.040080 -0.100288
-0.121926 -0.030130 0.049335 0.033684 0.057555 0.054093 0.095032 0.008115 -0.015331 -0.108063
-0.050987 0.053408 -0.118460 -0.141409 0.067826 0.093979 -0.017758 -0.031684 -0.045572 0.114319
-0.158797 -0.117389 0.133847 -0.097789 0.027203 -0.076362 0.090327 0.078997 -0.151048 0.035397
-0.072102 -0.012403 -0.182678 -0.102414 -0.037785 -0.068603 0.117336 -0.153488 0.027149 -0.088488
0.011140 -0.125008 -0.000355 0.031640 -0.091350 0.125632 -0.081583 0.074690 0.092087 0.080311
-0.117769 0.168125 0.022275 -0.053560 -0.043738 -0.004814 -0.021180 -0.021536 -0.055415 0.019641
0.035090 0.055131 -0.019105 -0.065691 0.033094 -0.020651 -0.106768 0.044612 -0.197954 0.085174
0.036616 0.011635 -0.111984 0.061446 -0.069816 -0.119767 -0.065055 -0.071113 0.001030 0.011443
0.027314 0.030324 -0.026848 0.007276 -0.055343 -0.023033 0.103066 -0.169067 -0.017562 -0.053674
0.026142 -0.008005 0.071619 0.029275 0.006960 0.059243 0.015678 -0.042352 -0.080530 0.061136
-0.077722 0.134663 -0.032539 0.095647 0.019547 0.095510 -0.057696 0.033461 -0.164334 0.170328
0.026774 -0.000473 0.048846 0.013269 -0.039018 -0.093833 0.164417 0.026591 -0.046214 -0.001648
-0.008909 -0.133549 -0.020483 0.106345 -0.115237 0.033671 -0.165385 -0.018011 -0.051372 0.113372
-0.026864 0.026346 0.046023 -0.032110 0.032519 0.080961 0.021335 -0.008732 -0.099332 -0.035120
-0.108446 -0.014884 -0.029267 0.059976 0.087932 -0.068805 -0.016371 -0.113576 -0.091397 -0.036012
-0.009672 -0.009897 -0.073094 -0.114048 0.124549 -0.131771 -0.172753 -0.021242 0.078744 -0.091953
0.069189 0.031142 0.077781 -0.037431 0.072025 -0.088591 -0.022482 -0.096246 0.010606 0.075861
0.073565 -0.151313 -0.084210 0.055977 0.030789 0.093071 0.057298 0.053883 0.038431 0.036843
-0.024817 0.029828 -0.014043 0.011157 0.067993 0.081418 0.046155 -0.090540 -0.003332 0.018514
-0.070516 -0.055985 -0.005703 0.105949 -0.115866 0.009665 -0.039933 0.028025 -0.197594 0.068457
0.136740 -0.055135 0.048463 0.140866 -0.024356 0.055999 0.017866 0.085972 0.009177 -0.092960
-0.039343 0.069801 -0.074392 0.195368 0.161499 0.061840 -0.125798 0.054467 0.095129 -0.010685
-0.008657 -0.020793 -0.013247 0.140414 -0.219695 -0.057550 -0.135359 0.122758 -0.159064 0.075153
0.006947 0.006258 0.157786 0.061670 0.123235 -0.131779 -0.029686 0.115864 0.057896 -0.018500
0.103927 0.001274 -0.058431 0.039833 -0.076828 0.065381 -0.120196 -0.120820 -0.031445 -0.065905
0.054807 0.145890 0.061829 0.033323 0.139130 -0.171066 -0.099638 0.101789 -0.089885 -0.007285
0.033961 -0.049029 0.011976 0.007574 -0.171946 -0.079817 0.125982 0.153805 -0.247340 0.063333
0.020417 -0.151594 -0.128886 -0.153187 0.061322 0.065325 0.109312 0.202847 -0.062824 -0.010494
-0.038919 -0.043122 -0.002878 0.004571 0.000407 0.002260 -0.083375 -0.031658 -0.027703 0.026936
-0.053722 0.151765 0.116425 0.084556 0.098615 -0.008346 -0.049146 -0.153712 0.100536 -0.042997
0.039756 -0.054986 -0.068907 -0.060152 -0.169037 -0.116146 -0.093483 0.151149 -0.041887 0.224753
-0.176968 0.099372 -0.002164 -0.083929 -0.025295 -0.139355 0.010096 0.030540 -0.051511 0.044929
0.079530 0.069995 0.036205 0.007835 -0.087381 -0.032758 -0.025804 -0.059274 0.010283 -0.062510
-0.051288 0.051181 -0.075430 0.021687 -0.169928 -0.048004 -0.065492 -0.124628 0.136460 0.079341
0.026041 0.005723 -0.130232 -0.042960 -0.142820 0.156015 -0.040346 0.146731 -0.034202 0.054925
-0.050540 -0.124107 -0.106950 0.125509 -0.053767 -0.051694 -0.014523 0.023540 0.023038 0.198304
0.137577 0.195145 -0.179654 0.098523 0.134265 0.019560 -0.016553 0.046884 0.188074 0.021135
0.082994 0.152318 0.059199 -0.129234 0.087284 0.109118 0.093721 -0.048787 0.041151 -0.043084
0.084454 0.040772 -0.036806 0.039071 -0.181909 -0.036043 -0.120163 0.072592 0.114350 0.162916
0.137693 -0.045281 0.037143 0.023732 0.021481 -0.172622 -0.029026 -0.013933 -0.022123 -0.028420
0.081160 0.097414 0.157846 -0.134927 -0.057109 -0.111032 -0.085606 -0.066103 -0.162436 0.177673
0.151121 0.012062 0.032665 0.022691 -0.062639 0.074730 0.079879 -0.060566 0.108477 -0.091829
-0.133289 0.043442 -0.038750 -0.065131 -0.029205 0.028270 -0.099190 0.077806 -0.069209 0.146453
0.091321 -0.085864 -0.059369 0.184597 0.022947 -0.101202 0.132741 0.000883 -0.109665 0.037408
-0.007596 -0.053016 0.109010 0.140029 0.052575 0.031349 0.066062 -0.153067 -0.098244 0.168363
0.121921 0.016740 0.007379 -0.066158 -0.032029 -0.115621 -0.180706 -0.079591 -0.116512 0.102717
0.038318 -0.010950 -0.080794 -0.062114 0.043733 0.119469 -0.074371 -0.075975 -0.170274 0.051068
-0.059577 0.051069 -0.153390 0.121750 -0.025050 0.054923 0.156747 0.121936 0.153817 -0.009969
0.144011 -0.033645 0.019463 -0.011213 0.068201 -0.013756 -0.199811 -0.030201 0.020434 -0.098065
-0.002023 -0.123448 -0.096986 0.163395 -0.067007 0.053896 0.075929 -0.032803 0.016662 0.038623
0.041106 0.082430 0.004773 -0.105150 0.003075 -0.048247 -0.009320 0.029331 0.014674 -0.045868
-0.052466 0.069396 0.069023 0.063272 -0.163313 -0.022700 -0.147463 -0.062770 0.057089 0.006371
-0.119925 -0.008947 -0.000627 -0.060962 -0.044156 -0.008686 0.076842 0.038726 0.065669 0.086725
0.017959 0.044226 -0.029467 0.120894 0.006035 0.206096 0.017128 -0.087669 -0.041682 0.096277
-0.115725 -0.116463 -0.091485 -0.114727 0.038378 0.090453 -0.058221 -0.035763 0.055205 -0.002159
-0.061083 0.088578 0.059207 0.052780 0.091002 -0.032463 -0.056342 -0.017845 -0.002644 -0.159732
-0.066254 -0.007063 -0.015961 0.107313 -0.085060 0.197862 0.087740 -0.054203 0.060763 0.097129
0.029774 0.092085 0.053865 -0.027454 0.018104 -0.080659 -0.093337 0.153072 -0.089700 0.004774
-0.073438 -0.099577 -0.074041 0.184036 0.034581 0.003415 -0.036073 -0.045029 0.053773 0.064580
0.133050 -0.049247 0.106270 0.115007 -0.135859 0.037031 0.163496 0.004319 0.064474 0.018554
0.041723 -0.036435 0.066607 0.029373 0.101275 -0.065661 -0.018281 -0.122528 -0.025702 -0.065119
-0.150527 0.040479 0.051530 0.071536 -0.035718 0.026092 -0.135686 0.156507 -0.149581 0.001860
