10.000000
784.000000

0.027517 0.099990 0.005164 -0.042413 -0.099395 0.005684 -0.119333 -0.121133 -0.072732 -0.110898
0.042922 0.055965 0.040811 -0.023147 0.143502 0.141212 -0.144320 0.060743 0.037286 -0.004024
0.065986 0.016349 -0.193972 0.024721 -0.150422 -0.058574 0.089582 -0.076892 -0.153223 0.131858
0.148861 -0.044365 0.196811 -0.034650 -0.007042 0.092275 -0.100747 0.090239 -0.145663 0.050535
0.124618 0.023314 -0.128855 0.088394 0.004481 -0.169552 -0.013967 -0.022716 -0.014265 0.164748
-0.001964 0.080219 -0.084859 0.093361 0.012930 -0.038156 -0.005583 -0.100153 0.108067 0.065989
0.028958 0.035095 -0.041146 0.060880 0.091798 -0.029062 -0.015645 0.046330 -0.003821 0.011175
0.047632 -0.002511 -0.070972 0.067993 -0.100334 -0.076628 -0.153282 -0.091507 -0.005322 0.102692
0.065091 0.062733 0.037971 -0.000664 0.106118 0.092146 0.017949 0.023840 -0.051186 0.011249
-0.021332 -0.139465 -0.041497 0.008941 0.000488 -0.012709 -0.167823 -0.070779 -0.028666 0.101825
-0.004066 0.150436 -0.112351 -0.002224 -0.010985 -0.009987 -0.034800 -0.115859 0.076926 0.016208
-0.016786 0.062301 -0.151435 -0.033171 -0.140796 0.030698 -0.087494 -0.162261 0.007513 -0.050722
0.023796 0.122259 0.032161 0.095298 0.000096 0.139253 0.032025 -0.010963 -0.147233 0.130659
-0.135800 -0.052100 0.167549 -0.006757 -0.038788 0.075509 -0.076651 -0.171983 0.032566 0.014692
0.028853 0.041346 -0.139403 0.057010 -0.053938 -0.190487 0.027219 0.009916 -0.082395 0.021054
-0.059246 0.060216 -0.160107 -0.035137 0.030302 -0.073801 0.011414 -0.026037 -0.067827 0.043037
-0.076612 -0.150734 -0.038901 0.113872 -0.075292 0.056462 0.062392 -0.032158 -0.020002 0.158213
-0.021764 -0.012012 -0.060205 -0.152375 -0.066627 0.040897 0.004240 -0.011766 0.079578 0.101543
0.004642 -0.120533 0.044731 0.169503 -0.041293 0.012382 -0.053630 0.125834 -0.028317 0.077508
0.061288 0.047555 0.033687 -0.131504 -0.037769 0.041291 -0.049158 0.039684 0.034464 0.195833
0.011947 0.164645 0.042277 0.081249 -0.114641 0.072018 0.142066 -0.116995 -0.113596 0.004384
0.009689 0.186052 0.121596 -0.105984 -0.099286 0.109311 0.112919 -0.047463 0.102054 -0.003764
-0.041085 -0.173524 0.126498 -0.104788 -0.084146 -0.091304 0.119843 -0.072615 -0.100129 -0.075753
0.023138 0.116518 0.015337 0.172627 -0.051952 -0.130555 -0.050711 -0.013967 -0.082091 -0.052258
0.072224 0.064929 -0.169839 0.094091 -0.018590 0.017986 -0.007320 -0.069285 -0.123189 -0.087361
0.163396 0.072161 -0.065139 -0.038594 0.027128 -0.182393 -0.097286 0.080347 0.042001 0.066362
0.045343 -0.142335 0.014393 -0.002977 0.111109 -0.113137 0.166334 -0.011972 -0.077795 0.145500
0.109139 0.095169 -0.003819 -0.160021 0.122945 0.000452 0.106727 -0.008960 -0.110900 -0.081727
-0.066452 0.004598 0.198047 0.159215 -0.007208 -0.065256 0.143313 0.057510 0.067947 0.058857
0.154892 -0.039582 0.041031 0.059946 -0.039222 0.077845 -0.048942 0.063310 -0.031815 -0.084842
0.058877 0.257734 0.094811 -0.081076 -0.061840 -0.092458 0.162478 -0.070092 -0.155738 -0.144459
-0.012437 0.150280 0.014612 0.114816 0.057394 -0.184383 0.049805 -0.189164 -0.030736 0.056804
0.088043 -0.045960 0.026868 0.021658 -0.034487 -0.168051 0.122821 0.102719 -0.014824 -0.185718
0.023105 -0.109825 -0.003729 0.061353 0.082440 0.056069 0.114755 0.010341 -0.100625 0.028897
-0.043898 0.166934 0.161428 0.021680 0.001925 -0.022080 0.106082 0.010377 0.065075 -0.012846
-0.072904 0.010076 0.007306 -0.068806 -0.160776 0.116168 -0.012684 -0.073674 -0.110024 0.094999
-0.096401 -0.113687 -0.084843 -0.077598 0.031989 0.046887 0.008602 0.016663 0.121351 -0.090474
0.095458 0.174149 0.052356 -0.125657 -0.057478 0.176973 0.058687 0.060833 -0.050072 0.016022
-0.171402 0.153865 -0.061347 -0.164990 -0.210854 -0.004750 -0.118966 0.107459 -0.121594 0.081975
0.123633 -0.089892 0.044617 -0.103202 -0.087372 0.127264 -0.073911 0.188186 0.016331 -0.023021
-0.095201 0.049990 -0.012163 -0.052954 -0.025094 0.100665 0.063758 0.107553 -0.055341 -0.058918
-0.108297 -0.031075 -0.058531 -0.011392 -0.019150 0.041377 -0.181535 0.040190 0.053700 -0.065823
0.073368 0.113328 0.053555 0.003056 -0.028927 -0.054289 0.113876 0.009446 -0.059870 0.031994
0.091642 0.101347 -0.048295 0.046144 0.102145 0.065887 -0.063772 0.136613 -0.054135 -0.129662
-0.058670 0.090515 -0.030508 -0.090129 0.183781 -0.043447 -0.076940 0.011185 0.070502 0.069797
-0.045211 0.121458 -0.170073 0.135547 0.042390 -0.026861 0.061533 0.075149 0.036516 -0.014885
-0.014880 -0.138059 0.111855 0.019720 -0.092256 -0.056131 -0.045085 0.032383 0.103139 -0.160069
-0.178828 -0.041153 -0.027670 -0.171484 0.137813 0.031072 0.106226 0.030012 0.135886 -0.082550
-0.067025 -0.020017 -0.091791 0.045407 0.117941 -0.114583 -0.153139 -0.006290 0.100294 0.055908
-0.137006 -0.014739 -0.168900 0.095103 -0.043642 0.056760 0.108036 -0.045888 0.048967 -0.088105
0.054445 -0.079770 -0.115699 -0.028757 0.003637 -0.086077 -0.022202 -0.016423 0.061510 0.071134
0.084650 0.004317 -0.112085 -0.062179 0.022764 0.155846 -0.177862 0.062590 0.130505 -0.034374
-0.160396 -0.067381 -0.002560 0.083831 0.122671 -0.090460 0.052679 -0.081590 0.059957 0.031461
-0.048201 -0.033536 -0.058337 -0.036854 0.072377 -0.023586 0.120487 0.023315 0.123948 -0.019100
0.050632 0.001862 0.017682 -0.058838 -0.059962 0.051297 0.095428 -0.051951 0.008892 -0.081758
-0.070560 -0.163425 0.140833 0.050260 0.009849 0.023058 -0.102555 0.164629 0.065245 0.040429
-0.126706 -0.037068 -0.096393 0.046792 -0.094566 -0.086953 -0.144613 -0.028386 -0.013089 -0.059901
0.005726 0.045972 0.031983 0.120777 0.059555 0.125400 -0.042908 -0.007459 0.097125 -0.052858
0.011763 -0.003418 -0.120166 -0.023447 0.117555 -0.119607 0.049867 0.021389 0.116875 0.111989
0.017888 -0.109612 -0.151715 0.011895 0.039638 0.066793 0.032340 0.019237 -0.038673 0.072925
-0.130737 0.020883 0.046404 -0.014206 -0.148102 -0.063811 0.077576 -0.038933 0.009830 0.047387
-0.018311 0.082931 0.085194 -0.124023 0.004173 -0.029772 -0.077960 0.096965 0.037385 0.057514
0.110219 0.097582 -0.053225 -0.034598 -0.043038 -0.128561 0.082759 -0.037968 -0.091121 0.065635
-0.161841 0.028737 0.049052 0.066191 0.086794 0.130352 0.078692 0.046046 -0.188554 -0.006583
-0.051914 0.092537 0.166202 -0.021476 0.013971 0.180637 0.109312 0.046553 0.150445 -0.052859
-0.137313 0.160711 -0.010518 -0.032325 0.031167 -0.055969 -0.063065 -0.085011 0.035485 -0.013382
0.103188 0.052933 0.038526 -0.016243 0.060107 -0.001869 0.010312 0.003227 0.084348 0.104542
0.047406 -0.099438 -0.018222 0.092128 -0.023379 -0.038413 0.037119 -0.190192 -0.084113 -0.000494
-0.094259 -0.030394 0.133479 0.113637 -0.120800 0.060372 0.057475 -0.035299 -0.084673 0.151969
-0.080541 0.015384 -0.119404 0.146129 0.113811 0.047240 0.129360 -0.064295 -0.021274 0.000862
-0.027887 0.004295 -0.143451 -0.034487 0.047003 -0.182720 0.007114 -0.004788 -0.105399 -0.080591
0.116107 -0.122150 -0.119167 -0.000322 -0.148023 -0.015571 -0.145870 -0.130172 0.117610 0.044907
0.094100 -0.062286 -0.006472 0.185346 -0.091641 -0.023457 0.123000 0.092471 -0.034310 0.134352
0.002602 -0.184894 0.027665 -0.057787 0.194611 -0.110016 -0.004715 -0.050057 -0.064322 -0.119481
-0.092076 -0.010849 -0.078011 0.055523 -0.098156 -0.152559 0.062259 -0.067308 -0.096025 -0.074716
0.106574 -0.140186 0.025208 -0.053641 -0.183937 0.069527 -0.105133 -0.006520 0.024010 0.039602
-0.083696 -0.086758 0.240746 0.246607 -0.340334 -0.101337 0.246129 -0.042513 0.061086 -0.027754
0.022557 -0.126795 0.076587 -0.194249 0.102476 -0.100268 -0.060384 -0.082399 -0.107278 0.116499
0.029351 0.064440 0.117917 0.026111 0.000351 -0.129201 -0.008573 0.020341 0.015190 -0.215250
0.106899 -0.136929 -0.011341 0.017458 0.090560 0.092066 0.129200 0.108563 0.034063 -0.123766
0.015223 0.107901 0.288819 0.225471 -0.316872 -0.017026 0.274133 -0.036312 -0.015117 0.119643
-0.023181 -0.038900 0.097203 0.028956 -0.056850 0.184049 0.097550 -0.003869 0.093597 -0.025788
0.004705 0.162789 0.122897 0.187330 -0.014934 -0.038155 -0.105636 -0.109825 0.006799 -0.130106
-0.037780 0.050284 -0.007274 0.142740 -0.024479 0.064333 -0.058413 0.151206 0.046933 -0.013155
-0.086000 -0.030681 0.221869 0.205815 -0.202009 -0.040703 0.111477 0.005431 -0.187893 -0.217039
0.077049 0.058960 -0.151560 -0.111440 0.080692 -0.098915 0.046881 -0.013466 -0.077844 -0.057250
0.176457 0.096487 0.070281 0.202775 0.016344 -0.003052 -0.022826 -0.150956 0.156931 -0.053000
0.003644 -0.106797 -0.105568 -0.072854 -0.044960 0.057893 0.037504 -0.029295 -0.074291 -0.048073
-0.013052 -0.106622 0.160954 0.177967 -0.152772 -0.094930 0.270863 -0.081095 -0.134814 -0.117039
-0.054254 0.050543 -0.120638 0.013997 0.020552 0.017855 -0.005179 0.062825 0.046522 0.196932
0.149941 0.131567 0.014364 0.175374 0.068862 -0.049612 -0.032335 0.087115 0.109269 -0.121463
-0.001845 -0.164765 -0.126471 0.016768 -0.038166 -0.097663 -0.049151 -0.140368 0.212605 -0.049245
-0.082747 -0.056904 0.013471 0.183752 -0.068555 0.151074 0.236446 -0.003476 -0.056364 -0.204308
-0.022965 -0.125744 -0.035316 -0.178907 0.026719 -0.100265 -0.021723 0.099756 -0.057423 0.028092
0.107883 -0.062620 -0.076043 -0.011698 0.021034 -0.007562 -0.131763 -0.153241 -0.030938 -0.018726
0.016609 0.052789 -0.030272 0.173173 -0.093667 -0.130484 0.104310 -0.029510 0.072107 0.085075
0.008265 -0.012050 -0.154038 0.000045 -0.006837 0.092845 0.112877 0.129113 0.004286 -0.107040
-0.115179 -0.022398 0.029618 0.086557 0.029545 -0.118577 -0.134930 0.010080 -0.049894 0.083231
0.022849 0.054048 -0.090619 0.003059 0.127123 0.060497 0.130482 -0.122441 0.118298 -0.068783
0.089500 0.044613 -0.145085 0.023742 0.157398 0.121093 0.038972 0.037236 -0.015913 0.123053
-0.076645 -0.032529 0.052393 0.059897 0.040695 -0.059120 0.263619 0.061834 -0.046398 0.056631
0.019417 -0.037662 0.077811 -0.164641 0.179797 -0.043360 -0.003667 0.060118 -0.135081 -0.090735
-0.052490 -0.087066 -0.194577 -0.094428 0.035823 -0.040058 0.134939 -0.023830 0.103407 0.051432
0.033046 0.014283 -0.119967 -0.019561 -0.050491 0.086273 0.011848 0.108775 -0.150243 -0.101835
-0.149091 0.028965 -0.052240 0.018479 0.147766 0.004729 -0.014026 -0.000323 0.069334 -0.045384
0.037660 0.001880 -0.123209 0.126288 -0.172637 -0.028400 -0.067386 -0.133098 0.076061 -0.044928
0.138714 -0.088411 -0.134395 -0.262308 -0.008605 0.016768 0.008636 0.109483 -0.149579 -0.139444
-0.078122 -0.041062 0.051372 -0.079930 0.099581 -0.095688 -0.000776 0.021455 0.067163 -0.058961
0.044934 -0.075907 -0.021091 0.086760 0.105374 -0.030671 0.162704 -0.089738 -0.008392 0.107467
-0.083539 0.015238 -0.157644 0.172635 -0.010555 -0.163674 0.066407 0.092951 0.126369 0.061507
0.141282 0.012304 0.011743 -0.015291 0.033534 0.073981 -0.009713 0.138732 0.005231 0.063716
0.044739 0.000899 0.059070 0.153966 0.084708 -0.085337 0.016559 0.047108 0.019420 -0.020178
0.048097 -0.067516 -0.094040 -0.188613 -0.090744 0.004279 -0.020650 0.035642 -0.083778 -0.007931
0.161538 0.182886 0.026661 0.129944 0.047092 0.012113 0.065683 -0.035570 -0.061894 0.037470
-0.038580 -0.065679 -0.184759 -0.125035 0.142733 0.161630 -0.006708 -0.137926 -0.095635 -0.113171
-0.083510 0.039232 0.166952 0.023567 0.033173 0.139846 -0.125132 -0.155132 -0.085673 0.036879
-0.157658 0.091797 -0.011475 0.066660 0.026169 -0.048503 0.123275 0.006184 0.076404 0.121635
-0.141233 -0.110438 -0.192718 0.034984 -0.040582 0.043054 0.060852 -0.042439 0.057369 -0.166528
0.100312 -0.028400 0.054442 -0.058916 -0.018683 -0.058799 -0.074697 -0.030220 0.026435 -0.134232
-0.070963 0.099128 0.047509 -0.030709 -0.007541 -0.088169 0.065121 -0.138502 -0.145598 -0.116057
-0.087064 0.038350 -0.070286 0.199277 -0.085159 -0.080659 -0.179675 0.139276 -0.096810 -0.053482
-0.023675 -0.007032 -0.155185 -0.053385 -0.011910 0.026386 0.056221 0.039350 0.019610 0.151289
-0.108441 0.164872 -0.122779 0.054668 0.070572 -0.050408 -0.097010 -0.029375 -0.142000 -0.016352
0.029760 -0.049872 -0.180750 0.123436 -0.096690 0.019730 0.153668 -0.002321 0.015903 -0.056109
-0.010185 -0.006130 0.101658 0.148491 -0.029939 -0.171078 -0.093417 0.036211 -0.159400 -0.145560
-0.025398 0.097145 0.141574 0.044165 0.072829 -0.183741 0.151642 -0.079953 0.172815 -0.004527
-0.177225 -0.090001 0.036581 0.052286 0.205242 -0.078460 -0.128247 0.109003 -0.056027 -0.082059
-0.030199 -0.034578 0.057977 -0.040954 0.020138 0.172774 -0.129920 -0.094813 0.048529 0.093088
-0.062975 -0.188446 0.265641 0.281315 0.199145 0.015463 0.014608 0.062085 0.111118 -0.073852
0.106603 0.141833 0.160797 0.024902 0.036853 0.069625 0.025691 -0.036973 -0.129973 -0.071491
-0.134555 -0.010599 0.040469 -0.049558 0.164221 -0.083580 -0.151504 0.059271 -0.166275 -0.285018
-0.080924 0.095079 -0.098033 -0.084758 -0.043209 0.080716 -0.041143 0.029907 0.103746 -0.214509
-0.037835 0.142776 0.186152 0.043509 -0.093656 0.067217 -0.104754 0.039283 -0.009081 -0.145281
0.117008 0.071940 -0.043226 -0.047099 0.079797 0.052735 0.092605 -0.110308 -0.022208 0.150904
0.055313 0.055827 0.015856 0.160359 0.287040 -0.094337 -0.329059 0.160204 -0.146333 -0.179102
0.072591 0.093633 0.007820 0.063038 0.009751 0.094850 0.020135 0.096918 0.051689 -0.079701
0.323928 0.062662 0.450504 0.233807 -0.109807 -0.079975 -0.227929 -0.223164 0.143557 0.037654
-0.047538 0.123922 -0.008760 0.020063 -0.078667 0.023841 0.098051 0.118256 -0.018883 -0.060471
-0.029700 -0.155143 0.077391 0.266490 0.015526 -0.020797 -0.386581 0.143406 0.033732 0.021044
-0.101006 0.054059 -0.122563 -0.113988 -0.044806 -0.033603 -0.067769 0.061320 -0.115638 -0.157993
0.218331 0.054608 0.324926 0.190185 -0.133235 -0.008068 0.013571 -0.273379 0.223797 -0.194033
-0.062361 -0.120115 0.036841 0.004722 -0.123959 -0.027213 0.062974 0.074210 -0.019919 0.055057
0.056224 -0.107415 0.198581 0.091762 0.066984 -0.189741 -0.406250 0.115652 0.054867 0.011057
-0.112531 0.102081 -0.213632 -0.141386 -0.064801 -0.089449 -0.077383 -0.009681 0.101495 0.033088
0.189357 -0.151296 0.374670 -0.117971 -0.139884 0.193678 -0.064288 -0.301046 0.273585 -0.247874
0.102729 0.036198 -0.047327 0.001856 -0.050460 0.054802 0.138610 0.170360 0.072626 0.087423
0.109087 -0.207391 0.112518 0.052558 -0.126187 -0.163088 -0.297351 0.060288 0.138004 0.104762
0.087320 0.204345 -0.175150 -0.156912 0.010463 0.040344 0.081543 -0.025368 0.113928 -0.102001
0.162687 -0.023970 0.093221 -0.209430 -0.044910 0.181719 0.364388 -0.325496 0.139313 -0.192858
-0.106741 0.059666 -0.193624 0.000232 0.106446 0.007157 -0.061224 0.000125 -0.016455 -0.028417
0.076406 -0.205602 0.035045 -0.058553 -0.166824 -0.125879 -0.200512 0.079530 0.214224 0.234942
0.076177 0.170478 -0.054198 -0.001729 0.008017 -0.038986 0.076914 0.038404 -0.050480 -0.031177
-0.018138 0.100491 -0.123774 -0.264242 -0.019530 0.072400 0.163888 -0.289449 0.164819 -0.210655
-0.085879 0.123915 -0.140061 -0.046141 0.012665 -0.055806 0.042122 0.129033 -0.049604 -0.013788
0.029099 0.002235 0.079179 -0.083130 -0.129894 -0.091070 -0.127388 -0.068752 0.260201 -0.052563
-0.059500 -0.002849 -0.072021 -0.133028 0.020658 -0.004709 -0.027839 -0.008107 -0.000273 0.037294
-0.145287 0.107577 -0.167759 -0.436714 0.144979 0.287651 0.217426 -0.072100 -0.098342 -0.165235
0.110382 0.006616 0.120149 -0.043733 0.012009 -0.062832 0.092948 0.018973 -0.036341 -0.086780
0.249765 0.042090 0.022761 -0.187384 -0.008855 0.001164 -0.092070 -0.045122 -0.062489 -0.083777
-0.090509 -0.184273 -0.038425 0.033916 0.018671 0.103732 0.135015 0.112757 0.125359 -0.032678
0.010204 0.001176 -0.044545 -0.139119 0.024912 0.106351 0.138629 0.101750 -0.007947 -0.187641
-0.006490 0.150828 0.075059 0.008033 -0.161345 0.189834 0.033972 0.048408 0.107589 -0.062885
-0.173720 0.061296 -0.209585 0.011533 0.193274 0.097700 0.030491 -0.034360 -0.009826 -0.288486
-0.041131 -0.035850 -0.091081 0.049774 -0.107884 0.057163 -0.152219 -0.117544 0.135690 0.080152
0.034782 0.046823 0.011622 -0.060305 0.000180 0.104955 0.019568 0.092970 0.179730 0.078115
0.177348 -0.142990 0.041045 0.079305 -0.018020 0.080992 0.112925 0.118146 0.061543 0.046469
-0.038715 0.033862 -0.028993 -0.019042 0.027199 0.039426 0.021483 0.092216 0.122034 0.137756
-0.107273 -0.116601 -0.183883 0.023384 0.147593 -0.071119 -0.042365 -0.065796 -0.070933 -0.034852
-0.010138 -0.081219 -0.117653 0.110075 -0.043876 -0.002043 -0.008952 0.054641 -0.006097 0.023111
0.150328 0.037591 -0.145160 0.076343 0.080517 -0.077466 -0.028837 0.130776 -0.055001 -0.035016
-0.068356 0.116796 -0.077704 0.009638 0.060186 -0.038087 -0.012312 0.110291 -0.015008 -0.041787
0.072891 0.068486 -0.146024 -0.031877 -0.046065 -0.074065 -0.026792 -0.119379 0.028107 0.052930
-0.189140 0.012215 0.058315 0.025673 0.150955 -0.003081 0.028344 -0.056317 0.093973 0.023270
0.106490 0.036628 -0.021259 -0.119630 -0.034827 -0.014240 -0.165898 -0.110380 0.152811 0.128779
-0.152069 -0.025571 -0.005535 0.130573 0.207317 0.008604 0.131174 0.114099 -0.122501 -0.070023
0.053792 -0.109544 0.006370 0.038686 0.028372 -0.018082 0.011885 -0.190826 0.000532 0.094096
-0.080451 0.123679 0.113795 0.380750 0.029394 -0.071195 -0.073695 0.197552 -0.082677 -0.354077
0.045221 -0.008553 0.100836 -0.133614 -0.000522 -0.015785 -0.159104 -0.082853 0.106997 0.072640
0.115350 -0.050676 0.000290 0.054510 0.045400 -0.054698 -0.104498 0.128000 -0.234613 -0.093445
-0.068858 -0.051875 0.029883 -0.056159 -0.030426 0.145099 -0.110995 -0.185740 -0.120796 -0.052177
-0.008334 -0.069699 -0.040505 0.271005 0.137524 -0.106924 0.010977 0.159437 0.090894 -0.182051
-0.011665 0.050453 -0.009891 -0.075424 0.055837 -0.133599 0.033975 -0.076121 0.006712 -0.044520
-0.124218 -0.041877 -0.083701 0.061753 0.186613 -0.262773 -0.146156 0.179725 -0.122370 -0.287199
0.112073 -0.103136 0.030698 0.040769 -0.019363 -0.027491 0.193991 -0.111629 -0.083416 0.042108
-0.062339 -0.301172 0.061037 0.307396 -0.217476 0.103868 -0.036315 0.219278 -0.050988 0.010679
0.134605 -0.059774 0.032555 0.052741 0.016055 0.028069 0.072506 -0.154192 0.033616 0.119277
-0.009976 0.160109 -0.006699 0.232606 0.320774 -0.119887 -0.196929 0.311413 -0.249960 -0.300609
0.002589 0.002068 0.016810 0.064428 -0.026842 -0.150275 0.136095 -0.022539 -0.016889 0.072653
0.061508 -0.184303 0.101451 0.064581 -0.191669 0.099385 -0.259474 0.320556 0.074833 -0.031220
0.034471 -0.029093 -0.048703 0.096422 0.098682 -0.024912 -0.010991 -0.145508 0.076329 -0.085052
-0.079652 -0.021522 0.112037 0.413983 0.291062 -0.035955 -0.328933 0.336027 -0.163009 -0.498554
-0.018207 -0.079783 -0.007699 -0.089252 0.001791 -0.175092 0.070698 0.045177 0.096994 0.067191
0.048836 -0.036577 0.072211 0.232044 -0.414110 0.161525 -0.331180 0.186989 0.080122 0.250454
-0.174514 0.044292 -0.021025 0.074771 0.072884 -0.157406 0.109745 -0.051068 0.046954 0.015741
-0.047284 -0.203381 0.197926 0.369506 0.078466 -0.316707 -0.515375 0.341766 -0.087920 -0.052398
-0.044458 0.031297 0.086675 -0.160613 0.036749 0.180075 0.091591 -0.026918 0.154999 0.129112
0.101050 -0.281224 0.182696 0.048471 -0.663060 0.079712 -0.233038 0.178604 0.136792 0.736912
0.095290 0.053576 -0.063542 0.009820 -0.189200 -0.056651 -0.024041 0.086591 0.111640 0.068318
0.092691 -0.304616 0.194036 0.203885 -0.258911 -0.232996 -0.512053 0.202924 0.064491 0.422307
-0.128748 -0.091073 -0.212689 -0.078003 -0.076974 0.151727 0.072565 0.098514 0.108785 0.021747
0.300529 -0.454683 -0.018014 -0.052118 -0.579067 0.292806 -0.305922 0.130488 -0.046872 0.501928
0.099732 0.023742 0.020628 -0.013232 -0.081433 0.100489 0.039580 0.025715 -0.092569 -0.061495
0.248707 -0.559513 0.117288 -0.112764 -0.414877 0.214607 -0.424866 0.036418 0.160347 0.460519
0.044477 -0.035066 -0.219709 -0.195889 0.114077 0.067100 -0.039019 -0.116930 -0.030315 0.073959
0.095841 -0.069238 -0.148742 -0.030457 -0.441816 0.476173 -0.208608 0.097906 0.018837 0.266389
0.178430 0.015574 -0.006270 -0.012099 0.017312 -0.159838 -0.030800 0.090753 -0.029811 0.034264
0.232767 -0.318869 0.072838 -0.106174 -0.304430 0.162188 -0.109331 0.128960 0.234504 0.292100
-0.038865 -0.069864 -0.101905 -0.005777 0.107018 0.020639 0.134253 0.034175 0.052814 -0.094729
0.024582 -0.068775 -0.213735 -0.173373 -0.151039 0.315656 -0.047192 0.046027 0.003767 0.154898
-0.009277 -0.051584 0.081112 -0.037323 -0.134605 -0.032201 -0.004169 -0.044129 -0.192081 -0.081241
0.033486 -0.236182 -0.048865 -0.085453 -0.324226 0.074921 0.128518 0.029806 -0.005502 0.112524
-0.005822 -0.063941 0.046850 -0.065244 0.308044 -0.009352 -0.148847 0.055713 -0.021597 0.007636
0.106214 -0.050952 -0.055896 -0.391513 0.239709 0.500047 -0.077850 -0.013251 0.204713 -0.334383
-0.006006 0.030499 0.067383 -0.131390 -0.041531 0.095303 -0.055999 -0.115884 -0.007176 -0.061762
0.044903 -0.044512 -0.071649 -0.088752 -0.065253 0.098251 0.063163 0.131184 0.105856 0.271896
-0.076682 0.178124 -0.033752 -0.188260 0.083050 0.185101 -0.147921 0.160724 0.099782 -0.109900
-0.056607 -0.148409 -0.365961 -0.177952 0.237459 0.723284 -0.006479 -0.164298 0.080835 -0.032123
-0.059154 -0.016892 0.030338 -0.108989 -0.185433 0.150232 -0.039579 0.076031 -0.072091 0.144735
0.056615 -0.042623 -0.165077 -0.279628 -0.007675 0.262787 -0.116054 -0.110915 0.076164 -0.011852
0.095212 0.011401 -0.100011 -0.098885 -0.082790 0.153491 0.005818 0.025831 0.096053 -0.197583
0.035835 0.094145 -0.068664 -0.015956 0.007838 0.060251 -0.037309 0.040037 0.062622 -0.030786
0.067192 -0.087686 -0.032370 -0.186996 0.006154 0.040181 -0.035589 -0.170647 0.068280 0.020920
-0.021049 -0.165165 -0.049861 0.006166 0.132846 0.088057 -0.166203 -0.052037 -0.078671 0.066185
0.086788 0.115469 -0.073029 -0.016888 0.065119 0.056485 -0.045374 0.048124 -0.025941 0.029199
0.109823 0.097961 0.029111 -0.039889 -0.033506 0.041390 0.081877 0.123048 -0.191063 0.087188
0.143876 -0.002036 0.032386 -0.011496 -0.082444 -0.040074 -0.074876 -0.128322 0.075325 0.060416
0.041785 0.029899 0.042040 -0.080756 0.003828 -0.142266 -0.082951 0.086015 -0.140957 0.037523
-0.072760 0.015504 -0.055742 -0.105235 0.017357 -0.049193 0.072945 -0.031116 -0.087681 -0.090807
0.026601 -0.036294 -0.050482 0.260437 -0.091074 -0.218320 -0.174679 0.226010 -0.149307 -0.071881
-0.063798 -0.055011 0.034250 -0.142110 -0.055579 0.044276 -0.099720 0.183689 0.008850 0.027270
-0.077413 0.040171 -0.094588 0.027819 -0.028955 -0.223379 0.162609 0.053974 -0.091345 0.039251
-0.056629 0.096877 0.108058 -0.087278 0.066247 -0.057613 -0.027466 0.128529 -0.082631 0.140443
-0.086632 -0.155367 -0.035181 0.284577 -0.156417 -0.190808 -0.240918 0.156066 0.143777 -0.007005
-0.021725 -0.047944 0.051237 0.011868 0.189826 -0.143362 -0.123357 0.182458 -0.035128 0.104627
-0.096340 -0.085634 0.099949 0.188573 -0.146526 -0.095060 -0.154735 0.302942 -0.054756 -0.243965
-0.000349 -0.065482 0.058876 -0.155568 0.033007 -0.181417 -0.035372 -0.040958 0.033983 0.093393
-0.155143 -0.154791 -0.109596 0.042957 -0.022612 0.174646 0.079149 0.013770 0.142186 0.057332
0.000704 0.104087 0.004427 -0.042782 -0.033017 -0.020421 0.166170 -0.125352 -0.155832 0.040406
-0.050361 0.133000 0.146418 0.308111 -0.028108 -0.156251 0.017421 0.438784 -0.190296 -0.312702
0.111111 0.091601 0.072930 0.053648 -0.159031 -0.199084 0.038094 0.022345 -0.071684 -0.027485
-0.012992 -0.275303 0.058220 -0.104164 -0.243380 0.221839 -0.022591 -0.101999 0.313575 0.038363
-0.005872 0.067521 0.026532 0.003831 -0.091443 0.125936 -0.062223 -0.001775 0.157014 -0.037613
-0.090773 -0.021546 0.313909 0.228139 0.091583 -0.159501 -0.085378 0.517839 -0.126217 -0.359272
0.007956 0.096399 -0.034682 0.145577 -0.045661 -0.202927 -0.037530 -0.123832 0.129771 0.015893
-0.107157 -0.069550 0.099626 -0.442626 -0.166664 0.315745 -0.299728 0.189472 0.186139 0.242048
-0.007775 -0.148242 -0.147062 -0.038147 -0.137235 0.079165 0.121496 0.033410 -0.091704 -0.014551
-0.104665 0.126647 0.110642 0.355033 -0.109808 -0.217627 -0.258114 0.355578 0.084040 -0.273597
-0.190287 -0.188249 0.150397 0.115201 0.047773 -0.144568 0.049660 -0.126654 0.098859 0.141660
0.252728 0.048396 -0.025835 0.055220 -0.345018 0.042797 -0.122891 0.318534 0.092087 0.208045
0.017760 0.199913 -0.055019 0.080447 -0.042723 -0.089091 -0.049762 -0.005265 -0.069823 0.039704
-0.122060 0.046823 0.335466 0.050972 -0.453857 -0.143957 -0.527642 0.279467 0.279175 0.287653
0.185141 0.076192 0.062149 0.128581 0.124951 -0.217804 0.002282 -0.121425 -0.130765 0.277349
0.206602 0.488678 0.047370 0.315953 -0.516452 -0.316998 -0.518127 0.470293 -0.249618 0.092808
0.177655 -0.077460 -0.122160 0.189163 -0.133234 -0.011831 -0.073697 0.089888 -0.113906 -0.002147
-0.139767 -0.050940 0.535956 -0.111084 -0.656647 0.343356 -0.199276 0.252660 0.161487 0.354945
0.019571 -0.071216 -0.160167 0.167952 0.042116 0.012170 0.106398 0.087241 0.100084 0.040652
0.470119 0.124843 0.068375 0.259840 -0.040846 -0.239998 -0.555889 0.664167 -0.149380 -0.200724
-0.003669 -0.112670 -0.090262 0.008879 0.026842 -0.121994 -0.089354 0.154229 -0.054654 -0.081250
-0.029160 -0.412814 0.195817 -0.093920 -0.596994 0.404988 -0.097903 -0.012966 -0.153595 0.258481
-0.189055 -0.096575 -0.140825 -0.042741 0.128259 0.122167 0.096431 -0.040825 0.064925 -0.117997
0.273212 -0.071210 -0.027033 0.333199 -0.066105 0.056667 -0.617425 0.415953 0.039290 -0.065187
-0.029586 0.087954 0.011025 -0.066739 0.008493 0.010086 0.065967 -0.075439 -0.017847 0.111583
0.217084 -0.424227 -0.156472 -0.327049 -0.579267 0.428938 0.235526 -0.058450 0.087285 0.299009
-0.025866 -0.062736 -0.025241 -0.029393 0.152836 -0.006297 0.030536 0.196831 0.154738 -0.120788
-0.010122 -0.186735 0.081178 0.284937 -0.067658 0.026820 -0.201583 0.119721 0.138041 0.021897
-0.018317 -0.067759 -0.056993 -0.068984 0.099305 -0.081529 -0.127310 -0.049900 0.092672 -0.020421
0.198849 -0.152122 -0.253482 -0.292745 -0.254808 0.388812 0.218083 -0.160383 0.366723 0.005155
0.042658 0.008919 0.033524 0.011680 0.093185 0.057499 0.017139 0.156336 -0.040147 -0.167679
0.110736 -0.353327 -0.155900 -0.042048 -0.030326 0.536879 -0.398445 -0.027102 0.265647 -0.349311
0.162633 -0.034578 0.152673 -0.156119 -0.116333 -0.055178 -0.024176 -0.001902 0.135922 -0.023086
0.027751 -0.151353 -0.164336 -0.181878 -0.192796 0.088816 0.232665 0.032552 0.031103 -0.041139
0.015374 -0.032328 0.023217 -0.043797 0.206722 -0.098325 -0.051460 -0.080439 0.122266 -0.026409
-0.191121 -0.097609 -0.169516 -0.134038 0.077579 0.791183 -0.284787 -0.128462 0.046483 -0.228162
0.071269 -0.105621 -0.031426 -0.029657 0.164346 0.024904 -0.102256 0.058201 -0.061840 -0.056910
-0.088510 -0.051291 -0.080675 -0.106873 -0.186353 0.342606 0.111830 0.027470 0.135633 -0.126183
-0.033966 -0.151459 0.115225 0.017375 0.087282 0.076126 0.001676 0.011363 -0.078539 0.031546
-0.115083 -0.054161 0.037030 0.122011 0.090265 0.180177 -0.125624 0.088817 0.021626 -0.106170
-0.166066 -0.003217 0.067580 -0.003821 0.037659 -0.038624 0.050241 -0.062785 -0.066805 -0.072842
-0.102303 -0.145270 -0.131634 -0.049224 0.095985 0.286958 -0.096711 -0.078667 0.001000 -0.057122
0.184044 -0.003029 -0.016454 0.070400 -0.193480 -0.077888 0.015618 -0.091790 0.156079 0.203255
0.048400 -0.155291 0.014910 0.097035 -0.135115 0.076607 -0.081159 0.005587 0.040314 -0.013329
0.084371 -0.053189 -0.130624 -0.013084 0.041442 0.133183 0.181758 0.005750 0.104041 0.136702
-0.029184 0.053844 -0.087311 0.115951 -0.077397 -0.068008 0.025823 -0.010834 0.052767 -0.027034
0.013554 -0.083182 0.176778 -0.054718 -0.020524 0.000260 -0.108744 -0.093174 -0.043226 0.091813
0.007164 -0.065242 0.093903 0.038154 0.069358 -0.138961 -0.113939 0.227799 0.011141 0.016041
0.121894 0.015395 -0.003322 0.117857 -0.059252 0.074110 0.148755 0.014162 0.084262 0.051949
0.046642 0.114708 -0.030299 0.155392 0.106314 -0.231071 0.039376 0.311767 -0.022490 -0.008261
-0.092632 0.097233 -0.002140 -0.123546 -0.060772 0.053418 0.056492 0.116155 0.060356 0.090467
0.104165 -0.022460 -0.119081 -0.140586 -0.267805 0.246542 0.010522 0.120627 0.138710 0.279655
-0.098304 -0.077404 -0.034008 -0.037044 0.132333 0.048781 0.080842 0.041526 0.061820 -0.063225
0.111473 0.129394 0.079587 -0.080670 -0.031443 -0.143421 -0.120618 0.423295 -0.148352 -0.171883
0.091918 0.014172 0.066652 -0.021640 -0.112660 -0.083709 -0.106073 -0.002971 0.039557 -0.127383
0.008807 -0.149477 -0.507286 -0.521738 0.080363 0.304058 0.089058 -0.350276 0.276943 0.554740
0.012329 0.067643 0.049104 -0.097234 0.038008 -0.101339 0.005624 0.001286 -0.017537 -0.014027
-0.103916 0.005218 0.164560 -0.062288 -0.079717 -0.105150 -0.107162 0.441051 -0.081308 -0.332006
-0.132744 -0.113542 0.127326 0.064952 0.090319 -0.023052 0.104384 -0.045703 -0.070059 -0.070989
0.013688 -0.148075 -0.372475 -0.625459 0.235366 0.222144 0.171196 -0.044871 0.252140 0.522530
0.164262 0.070232 -0.068037 -0.037321 -0.073125 -0.003968 0.054092 -0.029220 -0.060046 0.165826
-0.127120 0.112894 0.317915 0.026729 -0.149807 -0.345720 -0.312481 0.433332 -0.029503 -0.361387
0.127677 0.024171 0.079997 0.395657 -0.049119 -0.210453 -0.007140 0.083117 -0.222704 -0.043561
0.084207 -0.247091 -0.572378 -0.606961 0.692951 0.297619 0.043699 -0.062272 0.247019 0.284485
-0.021512 0.088377 -0.126222 0.012323 -0.037323 -0.073978 0.085709 -0.086786 -0.046642 0.028403
-0.186423 -0.043053 0.165934 0.066769 -0.294503 0.031705 -0.347912 0.412803 0.319827 -0.154258
0.000728 -0.106320 -0.039438 0.243077 0.027680 -0.237212 0.055372 -0.079028 -0.242584 0.011778
0.012583 0.437871 -0.731597 -0.134252 -0.141452 0.253918 -0.076580 0.051511 0.384432 -0.111730
-0.097624 -0.057871 -0.014789 0.140484 -0.043854 -0.116419 0.053785 -0.174305 -0.075777 0.067272
-0.354710 -0.154308 0.361112 -0.051123 -0.125908 0.057738 -0.405680 -0.031076 0.585545 0.165106
-0.088228 -0.016200 0.055484 0.259542 0.015273 -0.269401 0.255128 0.142168 -0.359542 0.088328
-0.249463 1.166795 -0.400288 0.300061 -0.063267 -0.286995 -0.508728 0.605464 -0.209521 -0.051295
-0.001878 -0.075942 -0.121981 -0.164857 0.036851 -0.049823 0.077544 0.106730 0.031345 -0.033308
-0.212844 0.155489 0.111613 -0.030625 -0.289368 0.470287 -0.118212 -0.033842 0.203945 -0.012233
-0.071261 0.017631 -0.092836 0.113960 0.127747 -0.085341 0.111391 0.169090 -0.176183 0.073103
0.204250 0.171205 -0.152554 0.388146 0.501177 -0.441509 -0.719584 0.735896 -0.292660 -0.149723
0.109210 0.015253 0.002880 0.008548 0.006904 -0.087130 -0.015726 -0.164962 -0.070742 0.154905
-0.287707 -0.146982 0.034248 -0.222510 -0.375364 0.533932 0.384611 0.132044 -0.100359 0.231031
0.013005 -0.008716 0.019796 0.212510 0.049555 -0.313042 -0.085431 -0.046861 0.090707 -0.155369
0.014416 -0.224187 -0.066234 0.716637 0.072344 -0.595567 -0.480042 0.502558 -0.085933 -0.002864
0.024641 0.090769 -0.041176 -0.001318 -0.015435 -0.020811 -0.069643 0.114733 0.030364 -0.051997
-0.090670 -0.238943 -0.310286 -0.063909 -0.494618 0.622353 0.348559 -0.060111 -0.063713 0.228526
0.027877 -0.068777 -0.058525 0.089017 0.025102 -0.330984 -0.099910 0.248644 0.042137 -0.104482
0.180931 -0.316346 0.131277 0.474570 -0.167585 -0.618967 -0.183102 0.257710 0.204979 0.055184
0.028222 -0.153657 -0.077065 -0.051290 0.108162 0.115925 -0.010151 -0.002707 0.055904 0.044278
-0.118979 -0.048269 -0.403582 -0.253931 -0.285288 0.521979 0.299469 -0.105842 0.089405 -0.023892
-0.099562 0.141794 -0.196902 0.001831 0.079230 -0.084174 -0.227154 0.193539 0.057198 -0.052420
0.279599 -0.205118 -0.136277 0.032785 -0.209835 -0.250478 0.166839 0.116688 0.423509 0.175764
-0.017081 0.018715 -0.171676 -0.049938 0.042516 -0.061337 0.014587 -0.074304 -0.005501 -0.081491
0.010738 0.031822 -0.118512 -0.227368 0.012467 0.261154 0.249858 0.076069 -0.079177 0.115255
0.117989 -0.095989 0.013234 0.047928 -0.082899 0.102944 0.008636 -0.029346 0.038675 -0.123902
0.043232 -0.032099 -0.094704 -0.064716 -0.073817 0.512532 -0.175994 -0.045020 0.198499 -0.271429
-0.122157 0.005197 -0.159504 -0.016593 -0.156096 -0.169084 0.089662 -0.148472 -0.105938 -0.180478
0.105851 0.050667 -0.005425 0.012645 -0.143070 -0.121058 0.149846 -0.041400 0.105457 -0.052087
-0.052889 -0.127489 -0.000866 0.045738 0.078289 -0.082080 -0.023815 0.104158 0.117857 -0.163788
-0.021345 0.076604 0.131415 -0.061591 -0.214981 0.118495 0.001963 -0.077597 0.025250 -0.020164
-0.064511 -0.044600 -0.012283 0.063852 -0.091306 -0.035359 0.033737 0.099678 -0.014671 0.100432
-0.116840 -0.100620 0.204504 0.017776 -0.063463 0.052423 -0.053832 0.096952 0.035223 0.075723
0.041084 -0.080231 -0.071821 0.025847 0.085501 -0.180946 0.089855 -0.005270 0.079625 -0.041654
-0.038080 0.091157 0.073165 0.060111 -0.032438 -0.013476 0.172172 0.065918 0.013373 -0.047759
0.017199 -0.069074 -0.000918 -0.081622 0.139589 -0.127800 0.076993 -0.030579 -0.051137 -0.048167
-0.022703 0.039945 0.032427 0.122122 0.131571 -0.154436 -0.043400 -0.091313 0.042017 0.052468
0.106617 -0.034887 0.047920 -0.082809 -0.062310 -0.022783 0.116814 0.065938 0.165092 -0.025412
0.112490 0.034330 -0.167173 -0.028234 -0.124678 -0.070075 0.051724 0.276784 -0.022795 0.044297
-0.121894 -0.050326 0.041827 0.025999 -0.152005 -0.141629 0.029291 -0.036584 0.058326 -0.055382
0.114141 -0.075584 0.056845 -0.090587 0.096619 -0.054632 0.056690 0.032295 0.068566 -0.059663
-0.122109 0.057901 -0.106611 -0.076875 -0.093702 0.066481 0.042285 -0.050520 0.088446 -0.157871
0.124527 -0.097657 -0.562753 -0.355892 0.167499 -0.058607 0.047207 0.111341 0.092783 0.324214
0.104656 -0.192880 -0.026782 -0.141398 0.055674 0.067706 0.094037 0.026004 -0.026463 -0.150070
0.066250 0.140663 -0.016594 0.074156 0.024575 -0.016024 0.054475 0.084682 -0.007352 -0.096106
-0.027916 -0.138514 0.216768 0.134389 0.031189 -0.102901 0.064279 -0.109686 -0.125368 -0.150902
0.226468 -0.049893 -0.796969 -0.465592 0.399864 0.411929 0.229708 0.027911 0.101431 0.422066
0.048842 -0.051508 0.023169 0.068861 -0.008931 0.045468 -0.051765 -0.023336 0.072516 0.031793
-0.224332 0.096903 0.235248 0.178909 -0.168190 0.020634 -0.212477 0.010613 0.128449 -0.009091
-0.104486 -0.070212 0.036486 0.053617 -0.160845 0.014262 -0.021608 -0.057317 -0.107268 0.043206
0.184568 -0.247627 -0.653883 -0.284680 0.652578 0.111328 0.148817 0.216331 -0.051100 0.407743
0.093635 0.069652 -0.120958 0.130729 -0.185734 0.019024 0.167028 -0.071271 -0.116751 -0.122983
-0.188880 0.055972 0.219953 0.013221 -0.230376 -0.015741 -0.129592 -0.152648 0.178395 0.003679
0.079224 0.128163 0.135163 0.281297 0.041656 -0.127712 -0.071017 -0.028056 -0.273644 -0.218388
0.148072 -0.419824 -0.608058 -0.248669 0.842740 0.408373 0.104045 -0.317439 -0.144992 0.289490
-0.027433 0.047436 0.079058 -0.034536 -0.030307 -0.101863 0.079765 -0.051648 -0.058093 0.035906
-0.070981 -0.062934 0.380385 -0.217211 -0.182034 -0.028576 -0.373768 0.067103 0.548448 0.245172
0.081847 -0.070405 0.152039 0.236499 0.117628 -0.052501 0.051348 0.036134 -0.260247 -0.251185
-0.204451 0.683325 -0.691388 0.353935 0.098346 0.256997 -0.173418 -1.037756 0.359535 0.033554
-0.055676 0.193005 -0.048846 -0.057812 -0.034715 -0.027583 -0.064020 0.062824 -0.083782 -0.085597
-0.228335 -0.223664 0.123189 -0.131799 0.270349 0.214433 -0.589166 -0.222682 0.435252 0.119141
-0.039588 0.058752 -0.048209 0.340015 -0.037279 -0.059732 -0.120008 0.152822 -0.378452 0.134957
-1.064197 1.006146 -0.535447 0.341286 0.264815 -0.007800 -0.284316 -0.062027 -0.054112 0.716404
0.010613 0.183756 -0.076655 -0.089334 -0.020112 0.021035 -0.066241 0.135040 0.005028 0.012896
-0.000640 0.029269 0.151164 0.082740 0.189319 0.502083 -0.018420 -0.496559 -0.093167 0.016169
-0.132305 -0.028558 0.172155 0.273272 -0.126208 -0.132651 0.168444 0.066969 -0.132742 0.012641
-0.292420 -0.014147 -0.283706 0.357678 0.722905 -0.562603 -0.236264 0.406048 -0.057605 0.220497
0.021062 0.120511 -0.058940 -0.174459 -0.010934 0.059733 0.166450 0.101387 -0.000333 -0.002755
-0.248798 -0.224946 0.067629 0.043102 -0.182288 0.574916 0.356230 -0.249567 -0.192378 -0.052906
0.045267 -0.142373 -0.032144 -0.026557 -0.042272 -0.010065 -0.054218 -0.007732 -0.042140 -0.150319
-0.004256 -0.258253 0.082231 0.465853 0.116275 -0.810905 -0.177338 0.359984 0.096583 0.188112
-0.028691 -0.068126 -0.040154 0.028740 0.092469 -0.086051 -0.022378 -0.049626 0.006502 0.156709
-0.250892 -0.325466 -0.421490 0.103095 -0.104585 0.558591 0.433330 -0.039491 0.223047 -0.113927
0.056715 0.068886 0.023459 0.179882 -0.126384 -0.094488 -0.141794 0.081692 0.113261 -0.006047
-0.059230 -0.143263 -0.027096 -0.128498 0.137507 -0.740818 0.025968 0.172523 0.254938 0.275678
-0.151451 0.023092 -0.082299 -0.042576 -0.019669 0.067426 0.010565 0.057852 -0.016895 0.178456
-0.229798 -0.257583 -0.295538 0.122605 0.125702 0.285520 0.320985 0.117601 -0.099450 -0.399056
0.143371 -0.014950 -0.033914 -0.148017 0.020492 -0.175206 0.006270 -0.078933 0.072375 -0.052798
0.536604 -0.057716 0.021418 -0.266638 0.029787 -0.803902 0.424489 -0.081258 0.386649 0.027181
0.036553 0.035936 -0.183291 0.148624 0.090412 -0.108207 -0.170711 -0.020914 -0.036159 0.061384
-0.077845 0.007926 -0.257911 -0.063086 0.062492 0.371967 0.130540 0.175365 -0.008117 -0.216852
-0.078277 0.146785 0.135948 0.022182 0.054848 0.038700 0.112301 -0.029759 0.104127 -0.065808
0.274166 -0.119663 0.008942 -0.142214 -0.144086 -0.145945 0.244346 -0.130816 0.112260 -0.115697
-0.044404 0.063896 -0.067278 0.140965 -0.075756 -0.132508 0.044975 0.193092 0.091911 -0.021758
0.014903 0.034917 0.256710 -0.072433 0.039956 0.056956 0.122107 0.106625 -0.112217 -0.303757
-0.019222 -0.048474 0.018843 -0.145484 -0.012985 -0.068773 0.013279 0.050977 -0.009725 0.067072
0.182236 -0.034055 0.073821 0.017140 0.121228 0.054025 0.043752 -0.092175 0.048940 -0.153543
0.038809 0.025350 0.120760 0.043410 0.052655 0.091783 0.016544 0.059943 -0.019410 0.025309
-0.156858 0.006220 0.170672 0.024527 -0.065898 -0.157686 -0.069345 0.111288 0.051092 -0.036543
-0.104907 -0.147821 0.036624 0.131109 0.120276 -0.045702 -0.008116 0.076112 -0.076113 -0.112048
-0.074009 -0.082217 -0.006584 -0.043532 0.025615 -0.097645 -0.044707 -0.077714 0.073382 -0.186445
0.035436 0.100382 -0.043730 0.049274 -0.109219 0.078523 -0.001160 -0.022756 -0.174543 -0.083085
0.031396 0.040984 -0.092893 -0.001143 -0.035201 -0.158659 0.073704 0.082881 0.049696 -0.100805
0.132287 -0.174082 -0.118259 -0.057181 0.007557 0.056363 0.075554 -0.019550 0.076484 0.006138
-0.100590 -0.110475 0.037699 -0.171189 0.009981 0.063388 0.075257 0.209624 -0.101061 0.009892
0.030791 -0.117491 0.042588 0.074576 -0.097177 -0.027646 -0.004243 0.158248 0.081350 0.009463
-0.098033 -0.122441 0.013985 -0.070414 0.026807 -0.016037 0.148611 -0.009707 0.148147 0.081761
-0.190099 -0.152608 0.050459 0.036063 -0.158911 0.002356 -0.108498 -0.093827 0.022089 -0.082229
0.282046 0.069874 -0.146612 -0.407149 0.264306 -0.192341 0.023755 0.013161 -0.396857 0.027645
-0.045937 0.087960 0.186445 -0.085765 -0.008896 -0.026649 -0.055828 0.063599 -0.144008 0.174445
-0.079003 -0.002988 0.142660 0.158647 -0.211974 -0.080981 0.029201 0.085657 -0.106174 -0.165174
-0.126609 0.092382 0.165659 -0.004212 0.100593 -0.038966 -0.092872 -0.028310 0.083285 -0.066778
0.244165 -0.267443 -0.359176 -0.438216 0.548273 -0.098779 0.224513 0.009508 -0.436582 0.016497
-0.030100 0.029819 0.028396 0.033458 0.163399 0.015953 -0.162298 0.084112 -0.022556 -0.130419
-0.087428 0.024792 -0.036754 0.124387 -0.181652 0.385760 0.054228 0.003813 0.002587 0.100922
-0.055653 0.015365 0.033829 0.071481 -0.198438 -0.110239 -0.011503 -0.007490 -0.030507 -0.118531
0.429962 -0.461175 -0.270584 -0.251493 0.467936 0.257177 0.383948 0.012625 -0.467431 0.068609
-0.044692 0.042263 0.046235 -0.017312 0.109953 -0.003304 0.042028 0.092205 -0.046629 0.056161
-0.377816 0.065383 0.051623 0.115773 -0.157753 0.290056 -0.294073 -0.077925 0.037966 0.262674
-0.050946 -0.046487 0.223003 -0.111066 0.080595 -0.143429 -0.019945 0.152515 -0.130063 -0.145277
0.213930 -0.284450 -0.143887 0.070878 0.582037 0.478689 0.295708 -0.791633 -0.066312 -0.079514
0.157167 -0.163845 0.053164 -0.039464 0.007765 0.087254 -0.065413 -0.063727 -0.086997 -0.054927
-0.210918 -0.073961 -0.067844 0.030684 0.146976 0.245237 -0.436104 -0.052764 0.123571 0.436825
-0.148637 -0.029532 0.170564 0.102928 -0.001232 -0.099428 -0.186831 0.245470 0.033869 -0.152116
-0.314728 0.584395 0.146906 0.073094 0.134876 -0.015019 -0.063911 -0.991883 0.430826 0.268551
-0.055339 -0.094632 -0.137454 0.061925 0.088415 -0.004371 -0.123328 -0.068692 -0.043718 0.075717
-0.231769 -0.230915 -0.186564 -0.032628 0.459978 0.283328 -0.333168 -0.343919 0.094466 0.352593
-0.169860 0.030796 -0.053276 0.121170 -0.029597 -0.028270 0.091984 0.133057 0.102948 0.191554
-1.174572 0.893877 -0.136744 -0.085319 0.431865 -0.493324 0.115769 -0.294103 0.215587 0.236415
-0.002701 0.112866 0.082813 0.046193 -0.003350 -0.131858 0.013739 -0.134934 0.163299 -0.195993
-0.270864 -0.098112 0.259348 0.250491 0.264019 0.579488 0.160256 -0.471046 -0.349231 0.014315
-0.113589 -0.018852 0.051105 -0.051169 -0.157495 -0.122811 0.245243 0.055979 -0.039322 0.112792
-0.370167 -0.188992 -0.143290 -0.058689 0.750601 -0.548212 -0.206367 0.262083 -0.075316 0.384791
-0.024958 0.151853 0.033034 0.015161 0.064900 -0.014379 -0.028273 -0.137969 0.047097 0.142673
-0.120337 -0.410218 -0.086122 0.257081 -0.074700 0.379023 0.206363 -0.215258 -0.021552 -0.252785
0.205778 0.147727 0.152232 -0.075866 -0.037158 -0.022193 0.014877 -0.040912 0.054140 -0.027051
0.076961 -0.489409 0.156044 -0.071319 0.340610 -0.458018 -0.173815 0.427801 -0.153845 0.097736
0.033503 0.094282 -0.027473 0.048463 0.084475 -0.177399 0.099427 -0.111689 0.039118 0.081088
-0.291632 -0.285932 -0.384353 0.422425 0.016577 0.154552 0.380384 0.184363 0.237019 -0.485285
-0.180574 0.055722 0.161365 -0.004649 0.018983 -0.122625 0.054197 0.135126 -0.144893 0.061472
0.107720 -0.119539 0.143875 -0.233704 0.261210 -0.439692 0.019646 0.298477 -0.179995 0.148284
-0.020236 -0.053583 0.018166 0.006543 0.114842 -0.038118 0.027476 -0.089036 -0.019471 -0.023706
-0.150538 -0.115700 -0.071823 0.300817 0.100231 0.137327 0.197040 0.422142 0.207622 -0.367493
0.084815 0.045395 0.014031 -0.111184 -0.048628 -0.047375 0.023253 -0.050525 -0.073836 -0.036065
0.481874 -0.062060 0.132923 -0.143312 -0.068516 -0.336475 0.265885 0.171527 -0.287176 -0.281138
0.037807 -0.016986 0.043939 0.036066 0.127625 0.005159 0.098328 0.040845 0.127854 -0.121387
-0.296983 0.083541 0.131137 0.033677 0.102700 0.023040 -0.121790 -0.027392 0.223152 -0.273342
0.086283 0.060995 0.047875 0.076280 -0.184618 -0.074063 -0.076841 -0.138081 0.140280 0.054980
0.330099 -0.004227 0.379231 0.068084 -0.165843 -0.300356 0.190669 -0.017176 -0.135989 -0.178692
0.050392 0.075709 -0.156286 -0.049964 0.009693 0.041433 0.172263 0.091887 -0.095957 -0.047370
0.017414 0.007550 0.175903 -0.119853 -0.044974 0.114334 -0.110843 -0.164270 -0.114378 -0.255350
-0.136477 -0.037766 -0.037969 -0.144876 -0.070192 0.059522 -0.008444 0.028104 -0.109883 -0.015879
-0.137220 -0.113025 0.133406 0.002633 -0.012989 -0.113678 -0.156216 -0.001171 -0.016990 0.104908
0.084495 0.001582 -0.039914 -0.059638 -0.121423 -0.072490 -0.127431 0.019200 0.140889 -0.026399
0.104394 -0.005080 0.310629 -0.071964 -0.082922 0.058783 -0.164650 -0.114712 0.076316 -0.000818
-0.028305 0.011578 0.108207 -0.103210 -0.056500 0.079076 -0.030501 0.003020 0.047428 -0.058961
0.179885 0.019300 -0.109966 -0.014492 -0.008433 -0.050568 0.087292 0.097710 -0.008350 -0.069701
-0.041032 0.033142 -0.069848 -0.069256 0.040151 0.015334 -0.008963 0.012688 -0.060806 0.050819
0.097145 -0.032201 -0.183763 0.030041 0.130440 0.096669 0.001963 -0.029659 -0.007189 -0.008958
0.166185 -0.133565 -0.032976 0.087315 -0.049239 0.075146 0.089633 -0.029029 0.074472 -0.060485
0.001365 -0.084697 0.146838 0.194945 -0.010400 0.085370 -0.189148 0.130287 -0.042363 0.046618
-0.032020 0.023055 0.013120 -0.181035 -0.107073 -0.096222 0.150554 -0.170213 0.060852 -0.120254
0.068315 -0.043124 0.080562 -0.000156 0.177750 0.034458 -0.139451 -0.068008 0.014692 -0.104728
0.070940 0.078005 0.011989 0.187225 0.038511 -0.095566 -0.158031 0.099381 -0.039844 0.025503
0.229012 -0.167114 0.342639 -0.129336 0.054154 -0.136852 -0.106524 -0.088135 -0.218427 -0.202383
-0.083622 0.015961 0.049479 0.051211 -0.032688 0.129574 -0.006252 0.025964 -0.013155 0.082660
-0.049383 0.068769 -0.139274 0.230659 0.132718 0.213280 -0.200351 -0.078852 -0.011459 -0.186758
-0.004344 -0.031465 -0.003161 -0.022184 -0.163422 -0.017111 0.089450 0.082404 0.092910 0.021612
0.388877 -0.224763 0.267854 -0.476140 0.346131 -0.508496 0.244718 -0.078380 -0.144109 -0.104482
-0.010926 -0.090822 -0.055208 0.039240 0.003990 0.173464 -0.009786 0.041729 0.093384 -0.126322
-0.290462 -0.261531 -0.094281 0.234299 0.036279 0.562792 -0.146257 -0.011551 -0.204415 0.107045
0.109996 0.105279 0.110700 -0.114427 0.003415 -0.058143 -0.136082 0.224906 0.139895 0.090959
0.417488 -0.186846 -0.001326 -0.450521 0.084573 -0.188903 0.367985 -0.298351 -0.085524 0.100468
0.010927 0.031225 -0.063576 -0.056739 -0.138235 -0.124349 0.065890 0.203401 0.068313 -0.059856
-0.247302 -0.215606 -0.358721 0.362188 -0.188083 0.544958 -0.037930 -0.179089 -0.552949 0.291526
-0.038806 0.034747 0.259881 -0.036957 0.112618 0.010492 -0.086680 0.158299 0.147160 -0.061734
0.237774 -0.298488 0.292593 -0.381922 -0.169297 -0.279543 0.714377 -0.403376 0.315219 0.000756
-0.106764 -0.190362 0.017510 -0.082841 -0.026812 -0.041984 -0.005644 -0.037814 -0.132527 -0.004539
-0.267525 -0.013906 -0.331774 0.473111 0.266692 0.543514 -0.251360 -0.221383 -0.540390 0.598055
-0.012461 -0.171767 0.263215 -0.093105 0.051062 -0.041110 -0.003369 0.004887 0.148843 -0.147173
-0.667985 0.800467 0.246638 -0.136015 0.243360 -0.179431 0.273563 -0.221626 0.132241 -0.248135
-0.050486 -0.134421 0.019103 0.021382 0.096484 0.114780 -0.095596 0.058482 0.111116 0.003120
-0.247661 -0.227992 -0.284255 0.337249 0.283362 0.379531 -0.239624 -0.437132 -0.284875 0.310635
-0.134401 -0.058871 0.214279 -0.220444 0.113093 -0.145192 0.056122 -0.122604 0.055238 0.155891
-0.680457 0.400756 0.070776 -0.236288 0.697491 -0.554096 -0.099168 0.238790 -0.239970 -0.151586
0.056304 -0.066907 0.037632 -0.008207 0.031954 0.132296 -0.109990 -0.067902 0.076080 -0.013115
-0.052569 0.001033 0.145118 0.313786 0.359670 0.263831 0.005232 -0.275361 -0.119437 -0.125248
-0.008422 -0.029562 -0.066224 0.031674 -0.076626 0.125640 0.029415 0.026133 -0.195958 -0.114777
-0.034924 -0.646474 0.065766 -0.097686 0.608966 -0.204368 -0.126631 0.210132 -0.246026 0.569806
-0.050837 0.155659 0.030929 0.007216 -0.170438 0.038383 -0.104147 -0.005820 -0.066900 0.058433
-0.123336 -0.322807 -0.088128 0.486496 -0.093438 0.131055 0.259986 -0.070355 0.316361 -0.598874
-0.130047 -0.048694 0.121735 -0.028663 0.104927 0.112456 0.082314 0.215618 -0.197154 -0.004803
0.117818 -0.496840 0.430594 -0.086552 0.129875 0.089709 0.030384 0.275930 -0.357247 0.080962
0.065068 -0.032925 -0.041596 0.023303 0.035331 0.093471 -0.104272 0.061826 0.093896 0.106547
-0.144343 0.178177 -0.213525 0.313435 -0.023612 -0.019884 0.113699 0.123396 0.331764 -0.788343
0.097214 -0.081896 0.070956 0.001602 -0.044102 -0.245072 0.048528 0.130695 -0.178444 0.155858
0.133965 -0.260814 0.185656 -0.238530 -0.078629 -0.117066 0.019892 0.055641 -0.461283 -0.128626
-0.069267 -0.156293 -0.129330 0.063861 -0.041936 -0.036974 0.041712 -0.098835 0.068244 -0.035267
-0.015145 0.088566 0.110707 -0.055400 0.187091 -0.228953 -0.098599 0.168918 0.397795 -0.323840
0.023486 0.025915 0.178161 -0.008177 0.122100 -0.088657 0.077702 -0.076497 -0.123976 -0.092373
0.219380 -0.124692 0.187849 0.030929 -0.308917 -0.183930 0.168997 -0.188178 -0.287180 -0.248852
0.042892 0.065021 -0.042052 -0.110701 0.024537 0.003611 -0.029430 0.139180 0.036667 0.066248
-0.227085 0.098105 0.225791 -0.180373 0.041810 -0.117796 -0.247439 -0.175557 0.035900 -0.230148
-0.133871 0.042690 0.113882 0.110614 0.081468 0.075366 0.041942 0.157115 -0.018838 -0.034945
0.023748 0.112285 0.477859 -0.121481 -0.215018 -0.037075 0.036099 0.016505 -0.256055 -0.117998
0.039966 0.141435 0.077656 -0.138853 -0.004938 0.010144 0.111097 0.075201 -0.010754 -0.083082
-0.232385 0.057036 0.264147 -0.167161 0.075981 0.110087 0.099086 0.068990 0.030538 -0.125133
-0.054525 -0.094981 -0.002237 -0.001254 0.075194 0.096739 -0.013990 -0.046890 -0.173565 0.026788
0.011651 -0.163745 0.229569 -0.186060 -0.004804 -0.038790 -0.062484 0.016036 -0.037550 -0.111171
-0.100384 -0.021934 -0.031408 0.123891 -0.059782 0.118482 -0.083189 -0.050119 -0.083314 0.156865
-0.016670 -0.004382 0.232255 0.018578 0.065646 -0.179089 -0.029939 -0.078437 -0.050497 -0.048028
0.087591 0.147162 -0.029895 -0.006440 -0.002378 0.146887 -0.001023 0.106171 0.043281 0.057524
0.027387 -0.017772 -0.066879 0.040870 -0.033976 -0.018060 -0.023706 -0.066152 -0.064734 0.093196
0.073304 0.022018 -0.033853 0.028906 0.033385 -0.062378 -0.136673 0.168415 -0.006032 0.063040
0.153917 -0.004987 -0.013818 -0.159686 -0.029775 -0.084170 0.015993 0.041548 0.043170 -0.021275
-0.134863 -0.017458 -0.005263 -0.020704 -0.127465 -0.129246 0.081683 -0.148274 -0.181512 -0.096098
-0.147052 -0.160138 0.172385 0.359569 -0.087460 -0.141700 -0.017434 -0.035349 -0.213453 -0.235503
0.155798 -0.170879 0.151702 0.043618 -0.099641 -0.051604 -0.051277 0.046823 0.038886 -0.004246
0.015666 -0.106647 0.016431 0.144505 0.105350 -0.154462 0.021235 -0.007744 0.008535 -0.083126
-0.031915 0.131822 0.046892 -0.165277 -0.109890 0.100331 -0.036033 0.089639 -0.073488 0.043842
0.328769 -0.168920 0.535278 0.226010 -0.271825 -0.009715 -0.199852 -0.102466 0.068442 -0.328845
0.056270 0.134581 -0.035869 -0.053401 -0.139756 0.074735 -0.023585 -0.145289 0.166484 0.074991
-0.036785 -0.093145 -0.150493 0.260505 0.095925 0.208440 0.119984 -0.005503 -0.130265 0.050943
-0.102086 -0.040775 0.109315 -0.090559 0.027655 0.042625 -0.027859 -0.028790 -0.052271 -0.002264
0.138951 -0.282834 0.657300 -0.129226 -0.210453 -0.199037 -0.017911 -0.399223 0.272205 -0.366790
0.129925 0.002238 0.065348 -0.054800 0.102583 0.005429 0.077365 -0.044797 -0.021517 0.007501
-0.136990 -0.066223 -0.025734 0.357975 -0.080028 0.368834 -0.063946 0.051989 -0.390726 0.165309
-0.085306 0.071884 -0.085505 -0.189794 0.108926 0.013164 -0.047536 -0.111444 0.086245 -0.047111
0.558430 -0.087455 0.482589 -0.655514 -0.285012 -0.388760 0.560435 -0.377741 0.469240 -0.215727
0.017890 0.013956 0.148542 0.045690 0.105155 0.147307 -0.028082 -0.006984 0.057465 -0.004874
-0.102609 0.173149 -0.133425 0.462879 -0.212126 0.428005 0.079195 -0.202875 -0.348088 0.360216
-0.061178 -0.102788 0.111580 -0.021084 -0.060188 0.177519 -0.147703 -0.000431 0.113919 0.049074
0.479269 0.060852 0.468569 -0.612576 -0.214998 -0.470720 0.699426 -0.302270 0.359376 -0.501347
-0.029841 -0.094713 0.057892 -0.008342 0.083521 0.008505 -0.056947 -0.011233 -0.191387 0.089415
-0.089446 0.187520 -0.242766 0.418738 -0.209463 0.470674 -0.045778 -0.293252 -0.382612 0.369632
-0.082162 -0.009959 0.103547 -0.029485 -0.091382 0.045155 -0.213131 -0.042399 -0.035974 0.136176
-0.173895 0.536196 0.285159 -0.672316 0.059271 -0.183827 0.299730 0.187530 -0.188428 -0.300214
0.065462 -0.017568 0.035456 0.024190 -0.108118 0.053479 -0.103043 -0.052708 -0.107753 -0.097170
-0.076035 0.279872 -0.249234 0.286488 0.063542 0.132812 0.017737 -0.224298 -0.175383 -0.027670
-0.021274 0.132589 0.080580 -0.061940 -0.021591 -0.010734 0.141462 -0.057942 -0.034583 -0.058670
-0.123733 0.049960 0.251806 -0.180485 0.447347 -0.159718 0.067605 0.059147 -0.325697 0.020691
0.021560 -0.009803 -0.123640 0.063895 -0.064345 -0.111688 0.072162 0.057170 0.069484 -0.101810
0.102529 -0.167336 0.099310 0.421506 0.020910 0.002575 0.044413 -0.241898 0.093398 0.023456
0.063169 0.004119 0.052502 -0.123027 0.107122 -0.116737 -0.174508 -0.081984 -0.060191 -0.145027
0.131429 -0.388366 0.374448 0.295346 -0.285993 0.092087 0.188814 -0.376017 -0.335963 -0.177149
0.064002 -0.027778 0.093561 0.006565 0.104005 -0.050143 0.053953 -0.008312 0.128106 -0.011680
-0.122976 -0.219868 0.197524 0.231118 0.044463 -0.119581 0.118885 -0.212612 0.298052 -0.553255
0.071326 0.076188 0.126404 -0.033935 -0.090822 0.029258 0.165274 0.054622 -0.020796 -0.050164
-0.088009 0.093833 0.235855 0.151373 -0.329811 0.107312 0.219180 -0.224713 -0.150327 -0.080602
0.066526 0.024339 -0.040788 -0.026854 -0.106691 -0.019333 0.018684 -0.052920 -0.020104 0.042550
0.020542 0.353609 0.342818 -0.098384 -0.168879 -0.106042 0.171136 -0.075112 0.164023 -0.398752
-0.012738 0.088556 0.029454 0.074221 0.135921 -0.214100 0.076138 0.144356 -0.087428 0.047885
0.225563 0.022498 0.195716 0.213897 -0.262979 0.251199 0.074101 -0.359580 -0.110800 0.056149
-0.117993 0.040336 -0.067435 0.041610 -0.068426 0.180607 0.070805 0.096784 0.093339 0.013323
-0.177951 0.154432 0.524140 -0.199629 -0.103982 -0.262014 -0.019843 -0.158340 -0.081454 -0.249078
0.168587 0.056423 -0.167797 -0.021032 0.108659 0.099868 0.075757 -0.036476 0.055252 -0.161186
0.369139 0.108222 0.233733 0.128595 -0.190748 0.210929 0.083504 -0.204512 0.018396 -0.143687
-0.045867 0.043132 -0.094018 -0.182783 -0.114220 0.056000 0.055675 -0.073159 0.003298 0.013440
-0.277752 0.070789 0.397245 -0.148653 0.094202 -0.141782 -0.086413 -0.110268 -0.014122 -0.129989
0.163762 0.034537 0.071849 -0.002919 -0.073714 -0.080909 0.096522 0.068160 0.041960 -0.050143
-0.126553 0.143650 0.270077 -0.018095 -0.175315 0.088927 -0.018249 -0.077983 -0.173604 -0.121351
0.165157 -0.017805 -0.153710 -0.050616 -0.013200 0.028723 -0.034865 0.069827 0.068370 -0.077695
-0.148549 -0.042991 0.244611 -0.201816 -0.135088 0.066803 -0.016429 -0.157967 -0.074395 -0.012925
-0.030010 0.193655 -0.101246 0.045563 0.093068 0.102015 0.062687 0.072488 0.083318 -0.049737
-0.073957 -0.031186 0.119916 0.027783 0.007631 -0.159530 -0.140404 0.041205 -0.061867 -0.048773
-0.045765 0.163614 -0.111559 0.013335 -0.073117 0.168769 -0.033196 -0.078069 0.160294 0.138145
-0.022172 -0.106541 0.041975 -0.178077 -0.002805 0.041290 0.040722 0.063621 -0.107558 0.075266
0.158769 -0.104010 -0.042240 -0.049268 0.065546 0.049058 -0.014691 0.062852 0.015641 -0.050274
0.023047 0.058676 0.011093 -0.019797 0.016501 -0.004260 -0.059606 0.130516 0.007209 -0.093302
-0.152296 0.051276 0.111847 -0.005023 0.021433 0.027443 -0.128195 0.125107 -0.112408 -0.012322
-0.058857 0.173807 0.055535 0.107329 -0.031227 0.010374 -0.056632 0.179940 0.091887 0.016654
0.107430 0.086461 -0.013227 -0.195350 0.166611 0.162982 -0.100386 -0.089464 -0.001637 -0.103978
-0.138677 0.021455 0.300414 0.146610 -0.057718 -0.127770 0.000074 -0.023014 -0.069916 -0.035010
-0.050747 -0.157567 -0.002002 0.024913 -0.015336 -0.062642 0.083658 0.137437 -0.155436 -0.045509
0.089845 0.071448 0.069880 -0.053485 0.019742 -0.003265 0.176350 0.073472 -0.008623 0.031932
-0.099871 0.110795 0.070376 0.140564 0.104312 0.001676 -0.163822 0.004178 0.142255 -0.158479
0.146683 0.075926 0.283039 0.189467 -0.301019 -0.024182 -0.116827 -0.270164 0.163874 -0.264769
-0.083855 0.037391 0.070611 -0.181943 0.093515 0.015019 -0.062532 0.061260 0.170439 -0.080961
-0.075535 0.040407 -0.123362 -0.061476 -0.119710 -0.007581 0.118820 -0.103047 -0.097611 -0.058363
0.073676 -0.103099 0.054721 0.087243 -0.002104 -0.000036 0.075843 0.011121 0.104885 0.006531
-0.003034 0.174328 0.481652 0.139705 -0.295226 0.195115 -0.096311 -0.195199 0.395537 -0.408025
0.118395 -0.105077 -0.059485 -0.140389 -0.121644 -0.119021 0.075120 0.020556 -0.001416 -0.014153
-0.095067 0.124378 -0.019618 0.364175 -0.085813 0.167049 0.046163 -0.119468 -0.332878 -0.032229
0.015079 0.160265 0.021603 0.068197 -0.010782 -0.068758 -0.074777 -0.036913 -0.051172 -0.037417
0.244062 0.143740 0.595867 -0.101071 -0.543019 0.075205 0.076578 -0.435848 0.188673 -0.604141
0.146479 0.004743 0.020076 -0.131706 -0.081920 -0.052310 0.060715 0.188580 0.041395 -0.039416
0.032843 0.140493 -0.034968 0.221093 -0.034297 0.281298 -0.122565 -0.326939 -0.187920 0.217039
-0.089953 -0.128356 -0.071447 0.109468 0.137581 -0.006325 -0.164541 -0.055010 -0.128246 -0.010370
0.527749 -0.065930 0.246954 -0.351612 -0.587390 0.086205 0.617910 -0.205460 -0.098778 -0.654051
0.140629 -0.037168 -0.093437 -0.141631 -0.080427 -0.126883 -0.044389 0.030966 0.004273 0.151323
0.056105 -0.024887 -0.143800 0.249151 -0.111140 0.225798 0.037232 -0.245401 0.050610 0.135453
-0.058280 0.044939 0.139839 0.039859 -0.125789 0.040130 -0.004411 -0.081309 -0.028676 0.028816
0.232719 -0.022605 0.175712 -0.207751 -0.271587 0.157737 0.825929 0.045660 -0.039375 -0.470925
-0.117763 0.029105 0.109103 -0.007519 0.014175 -0.000279 0.062160 0.076838 0.078212 0.195844
0.052041 -0.089305 -0.020492 -0.052735 -0.145482 0.072824 0.369706 -0.229777 0.058385 0.272692
0.094020 0.071886 0.112362 -0.018364 -0.013668 0.188799 0.043862 -0.095857 -0.037936 0.246460
0.003579 -0.198364 0.066086 -0.164174 -0.147554 0.102084 0.642879 -0.168148 0.078038 -0.318407
-0.128939 -0.165297 -0.088797 -0.126722 -0.050329 0.046177 0.057605 -0.122456 -0.081474 0.110784
0.179754 -0.239043 0.098766 0.084999 -0.236375 -0.013531 0.372888 -0.119783 0.055589 0.170929
-0.029411 -0.084808 0.066426 0.049857 -0.146737 -0.094679 -0.054318 0.002645 -0.032573 0.122385
-0.094915 0.290093 0.319400 0.172917 -0.113133 0.216260 0.410855 -0.347582 -0.041002 -0.344132
0.045066 0.092607 0.105620 0.004790 0.098247 0.042184 -0.113831 0.048112 0.025312 0.023197
0.079417 -0.019358 0.198892 -0.027747 -0.317884 -0.001954 0.226772 -0.129823 -0.071839 -0.247557
-0.080449 -0.158100 -0.090308 0.022033 -0.069092 0.164476 0.086903 -0.089788 -0.005971 0.003968
-0.078409 0.275315 0.155933 0.227846 0.011644 0.303550 0.159353 -0.505018 0.036701 0.010367
-0.018708 0.137640 0.027261 -0.049091 -0.005423 0.036756 0.163200 0.130239 0.177981 -0.141165
-0.139899 0.299025 0.660393 -0.063670 -0.110625 -0.034025 0.003242 -0.162163 -0.164614 -0.266351
0.065523 0.080147 -0.134608 0.083599 0.090157 0.043280 0.194947 -0.050753 0.005733 -0.030782
0.140820 0.263767 0.071937 0.093432 -0.076380 0.237072 0.037764 -0.518477 0.092338 0.002930
0.013482 0.019616 0.094871 -0.032698 -0.109701 0.006782 -0.080386 -0.085172 0.180296 0.032229
-0.185002 0.078701 0.691498 -0.207813 -0.125332 -0.258190 -0.072165 -0.264464 -0.125426 -0.170634
-0.137124 0.003180 -0.029187 -0.115303 0.078960 0.037025 0.074786 0.139664 -0.001334 -0.040303
0.140842 0.006123 0.017499 -0.003249 -0.190578 0.311322 -0.141755 -0.388803 0.113211 -0.071275
0.083585 -0.000824 -0.077361 0.131717 -0.105556 0.091621 -0.113648 0.005796 -0.057861 0.017649
-0.106060 -0.000223 0.434350 -0.303169 0.101988 -0.064350 0.003814 -0.061733 -0.296502 -0.028348
0.054503 -0.083071 -0.082346 -0.147306 -0.059713 -0.136616 0.046302 -0.037772 -0.078466 0.084903
0.022080 0.063390 0.165078 -0.022532 -0.071374 -0.023581 -0.035063 -0.117675 -0.057620 0.103164
0.007012 -0.027719 0.041327 -0.169572 0.079628 -0.092943 -0.155550 0.015414 0.032416 0.067691
0.047247 0.061774 0.243191 -0.056282 0.044353 0.147909 0.056188 -0.117873 0.080716 0.041318
-0.052367 0.105265 -0.037400 -0.125699 -0.145622 0.141406 0.066471 0.185293 0.014695 0.041018
-0.033766 -0.002239 0.175526 0.030237 0.019109 0.106225 0.029381 -0.027395 0.063401 0.026326
-0.005076 0.067816 -0.068451 0.081604 0.005785 0.048770 -0.025213 -0.180306 -0.040500 -0.034097
-0.135182 0.013089 0.021380 0.104859 -0.019389 0.032873 0.092213 -0.088183 0.053082 0.042677
0.053424 0.103974 0.039682 0.037281 0.037843 0.125207 0.078493 -0.043891 -0.121530 0.102347
-0.014448 -0.027924 0.108995 0.008793 0.045870 -0.098716 0.008478 0.047162 -0.146031 -0.083111
0.111154 0.100555 0.128502 0.056407 0.046501 -0.193763 -0.033428 -0.023937 -0.093066 0.111488
0.021813 -0.160579 -0.215855 -0.053862 0.027326 -0.139061 -0.029521 -0.091363 0.041689 0.035739
-0.156881 0.052844 -0.057066 0.011276 -0.013180 -0.125002 -0.051980 0.102806 -0.004392 -0.110709
-0.195641 0.147215 -0.047858 0.202693 -0.053601 -0.029831 0.045264 0.103209 -0.147947 -0.080263
0.078394 0.177070 0.046033 -0.057196 0.120325 -0.197839 -0.001229 0.020265 -0.122320 -0.069972
-0.013749 0.162582 0.032416 0.082900 0.017280 -0.016554 0.065560 0.104434 0.028247 0.052353
-0.071886 -0.060242 0.013621 -0.080815 -0.048233 0.060609 -0.062052 0.011390 -0.034284 0.048642
-0.039235 0.357012 0.141773 0.274617 -0.094563 0.055943 -0.270182 0.209307 -0.265210 -0.029023
-0.053457 0.050288 -0.016842 0.076036 -0.067244 0.021226 -0.022304 -0.194851 0.089979 -0.095208
0.137399 -0.035956 0.102576 0.331477 -0.008849 -0.016385 0.059516 -0.017596 0.037205 -0.080400
0.009548 -0.043390 0.014745 -0.044917 -0.173484 -0.021937 -0.076802 0.083310 -0.124998 -0.017311
0.015919 0.231533 0.230277 0.277554 -0.272716 -0.162748 -0.382204 0.061554 0.093067 -0.121542
0.008228 -0.033288 0.137176 -0.097447 0.019546 0.035849 -0.081021 -0.065106 0.185259 0.003477
-0.026648 0.058399 0.123507 0.240590 -0.088359 0.130833 0.107776 -0.033026 -0.195963 -0.073617
-0.112045 0.069947 -0.005188 0.013921 0.062660 0.105519 -0.112465 -0.060452 -0.224795 0.093534
0.185737 0.195594 0.117509 0.194070 -0.298993 0.224050 -0.214479 -0.060807 0.056311 -0.103409
0.091317 0.148746 -0.012531 0.027644 0.145603 0.123913 -0.119974 0.070240 0.088134 0.159902
-0.045055 -0.004323 -0.114957 0.295484 0.084708 0.246027 0.032644 -0.250728 0.051563 -0.272865
-0.011243 0.163284 0.113107 0.183732 0.122475 -0.007771 -0.068060 0.056516 -0.052919 0.048601
0.246386 -0.359151 0.113553 0.018252 -0.182346 0.217505 -0.063609 -0.294336 0.140384 -0.240367
-0.093530 0.146843 -0.015223 -0.042209 0.093821 -0.055854 -0.021443 0.074986 0.176658 0.157669
0.118723 -0.049671 -0.065261 0.117186 -0.005372 0.209994 0.064104 -0.349420 0.162352 -0.259191
0.026215 -0.027478 -0.053125 0.174668 -0.002955 0.066076 0.031760 0.003269 -0.093506 0.184338
0.244627 -0.475802 -0.097430 0.080058 -0.205812 0.185698 0.031462 -0.308429 0.417658 -0.322780
0.110987 -0.068300 0.039719 -0.074696 -0.146811 -0.178421 -0.021942 -0.058060 0.150079 0.014491
0.153203 -0.081129 0.096342 0.034353 -0.213537 0.058048 0.081730 -0.321791 0.229140 0.024584
-0.067952 0.059436 -0.144318 0.209144 0.005271 0.135065 0.102776 0.078005 -0.054764 -0.119687
0.002774 0.041766 -0.122984 -0.106297 0.032097 0.274731 -0.049907 -0.245376 0.675966 -0.335865
-0.015275 0.022331 0.124439 -0.008709 -0.059369 -0.032702 0.002706 -0.072189 0.104971 -0.058265
0.282709 -0.003477 -0.014832 0.006132 -0.154399 -0.042853 0.086591 -0.231927 0.108452 -0.138464
0.015674 -0.142456 -0.086870 0.043558 -0.019480 0.145163 -0.015658 0.035674 0.166611 -0.031341
-0.038399 0.271722 0.003082 -0.014773 0.083792 0.232680 -0.013390 -0.159813 0.193448 -0.307816
0.007846 0.066209 -0.120602 -0.018112 0.077405 -0.053679 -0.005319 -0.013845 -0.164330 -0.022951
0.070409 0.116454 0.270312 -0.057742 0.090952 -0.050627 0.107925 -0.275817 0.034139 0.025512
0.073700 -0.136379 0.072057 0.055323 -0.041620 0.092056 -0.010219 -0.069936 -0.102214 -0.054096
-0.044846 0.181686 0.002865 0.056654 0.068669 0.224288 -0.182126 -0.468420 0.124871 -0.182782
0.028168 0.078408 0.051200 0.076477 -0.145912 0.088050 0.003916 -0.021803 -0.006246 0.004085
-0.033589 -0.088175 0.630277 -0.185943 0.040102 -0.197312 -0.087725 -0.301859 -0.285704 -0.090979
-0.133551 -0.060531 0.027675 -0.025845 -0.073063 0.118871 0.125344 -0.067884 0.088215 0.017585
-0.080574 -0.017016 -0.222074 -0.068352 0.180652 0.347059 0.014483 -0.391591 0.154800 0.118960
-0.007195 0.038028 0.008243 0.152611 -0.006921 0.145815 0.004581 0.108990 -0.002611 -0.073779
-0.030329 0.018836 0.425046 -0.209714 0.166704 -0.061935 0.139981 -0.029463 -0.079411 0.047599
0.018705 0.071438 0.105859 -0.066402 0.126726 0.107678 -0.057845 -0.002699 0.085796 0.119314
-0.045524 -0.155689 -0.028777 -0.052953 -0.064943 0.164736 0.034410 -0.318510 0.026436 0.107286
-0.030285 -0.009763 0.093098 -0.076632 0.058404 -0.111977 0.102140 0.020828 -0.161646 0.060529
-0.011240 0.032877 0.160650 -0.159565 0.098934 -0.047880 -0.101455 -0.096870 -0.068900 0.162069
-0.034456 -0.125558 -0.051594 -0.090914 0.146762 0.172605 -0.023659 0.044790 -0.121131 -0.016506
-0.074856 0.152091 0.120351 -0.076505 -0.079764 0.048672 -0.057579 -0.035363 -0.108009 -0.041572
-0.013997 0.053917 0.168213 0.130829 -0.126850 0.177009 -0.003944 0.034950 0.005197 -0.060090
0.190963 -0.039943 0.093492 -0.037573 -0.046565 -0.066742 0.056970 -0.050110 -0.085352 0.045619
-0.093871 -0.108963 0.169642 0.075905 -0.060419 0.079646 -0.088700 -0.167340 -0.138346 0.131976
0.005492 -0.017757 0.039183 0.046929 -0.068248 0.169908 0.024473 0.114517 0.058815 -0.183668
-0.112085 0.121631 -0.034614 -0.006803 0.057186 0.091890 0.032139 -0.060117 -0.009523 -0.034874
0.036741 0.087646 -0.162584 -0.105965 -0.031587 -0.144807 0.083813 0.102414 0.159309 0.148355
0.076278 -0.048706 -0.087061 -0.070972 -0.004141 0.029477 -0.160758 -0.062594 0.088688 0.090473
0.025606 -0.028554 -0.043059 -0.046886 -0.012624 -0.018998 -0.038703 0.024141 -0.004526 -0.024919
-0.057499 -0.164950 -0.147925 0.035511 0.163252 0.110258 0.095787 0.109523 0.110325 0.153121
-0.151424 0.103643 0.037572 -0.062411 0.076131 -0.123095 0.100874 0.114792 0.038762 0.004332
0.082587 0.030770 -0.151198 -0.076310 0.008268 -0.019215 0.008203 -0.003395 -0.079278 -0.079874
0.058174 -0.073217 -0.012885 -0.011031 0.162010 0.064987 0.139709 0.005655 -0.099112 -0.074859
-0.020840 -0.054947 0.002182 0.173953 0.051538 -0.027177 0.147043 -0.103942 0.085997 -0.069329
-0.105457 -0.093647 0.061424 -0.185670 -0.156990 0.004532 0.047844 0.011581 -0.180666 0.035716
0.021060 -0.079711 0.054574 0.094040 -0.033233 -0.062144 0.132921 0.050299 -0.054705 0.046441
-0.044577 0.182702 -0.183590 0.395262 0.081969 0.070608 0.180320 0.123089 -0.220128 0.100626
0.079894 -0.104745 -0.036174 0.111514 -0.141641 -0.108835 0.102712 0.176619 -0.068641 0.115840
0.056098 -0.095260 0.163846 -0.054230 -0.058825 -0.077556 0.116099 0.041261 -0.093074 -0.019130
-0.063627 0.049414 0.000469 0.175044 0.162425 -0.032270 -0.108434 -0.074980 -0.122076 0.026893
-0.232135 0.112330 -0.318035 0.353338 -0.234210 -0.004845 0.062845 0.501347 -0.435856 0.194545
0.018973 -0.055555 -0.036634 0.002663 0.009232 -0.063878 0.119623 0.027955 0.008116 -0.117292
0.096047 -0.054170 0.069952 0.063226 0.089178 -0.052245 0.015024 0.091107 0.099878 -0.122002
-0.054168 0.123356 0.079118 0.148879 -0.159019 0.020819 0.024772 0.046683 -0.003104 0.086451
-0.146762 -0.089321 -0.345834 0.420409 -0.075145 0.274084 -0.258686 0.186442 -0.106270 0.227556
0.010320 0.172044 0.089125 -0.076917 -0.126850 0.052805 0.157538 -0.043245 -0.046815 0.081051
-0.082479 0.049870 -0.018786 0.077328 -0.075456 -0.121895 0.064108 -0.171820 0.020057 -0.177834
-0.066193 -0.069458 0.004649 0.174134 0.018788 0.051928 0.034043 0.065487 -0.108504 0.074088
-0.212763 -0.132723 -0.196918 0.439728 -0.168046 0.299252 -0.251426 0.122151 0.033685 0.071851
0.159397 0.084647 -0.005941 -0.016005 0.156323 -0.044906 -0.078171 0.053759 0.033060 -0.004962
-0.143621 -0.030842 0.141257 0.263759 -0.014317 0.040454 0.066374 -0.236556 -0.060176 -0.040980
-0.046894 0.148905 0.032378 0.203591 -0.058339 -0.073761 0.055741 -0.075559 -0.060376 -0.011059
-0.029731 -0.133111 -0.095301 0.350734 -0.170608 0.327734 -0.410200 0.263332 -0.036952 -0.160326
0.034028 0.030085 0.133943 0.002093 0.109587 -0.120082 -0.041066 -0.072515 -0.162891 -0.025819
-0.071616 -0.033302 -0.139133 0.103197 0.045201 -0.009759 0.083689 -0.210653 0.079981 -0.304308
-0.003992 -0.161829 0.092790 -0.006716 -0.022390 -0.077731 0.047954 0.112035 -0.044757 0.024567
-0.183776 -0.160756 -0.103986 0.066790 -0.037831 0.401796 -0.309203 0.317410 -0.039885 -0.211522
-0.031377 0.132158 -0.157616 0.010892 0.077101 0.069416 0.051004 0.103402 -0.122626 0.068435
0.190747 0.145448 -0.047064 0.098381 0.128224 0.085024 -0.018146 -0.095288 -0.049221 -0.041765
-0.052700 0.008157 -0.027842 0.081628 0.119741 0.035427 -0.043218 -0.011519 0.019889 0.023945
-0.347128 -0.084707 -0.141432 -0.013870 -0.144393 0.082447 -0.158180 0.116541 0.172737 0.163926
0.133605 0.092021 -0.113290 -0.053029 -0.071476 0.101961 -0.045671 -0.001932 0.073079 0.155463
0.047181 -0.076891 -0.105018 -0.023109 -0.011355 -0.122827 0.036030 -0.211958 0.075943 0.033903
-0.058504 0.182893 0.015384 -0.010592 0.007706 0.077650 0.003014 0.152581 -0.016883 -0.102758
-0.180411 0.024513 -0.150396 -0.007764 -0.023976 0.031843 0.017412 -0.024112 0.160465 0.264930
-0.117869 -0.054798 0.025050 -0.033517 0.082000 0.035062 -0.017194 0.037214 -0.047365 0.035222
0.121238 -0.161774 -0.109548 0.010867 -0.037923 -0.128743 0.204683 -0.177013 -0.112442 -0.024790
0.043658 0.059697 -0.018078 0.068480 -0.059825 -0.007012 0.091052 0.038367 -0.077154 -0.084669
-0.290070 0.085515 -0.123022 -0.005567 0.047593 0.190438 -0.034865 -0.148577 0.125896 0.416781
0.072564 0.002409 -0.061603 -0.046997 -0.115049 -0.015595 0.110519 0.065375 -0.145058 0.045009
0.049242 -0.074096 0.044208 0.059928 0.000872 0.054983 -0.121640 -0.096110 0.033967 0.063117
0.156107 -0.016889 -0.048753 -0.030868 -0.015635 -0.077378 -0.089616 0.006272 -0.062208 0.115129
-0.098599 -0.032970 0.138698 -0.049635 -0.100018 0.052181 0.051592 -0.038394 0.011062 0.258532
0.070603 -0.092301 0.082785 0.106334 0.132208 0.136492 -0.123572 -0.017163 -0.005222 0.142733
0.009033 -0.061151 0.005714 0.081121 -0.120175 0.059270 0.027711 -0.064238 0.076200 0.002072
-0.166889 -0.049058 -0.006332 -0.007170 -0.097525 -0.108418 0.063746 0.004346 -0.057969 -0.048709
0.037380 0.088138 -0.052679 -0.112636 0.030336 0.075189 -0.051037 0.089487 -0.072687 -0.065489
0.031371 0.134827 0.040347 0.106639 -0.011771 -0.169442 -0.119970 -0.023482 -0.044837 0.081549
-0.004064 0.042830 0.069468 0.070026 -0.031533 -0.174438 -0.179093 -0.112366 -0.007623 0.066611
-0.004119 -0.038823 -0.062174 0.124501 0.025161 -0.106432 -0.066351 -0.022259 0.001796 0.013823
0.179136 0.010466 -0.160802 0.008287 0.061934 -0.079775 0.045098 -0.075718 0.031947 0.069800
-0.000360 -0.096739 -0.102300 0.100131 0.007055 -0.085579 0.042838 0.169237 -0.061210 0.052973
0.036425 -0.055759 -0.019450 -0.111998 -0.079231 -0.162068 0.029054 -0.018300 -0.052790 -0.021134
0.054976 0.122527 0.050677 -0.118044 -0.130099 0.010581 0.014158 0.012439 -0.075628 0.020737
-0.044473 0.156513 -0.003549 -0.070245 0.005208 0.169861 0.004775 -0.073551 0.123839 0.091505
-0.120377 -0.194871 -0.069417 0.136674 0.010384 -0.108341 0.000622 -0.004110 -0.113565 -0.124542
-0.030383 0.061252 -0.006772 0.059990 0.064826 0.021961 0.023756 -0.056021 -0.134342 -0.015261
0.067170 -0.053526 -0.163522 0.035015 -0.124883 -0.063897 0.006787 -0.040088 -0.131908 -0.074113
0.031940 0.094929 -0.100905 0.029947 0.029082 -0.017150 0.015176 -0.009469 -0.079225 0.034327
0.065950 -0.010164 -0.108678 0.057178 -0.041443 -0.108340 -0.061983 0.043095 -0.003535 -0.092690
-0.013747 0.182108 0.075604 0.001126 -0.068143 -0.152035 0.020388 -0.056469 -0.005155 0.044319
0.091009 -0.180114 0.042350 -0.097105 0.001690 0.032384 0.061858 0.046020 0.067924 0.102686
0.064503 0.077586 0.118080 0.014559 0.072022 -0.098365 0.130707 0.086275 0.037152 0.100428
0.112359 0.088199 0.141912 0.000955 -0.048809 0.001767 -0.020983 0.062248 -0.110449 0.036492
-0.130639 0.102496 -0.050288 0.070806 -0.060051 -0.038355 0.173862 -0.029779 0.067632 0.070151
0.190520 0.140920 -0.131634 -0.051885 -0.021053 0.095344 -0.118271 0.040596 0.120602 0.139626
-0.009124 0.040584 -0.159636 -0.035580 -0.082127 -0.067694 -0.121530 -0.027787 -0.195961 0.212251
-0.136997 -0.023114 -0.095428 -0.060806 0.069470 0.082094 0.187788 -0.045405 0.057485 -0.141463
0.087622 0.025134 -0.067693 -0.011998 0.056532 -0.050264 -0.101960 0.088976 0.043452 0.064884
-0.087125 0.049674 0.013369 0.112733 0.006753 0.060323 -0.024174 0.108244 -0.049849 -0.041429
-0.206965 -0.010296 -0.024484 -0.006835 -0.136538 0.136374 0.151480 0.220555 -0.252249 0.157384
0.018335 0.074884 0.082856 0.040681 0.054712 0.035957 0.150052 -0.114772 -0.068626 0.005418
0.195418 -0.083824 -0.021746 -0.058369 0.126609 0.045760 0.000342 0.183110 0.061133 0.093184
-0.015637 0.072748 0.167028 0.016012 0.111258 -0.184668 0.112896 -0.092805 -0.045558 -0.134316
-0.085782 -0.056889 0.006204 0.065389 -0.194435 0.125828 -0.191744 0.200176 -0.167997 0.210739
-0.111165 -0.103620 -0.110308 -0.002739 0.128002 -0.023541 0.038295 0.108690 0.038645 -0.023080
0.100068 -0.013085 -0.079624 -0.047853 -0.102373 -0.013457 -0.135596 -0.124375 0.004651 0.032966
0.057419 -0.097654 0.052163 0.076156 0.120660 -0.044262 0.037409 -0.041927 -0.174458 -0.038114
-0.115331 0.004475 -0.112741 0.145736 -0.299690 0.177415 -0.055696 0.107160 -0.187852 0.249586
-0.047993 0.095788 0.119549 -0.051181 0.181322 0.049378 0.129353 0.044569 -0.040949 0.036399
-0.062158 0.101310 0.065523 0.140216 -0.172839 -0.001344 0.026760 -0.145074 0.071707 0.059467
-0.006704 0.056610 -0.025218 -0.076710 0.019737 0.015692 -0.053745 0.094167 0.063426 0.060088
-0.110233 -0.185182 -0.053404 0.100968 -0.275941 -0.018034 -0.053415 0.356399 -0.210864 0.285376
0.016494 -0.109724 -0.024212 -0.020252 -0.079377 -0.097162 0.052521 -0.043418 -0.009054 0.081387
-0.020153 0.143781 -0.020119 0.124462 0.075854 0.071632 -0.116421 0.175513 0.084604 0.048462
-0.039223 0.159850 0.003209 -0.049217 0.065445 -0.091042 -0.066046 -0.150388 0.079152 -0.055155
-0.064430 -0.058772 0.025566 0.037630 -0.169070 0.043836 0.015616 0.238650 -0.089431 0.138348
0.086426 -0.000504 0.121158 -0.147603 -0.174543 -0.031600 -0.171785 -0.010521 -0.121372 0.026940
0.060459 -0.072408 -0.070304 -0.085906 0.106247 -0.057242 -0.039821 -0.022643 0.083847 -0.131453
-0.028763 -0.090616 0.132857 0.145990 0.128248 -0.026688 0.013618 -0.160345 -0.083054 -0.089897
-0.013412 -0.075185 -0.172149 -0.047105 -0.134572 0.063044 -0.124700 0.096292 -0.000307 0.251164
-0.022109 -0.003594 0.109482 -0.023292 0.053853 -0.027911 -0.072659 0.083568 0.022137 -0.003902
-0.003769 0.111067 0.062653 0.001274 0.125995 0.008563 -0.123653 -0.060012 0.003339 -0.136304
0.059103 -0.064463 0.096796 -0.019785 0.020982 -0.010386 0.083062 0.096207 -0.079082 0.034741
0.138061 0.097112 -0.069919 -0.002957 -0.047309 0.061078 0.115003 0.060488 -0.134586 0.217245
0.086966 0.061372 0.105330 0.055643 0.089426 -0.038210 -0.008233 0.077461 0.047817 0.094483
-0.002841 0.042089 0.060405 0.015629 -0.062300 -0.128478 -0.081251 0.008299 0.020162 0.030416
-0.164793 -0.010517 -0.114328 -0.066626 -0.015189 0.051663 -0.180633 0.101382 -0.011753 -0.140178
0.052915 0.039773 0.173287 -0.157533 -0.170286 -0.180110 0.066971 0.125981 0.081887 0.014745
0.072948 -0.011317 -0.026027 0.027536 0.187762 0.023122 0.108720 0.150642 -0.002111 0.070620
-0.095888 0.032808 -0.028979 -0.070478 -0.005018 0.071155 -0.039357 0.121822 -0.108897 0.026675
0.025744 0.031815 -0.170211 0.105515 0.033953 0.116240 0.105704 0.139366 -0.028442 -0.101816
0.138333 0.031247 0.131181 0.053217 -0.050870 -0.082356 0.110457 -0.136544 0.038698 -0.030033
-0.156412 -0.103194 -0.136880 -0.169237 -0.083927 -0.049309 -0.106462 -0.130965 -0.150965 0.134554
-0.108804 0.006926 -0.187756 -0.025411 0.046847 0.040907 -0.111169 -0.076942 -0.124883 0.086088
-0.096086 -0.057284 -0.071103 -0.058050 -0.066433 0.153007 0.033735 0.055336 -0.051385 0.050363
0.078518 0.107145 -0.007121 -0.092213 -0.105657 0.058635 -0.187237 0.119226 -0.052519 0.011828
-0.144561 -0.003530 0.022810 0.043917 0.033957 -0.052857 -0.051482 0.054201 -0.153855 -0.123427
0.101999 0.036386 -0.147721 -0.026659 -0.085269 0.089054 -0.126168 -0.022279 -0.074542 -0.007569
0.029764 0.125794 0.172097 0.019198 -0.182006 0.151906 -0.078674 -0.149893 0.106375 -0.055867
