784.000000
10.000000

0.120266 0.126933 0.126595 -0.008654 -0.023324 -0.066139 0.019362 -0.167362 -0.078245 0.030530 0.131986 0.149574 0.003973 -0.106218 -0.047783 0.019661 -0.105319 -0.024846 0.124216 0.129013 -0.025987 0.137991 0.021792 -0.015528 0.111562 0.047165 -0.089122 0.144307 -0.022964 -0.050330 0.031147 0.014642 -0.035093 0.148779 0.066849 0.053443 0.142848 0.028972 -0.078937 -0.010274 0.001532 -0.032062 -0.012497 -0.034597 0.055669 0.102418 0.191963 -0.002824 0.000405 -0.057915 0.020776 -0.097439 -0.050294 0.047144 -0.058853 -0.048432 0.018496 0.026928 0.027519 -0.067566 -0.135313 0.160550 -0.134351 0.093560 0.037400 0.107078 0.075535 0.039058 -0.036032 -0.123229 0.059251 -0.034229 0.129958 0.094987 0.089811 -0.185581 -0.027761 -0.104677 -0.009805 0.056055 -0.142922 -0.125864 0.032663 0.034510 0.119857 -0.086266 -0.081926 -0.064692 0.063489 -0.229294 -0.105922 0.213465 -0.198985 -0.232571 0.051699 -0.024640 0.018388 -0.018885 0.080134 0.137744 0.176031 -0.118200 0.070283 -0.017005 -0.182942 -0.094038 -0.021780 -0.068465 -0.068171 -0.069882 0.078689 0.107025 0.116942 0.041552 0.009096 0.086194 -0.090180 -0.029669 0.176833 0.032760 -0.137119 -0.119486 0.032749 -0.036070 -0.058086 -0.134782 -0.207202 0.056760 -0.238218 0.021969 0.007353 0.076018 -0.111528 -0.112409 -0.111481 -0.033026 0.069495 -0.008702 -0.018550 -0.079795 0.027165 0.113250 -0.037396 -0.010166 -0.062117 -0.108027 0.181241 0.005952 0.049742 -0.041290 -0.080613 -0.084539 -0.123873 -0.250419 0.127640 -0.192483 -0.101749 -0.081175 0.026636 -0.054687 -0.094546 -0.153452 0.124545 -0.046735 0.060457 -0.100093 -0.171930 0.052621 -0.031929 0.070597 0.037708 0.015364 -0.082882 -0.072581 -0.105602 -0.109375 0.002358 0.050274 0.050190 -0.115925 0.068174 -0.009883 -0.073564 -0.045262 -0.068533 -0.018867 -0.109272 -0.022821 -0.088502 0.132371 -0.145136 -0.259662 0.044662 -0.088781 0.119659 -0.154204 -0.027835 -0.103141 0.176491 -0.036148 0.085384 0.225633 0.162629 0.086015 0.087202 -0.080773 0.164711 0.059643 0.177549 0.041172 0.079386 -0.084079 0.058665 0.116171 0.069129 0.110726 -0.029861 -0.038349 0.004655 -0.003824 -0.014541 0.080435 0.116405 -0.043492 -0.156772 0.131475 -0.058783 -0.124760 -0.160853 -0.010871 0.110990 0.063459 -0.001958 -0.065128 -0.012920 -0.037049 -0.102972 -0.009413 0.165947 0.050270 0.022833 0.062137 -0.117917 -0.288404 -0.021704 0.069216 0.113994 -0.284577 0.207367 0.048188 0.038097 0.011997 0.177011 0.182847 0.189625 -0.068624 0.458562 0.573980 0.019014 -0.023634 0.292173 0.259227 0.301754 0.086881 0.148241 0.045394 0.272355 0.143289 0.194144 0.000683 0.011936 -0.024095 -0.263078 0.011112 0.066957 -0.125543 -0.023067 -0.001283 0.070049 -0.016184 0.020054 -0.009813 0.031393 0.062857 -0.118404 -0.006261 0.008359 -0.178285 0.060554 -0.078263 0.021311 0.101653 -0.029060 0.153679 0.099684 -0.161575 -0.143323 -0.003495 0.118097 -0.099167 0.004696 0.126179 0.116078 -0.204495 0.061175 0.161772 -0.040545 -0.085520 0.025775 -0.227267 0.085888 -0.090913 0.244239 -0.071364 0.081972 -0.063221 0.335589 0.163791 0.208259 -0.039743 0.360268 0.266554 0.084225 -0.108191 0.458624 0.424796 0.234623 -0.025480 0.062102 0.115071 -0.187453 -0.030858 -0.101808 0.169681 -0.025352 -0.180263 0.068369 0.128504 -0.159666 0.007858 -0.043713 -0.103260 -0.076783 0.043457 0.151412 -0.034118 -0.084708 -0.226817 -0.011444 0.266767 0.164659 -0.189229 0.079115 0.080368 -0.136000 -0.244437 0.030174 0.173035 0.028191 -0.332294 -0.134574 -0.144761 -0.009835 -0.147459 -0.417370 -0.678578 0.097727 -0.210968 0.076104 -0.380203 0.129535 -0.012500 0.043253 0.001813 0.069443 -0.100972 0.426843 0.061084 0.108867 -0.091814 0.362230 0.369623 0.011740 0.051123 -0.029334 0.261478 -0.036344 0.004764 0.121456 -0.081904 -0.192024 -0.019950 0.124365 0.001085 -0.052957 0.067525 0.044010 0.010900 -0.044971 -0.021794 0.260190 0.185141 0.015592 0.046002 0.208802 0.289876 0.060779 -0.180851 0.225400 0.381839 -0.150644 -0.389607 0.033092 0.303238 0.021071 -0.268022 -0.364348 -0.374001 0.131180 -0.303652 -0.617756 -0.910192 0.050265 -0.183586 -0.306379 -0.386933 0.011768 -0.286451 -0.053013 0.082385 -0.032221 -0.236547 0.344608 0.050251 -0.076820 -0.078308 0.291747 0.438937 0.084814 -0.107773 0.081220 0.305460 0.104691 -0.032091 0.063041 0.041637 -0.035785 0.019551 -0.141189 -0.022635 0.129818 0.030039 -0.020460 0.015994 0.085070 0.113899 0.294551 0.120175 0.071922 -0.106336 0.134860 0.272223 -0.179313 -0.119677 0.269616 0.141976 0.064997 -0.259465 0.024655 0.072763 0.021267 -0.429384 -0.563992 -0.443138 0.022245 -0.231899 -0.397753 -0.587829 -0.126564 -0.181641 -0.092377 -0.096152 -0.169878 -0.338389 0.106714 -0.067449 -0.004242 -0.063196 0.077768 0.146678 0.155717 0.027770 0.169446 0.231471 -0.090021 -0.035547 -0.064253 0.126472 -0.065414 -0.013837 -0.028419 -0.056445 -0.043390 0.170748 0.155884 0.107506 0.003613 -0.034339 -0.111573 -0.149213 0.070225 0.064652 0.127535 0.195121 0.137699 0.035350 0.120024 0.118100 -0.057556 -0.177457 0.361856 0.199105 0.105697 -0.097240 0.204628 0.199861 0.041587 -0.239258 -0.549178 -0.153147 -0.113636 -0.227415 -0.341996 -0.068896 -0.163371 -0.092690 -0.025123 0.173715 -0.151811 -0.023393 0.083134 -0.048710 0.017041 0.073126 -0.016596 0.127156 -0.135571 -0.090561 0.167379 0.093100 0.131525 0.092239 -0.021731 0.005479 -0.128420 0.075306 -0.107225 -0.018490 -0.169743 0.045237 -0.009751 -0.049453 -0.075356 0.043808 -0.049422 -0.113678 -0.091660 -0.058090 0.118235 0.076122 0.022654 0.045068 0.176962 0.062242 0.037672 0.026677 0.118095 0.066017 0.165850 -0.097613 0.570177 0.168468 0.043200 0.287661 0.088541 0.041865 -0.144296 0.061447 -0.031822 -0.111804 -0.119717 0.083905 -0.229353 -0.059977 -0.167271 0.005297 -0.187206 -0.074275 -0.124328 -0.123206 -0.049132 -0.049308 0.068826 0.176897 -0.235344 0.167849 -0.138183 -0.095079 -0.167338 -0.021603 -0.081927 -0.074417 0.067628 -0.060552 0.004599 -0.059984 -0.195123 0.152191 0.166391 -0.066398 -0.080875 0.011295 -0.076670 -0.023299 0.236046 0.024539 0.034399 0.085042 0.073155 0.071946 0.008960 0.213930 0.195543 0.220155 -0.010161 0.162818 0.343229 0.113204 -0.077772 0.167774 0.043778 0.307920 0.089278 0.088331 0.015420 0.188884 0.049402 0.156740 -0.347563 -0.005685 0.122735 -0.073279 -0.064549 -0.026216 0.012180 -0.033140 -0.136293 -0.159110 0.003031 -0.032385 -0.066269 -0.098683 -0.042375 -0.036782 -0.036712 -0.033682 -0.033703 -0.196265 -0.028755 0.075706 0.137798 0.080690 -0.114581 0.078880 -0.021771 0.024233 -0.024623 0.051039 -0.128410 -0.136946 0.037871 -0.042407 -0.065365 -0.168943 -0.070279 -0.143453 -0.028926 0.085777 -0.008390 -0.080660 0.032231 0.189507 0.035475 -0.145653 -0.086258 0.056755 0.035759 -0.052136 0.121110 0.022096 0.057472 -0.096764 0.066253 0.020585 -0.085776 0.020216 -0.084487 0.085379 -0.296144 -0.199918 -0.084450 -0.223320 0.018179 -0.220945 0.101346 -0.081071 -0.014141 -0.028997 0.112311 0.144808 0.117127 0.197657 -0.027716 -0.026486 0.034402 0.081226 -0.083242 -0.062450 0.003275 -0.052095 -0.092367 0.052295 0.136202 -0.059268 0.048281 -0.147897 -0.055424 -0.017316 -0.015512 -0.076566 0.134840 0.166645 -0.057082 -0.089793 -0.106323 -0.085721 0.015787 -0.086625 -0.231832 -0.093913 0.063093 -0.128389 0.048250 0.006520 -0.165185 -0.158311 -0.033359 -0.014605 -0.106878 -0.085818 -0.109647 -0.064548 0.020602 -0.117293 -0.006056 0.023763 -0.010084 -0.236818 0.139011 -0.110716 0.107568 -0.016165 0.050615 -0.046765 -0.178779 -0.150476 -0.024392 0.013213 0.139728 0.104111 -0.078206 -0.084766 -0.015462 -0.072216
0.116669 -0.064863 0.155710 -0.050534 -0.032328 -0.066794 -0.006332 0.113567 0.079933 0.046144 -0.036230 -0.049582 -0.006996 -0.044639 0.051379 -0.154565 0.051786 0.016849 0.188130 0.152248 -0.026471 0.069930 -0.050912 0.037213 0.025320 0.053216 0.069106 0.174468 -0.075993 -0.090999 -0.019330 -0.038333 -0.118775 0.001459 -0.012667 0.162350 -0.064415 0.038053 0.070274 -0.176763 0.101043 -0.034900 0.073448 -0.116140 -0.108831 0.032508 0.033366 -0.132150 0.044565 0.064010 0.029688 0.003911 0.021921 -0.053395 0.001639 0.027731 -0.134505 0.183163 0.042098 0.025744 0.020898 -0.056484 -0.037789 0.015282 -0.117217 0.039186 0.054786 0.038770 0.056333 0.156822 0.059748 0.006182 -0.024082 0.068083 -0.043598 -0.097084 0.054994 -0.017919 0.058043 -0.111436 0.028044 0.033109 -0.143392 0.066472 0.097618 -0.043962 -0.017241 0.025433 0.042032 -0.009296 0.075293 -0.040572 0.135040 -0.253388 0.117993 0.034495 -0.027076 0.005448 0.010262 0.012766 0.075596 -0.053945 0.008257 0.132100 0.147886 -0.162700 -0.084176 -0.025819 0.144875 0.014963 -0.067717 0.099376 0.155688 0.057208 -0.117808 -0.080546 -0.080718 -0.171407 -0.061172 -0.079743 -0.061421 0.010738 0.002403 0.067396 -0.116961 -0.039917 0.036823 0.139703 -0.016882 -0.034094 0.064337 0.073340 0.062038 -0.161677 0.105834 -0.216303 0.416264 0.016658 0.080839 -0.159420 0.359346 0.233891 0.093752 -0.158431 0.085355 -0.076769 0.023999 -0.127879 0.072713 0.015344 0.105399 -0.027718 0.193488 0.110711 0.061324 -0.051634 -0.120464 0.213653 -0.053945 0.010446 0.082481 -0.085602 -0.016183 -0.022318 -0.013222 0.194848 -0.032509 0.104710 0.112443 -0.025600 0.049684 -0.054231 -0.118867 0.057456 -0.115373 0.091158 0.005267 -0.092163 -0.098043 0.056023 -0.094342 -0.060421 -0.112700 -0.045945 -0.143877 -0.181461 0.063958 0.058294 0.054287 -0.081211 0.017996 -0.306378 -0.060765 -0.184135 -0.073508 -0.248805 -0.305426 -0.279262 -0.089100 -0.428927 -0.166953 -0.367355 -0.212891 -0.390652 -0.141874 -0.007098 -0.232775 -0.225446 -0.115046 0.063439 -0.101994 -0.109597 0.046151 -0.133600 0.045427 -0.188869 -0.025692 -0.119932 -0.128685 -0.089567 0.197856 -0.048938 0.143915 -0.018546 -0.004244 0.007111 -0.030896 0.025271 0.034720 0.003457 0.126148 0.007625 0.012216 -0.092541 0.086804 -0.070964 -0.013232 -0.063981 0.088207 -0.003606 -0.151190 -0.168011 -0.003317 0.083098 -0.050853 -0.138105 0.171601 -0.151219 -0.159496 0.011215 -0.117499 -0.372322 0.068980 0.157895 -0.070912 -0.271881 -0.145613 0.067440 -0.112531 -0.248263 -0.344885 -0.125989 -0.107702 -0.303160 -0.202235 -0.270195 -0.063072 -0.089717 -0.082633 -0.237057 0.021007 -0.083613 -0.174119 -0.002679 -0.184488 -0.024908 0.083757 0.058117 -0.158756 0.125517 0.138616 0.053366 -0.003111 -0.071116 -0.059243 -0.137158 -0.002448 0.070644 -0.111070 -0.115033 0.111463 -0.053561 -0.048566 -0.041416 0.047979 -0.062514 -0.102772 -0.344686 -0.039882 0.040095 -0.158419 0.103874 -0.041708 -0.138957 0.143503 0.074206 0.101500 -0.237804 0.434568 0.869466 -0.120425 -0.058392 -0.226561 0.108953 -0.029218 -0.321227 -0.204540 -0.109248 0.004173 -0.267617 -0.071052 -0.263090 0.112468 -0.103699 -0.195757 -0.174170 -0.015664 -0.051384 -0.212768 -0.086395 -0.086577 -0.104091 -0.110672 -0.007526 -0.055058 0.034103 0.094587 0.046203 0.000401 -0.063312 -0.038720 -0.070646 0.041620 0.079713 -0.147644 -0.036724 -0.116216 -0.108421 -0.094434 -0.159508 0.015000 0.003283 -0.301212 -0.140763 -0.037603 -0.046319 -0.181556 -0.436530 0.001584 -0.067120 0.481244 0.429415 -0.046402 -0.020615 0.510824 0.787521 -0.119475 -0.032052 -0.210261 0.113173 0.029197 -0.082788 -0.191561 -0.238632 0.013242 -0.035671 -0.211653 -0.154814 0.003170 -0.217543 0.004704 0.058556 0.090449 -0.008675 0.009799 -0.064239 0.005818 0.186205 0.031591 -0.065745 -0.072333 -0.052062 -0.160650 -0.098762 0.106892 0.089906 -0.164037 0.001642 0.184913 0.003292 -0.030777 0.024361 0.028055 -0.017368 0.053192 -0.158802 0.095809 -0.000771 -0.435199 -0.299454 -0.095278 0.174089 -0.078956 -0.293065 0.103189 -0.280909 0.617379 0.452609 -0.055895 -0.228664 0.447360 0.738777 0.048630 -0.049633 -0.309925 -0.145229 -0.109109 -0.316096 -0.276445 -0.337880 -0.092313 -0.134362 -0.047804 -0.195931 -0.120950 -0.112206 -0.046606 -0.170462 0.059789 -0.051272 0.052416 0.061461 -0.101406 0.104685 0.111966 0.054165 -0.032334 0.053066 -0.075173 -0.013025 0.085521 0.104212 -0.053939 0.110069 -0.113132 -0.090018 -0.018761 -0.036574 -0.024332 0.012270 -0.092471 -0.171284 -0.045333 -0.039446 -0.030517 -0.133245 -0.044955 -0.086598 -0.133423 0.036242 -0.091788 -0.332169 0.809425 0.167888 -0.017983 -0.093691 0.252104 0.479245 -0.318154 -0.008951 -0.576324 -0.426926 -0.186292 -0.190638 -0.236244 -0.309757 0.048890 -0.234415 0.061945 -0.187347 0.151256 0.068522 0.074269 -0.027318 -0.148011 -0.195240 -0.014423 -0.042828 -0.003547 -0.111989 -0.039601 0.089142 -0.083642 0.162045 0.099671 -0.072182 0.010859 -0.055661 0.004282 -0.067308 0.010651 0.085406 -0.135110 -0.205741 -0.192848 -0.000353 -0.213691 -0.136633 -0.024618 -0.073201 -0.155147 -0.113637 -0.030318 -0.308327 -0.126745 0.102087 -0.100068 -0.183622 0.467869 0.285460 -0.099964 -0.096420 -0.184632 -0.066670 -0.130886 -0.141598 -0.458585 -0.070145 0.019376 -0.215086 -0.104889 0.089508 -0.079832 -0.023983 -0.024241 0.073757 0.084024 0.140450 -0.004076 -0.046643 0.059126 0.060099 0.073965 -0.084136 -0.045695 0.049260 -0.136727 0.182901 0.005324 -0.161741 0.043627 -0.037766 -0.016783 0.207118 -0.047031 0.071266 -0.040982 0.016496 0.110415 0.075645 0.119020 -0.111337 -0.043758 0.141588 -0.032997 -0.190582 -0.049429 0.278342 -0.066802 -0.114718 0.137282 0.074362 -0.042623 -0.107321 0.035655 -0.196554 0.045624 -0.112167 -0.113483 -0.262146 0.109125 0.141334 0.090163 0.102572 0.089738 0.201470 0.037421 0.275970 0.115083 0.151341 -0.008895 0.040097 0.100182 0.121603 -0.073820 -0.091494 -0.034535 0.036812 0.153405 0.129609 0.067325 0.075562 -0.035733 0.022320 -0.005037 0.136402 0.110827 0.011513 0.097227 -0.043916 0.127680 -0.041463 -0.048191 -0.095655 0.229383 0.258392 0.101784 -0.005838 0.104040 0.046173 0.036144 0.055763 0.139487 0.030264 -0.109065 0.090101 -0.128478 -0.292035 0.075397 -0.207415 -0.014639 -0.215364 0.132437 -0.008521 0.198030 0.006958 0.015450 0.165128 0.265370 -0.105845 -0.047182 0.379991 0.184849 0.045093 -0.064553 0.108939 -0.045762 -0.000391 0.006139 0.196171 -0.060487 -0.123175 -0.078098 -0.072719 0.098709 -0.074799 -0.098944 -0.067167 0.074492 -0.001920 0.013206 -0.004868 -0.062002 0.141836 -0.016247 -0.099004 -0.014974 0.068741 0.156882 0.153709 -0.068549 -0.043596 -0.113425 0.150452 -0.027320 0.026203 0.124737 0.169875 -0.170396 -0.150520 -0.084774 0.030511 -0.019581 -0.360719 0.037064 0.038079 -0.116127 -0.220958 0.057424 0.118875 -0.072459 -0.107952 -0.011667 0.265957 0.129978 -0.077402 0.104388 0.267519 0.101176 0.041119 0.036609 0.025806 -0.029247 0.038835 -0.048014 0.050144 0.063550 -0.108446 0.055245 0.041909 -0.129663 -0.002871 -0.137557 -0.037296 -0.046233 0.097498 0.041726 -0.099080 0.074415 -0.051418 0.025412 -0.173778 0.083014 0.112448 0.060660 0.021350 0.154452 0.051926 -0.007470 0.033115 0.032947 0.128571 -0.082243 -0.086726 0.009341 -0.061122 -0.128044 -0.202808 -0.238506 -0.061124 -0.091498 -0.011297 -0.256444 -0.126665 -0.061459 -0.191260 0.022936 -0.054514 -0.056717 -0.018171 -0.180149 0.066072 -0.121869 -0.107620 -0.038829 0.110652 -0.037811 -0.068291 0.104965 -0.047791 0.001237 -0.032455 0.035819 -0.037316 -0.161920 -0.023775 0.060983 0.109845 -0.033340 0.129532 0.042496 -0.194187 0.064842 0.027206
0.000174 0.191849 -0.120406 0.146259 0.007903 0.101954 0.006962 0.087501 -0.041431 -0.004243 0.071271 -0.028180 0.058755 -0.131981 -0.049850 -0.048334 -0.092253 0.098549 -0.143761 0.151569 -0.123307 -0.042558 0.050845 0.136995 -0.191721 0.026011 0.118766 -0.063223 0.107451 0.102947 -0.069019 -0.008416 0.177989 -0.037949 0.007495 0.100644 0.014029 0.157100 0.169396 0.015109 0.166167 0.023898 0.055360 0.028930 0.026712 -0.056166 0.063521 0.014082 -0.013281 0.033904 0.115080 0.007740 0.043760 -0.147862 -0.078915 -0.023662 0.147206 0.060403 -0.123341 0.105600 0.005911 0.042855 -0.050598 -0.118552 -0.060228 0.116377 -0.189761 0.021301 0.082474 -0.054716 -0.001199 0.023623 0.028230 0.099058 -0.091563 -0.096509 0.059475 0.211916 -0.087270 -0.002102 0.137182 -0.061428 0.102923 0.108846 0.023563 -0.065490 -0.131081 0.057588 -0.098541 0.048734 0.102327 -0.041035 -0.050225 -0.101602 -0.050907 0.009014 -0.155747 -0.170290 0.042207 -0.028715 -0.091400 0.079858 0.063068 -0.114762 0.094664 -0.152112 -0.098191 -0.108681 0.077549 -0.021092 0.000239 -0.062745 -0.101739 0.062044 0.018138 0.126499 -0.137624 0.062545 -0.031870 -0.089133 0.067827 0.091767 -0.207348 0.202336 0.011491 0.105423 0.046784 0.046907 0.243379 0.229672 -0.128691 0.273643 0.354944 0.138874 -0.022330 0.368754 0.235311 0.110324 -0.000092 0.221798 0.307572 0.060531 0.058834 0.186497 0.130132 0.117268 0.173541 0.066443 -0.056736 0.070058 0.115254 -0.123241 0.033290 -0.177540 0.089975 0.144088 -0.201109 -0.075856 0.011317 -0.027304 -0.013519 0.033918 -0.029582 -0.087996 0.105697 -0.063332 -0.122697 0.148575 -0.135785 0.085560 0.073288 -0.105556 0.114294 -0.194325 0.010817 0.139371 -0.110191 0.002501 0.068816 0.011491 -0.046280 0.001507 0.023977 0.163650 0.030869 -0.042373 -0.092056 0.114397 -0.054747 0.043357 0.019564 0.200312 0.184659 0.088687 0.231693 0.237077 0.204655 -0.107315 0.084439 0.139155 0.342833 0.049165 0.103191 0.115417 0.303545 -0.346629 0.228341 0.148150 0.161925 -0.193689 0.087221 -0.146704 -0.108754 -0.004652 0.050495 -0.283568 0.044291 0.022579 -0.073251 0.072066 0.022211 0.019157 -0.075050 -0.092417 -0.045474 -0.006707 -0.088882 -0.104343 -0.112352 0.016720 0.079212 0.116209 0.087073 0.091025 -0.155207 0.169838 -0.054990 -0.038192 -0.085029 0.245102 -0.021282 -0.094775 -0.172625 0.308238 0.006251 0.094846 0.039809 0.294027 0.182208 -0.003030 0.124052 0.198534 0.298914 0.004099 0.131846 0.117768 0.384120 -0.066428 0.240242 0.054196 0.133012 0.030489 0.162588 -0.239650 0.262532 -0.006036 0.039105 -0.170668 -0.089299 -0.092792 -0.014045 -0.046489 -0.159504 0.032387 0.170706 -0.225962 -0.104179 -0.091151 0.017485 0.099128 -0.053983 0.022113 -0.099797 -0.194285 0.100855 -0.017220 -0.048146 -0.145076 0.051873 -0.113421 -0.009246 0.050024 -0.243855 -0.409046 -0.056073 0.125402 -0.110478 -0.384018 -0.178069 0.135214 -0.295589 -0.306495 0.044718 0.290621 -0.286812 -0.606990 0.055789 0.348660 0.163905 -0.274467 -0.028512 0.115098 0.134989 -0.196463 0.055982 0.105168 0.270985 -0.116712 -0.020432 -0.272631 0.087173 0.097225 -0.070468 -0.152792 -0.006564 -0.006553 0.011492 -0.080015 0.038869 -0.115451 0.043612 0.097562 -0.080588 -0.041354 0.005881 0.036299 0.065089 0.028988 -0.116113 -0.109709 0.021221 -0.204116 -0.094870 -0.002845 -0.316860 -0.303507 -0.031039 0.202916 -0.519682 -0.575683 -0.105573 0.420890 -0.642035 -0.275601 -0.240037 0.490562 -0.655262 -0.381414 -0.063866 0.192276 -0.519907 -0.109511 0.050275 0.214708 -0.359837 -0.348905 -0.169394 -0.126115 -0.002852 -0.178584 -0.061199 -0.119438 0.060137 0.035500 -0.268581 -0.361294 -0.130755 -0.035610 -0.181416 -0.275837 -0.238058 -0.029895 -0.111868 -0.073330 -0.075487 0.093962 -0.152697 -0.003568 0.135702 0.060821 -0.098716 -0.087620 0.002176 0.000148 -0.091998 0.158294 -0.102576 0.026161 0.118335 -0.154578 -0.377679 0.019784 -0.015284 -0.053024 -0.506124 0.147183 -0.071740 0.130260 -0.309477 0.287726 -0.121865 0.166243 -0.241039 0.342100 -0.260816 0.156017 -0.088358 0.406670 0.025639 0.015628 -0.045817 0.185666 -0.023433 -0.169187 -0.257077 -0.033610 -0.190605 -0.213027 -0.128043 0.192544 -0.289535 -0.201464 -0.205311 0.004659 -0.146609 -0.021078 0.014292 0.038899 -0.129520 0.253040 0.019954 0.250368 -0.014671 0.158287 0.002568 0.075836 0.013305 -0.127134 0.046066 -0.150068 0.023629 -0.064029 0.189783 0.011395 0.191768 -0.080808 0.096344 0.195779 0.015013 -0.044234 -0.099892 0.356570 -0.063097 -0.012542 -0.080011 0.223371 -0.188753 -0.220372 0.177158 0.393591 -0.043418 -0.067694 -0.032640 0.466985 0.059631 0.041401 -0.039443 0.139137 -0.102390 0.021053 -0.020980 0.060081 -0.148464 -0.185809 -0.333741 0.000872 -0.199287 0.181461 0.040954 -0.129491 -0.079627 0.267893 0.198601 -0.150612 -0.265471 0.441986 0.366323 0.196899 -0.064867 0.289988 0.108759 0.043836 0.123662 -0.013199 0.087111 -0.079117 -0.071234 0.117320 0.244645 0.161317 0.015436 0.093208 0.117938 0.240718 0.031391 0.061835 0.302444 0.261237 0.133791 -0.088264 -0.048083 0.314396 -0.095125 -0.136369 0.130266 0.247949 -0.147557 -0.201461 0.062830 0.191195 0.006650 0.138177 -0.214984 0.023422 -0.124141 0.023951 -0.184901 0.074312 0.026996 0.140916 0.020836 -0.164508 -0.060934 0.291909 0.112115 -0.210041 -0.105839 0.571548 0.392791 0.022021 0.089874 0.609866 0.194120 0.270739 0.113035 0.247329 -0.057699 0.022658 0.069628 -0.014142 -0.131530 -0.007674 0.077534 -0.032380 0.131174 0.276847 0.065516 -0.090004 0.151206 0.155360 0.184092 -0.078566 0.162434 0.089305 -0.068920 -0.044966 0.155139 0.272331 0.103019 -0.156288 0.165689 0.152813 0.059812 0.028778 -0.239383 0.187608 0.105050 0.044714 0.075553 0.139955 0.118481 0.196397 0.032128 0.226059 0.096918 0.325759 0.178415 0.205644 0.229658 0.554884 0.212607 0.006461 -0.016147 0.530327 0.485829 0.084543 -0.057592 0.330828 0.151120 0.199225 0.024664 -0.028330 -0.121449 0.025311 -0.113977 0.138576 -0.090468 -0.156342 -0.115539 -0.065662 0.135790 0.052126 -0.027236 0.043406 0.186970 -0.027477 -0.076375 0.023811 0.098313 0.107943 0.075290 -0.047512 0.211053 0.113896 0.111179 -0.122313 -0.003766 -0.055960 -0.062360 -0.118635 -0.122165 0.139021 0.043619 -0.181756 -0.008904 -0.067026 0.113905 -0.004191 0.210877 0.142190 0.014313 0.232517 0.204187 0.013380 0.176141 0.354350 0.226217 -0.023448 0.019597 0.293418 0.166863 0.128092 -0.132374 0.310167 -0.067969 0.044123 0.140194 -0.015087 0.143092 -0.020674 -0.050167 0.132135 -0.030677 -0.081017 0.044597 0.072990 -0.006990 -0.064411 0.007243 0.087705 -0.208528 -0.015969 0.032825 -0.121775 -0.234182 -0.030009 0.025683 0.076588 -0.252679 -0.325887 0.152893 0.062607 -0.180399 -0.161654 -0.056483 0.008009 -0.185978 -0.063315 -0.076377 -0.009785 -0.153324 0.060353 0.056849 0.048764 0.019170 0.005859 0.174359 0.011598 0.114187 -0.089483 0.116838 0.223708 0.002680 -0.044627 -0.011336 0.082748 0.101010 0.091601 -0.042506 -0.045720 -0.046421 -0.172275 0.046809 0.110874 -0.001705 -0.080671 -0.042195 -0.091377 -0.116196 -0.026732 0.079594 -0.119047 -0.127975 0.025314 -0.017295 0.008912 -0.074273 -0.148653 0.055307 -0.245514 0.004496 -0.093157 -0.043442 0.038264 0.013082 -0.088873 -0.107339 -0.108564 0.018491 -0.083410 0.050991 -0.138589 -0.080966 0.070497 0.028831 -0.067950 -0.037029 -0.031344 0.043444 0.023437 0.111723 -0.127899 0.144397 0.065340 -0.000359 -0.015295 0.040285 -0.216440 0.084506 0.082246 -0.091575 0.048409 -0.097917 0.037797 -0.046580 -0.043607 -0.048181 0.134991 0.055025 0.056374 0.012200 0.147392 -0.022802 0.035546
-0.070038 0.054334 0.005812 0.190856 0.031776 -0.069057 -0.052654 -0.154354 -0.188666 -0.033994 -0.128086 0.005967 -0.027242 0.013735 0.188405 0.065580 -0.052878 -0.078609 0.068971 -0.021064 -0.031877 -0.126182 0.053854 0.001683 -0.183767 -0.095516 -0.052678 -0.115966 -0.021451 -0.111508 -0.057262 -0.122748 0.060844 0.086550 0.042517 0.028443 -0.108255 -0.160312 -0.031639 0.101718 0.070812 0.115151 -0.199456 -0.040238 0.000853 0.016134 -0.095254 0.172367 -0.064723 -0.029917 0.004218 -0.087033 0.002477 0.163129 0.091414 -0.070129 0.049433 0.151252 0.070823 0.159360 0.197270 -0.065832 0.092767 0.072975 0.063895 0.095097 0.143456 0.046537 0.035783 -0.118566 -0.139867 -0.140660 0.002253 0.236380 -0.084743 0.094306 0.098422 0.107281 0.026690 -0.043310 0.010178 0.010389 -0.049696 0.038457 -0.012220 0.261649 -0.029490 -0.025597 -0.046966 0.136428 0.171554 -0.197299 0.006318 0.063328 -0.017589 -0.109466 -0.010447 0.158735 -0.102562 -0.040191 0.053067 -0.061268 0.084372 -0.086387 -0.117113 -0.171966 -0.114400 0.030810 0.015348 -0.054762 0.020209 0.005312 -0.128882 0.096389 0.064899 -0.085544 0.075913 -0.095740 0.122612 0.045569 0.131666 0.152350 0.078127 -0.077167 0.099238 0.020191 -0.085025 0.024918 0.218395 0.156540 0.037850 0.104093 0.217198 -0.085320 0.175500 0.333684 0.347743 0.002860 -0.086244 0.087976 0.346037 0.100505 0.149233 0.333801 -0.045771 0.122796 0.040833 -0.082863 -0.008303 0.123634 0.178761 -0.096153 -0.163453 -0.202562 0.166306 -0.072102 -0.126247 -0.052377 -0.095656 -0.026350 0.149438 -0.029521 -0.059369 0.003188 -0.085862 -0.089336 0.039600 -0.056363 0.051328 0.119646 0.096542 -0.060284 0.080298 0.099321 -0.156783 0.097029 0.229401 0.238374 -0.075676 0.244031 0.157192 0.116985 -0.158608 0.110259 0.064359 0.050892 -0.137774 0.395230 0.061708 0.203004 -0.017020 0.426347 0.084620 0.075841 0.149245 0.200733 0.214808 0.235991 0.155190 0.020908 -0.023354 0.148417 0.257957 -0.199279 0.188934 0.020713 0.220811 -0.077980 -0.150239 0.133332 -0.023680 -0.219629 -0.234222 0.010304 0.028218 -0.233434 -0.100384 -0.190558 -0.044273 -0.165706 0.110908 0.060317 0.007223 -0.120383 0.107366 -0.020102 0.019137 -0.050404 0.127369 -0.020455 0.100507 -0.082578 0.184575 0.244355 0.140367 0.181349 -0.111028 0.161159 -0.038025 0.310305 -0.031507 -0.210100 -0.281464 0.319643 -0.113938 -0.015287 -0.110601 0.360645 -0.019455 0.149859 -0.063046 0.279567 -0.037167 0.298282 0.007454 0.211548 -0.012350 0.364855 -0.011702 -0.087395 -0.068589 0.297165 -0.172066 -0.233107 0.123961 0.342445 -0.008221 -0.549380 -0.315970 -0.052978 -0.154133 -0.179575 -0.055346 -0.167798 -0.177624 -0.081677 0.156046 -0.003981 -0.090489 -0.188011 -0.012573 0.033571 -0.085064 -0.072050 -0.038487 -0.080729 0.038286 0.134221 -0.041787 0.131432 0.105537 0.170241 -0.226298 -0.360975 -0.142889 0.425236 -0.503528 -0.240017 -0.027320 0.358674 -0.601831 -0.260644 -0.155323 0.324389 -0.357018 0.136377 -0.211202 0.279405 -0.149528 0.328505 -0.254573 -0.011703 -0.167502 0.336312 -0.045876 0.023977 -0.071562 0.282492 -0.137409 -0.247533 -0.081710 0.125994 -0.149440 -0.109570 -0.131107 -0.125696 -0.126193 -0.178356 0.123093 -0.259222 -0.000985 -0.126065 -0.041246 -0.133171 0.036097 -0.147695 -0.057993 0.061042 -0.084782 -0.071862 -0.135740 0.014984 0.043087 -0.016770 -0.088523 -0.184685 0.016244 0.078263 -0.215510 -0.510539 -0.055962 0.060157 -0.229010 -0.352683 -0.292744 0.109815 -0.122163 -0.063283 -0.294532 0.165367 0.077228 0.197254 -0.106984 0.306210 -0.069107 0.355561 -0.006210 0.208864 0.009248 0.150811 0.092314 0.276131 -0.192173 -0.050964 0.105403 0.246899 -0.112921 -0.338863 0.168042 0.135310 -0.183214 -0.213357 0.049693 -0.162212 -0.018435 -0.141823 0.041921 -0.045978 -0.006461 0.133213 -0.075375 0.034975 -0.043899 0.087308 -0.038095 -0.078314 0.108901 0.083448 0.050425 -0.044477 -0.240386 0.006426 0.030200 -0.094614 -0.316351 -0.428121 -0.194121 0.034787 -0.080481 -0.448170 0.054280 0.025547 0.080062 -0.521436 -0.171882 0.038740 0.194838 -0.150569 0.000183 0.284258 -0.069380 -0.083018 0.048688 0.285951 -0.060009 -0.182133 0.104264 0.284072 0.000051 -0.149790 0.233173 0.179243 -0.189557 -0.187890 0.247683 -0.084511 -0.176403 -0.108717 -0.003012 -0.121125 -0.179098 -0.026371 -0.115872 0.078470 -0.015203 0.074445 0.017800 0.073885 0.047209 0.021575 -0.054378 0.126195 0.068772 0.204179 0.195723 0.064013 -0.147727 0.094055 -0.128045 -0.064629 -0.241586 -0.245509 -0.035956 0.140572 -0.175093 -0.569108 0.037612 0.256606 -0.079741 -0.656907 0.010562 0.140728 0.038527 -0.383681 0.058293 0.332493 -0.097491 -0.461355 0.167963 0.294347 0.077101 -0.147596 -0.000073 0.184099 0.250203 -0.055582 0.014944 -0.002692 0.101234 0.026218 0.105387 -0.164507 -0.039430 0.222451 0.165871 0.061011 0.026114 -0.009118 -0.126443 -0.196200 -0.034452 -0.118077 0.096193 0.069011 0.076942 -0.056707 -0.035316 -0.091038 0.142857 0.155652 0.127003 0.187290 0.052465 0.114434 0.180212 0.005486 -0.222319 -0.094973 0.054985 0.145593 -0.284088 -0.258884 0.042429 0.286790 -0.304650 -0.343427 -0.007015 0.382435 -0.456234 -0.288378 0.050187 0.408954 -0.178070 -0.083159 0.120026 0.262508 0.175781 0.344256 0.008933 0.024195 0.088635 0.391276 0.079359 -0.196923 0.098323 0.211317 0.234641 -0.244079 0.163012 0.049302 -0.019843 -0.048287 -0.148092 -0.029542 0.189151 -0.016007 0.018626 0.079374 -0.114431 0.019613 0.087263 -0.018498 -0.008651 0.042664 0.172745 0.091171 0.161180 0.087369 0.285829 0.203325 0.060322 0.104105 0.199042 0.090087 0.094756 0.277684 0.081955 -0.062772 0.065723 0.311117 -0.190557 -0.182776 -0.173419 0.130770 -0.252377 -0.017317 0.092369 0.249107 -0.035186 0.016268 0.100841 0.166694 -0.040358 0.109741 0.001782 0.074149 -0.047851 0.168618 0.034247 -0.345080 0.073044 0.127150 0.091238 -0.183253 0.000202 0.066215 0.072500 -0.011543 0.063323 0.022523 0.070903 -0.061876 0.015474 0.018994 -0.134465 -0.097884 0.154895 0.062111 0.118765 0.070661 0.172456 0.062953 0.088251 0.141924 0.073418 0.094494 0.020067 0.002493 0.099757 0.202218 -0.021965 0.087648 0.085989 0.004891 -0.079821 0.075644 -0.003796 0.065957 -0.118376 0.174964 -0.191988 -0.014285 0.039330 0.198355 -0.080170 0.219494 -0.106934 -0.049156 -0.043877 0.217990 -0.073039 -0.203267 -0.067064 0.241469 0.030788 -0.191119 -0.212602 0.018425 -0.085346 -0.185311 -0.311615 -0.066602 0.139263 -0.083565 0.112290 -0.010975 0.029753 0.042069 0.080104 -0.027757 -0.151803 0.029876 -0.010933 -0.099829 0.019686 0.065049 0.115161 -0.095648 0.112265 0.118506 0.439912 0.085827 0.012701 0.084402 0.323562 0.115590 0.198989 0.037130 0.173506 0.251099 0.022497 0.011257 0.158114 0.197566 0.031258 0.045154 0.020630 0.203406 -0.076319 -0.016523 0.040568 0.145877 -0.163973 -0.180762 0.070918 0.098099 -0.014716 -0.029676 -0.069031 0.088898 -0.044294 -0.114349 -0.118674 -0.086827 -0.151190 0.009567 -0.034235 0.133851 0.011091 -0.023627 -0.020785 -0.032985 -0.139041 0.096238 -0.035178 0.063930 -0.015798 0.096119 -0.104242 0.078909 -0.083617 0.076318 0.064312 -0.057352 0.042850 0.104808 -0.030716 -0.096953 -0.031271 0.123151 0.125439 -0.039005 -0.057378 0.063026 0.086008 0.181166 0.050027 0.083334 0.202772 0.072361 0.142564 0.246406 0.038485 0.125514 -0.031806 0.024640 0.002209 0.120312 -0.062584 0.171954 -0.079140 -0.104959 0.089329 -0.061444 0.017847 -0.030035 -0.057908 0.047175 0.047642 -0.045066 0.051699 -0.129397 -0.047780 0.085505 -0.014414 -0.112970 -0.078176 -0.087728 0.090377 0.056082 0.098513 -0.117102 -0.048466 0.169470
0.073007 -0.049142 0.075084 -0.081694 0.171972 -0.132900 -0.003727 -0.078739 -0.040833 0.123168 -0.132884 0.026889 -0.098407 -0.008843 -0.091092 -0.112086 0.048047 0.125570 0.090857 0.015656 0.033121 0.120576 -0.170132 0.063895 -0.014200 -0.139819 0.061765 0.040643 -0.108220 -0.056183 0.007019 -0.063530 0.009049 -0.010893 -0.063956 -0.053806 -0.000508 -0.110481 -0.102940 0.089324 -0.066503 -0.004044 0.094665 -0.083958 -0.004817 -0.038569 -0.176357 0.108480 -0.005944 0.140647 -0.037791 0.036625 0.079396 -0.088912 -0.031359 0.058779 0.031164 -0.172205 0.089524 0.085021 0.154872 -0.088720 0.031169 0.044905 -0.030759 -0.112286 -0.015788 0.022802 0.013758 -0.137194 -0.013707 0.081086 0.039360 -0.123350 -0.191513 0.049697 -0.228583 -0.188412 -0.179061 0.108446 -0.090995 -0.239392 0.149246 -0.110932 -0.155410 -0.151805 0.161379 0.026931 -0.082390 -0.074441 0.053962 0.168006 0.071450 -0.123017 -0.083181 0.054068 -0.014238 -0.016085 -0.088394 -0.194800 -0.016178 -0.057173 -0.027948 0.180221 -0.061143 0.004674 0.059920 0.153456 -0.001336 -0.085232 0.023169 0.054994 -0.003893 -0.005007 0.008020 -0.049623 -0.067612 0.095513 0.064834 -0.018003 -0.099669 0.045970 -0.109788 0.192722 0.019148 0.063513 -0.037575 -0.107765 -0.205382 -0.085444 0.029761 0.022923 -0.171604 -0.163348 -0.048493 -0.001026 0.124537 -0.368822 0.108187 -0.180013 0.104130 -0.122724 0.161759 -0.220474 0.061910 -0.027347 0.140778 -0.091047 0.245199 0.116346 0.046481 0.028701 -0.061338 0.272326 0.043435 -0.090377 0.300730 0.234822 0.074949 -0.005566 0.005564 0.068535 -0.062372 -0.064911 -0.029775 -0.010112 -0.163754 0.033397 0.003117 -0.032146 -0.033908 -0.036945 0.099595 0.027303 -0.102538 -0.064481 -0.032326 0.035361 -0.027772 -0.204754 0.148014 0.069413 0.103881 0.095429 0.138267 0.013415 0.099821 -0.156479 0.205023 -0.218693 -0.001621 -0.170082 0.072988 -0.320829 0.086034 -0.516058 0.056884 -0.442682 -0.002929 -0.539338 -0.028774 -0.253503 -0.208519 -0.442774 -0.002765 -0.066918 -0.131135 -0.327622 0.220152 0.156200 0.056883 -0.047472 0.304243 0.459847 0.071976 0.135448 0.029300 0.263023 -0.066423 -0.038774 0.056952 -0.021911 0.080852 -0.013248 -0.168937 -0.166213 -0.068492 0.088661 0.074969 0.145096 -0.056612 0.039524 0.134955 -0.069449 0.174051 -0.035907 0.099985 -0.061595 0.037480 -0.006737 0.120774 -0.066623 0.118182 -0.290602 0.093695 -0.087395 0.128059 -0.412923 -0.277563 -0.337458 -0.193157 -0.506900 -0.108923 -0.492198 -0.261866 -0.663838 0.082808 -0.120821 -0.125262 -0.723337 0.096896 -0.028761 -0.162840 -0.297859 0.007118 -0.026500 -0.184999 -0.176133 0.048011 0.060100 -0.077129 -0.087585 -0.031943 -0.012294 -0.054770 -0.016356 -0.119619 -0.024599 -0.149246 -0.071013 -0.034423 0.094327 -0.105035 0.070479 -0.051419 0.046976 -0.123085 -0.170919 -0.118670 0.028420 0.021982 -0.044878 0.113002 0.005166 0.152512 -0.168771 0.137108 0.206665 0.066441 -0.076729 0.119035 0.329608 0.077561 -0.263706 -0.327695 -0.155186 -0.129085 -0.458085 0.148797 -0.617135 -0.113506 -0.441415 0.431310 0.077237 -0.125677 -0.515931 0.114555 -0.118142 -0.019236 -0.219814 -0.207448 0.074210 -0.180809 -0.151330 -0.233306 -0.137719 -0.165744 -0.034897 -0.049950 -0.077087 -0.004981 -0.196928 -0.015913 -0.147378 -0.077274 0.101201 0.003261 -0.100331 -0.069055 -0.082658 -0.286669 0.031524 0.065237 -0.087511 0.096650 0.056968 -0.017093 -0.154735 0.074698 0.452314 0.031446 -0.183859 0.276011 0.439050 0.125958 -0.211533 0.328268 0.499465 0.132670 0.055052 -0.193410 -0.026011 0.047576 -0.328396 0.142350 -0.300424 0.037308 -0.388747 0.376037 0.367269 -0.006650 -0.306526 0.101617 0.142187 -0.004853 -0.086735 -0.078800 0.115054 -0.112868 -0.162028 -0.192194 -0.082199 -0.077689 -0.028267 0.031615 0.021451 -0.058834 -0.135552 0.093943 0.036268 0.054172 0.034125 0.127541 -0.100699 0.159634 -0.096642 0.067521 -0.061907 -0.140151 -0.107649 0.201696 0.251026 0.095061 0.139272 0.296202 0.354638 0.125767 0.105861 0.156083 0.324083 0.058886 0.063719 0.374267 0.328957 0.187660 0.355307 -0.083394 -0.222821 0.140932 0.192455 0.290685 0.097503 0.117630 -0.026451 0.427488 0.535531 -0.146015 0.120920 0.183357 0.368869 -0.153944 0.312294 0.212788 0.187838 -0.061279 0.004910 -0.068498 -0.069378 -0.110250 0.118183 0.103004 -0.289813 -0.085068 -0.119058 0.098422 -0.148498 0.098228 -0.026373 0.031691 0.102303 -0.120474 0.029917 0.004438 0.115331 0.078090 0.061766 0.193200 -0.108502 -0.160025 0.096457 0.214483 0.239045 -0.063521 0.156589 0.096315 0.318621 0.150084 0.147968 0.119326 0.030661 0.069195 0.216073 0.151118 0.184389 0.001129 0.180768 0.460511 0.575949 -0.008369 0.129843 0.331110 0.359738 0.017952 0.099075 -0.011012 0.177693 -0.026458 0.279006 -0.019459 0.150781 0.096666 0.108540 -0.195702 0.054781 0.116130 -0.063784 -0.098859 -0.161537 -0.171989 0.030187 -0.069199 -0.064372 -0.135197 -0.005964 0.111004 0.044729 -0.061181 -0.056268 -0.021346 0.017039 0.030055 0.056477 0.062778 -0.103230 -0.038727 0.084881 -0.147027 -0.120094 -0.093768 0.051689 -0.023390 0.027926 0.059745 0.092371 -0.070370 0.042540 0.169109 0.053120 0.280228 0.169188 -0.075429 -0.172918 0.295116 0.282442 -0.011875 -0.138481 -0.152001 -0.153093 -0.088351 0.038660 -0.079279 -0.187905 -0.076883 0.208661 -0.047771 -0.187527 -0.133094 0.137721 -0.127099 -0.220724 0.026315 -0.093455 -0.125565 0.050587 -0.038274 -0.070205 0.019546 0.015083 0.099473 0.017604 -0.107632 0.126465 0.040375 0.031449 -0.040120 -0.033016 0.038262 -0.142832 -0.210138 -0.012999 -0.066555 0.053834 -0.149724 -0.292289 -0.112945 0.097520 -0.470443 -0.145632 -0.096306 0.007601 -0.221892 -0.018945 -0.006288 -0.117562 0.008917 -0.138858 -0.034768 -0.330356 0.019948 -0.229275 -0.059252 -0.120940 -0.000473 -0.137685 -0.062433 -0.101007 0.041817 -0.172717 0.040491 0.310865 -0.204937 -0.028148 -0.053523 -0.028850 -0.145136 -0.156925 0.073515 0.114073 -0.023806 -0.182476 -0.064071 0.075786 -0.134698 0.078777 -0.103478 0.083581 0.062840 0.150966 -0.123559 -0.059258 -0.126636 0.043155 0.132892 0.013841 -0.162163 0.088880 0.075514 -0.146195 -0.169226 -0.045932 -0.039678 -0.133161 -0.089372 -0.127720 -0.085928 -0.200583 0.062711 -0.127383 0.016031 -0.206202 -0.043253 -0.044277 -0.128599 -0.228212 0.157999 -0.181068 -0.208772 0.022273 0.203869 -0.258140 -0.010156 0.023064 0.397948 -0.045140 -0.007523 0.033353 0.158538 -0.012951 -0.049490 0.163622 -0.051123 -0.049830 -0.144056 0.092764 -0.065597 0.043852 -0.015851 0.070341 0.000486 -0.187053 -0.020861 0.042280 0.076215 -0.033833 0.069574 -0.033088 -0.011341 0.075495 -0.106355 0.021076 -0.173387 0.066090 -0.138131 0.012663 -0.151333 -0.265721 -0.105491 0.063014 0.081394 0.092266 0.091846 0.029710 0.037222 -0.217634 0.135376 0.022275 0.081651 -0.288286 -0.052181 0.118871 0.244392 -0.280143 -0.086327 0.138530 0.305349 -0.115493 -0.027249 0.331152 0.071932 -0.216699 0.078894 0.158532 0.228446 -0.043905 0.124119 0.137712 -0.038220 0.136849 0.104864 0.165051 -0.026302 -0.092952 -0.012619 -0.057578 0.132446 0.018209 -0.102140 0.091738 -0.044808 -0.025544 0.005772 0.041665 0.053688 -0.097552 0.168193 0.144128 -0.035289 0.059885 -0.075873 -0.055536 -0.136461 -0.037343 -0.104613 0.050596 -0.121882 0.054424 -0.042541 -0.170894 -0.190963 -0.065782 -0.085726 0.065179 -0.331575 -0.151270 -0.086011 -0.091273 -0.144727 0.040247 -0.058216 0.017293 -0.245825 -0.246747 0.025898 0.064001 -0.212468 0.114704 -0.030012 -0.117951 -0.145122 0.161360 -0.095833 -0.009847 0.046080 -0.160881 0.102537 0.009443 0.033340 0.095528 0.100039 -0.188640 -0.146713 0.002466 -0.020893 0.012294
0.026517 0.023690 0.025776 -0.178001 0.067817 -0.035318 -0.064886 -0.009916 0.179962 -0.046770 -0.021972 -0.081747 0.079140 -0.055048 -0.028192 -0.190074 0.025674 0.107252 0.039643 0.032426 -0.192556 0.010557 -0.054060 -0.140061 -0.037358 -0.088773 -0.109523 0.069876 0.041519 -0.201784 0.001691 0.036757 -0.004600 -0.105560 0.038124 0.021842 -0.076430 0.062783 0.118373 -0.039335 -0.045097 0.113562 -0.091034 -0.001656 0.023047 -0.086717 0.001334 0.094189 0.092445 -0.177128 0.023817 0.034448 -0.124550 -0.081215 -0.036036 -0.062964 -0.013800 -0.030864 -0.167872 -0.199650 -0.145099 0.083869 -0.001861 0.018341 0.155489 -0.109889 0.100444 0.104615 -0.075140 0.133189 -0.082798 0.023021 -0.027056 -0.168663 0.120684 -0.067639 -0.009319 -0.141389 -0.071045 0.049443 -0.086957 -0.175984 0.021794 -0.056047 -0.069843 0.095911 -0.008621 -0.010076 -0.104268 -0.037747 0.085154 -0.019445 0.039139 0.236900 0.144731 -0.038423 -0.018497 -0.002333 0.088560 0.102734 0.006826 0.010147 -0.042557 0.000548 -0.057351 -0.016965 -0.084662 -0.014547 0.119985 -0.170120 0.151785 -0.089089 -0.138863 -0.025896 -0.010133 -0.035384 0.103486 0.140793 0.083142 -0.050182 0.109781 -0.192855 0.072908 -0.098438 -0.200616 -0.056267 0.070857 0.114841 -0.015442 0.094324 0.032553 0.071950 -0.091230 0.263630 -0.106521 -0.118544 -0.217566 0.030466 -0.143162 -0.058718 -0.103096 0.044462 -0.075272 0.075964 0.054881 0.242299 -0.060110 0.159400 0.063137 0.321368 -0.170865 0.009209 0.154810 0.085750 0.010349 -0.017745 0.099487 0.093843 -0.002709 0.078312 -0.087679 0.152332 0.025254 -0.032830 0.024467 0.016979 -0.134714 0.000905 0.048743 0.004109 0.037951 0.053162 -0.176559 -0.048722 0.155948 -0.086161 -0.008423 -0.183630 0.039808 -0.148570 0.213171 0.074685 -0.045740 -0.219743 0.115083 0.284309 -0.017187 -0.373294 0.096507 0.219725 0.143862 -0.210604 -0.061555 0.031219 -0.007609 -0.078562 -0.093439 -0.042971 -0.286524 0.230009 -0.235167 -0.043562 -0.396751 0.289722 -0.181612 0.012193 -0.373467 0.361317 -0.153939 0.131010 -0.309646 0.386898 0.182213 0.266660 -0.199052 0.136790 0.345336 0.434730 -0.088418 0.072559 0.130480 0.166150 0.019362 0.107133 -0.109542 0.016551 0.088660 -0.157911 -0.251538 -0.129105 0.066795 -0.073702 0.002140 -0.020137 -0.074603 -0.121822 0.093033 0.106972 0.065752 -0.175382 0.174055 0.111734 0.343046 -0.442426 0.101582 0.086982 0.174309 -0.209984 -0.069665 -0.093031 0.068711 0.138463 -0.190329 -0.397301 0.050004 0.283260 -0.203152 -0.372671 -0.195962 0.472302 -0.196198 -0.382116 -0.122599 0.415662 -0.153684 -0.055660 -0.173249 0.476416 0.154423 0.115709 -0.144927 0.406842 0.604247 0.680156 0.041702 0.024220 0.160517 0.167711 0.054746 -0.000302 0.008686 -0.067957 -0.107557 0.114500 -0.117104 -0.039880 -0.043441 -0.079438 0.142465 -0.202103 -0.163144 -0.148988 0.144603 0.050348 0.152236 -0.178459 0.385869 0.078296 0.097064 -0.291566 0.329066 -0.024273 -0.029292 -0.052983 0.245013 0.314878 0.161380 0.142080 -0.026769 -0.325062 -0.014102 0.232042 -0.162966 -0.514229 0.279825 0.389607 -0.352589 -0.611642 0.020291 0.542885 -0.231676 -0.640662 -0.004313 0.473636 0.219325 -0.436920 -0.161804 0.472081 0.366187 0.293732 0.061819 0.294212 0.179421 0.180735 -0.116845 0.049762 0.038248 0.104845 0.064842 0.013395 -0.015416 0.050943 -0.048543 -0.085205 0.102865 -0.076199 -0.113251 -0.215471 0.147819 -0.058957 0.000856 -0.124754 0.123636 -0.140967 -0.011766 -0.020310 0.398324 0.253998 -0.078943 0.053496 0.251165 0.268174 0.099628 0.158192 0.077841 -0.127737 0.060430 0.556332 -0.148179 -0.634561 0.164689 0.499947 -0.245705 -0.562418 0.091743 0.373957 -0.425721 -0.513701 0.149690 0.114651 -0.519261 -0.525361 0.070413 0.383410 0.151768 -0.199332 0.017156 0.241746 -0.094620 0.013965 -0.002446 0.038295 -0.157308 -0.062055 -0.080649 -0.137030 0.048545 -0.027716 0.146144 -0.087748 -0.163833 -0.000282 -0.022122 0.166203 -0.060240 -0.456704 -0.198331 0.217258 0.026360 -0.422678 0.051629 0.031865 0.230510 -0.069432 0.008422 0.170476 0.303377 -0.070258 0.070072 0.291683 0.052277 -0.303935 0.279539 0.282536 -0.032818 -0.457432 0.144771 0.056587 0.006560 -0.165565 0.084524 0.100479 -0.141917 -0.127599 0.118790 0.101672 -0.172777 -0.238223 0.080362 -0.072819 0.134573 -0.221914 -0.005222 0.002336 0.139099 0.003933 0.094876 -0.080754 0.043931 -0.071715 -0.109798 0.018389 -0.101237 0.121080 -0.008605 0.012124 -0.013496 -0.076319 -0.000114 0.178690 -0.197463 -0.381486 -0.116306 0.229779 -0.308227 -0.491042 0.158039 0.449719 0.045572 -0.368184 0.040070 0.220543 0.030535 -0.352622 0.019143 0.234181 0.003993 -0.235198 0.081944 0.191565 0.105956 -0.241956 0.004105 -0.124808 -0.008332 0.008572 0.023948 -0.096361 -0.080282 0.104285 0.245160 -0.046597 0.048559 0.034140 0.013465 0.028610 0.063242 0.034698 -0.051373 0.000823 -0.049262 -0.038817 0.097097 -0.104360 0.158508 0.059163 -0.173141 -0.149200 -0.076391 0.075179 0.042425 -0.030049 0.076777 0.117233 -0.062295 0.360139 -0.007047 0.146559 0.096382 0.280720 -0.258740 -0.139338 0.116063 0.364813 -0.285414 -0.190627 -0.124366 0.211301 -0.372291 0.038729 0.035085 0.249807 -0.114548 -0.076155 0.061390 0.095070 -0.061738 0.030086 -0.065864 -0.113832 0.057686 0.180546 -0.006414 -0.072849 -0.051416 0.144977 0.048669 -0.031690 0.035002 0.253476 -0.018208 -0.068999 -0.155750 0.136032 0.008134 0.100494 -0.040532 -0.119443 -0.116925 0.068395 -0.021187 -0.022745 0.083685 -0.126427 -0.016105 0.099378 -0.102226 -0.068615 -0.097372 0.045065 0.059801 0.141228 0.130466 0.053138 0.053788 0.145784 -0.058052 0.272282 -0.090824 0.261155 0.096500 0.213589 0.002200 0.287885 -0.286441 0.304137 -0.138735 0.075813 -0.111739 0.108879 -0.125514 -0.041371 0.070064 0.199447 -0.004764 -0.298247 -0.026483 0.314390 -0.011991 -0.176636 0.153345 0.235886 -0.179125 -0.181685 0.001583 0.359482 -0.001997 -0.065162 -0.031888 -0.090401 -0.001491 -0.063146 -0.044377 -0.085004 0.023388 0.106032 -0.025044 0.102060 0.019700 -0.053092 -0.018372 0.107638 0.037914 -0.118998 -0.185066 0.048568 0.194545 0.016896 -0.016656 -0.167131 0.161389 0.142919 0.151561 0.141855 0.065985 0.012299 -0.022786 0.258642 -0.062850 0.066189 -0.025038 0.381659 -0.190663 0.090841 0.111013 0.138856 0.086700 -0.040135 -0.188804 0.402524 -0.007860 -0.229063 0.036045 0.263868 -0.192827 -0.186936 0.191906 0.183726 -0.115872 0.138737 -0.014133 0.063550 -0.110988 0.056156 0.121133 0.016333 -0.039782 0.087399 0.045472 0.007675 0.016179 0.135265 -0.024626 -0.070232 0.078808 0.021134 -0.101529 -0.025250 0.142025 -0.033995 0.048227 0.034042 -0.039243 0.123583 0.007621 -0.085283 -0.026583 0.035823 0.118876 0.064363 0.016537 -0.061647 0.097534 0.146038 -0.076056 0.057279 0.073226 0.149443 0.200671 -0.040461 0.116094 0.176010 0.000505 -0.150972 0.055412 0.038929 0.074623 0.014272 -0.022944 -0.069761 -0.047081 -0.075816 0.040818 0.036602 0.101034 0.101208 0.058169 0.044453 -0.115113 0.010842 -0.053550 0.055656 0.122446 0.120457 -0.071066 0.044105 -0.117296 -0.059945 0.039393 -0.052392 -0.103636 -0.097583 -0.173665 0.004845 0.060405 -0.031979 -0.034964 -0.118105 -0.047681 -0.015813 -0.071782 0.029990 -0.000426 -0.107586 -0.131985 -0.066479 0.007059 0.009014 0.085364 -0.031328 0.118552 0.065664 0.089108 0.046231 0.084231 0.027921 0.070486 -0.141843 -0.100687 0.053372 -0.095540 0.139989 -0.156476 0.092282 0.028519 -0.082637 -0.032423 0.112172 -0.045488 0.079322 -0.077456 -0.053708 0.149865 -0.054399 -0.139450 -0.131985 -0.046857 -0.099687 0.031462 -0.146613 0.029674 -0.045418 0.084162 -0.114088
0.053895 -0.134111 0.080625 0.147460 0.002011 0.074956 0.017148 0.003623 0.047628 -0.010105 -0.070913 0.144713 -0.056060 0.058204 -0.152279 0.100640 0.060020 0.127441 0.036475 0.172882 0.103009 0.066032 0.045600 -0.165393 -0.089595 -0.034587 -0.098483 -0.020346 0.167178 0.131116 0.138779 0.045572 -0.123650 -0.040417 0.186246 0.101213 0.127372 -0.074087 -0.138426 0.173340 0.090418 0.008877 -0.040487 0.117822 0.084742 0.040227 0.075479 -0.118213 -0.022946 0.012175 0.187570 0.047522 -0.095914 0.120099 0.022036 -0.039795 0.072991 0.002012 -0.047195 -0.021256 -0.037973 0.003888 0.113280 0.058058 0.196036 -0.002159 0.080251 -0.017003 0.111264 0.170169 -0.043163 -0.078462 -0.074479 0.185686 0.077587 -0.005148 0.224202 0.249429 -0.031836 -0.040944 0.039164 0.204769 -0.063184 0.016553 0.110293 0.113107 0.078008 0.028190 0.238150 0.156206 0.088649 -0.060868 0.088951 0.167270 -0.145163 -0.038478 0.348122 0.222381 -0.159623 0.148145 -0.042861 0.231138 0.091341 -0.101052 0.076136 -0.019828 0.030592 -0.062512 0.035564 -0.159172 -0.018376 -0.167576 -0.057946 -0.142585 -0.005704 -0.114055 0.015871 0.057100 -0.108615 -0.039287 0.146263 -0.025951 0.096242 -0.094048 0.133631 -0.123281 0.111606 -0.070495 0.040583 0.119917 -0.077749 -0.013339 -0.138463 -0.147605 0.050789 0.015636 -0.053563 -0.121063 0.081061 -0.319767 -0.031416 0.052985 -0.203023 -0.148149 0.029007 0.180108 -0.101097 -0.229020 0.238283 0.443694 0.018345 -0.080726 0.074268 0.385647 -0.059415 -0.130669 0.142645 0.167483 0.103018 -0.065040 -0.013544 0.052284 -0.084607 0.138172 -0.169069 -0.018784 0.022481 0.018153 -0.145188 0.157836 -0.045225 0.138308 0.145735 -0.042108 -0.130784 -0.125936 -0.097429 -0.093034 -0.122907 -0.134223 -0.060784 -0.059568 -0.021811 -0.189428 -0.098847 -0.126310 0.079332 -0.126991 -0.213591 0.015854 -0.200696 -0.196677 -0.277368 -0.367427 -0.062945 -0.248533 -0.186438 -0.204177 -0.141956 -0.095755 -0.221951 -0.237843 -0.147699 -0.075212 -0.236021 -0.180491 -0.195803 0.069179 -0.190926 -0.157238 -0.006171 0.221002 -0.065510 -0.109498 -0.057139 0.108076 -0.062854 -0.133764 0.067035 -0.017318 0.049495 0.115814 0.098792 0.019182 0.147665 0.005412 -0.019046 0.036601 0.098683 0.006888 0.183733 0.131932 -0.170570 -0.069237 -0.080037 -0.080517 0.173248 0.039525 0.022479 -0.040625 -0.093442 -0.019300 0.008321 -0.225646 -0.270305 -0.109878 -0.100336 -0.117167 -0.329527 -0.252838 0.017357 -0.176211 -0.339320 -0.457598 -0.261769 -0.227723 -0.672807 -0.757273 -0.235613 -0.074208 -0.520251 -0.611850 0.038626 0.230104 -0.283457 -0.339834 -0.178675 0.239109 -0.082039 -0.337532 0.003480 0.128645 -0.035378 -0.128768 -0.117431 0.100755 0.084357 -0.008172 -0.088612 0.084678 -0.019658 0.085000 -0.045770 -0.034113 -0.110768 0.009131 0.128819 -0.041749 -0.053315 -0.054381 0.005269 -0.132878 0.094350 -0.048837 -0.039267 -0.252946 -0.003596 0.050055 -0.043960 -0.395267 -0.145768 -0.013996 -0.031663 -0.364952 -0.226450 -0.011390 -0.163463 -0.474384 -0.708691 -0.434311 -0.152673 -0.105151 -0.651145 -0.447549 -0.110328 0.020179 -0.360487 -0.417773 -0.042804 0.336071 -0.139939 -0.291189 -0.065235 0.204374 0.010090 -0.103921 0.070067 -0.038985 -0.130591 -0.037320 -0.172635 -0.123277 -0.067750 -0.002169 -0.019165 0.007263 0.027869 0.053274 -0.042461 -0.168244 -0.152158 0.016446 -0.022394 -0.005692 0.087677 0.038959 -0.148350 -0.171755 0.122018 0.214870 -0.089233 -0.219019 -0.022574 0.182463 -0.147493 -0.415309 0.139008 0.221160 -0.078233 -0.521023 -0.165175 -0.057232 -0.014167 -0.174021 -0.347260 -0.098305 -0.017587 0.012011 -0.118669 -0.213992 0.156624 0.190963 0.009591 -0.264424 0.251678 0.140566 0.267091 0.018886 0.317136 0.171489 0.421334 0.375021 0.086813 -0.038451 0.065647 0.235615 0.056085 -0.073892 -0.198445 0.048670 -0.042509 -0.009760 0.025043 -0.150781 -0.067571 -0.087018 -0.074330 -0.070122 -0.099245 -0.087242 0.136234 -0.047669 -0.001129 -0.026611 0.385750 0.074938 -0.049844 -0.223272 0.339038 0.162809 -0.004963 -0.568860 0.173244 0.247078 0.028896 -0.506376 -0.076805 0.096521 -0.063848 -0.159101 0.229413 0.204650 0.061306 0.063358 0.056941 -0.030089 0.121323 0.310970 0.049664 0.057036 0.144400 -0.025865 0.337692 0.016299 0.035607 -0.002413 0.375952 0.234115 0.091095 -0.104101 -0.015386 0.105683 0.116203 -0.016555 -0.153334 -0.098931 0.052599 -0.127433 -0.019359 -0.048488 0.077390 0.142437 -0.043542 0.090650 -0.019507 -0.167410 0.128707 -0.091667 0.046041 -0.125499 0.120514 0.045548 0.135583 -0.219220 0.271333 0.255761 -0.013274 -0.411744 0.376645 0.324559 -0.028626 -0.312419 0.104337 0.153221 -0.029343 -0.139557 0.247365 0.103744 -0.142480 0.194136 0.065348 -0.033497 0.300819 0.238812 0.202539 0.207619 0.009610 0.012449 0.266551 0.158235 -0.099845 0.036510 0.028734 0.214861 0.129577 -0.046155 0.024482 -0.049917 0.040618 -0.047487 -0.048129 -0.058152 -0.063432 -0.169617 0.041288 0.106451 0.027523 0.159047 -0.175929 0.106572 0.014209 -0.211796 -0.113535 -0.299598 0.090590 -0.097377 0.214290 0.025525 -0.055422 -0.046527 0.281892 0.267983 0.148180 -0.209984 0.507247 0.306514 0.152144 -0.111390 0.147164 -0.018550 0.026243 0.134427 -0.043884 0.144827 0.037721 -0.062456 0.182885 0.189618 0.030530 0.135430 0.336084 0.146296 0.051515 0.088044 0.013886 0.112759 -0.039749 -0.018373 -0.051898 0.033400 0.001510 0.023915 0.118958 0.009278 0.124207 -0.059387 0.147019 0.064963 -0.144076 0.158314 -0.111960 0.126922 0.031435 0.055605 -0.028637 -0.163552 0.022375 -0.126839 -0.349568 -0.235122 -0.004807 -0.105279 -0.038402 -0.144040 -0.036870 -0.043270 0.284682 0.091957 0.136635 -0.192333 0.453208 0.277314 0.174888 0.187442 0.348521 0.346167 0.349355 0.327520 0.319061 0.311385 0.000907 0.365354 0.219191 0.245002 0.042798 0.203036 -0.005092 0.041169 -0.051620 0.135627 0.073656 -0.038887 -0.065803 0.002110 0.151997 -0.012388 0.168735 0.000386 -0.014917 0.057029 -0.024002 0.050365 0.018402 -0.037602 0.069838 -0.029456 0.041288 0.074710 -0.047459 -0.096072 -0.096224 0.005869 0.055347 -0.180649 -0.149313 -0.247694 -0.007288 -0.038886 -0.225695 -0.019196 0.061511 0.093100 -0.055566 -0.233083 0.042286 0.240703 0.355054 -0.047215 -0.023599 0.179774 0.245522 -0.114220 0.162917 0.105327 0.115446 -0.052548 -0.014081 0.137541 0.051631 -0.135435 -0.183860 0.121989 -0.088494 -0.163555 -0.069801 0.017765 -0.023878 0.032342 -0.080721 -0.006127 -0.072137 -0.143439 0.023355 -0.098177 -0.036073 0.015259 -0.088625 -0.149709 0.003911 -0.159958 0.114017 0.054243 0.031098 -0.014710 0.004943 -0.041644 0.001767 -0.016616 0.052087 0.051391 -0.051457 0.179051 -0.012579 0.055339 -0.141951 0.122971 0.078237 -0.025731 -0.108686 -0.024927 -0.047875 -0.060067 -0.308870 -0.046746 -0.077140 0.098325 -0.338030 -0.131842 -0.015780 0.050715 -0.197061 -0.080849 -0.142116 -0.056885 -0.199884 -0.166303 -0.008214 0.008860 -0.079639 0.050839 0.066566 -0.071226 -0.250916 0.020971 -0.003941 -0.014588 -0.021272 -0.040123 0.061183 0.030096 0.091417 0.024287 -0.055170 -0.099079 0.037771 -0.189999 0.081041 -0.100274 -0.139606 -0.169365 0.006801 -0.055646 -0.128194 -0.172282 0.114553 0.064276 0.154547 -0.042338 0.144213 -0.111923 -0.064988 -0.172833 0.083633 -0.139444 0.104450 -0.015476 -0.065802 0.084691 0.102640 0.032016 -0.078185 0.149323 -0.067443 0.006827 -0.042479 -0.180571 -0.167073 0.018989 -0.014642 -0.125430 0.010583 -0.086080 -0.046059 0.078371 -0.074461 0.007863 -0.103357 0.045714 -0.009638 0.046455 -0.007753 -0.014251 -0.010041 0.183466 -0.079367 0.166368 0.011309 0.173988 -0.027309 -0.033508 -0.145136 -0.005955 -0.049678 -0.017398
-0.108252 -0.065188 -0.119346 -0.025586 -0.076154 0.080507 0.136395 0.108298 0.133190 0.117472 0.101806 0.160733 0.146756 0.036425 -0.037065 -0.058895 -0.112496 -0.043597 0.096662 0.060834 0.019856 -0.090032 0.000142 0.060071 0.143671 0.023339 -0.082638 -0.023646 -0.072253 0.009794 0.120122 -0.023416 0.068708 -0.060296 -0.046467 0.120560 0.052198 0.121343 -0.070639 -0.089997 -0.013429 0.074965 0.002977 -0.007737 -0.034065 -0.089087 -0.065877 0.160511 -0.107038 -0.036020 0.069628 0.017117 0.146837 0.090654 -0.002084 -0.172462 0.196177 -0.088830 -0.133880 -0.028477 -0.141817 -0.164365 0.031853 -0.049130 -0.066360 -0.009264 -0.141904 -0.044154 0.083611 0.100168 -0.021586 -0.022382 -0.179727 0.018010 0.047908 0.042775 -0.177226 0.109839 0.020512 0.040468 -0.116494 0.020738 -0.159988 -0.030854 -0.035447 -0.100805 0.195368 0.050370 -0.073051 -0.079637 -0.161982 -0.026014 -0.061829 -0.080019 0.045425 0.006943 0.126130 -0.084423 -0.009437 0.048571 -0.038689 0.001837 -0.040801 -0.049424 -0.026571 0.078152 0.098669 0.119045 0.069938 -0.091522 -0.050199 0.025604 0.102887 -0.048348 -0.080779 0.117122 -0.090313 0.117837 0.030073 0.025820 0.157553 -0.038389 0.054866 0.102973 -0.061973 0.108850 -0.018164 -0.111076 0.017404 -0.101679 0.038162 0.016390 0.048879 -0.261578 -0.067262 0.044763 -0.275316 -0.364271 0.178912 -0.017852 -0.205151 -0.276855 -0.133496 0.096455 -0.288304 -0.259930 -0.153172 0.037479 -0.167348 -0.298064 0.064288 0.071610 0.041330 -0.283703 0.056624 0.047239 0.007138 -0.210738 0.111903 0.004151 -0.086791 0.062390 -0.004031 0.036027 0.042772 -0.060556 -0.143214 -0.103067 0.086339 0.026588 0.026378 -0.095787 -0.159639 0.072821 0.015654 0.140510 0.025614 -0.093290 0.071345 0.134714 0.196030 0.024415 0.066010 0.062355 0.320584 0.037234 0.261077 0.374614 0.279290 -0.006155 0.134153 0.382904 0.036949 -0.140631 0.144246 0.227696 -0.035349 -0.291967 -0.001736 0.287873 -0.020708 -0.009564 0.058906 -0.020439 -0.217703 0.072121 -0.103906 0.110971 -0.115545 -0.004975 -0.120797 -0.114981 -0.046663 -0.076236 0.128049 -0.085342 -0.002293 -0.021403 0.119948 -0.158757 -0.099800 0.034400 -0.167367 0.018625 0.146484 -0.092585 0.081869 -0.023626 0.116674 0.086928 0.193022 0.152185 0.128811 0.190522 0.116645 0.076399 0.420754 0.189281 0.336476 0.286741 0.363592 -0.047409 0.226119 0.304004 0.240573 0.127972 0.192613 0.339424 0.167492 0.324512 -0.084071 0.342396 0.144665 0.360052 0.089401 0.371943 0.295394 0.668410 0.070543 -0.015958 0.042814 0.271745 -0.115857 0.014713 -0.018968 0.448081 0.007008 -0.144855 -0.139055 0.153620 -0.088239 -0.125621 0.089831 -0.142294 0.139926 -0.082335 0.087628 -0.152508 -0.156386 -0.129493 0.090416 0.048858 0.090886 -0.008720 0.285644 0.210147 -0.056673 0.089348 0.092661 0.407973 0.127085 0.242905 -0.013662 0.136859 0.172266 0.248543 0.177554 0.138102 -0.023629 0.432841 -0.055092 0.133252 -0.126444 0.240628 0.285423 0.197685 -0.010855 0.101869 0.391618 0.645809 -0.019322 0.050174 0.331769 0.734916 -0.050805 0.105457 0.322343 0.370836 -0.094397 -0.123588 0.041437 0.298821 0.015223 0.042340 -0.193562 0.087349 -0.015225 -0.064169 -0.124475 -0.017763 -0.007643 -0.150994 -0.023909 -0.033240 0.028784 0.086882 0.109127 -0.054096 0.026597 0.008818 0.365732 0.032586 0.069162 0.152858 0.104849 0.102520 -0.135328 0.031869 -0.066776 0.151469 -0.124373 0.074755 0.061184 0.081936 -0.153730 0.132051 -0.307430 0.018320 -0.193471 0.247289 -0.154218 -0.559593 -0.123561 -0.093436 0.268771 -0.031436 -0.056676 -0.078168 0.458952 0.202580 -0.046277 0.219684 0.238413 0.196160 0.035342 -0.045086 0.053417 -0.049429 0.070727 -0.103004 -0.153142 -0.004715 -0.080690 -0.125479 -0.089548 -0.005439 0.121914 -0.071956 -0.005311 0.058629 0.053832 -0.048463 0.147684 -0.091296 0.084474 -0.090866 0.244829 0.223585 -0.041542 0.244738 -0.021761 0.081966 0.051228 0.117162 -0.092818 -0.110360 -0.064981 -0.058835 -0.227359 -0.010721 -0.259793 0.240569 -0.634374 -0.287360 -0.281244 0.028804 -0.477305 -0.554146 -0.109568 -0.588010 0.023921 0.200435 -0.240131 -0.160628 0.271757 0.077532 0.071650 0.109916 0.317820 0.351951 -0.054002 0.265801 0.333631 0.317648 -0.113476 -0.117432 0.070265 0.010959 -0.006588 0.025314 -0.076511 -0.010295 0.024642 -0.024069 -0.179621 0.113086 -0.012401 0.093064 0.052254 -0.092899 -0.003190 0.131187 -0.080660 -0.036653 -0.016845 -0.013070 -0.055774 -0.010217 -0.123935 -0.073640 0.130928 -0.250859 -0.118615 -0.085269 -0.093257 -0.251717 -0.309302 0.031003 -0.309527 -0.287441 -0.159421 -0.042449 -0.231302 -0.107111 -0.047959 -0.389591 0.042190 0.280611 0.207694 -0.273527 0.437311 0.041392 -0.084100 0.048651 0.195255 0.215234 -0.020556 0.298940 0.022987 0.166497 -0.056267 0.194390 -0.114635 0.060118 0.052110 -0.017290 -0.101835 0.000784 0.111235 -0.206909 0.137180 -0.124563 -0.060049 0.078718 -0.096871 -0.062235 0.024117 0.060561 -0.114798 0.059756 0.098460 0.010207 -0.059670 -0.078309 -0.123381 -0.000342 -0.181866 -0.304527 0.017248 -0.074579 -0.256783 -0.175681 -0.071034 -0.008110 -0.184880 -0.374267 -0.146248 -0.191541 0.180012 0.014611 0.046512 -0.376466 0.242516 0.077203 -0.035551 -0.320683 0.087425 0.063189 0.001194 -0.116896 -0.022500 0.028979 -0.040636 0.118097 -0.158010 -0.203385 -0.041185 0.022479 -0.049583 -0.269406 -0.020699 0.050777 -0.058468 0.038873 -0.012002 -0.007687 0.003259 0.010993 -0.100338 -0.103887 0.038055 -0.044446 -0.035401 -0.077218 -0.108321 -0.088445 0.062539 0.103560 -0.265687 -0.010479 0.103093 0.016744 -0.433347 -0.192253 -0.072521 -0.082229 -0.411892 -0.184013 -0.092440 -0.059603 -0.094572 0.051507 -0.043628 -0.308119 0.224172 -0.151169 0.158362 -0.421900 -0.003513 -0.096441 0.170540 -0.351085 -0.148058 -0.129366 -0.123690 -0.127768 -0.403472 -0.112643 -0.146339 -0.090535 -0.380054 -0.358319 0.004762 -0.053521 -0.225446 -0.307215 0.060621 -0.077930 -0.089395 -0.097518 0.152186 -0.032972 -0.192522 0.091452 -0.015964 -0.043506 -0.184542 -0.035489 -0.087085 -0.024254 -0.116265 0.032830 0.119618 0.054026 0.006025 -0.079437 0.082260 -0.108428 -0.144401 0.165191 0.011120 -0.183252 -0.227486 0.001512 -0.136630 -0.328420 -0.056243 -0.037599 0.007273 -0.470938 0.047113 -0.226856 0.013847 -0.467813 0.022528 -0.218359 -0.032733 -0.328167 0.005737 -0.218601 0.050914 -0.240588 -0.323161 -0.322950 -0.030893 -0.006687 -0.309575 -0.177554 -0.074524 -0.186708 -0.192856 -0.073746 -0.053339 -0.152732 -0.028774 -0.063496 0.176001 -0.096945 -0.067225 -0.119238 0.012652 0.069930 0.120090 -0.105055 0.099696 0.040394 0.154673 -0.086958 -0.041629 0.098962 0.028059 0.120346 0.106160 0.154366 0.110821 0.269079 -0.086339 -0.158368 0.020942 0.194364 -0.227527 -0.314635 -0.001134 0.210802 -0.076999 -0.091579 0.007645 0.201295 -0.009351 -0.244312 0.301997 0.097951 -0.154267 -0.063214 0.034191 0.138359 -0.158909 -0.143708 0.009916 0.022371 -0.004712 -0.364968 -0.088920 -0.047828 0.068158 -0.211485 -0.065204 0.073929 0.009071 -0.125487 0.125515 -0.179367 0.033026 -0.080310 -0.077387 0.104541 -0.034741 0.040374 0.108058 0.184540 0.073767 -0.115800 0.056995 0.023366 0.014002 0.032518 -0.058744 0.015934 0.014617 0.071938 0.200497 -0.044668 -0.124487 0.132044 0.209736 0.052610 0.128326 0.084454 0.173910 -0.064533 0.077643 0.133948 0.231060 0.170340 0.037373 0.176116 0.432561 0.011893 -0.000683 0.083028 0.375188 0.029628 0.028630 0.174946 0.145709 -0.017742 0.045259 0.128125 -0.119310 -0.024133 0.051681 -0.002255 0.117144 0.207413 -0.015481 0.068843 -0.156521 0.004683 -0.011381 0.057773 0.150727 0.194458 0.025816 -0.153947
0.123641 0.015344 0.030701 0.022534 0.117709 -0.135047 -0.033241 0.081497 -0.093999 0.078610 0.053859 -0.010824 -0.045553 0.101394 -0.132598 -0.000275 -0.031451 -0.072577 -0.085814 0.078649 -0.070546 -0.140437 -0.101672 -0.101632 0.026184 -0.021549 -0.126974 -0.157367 -0.163851 -0.075659 0.081261 0.012055 -0.063852 -0.146813 0.087065 -0.096973 0.032799 0.018391 -0.027359 -0.000918 0.067498 0.028105 -0.100379 0.034724 0.024628 -0.070288 -0.017459 0.122882 0.017105 0.068078 0.019574 0.029493 0.144070 -0.034900 0.045421 0.112980 -0.083190 -0.180343 0.003582 0.021186 0.017397 -0.105439 -0.109839 -0.124600 -0.088068 0.120597 -0.105666 -0.063905 -0.033436 -0.027892 0.183820 -0.130037 0.046385 0.134155 0.061374 -0.034623 -0.136151 -0.086893 0.072549 -0.072124 -0.082882 -0.051467 0.088382 -0.173220 -0.097875 -0.072570 -0.029683 0.177774 -0.073649 -0.101320 -0.025461 0.003826 0.042822 -0.110555 -0.030465 -0.136150 0.077360 -0.200217 0.005203 0.034763 -0.013066 -0.089915 -0.097046 -0.116253 -0.027188 0.035402 -0.030960 0.103133 0.048217 0.121541 0.024715 0.035856 0.086463 -0.031579 0.144833 -0.127973 0.156073 -0.074346 -0.055226 0.024530 -0.089945 -0.142701 0.098361 -0.114956 -0.067489 -0.151896 -0.057902 -0.147790 -0.170799 0.040642 -0.034823 -0.101744 -0.163627 0.143051 -0.148553 0.044562 -0.065518 -0.052258 -0.297880 0.184014 -0.126701 0.088513 -0.164299 0.149751 -0.141679 0.151766 -0.041574 -0.088695 0.164164 0.000152 -0.084104 -0.009615 -0.115046 -0.086189 0.007232 0.114525 -0.158010 -0.001035 0.111357 -0.022718 -0.086470 -0.155424 0.115708 0.051664 -0.085526 -0.077761 0.044004 0.023803 0.030700 -0.065950 -0.066466 0.117454 0.048364 -0.119592 0.147847 -0.035340 -0.133777 0.178768 -0.047296 0.036528 0.001329 0.003162 -0.092901 -0.165452 -0.178101 0.177511 -0.159948 -0.097710 -0.040549 -0.025049 -0.272943 0.071694 -0.118241 0.033001 -0.128763 0.045476 0.064153 -0.005363 0.016575 0.166474 0.134626 0.110145 0.127485 0.029190 0.160303 0.037855 0.198655 0.278032 0.208449 0.070885 0.062647 0.252716 0.175738 0.212949 0.097097 -0.025663 0.143354 0.217625 -0.129556 0.039416 0.004396 -0.153626 -0.015584 -0.057649 -0.057637 -0.152099 0.070274 -0.158287 0.083967 0.010852 0.126843 -0.009547 0.075837 0.010034 0.043260 -0.046999 0.267748 0.247816 0.007530 -0.082402 0.094026 0.075445 0.101633 -0.038808 0.147402 0.039840 0.097952 -0.050460 0.121027 -0.023004 0.084058 0.147349 0.057114 -0.201754 0.105204 0.185504 0.196217 -0.125819 0.171908 0.200052 0.137601 0.217100 0.067995 0.148962 0.120578 0.082247 -0.033827 0.181249 0.258966 0.176513 -0.017955 -0.072589 -0.055886 0.118538 0.128091 0.060199 -0.059254 0.075861 -0.032100 -0.004752 0.060463 0.035223 0.005491 0.140652 -0.032118 0.173538 -0.122283 0.067841 0.025181 0.074849 -0.194117 0.130439 0.143864 0.330953 0.082453 -0.134627 0.377454 0.106907 0.137371 -0.112217 0.397156 -0.111906 0.355456 0.172675 0.510296 0.008027 0.505800 0.094194 -0.127081 -0.238253 0.193600 0.178286 -0.063712 -0.008757 -0.156062 0.065370 0.089399 0.245054 -0.316310 0.151109 0.371690 0.238761 -0.043411 0.263723 0.315126 0.335563 0.005699 -0.107862 0.056823 0.236550 -0.037632 0.011715 -0.012637 0.051329 0.099156 0.137374 0.058639 0.191351 -0.188531 0.114233 0.032196 0.075238 -0.043428 0.014930 0.154455 0.101215 -0.039173 -0.040749 0.045610 0.118778 0.108824 0.092689 0.197924 -0.095683 0.367530 -0.009923 0.302588 -0.069474 0.346803 0.065018 0.541117 0.166222 0.419830 0.073037 -0.042256 0.002028 0.095969 -0.099228 -0.124356 0.074659 -0.029927 -0.023484 -0.205318 0.241151 0.061708 0.227909 0.161727 0.154317 -0.095363 -0.043729 0.182205 0.064042 -0.026699 0.075329 -0.083346 0.069133 -0.024137 -0.122067 -0.056517 0.054855 -0.004187 -0.109662 0.106933 0.010274 0.137654 -0.062038 -0.137210 -0.121189 0.039764 -0.077669 -0.199396 -0.098163 -0.162891 0.054117 -0.063085 -0.172657 0.289783 0.061389 -0.036438 0.250641 0.280422 -0.003175 0.020783 0.368871 0.374083 0.045349 0.064130 0.256076 0.319624 -0.222822 0.076357 0.151649 0.143016 -0.111569 -0.103105 -0.158344 -0.101141 0.309844 -0.202126 -0.318566 0.048824 0.105612 -0.139590 -0.338362 0.100429 0.103422 -0.115691 -0.158750 0.041956 0.089331 -0.004585 -0.103227 -0.015270 0.091198 0.060394 0.090746 -0.062132 -0.126034 0.038724 -0.027262 0.091281 0.073015 -0.093257 0.107726 -0.021044 -0.051380 -0.031761 -0.085437 0.062161 -0.041378 0.007445 0.220509 0.052314 -0.141506 -0.044408 0.425787 -0.208330 -0.177261 -0.043741 0.537796 0.091076 -0.220872 -0.021177 0.333329 0.262620 -0.364356 0.015636 -0.262925 0.326830 -0.110254 0.179880 -0.081711 0.328661 0.360129 -0.050511 -0.309555 0.239647 0.257756 -0.126779 -0.379159 0.157189 0.253578 -0.090587 -0.224520 -0.055220 -0.152034 -0.112411 -0.072607 -0.084892 -0.139607 -0.177039 -0.041889 0.100571 -0.025299 -0.083632 -0.127824 -0.045754 -0.049997 -0.174699 0.039526 0.022073 0.034544 0.077831 -0.204279 0.066272 -0.160606 0.075032 0.253702 -0.233843 -0.265341 0.192607 0.203052 -0.042215 -0.388753 0.070083 0.104047 -0.058879 -0.411104 0.057047 -0.179499 0.326844 -0.415634 0.180434 -0.270561 0.294065 0.037347 0.237745 -0.078980 0.357859 0.099311 0.044868 -0.019974 0.026422 0.022829 -0.135436 -0.000142 0.056799 -0.085340 -0.034044 0.026852 0.028696 -0.162766 -0.101212 0.063579 -0.022186 -0.054531 -0.063477 -0.056859 0.028569 0.039596 0.032434 0.092910 0.044328 0.004975 -0.120336 -0.166784 -0.011630 -0.176461 0.023282 -0.018579 0.037745 -0.012355 0.205237 0.036920 0.013658 -0.419108 0.059119 0.048172 -0.017916 -0.188873 0.140983 -0.211354 -0.075959 -0.202792 0.229896 -0.091920 0.047839 -0.092599 0.165376 0.104794 -0.003745 0.076660 0.013167 0.001168 -0.028306 -0.117025 0.001221 -0.085953 0.075558 -0.154149 0.027072 0.060100 0.069817 -0.102894 -0.057779 0.128335 0.120857 -0.019937 -0.127059 -0.107710 -0.047399 -0.026262 -0.028537 0.093996 0.010875 0.019802 0.009888 0.077217 -0.093103 -0.106242 -0.067596 -0.038022 -0.020296 -0.012657 -0.063420 -0.163497 -0.223639 -0.105317 0.089601 -0.051061 0.117880 0.038016 -0.119803 -0.096038 0.102417 -0.035670 -0.001512 -0.048434 0.128386 0.092430 0.095122 0.180571 0.187681 0.280703 -0.121420 0.212473 -0.151071 0.215654 -0.022571 0.153610 -0.216973 -0.138259 -0.007185 0.087041 -0.029364 -0.112289 -0.050265 0.026305 -0.080302 0.054752 -0.100209 0.083817 0.031705 -0.009285 -0.091248 0.020879 -0.048777 -0.159679 0.083319 0.019857 0.115879 0.038404 -0.072049 0.041449 0.103885 -0.076582 -0.182971 -0.129926 0.080687 -0.102587 -0.240837 -0.148703 -0.179976 -0.096087 -0.216188 -0.200720 -0.004094 0.099809 -0.039980 0.028662 0.081722 0.291068 0.101531 -0.105241 0.163261 0.066268 0.063783 0.100959 -0.032719 0.139386 -0.011241 0.089074 0.066863 -0.018944 0.019158 0.255628 -0.121097 0.119262 0.157638 -0.043875 -0.077251 0.058369 -0.102999 0.113720 -0.036774 -0.024408 -0.056007 0.021330 0.060506 0.056836 -0.050545 0.008287 -0.044414 -0.162174 -0.089325 -0.069965 0.085435 0.045048 0.083136 0.039235 0.018992 -0.087090 -0.147687 -0.150451 0.013727 0.058719 0.031842 -0.019941 0.073182 -0.027480 -0.056738 -0.200768 -0.074914 0.052737 -0.127688 -0.051363 -0.062214 0.007872 -0.093955 -0.023318 -0.060009 0.042591 -0.260511 -0.016391 -0.044743 -0.070194 -0.144394 -0.157779 0.059416 -0.026704 0.098481 0.015410 -0.059804 0.095703 -0.071061 0.000361 -0.143577 -0.103432 -0.032353 0.068075 0.021436 -0.163862 0.078776 -0.193397 0.071627 0.032696 -0.035892 0.148170 -0.052372 0.001307 0.008332 0.007481 0.096375 -0.079790
0.037699 -0.071105 -0.156548 -0.180186 -0.153106 0.037015 -0.018332 -0.111798 -0.016824 -0.165413 0.100774 -0.028046 0.032488 0.051653 0.041271 0.057879 -0.030782 0.114578 -0.076486 -0.103444 -0.011154 0.068375 -0.161775 0.016197 0.064723 0.059742 -0.166486 -0.060029 -0.005730 0.123203 0.190286 -0.014397 0.093813 0.018914 0.016342 -0.008970 -0.070819 -0.134661 0.103637 -0.043917 -0.078303 -0.018110 0.053673 0.111865 -0.108205 0.028457 -0.116844 -0.018077 -0.031226 0.134704 0.039160 0.067971 0.117199 0.100593 -0.076999 -0.072495 -0.164910 -0.005831 -0.007333 0.097404 -0.046401 -0.003712 0.003618 0.143284 0.034887 0.056304 0.125932 -0.071835 0.024097 0.008249 0.103778 -0.048597 -0.020328 0.010766 0.169284 -0.003196 -0.034276 0.100961 -0.022515 -0.019079 0.057108 -0.135501 -0.127773 -0.103789 0.134896 0.003419 0.019167 -0.007436 -0.065809 -0.006404 0.024210 -0.041540 0.085618 -0.017510 0.027432 -0.093483 0.095964 -0.048560 0.115655 -0.041214 0.037482 -0.067161 0.162090 -0.105539 0.055355 -0.129322 -0.085776 0.007754 0.027490 -0.009257 -0.011446 -0.000816 -0.087493 -0.110074 -0.179028 -0.014000 0.088938 -0.106594 0.107758 -0.022198 0.003837 0.004603 0.160094 -0.086959 -0.034873 -0.160699 0.071377 0.020134 -0.152193 -0.004435 -0.062605 0.041231 -0.177284 0.129313 -0.244887 -0.117980 -0.197011 0.155152 -0.264101 -0.002066 -0.393316 -0.254896 -0.071133 0.020717 -0.208287 -0.398954 -0.056124 0.150491 -0.294211 -0.139366 -0.031258 0.077290 -0.249962 0.042534 -0.028586 0.172980 -0.205457 -0.231850 0.032342 -0.115194 -0.076066 -0.020787 -0.087314 0.017318 0.059319 -0.084928 -0.155425 0.081497 -0.022662 0.019253 0.028370 -0.174104 -0.033197 -0.109356 0.139583 0.138674 -0.062276 -0.226576 -0.021762 -0.161883 -0.276826 -0.173387 -0.067672 -0.154966 -0.412049 0.176281 -0.121440 -0.080103 -0.239908 0.219628 -0.269985 0.085523 0.026395 0.266121 0.037340 0.390717 0.265245 0.516125 0.044471 0.454928 0.268571 0.279790 0.162474 0.405059 0.035395 -0.157620 0.215411 0.191498 -0.214472 -0.035313 0.093141 0.092411 -0.247711 -0.302988 0.033491 -0.089068 0.013159 -0.293396 -0.007019 0.073881 0.161083 -0.002808 -0.015071 -0.023161 0.017485 0.028727 -0.043328 -0.092253 -0.145613 -0.173554 -0.163294 0.035831 -0.240983 0.002853 0.000512 0.059052 -0.185693 0.215866 -0.039683 -0.334205 -0.269687 0.144894 -0.048371 -0.135815 -0.164018 0.221798 0.040307 0.142374 0.149510 0.451619 -0.043917 0.279878 0.330589 0.585704 0.217587 0.341661 0.059053 0.118706 0.187131 0.122331 0.114116 -0.149595 0.202741 0.136027 0.041089 -0.325125 0.144193 0.106595 -0.258789 -0.386603 0.206379 0.019643 0.009743 -0.054865 -0.017477 0.033522 -0.131852 0.053616 0.042239 0.115077 -0.048774 -0.103563 0.079651 -0.160428 0.094913 -0.164080 -0.080097 -0.030770 0.063402 0.106045 0.010948 -0.245128 0.177203 0.156893 -0.039492 -0.296198 0.181735 0.228726 -0.003347 -0.115480 0.193209 0.142073 0.196638 -0.170847 0.109473 0.111410 0.056916 0.091300 -0.161152 0.240076 0.182064 0.011970 -0.018567 0.297590 0.157382 0.024412 0.094910 0.174778 0.196673 0.205057 0.134255 0.202421 0.070059 -0.093344 -0.212846 -0.013845 0.187090 -0.036381 -0.067892 -0.285213 -0.050908 -0.006287 -0.182576 0.137717 0.184469 -0.031843 -0.123443 0.115065 -0.111656 0.141582 0.152184 -0.005471 0.107837 -0.030634 0.357610 0.332623 -0.006927 -0.078710 0.403158 0.190837 0.182574 -0.259104 0.413411 0.006278 0.187366 -0.188455 0.051277 -0.161518 0.313560 0.338938 0.009107 -0.249700 0.040712 0.293865 0.179525 0.419189 -0.058814 0.031283 0.121058 0.537198 0.045270 -0.346624 0.188250 0.359485 0.055343 -0.157284 0.264166 0.447900 -0.041336 -0.326361 0.014821 0.094427 -0.026717 0.000931 -0.062245 0.037545 0.051359 0.043746 -0.108450 0.054906 -0.070862 0.015737 0.083565 -0.075955 0.004095 0.135905 -0.011734 -0.153552 0.206679 0.132363 0.211356 0.210129 0.075790 -0.063184 0.148384 -0.053790 0.135124 -0.183655 0.174527 -0.042245 0.203360 0.127587 0.014399 -0.454189 0.252396 0.361225 -0.032880 -0.063012 -0.202458 0.654474 0.148011 0.110603 -0.020398 0.023858 0.004711 0.369474 -0.096933 -0.260028 -0.088917 0.441482 -0.198138 -0.414274 -0.118001 0.254153 -0.168760 -0.197328 -0.162144 -0.093761 -0.083672 -0.209156 0.107930 -0.273252 0.068218 -0.139591 -0.119775 0.063709 -0.062567 -0.041404 -0.063901 0.117638 0.070944 0.142247 -0.019290 0.080022 0.062212 0.093033 -0.111527 -0.074528 0.193440 -0.179914 0.141390 0.059750 0.204472 0.003423 0.124773 -0.031895 0.149258 0.169541 -0.059707 -0.259435 0.224101 0.601595 -0.168870 -0.461675 -0.175511 0.347397 -0.074761 -0.128360 -0.188293 -0.273214 0.165154 -0.035487 -0.183475 -0.288882 -0.207884 -0.030969 -0.216619 -0.595958 -0.219121 -0.042516 -0.034558 -0.119578 -0.305425 -0.096870 -0.064725 -0.244351 -0.069985 -0.043691 0.050515 0.015652 0.175864 -0.099972 -0.002210 0.151402 0.090197 0.084384 0.020330 -0.163306 0.028462 -0.004437 -0.175461 -0.177143 -0.089529 -0.107094 -0.025866 0.010528 -0.030341 -0.124812 0.189539 0.138721 0.045821 -0.203221 0.080211 0.288792 -0.021866 -0.206134 0.181295 0.320361 -0.191089 -0.378106 -0.147139 0.144392 -0.073603 -0.090598 -0.282810 -0.289508 -0.178281 -0.215186 -0.343301 -0.418247 -0.075776 -0.150086 -0.187295 -0.458444 -0.337412 -0.143751 0.065315 -0.180144 -0.221448 -0.099712 -0.114098 -0.079101 0.070787 -0.114740 -0.090768 -0.005287 -0.081415 0.049523 -0.056695 -0.048515 0.066619 -0.093715 0.089281 0.016969 -0.111142 -0.165736 -0.114199 0.031216 -0.237119 -0.075542 0.113778 -0.167591 -0.043753 -0.289994 0.004072 -0.027715 -0.323442 -0.091445 0.054068 0.252278 -0.334654 -0.300520 -0.082248 0.341909 -0.218451 -0.262616 -0.168460 0.099172 -0.153100 -0.246518 -0.180306 -0.357008 -0.265023 -0.176918 -0.098064 -0.404733 -0.143440 -0.128998 -0.228857 -0.089349 0.080599 -0.050882 -0.007749 -0.095658 -0.028197 -0.150982 0.084313 -0.105378 0.041683 -0.059973 0.130372 0.095593 0.109694 0.064241 -0.060931 -0.025652 -0.055248 -0.036897 -0.025949 -0.150060 -0.020925 -0.133094 0.138868 -0.088356 -0.047231 -0.044855 -0.042410 -0.089148 0.016351 -0.039797 0.026571 -0.092572 -0.108479 -0.003387 0.025119 -0.029499 -0.060457 0.106194 0.156473 -0.241901 -0.106478 -0.109279 -0.057694 -0.272672 0.112550 -0.173729 0.027920 -0.252715 -0.171264 -0.267774 -0.058829 -0.202419 0.027467 -0.212539 -0.061595 0.110699 -0.036815 -0.008354 0.019915 -0.125452 0.109892 -0.030292 0.044308 0.133481 0.088983 -0.002478 -0.081308 0.142589 0.096257 -0.145392 -0.132448 -0.036219 -0.132173 0.065923 -0.050142 -0.045434 -0.062532 -0.037330 -0.126504 -0.042057 0.062650 0.034888 0.062480 -0.006994 0.005453 -0.054027 -0.026725 0.018675 -0.051383 0.116049 -0.089770 -0.172783 0.013101 0.136697 -0.060206 -0.131236 -0.005336 0.248376 -0.164571 -0.194667 0.030983 -0.055215 -0.046940 0.076526 0.179818 0.154490 0.003782 -0.013160 0.095272 0.074719 0.175871 0.120282 0.274093 0.174177 -0.017812 -0.051141 -0.035410 0.017799 -0.041686 0.107796 -0.172124 0.069326 -0.083044 0.078571 -0.059433 0.050674 -0.059900 -0.060429 -0.040030 -0.002189 0.072383 -0.118179 0.107573 0.171231 0.014350 0.025319 0.179143 0.115112 0.012714 0.181846 0.273417 0.153760 0.016514 0.201046 0.236405 0.101187 -0.003311 0.218777 0.329256 -0.017647 0.009441 -0.038175 0.326516 -0.028796 0.039038 0.127575 0.322149 0.074839 0.067832 0.078373 0.192747 -0.037560 -0.153305 0.174450 0.189407 0.171322 -0.078818 0.102854 0.224341 0.207126 0.009831 0.222197 -0.038783 -0.135933 0.102181 0.031772 0.053672 -0.026343 0.007426 -0.075257 -0.178219 -0.029207 0.124214 0.066551
