784.000000
10.000000

0.030258 -0.097652 -0.078825 0.188906 0.029643 -0.043677 -0.023747 0.103668 0.100025 -0.022527 0.056446 0.026176 0.093834 -0.152184 0.020914 0.054429 -0.041665 -0.012703 0.110751 -0.131569 -0.046484 -0.121139 -0.029306 0.050911 -0.090834 0.083681 0.076081 -0.113856 -0.137046 -0.059168 0.121436 -0.099192 -0.008650 -0.100548 0.091700 -0.174029 -0.027725 -0.070533 -0.095023 0.005681 -0.144628 0.085670 -0.085574 0.178359 0.159660 0.078586 -0.048827 -0.024298 0.095469 -0.086250 -0.174726 -0.097056 0.026524 -0.197384 -0.016290 -0.066764 0.039170 0.099129 0.007335 -0.110179 0.097257 -0.014788 0.078620 0.066933 0.009254 -0.011597 0.036846 0.154406 -0.141039 -0.040475 -0.036063 -0.001406 -0.036202 -0.047317 0.030641 0.043361 -0.082967 0.032333 -0.118222 0.116140 0.019152 -0.079318 0.031506 0.167149 -0.152911 -0.152391 0.046864 -0.048296 -0.096386 0.054004 0.165044 -0.066431 -0.285685 -0.005103 -0.080898 -0.051901 -0.241315 0.046940 0.047309 0.146486 -0.034135 0.136056 -0.040376 -0.008509 -0.034106 -0.165695 -0.150693 0.062819 -0.039065 0.046721 -0.123527 0.082935 -0.004109 0.098955 0.134081 -0.075210 0.160465 -0.056044 0.105553 0.072155 0.096035 0.042806 -0.026189 -0.094096 -0.053985 0.014193 -0.064608 -0.148493 -0.088004 -0.107827 -0.017420 -0.088476 -0.065682 0.146141 0.053423 -0.048816 0.071903 0.042903 0.145414 -0.060083 0.130549 -0.068191 -0.001237 -0.014439 0.178839 -0.103251 -0.024909 0.157705 0.171990 -0.045361 -0.066730 0.070928 -0.037087 -0.108972 0.007597 0.088595 -0.044862 -0.010962 0.041634 -0.185323 -0.166691 0.007183 -0.052490 0.142858 0.085255 0.118548 -0.017021 -0.004501 0.072247 0.074226 0.030334 0.038693 -0.090455 -0.097658 -0.046534 -0.000574 -0.037050 0.015060 -0.018179 -0.079934 -0.245911 0.071785 0.122536 -0.060340 -0.121479 -0.029609 0.050375 0.123376 0.001392 -0.015307 -0.054572 -0.028293 -0.007445 0.177215 -0.042294 -0.043479 0.066449 -0.102061 0.151937 -0.072338 0.312356 -0.035353 -0.020053 0.156592 0.387847 0.114659 -0.106769 0.085068 0.065799 -0.045804 -0.026676 -0.078466 0.225058 -0.126513 0.074329 0.039519 -0.005470 0.033879 -0.061175 -0.031140 -0.183660 -0.054809 0.050019 -0.019148 0.095364 0.075327 0.100234 -0.103289 0.023743 -0.003485 0.047616 0.037711 -0.091803 0.017392 -0.054593 0.036408 -0.114480 -0.023076 -0.110182 -0.007116 -0.148592 0.157562 0.070842 0.128609 -0.069596 -0.005531 0.017366 0.058057 0.168582 0.040340 0.103307 -0.020117 0.230020 0.077751 -0.069200 -0.114983 0.538956 -0.125618 0.084094 -0.038735 0.484668 0.000821 0.053583 -0.046703 0.161968 -0.085992 -0.139846 0.066820 0.189470 -0.027221 -0.184661 0.028775 0.187809 -0.070497 -0.069142 -0.042621 -0.167030 -0.192845 -0.126155 0.164822 0.015667 0.186521 -0.165642 -0.070960 -0.067544 -0.153636 -0.001042 -0.021138 -0.079733 0.004898 -0.130922 0.091191 0.041461 -0.027239 -0.012507 0.008605 -0.143286 0.158811 -0.100819 0.083061 -0.014700 -0.024598 -0.000620 -0.014079 -0.011546 0.006493 -0.046996 -0.095976 -0.217740 0.065501 -0.145397 0.102237 -0.345346 -0.094344 -0.138603 -0.115404 0.204189 -0.104430 0.009450 -0.077903 0.148772 -0.047477 -0.085025 0.112292 0.297466 0.096058 0.071150 0.003062 0.489993 -0.105665 -0.166263 -0.169875 -0.111105 0.033608 0.005207 0.040261 0.021321 -0.077547 -0.021491 -0.044659 0.061333 0.042172 -0.021221 0.151241 -0.127210 -0.077294 -0.032102 -0.040876 0.308666 -0.006559 0.034668 -0.060434 0.152612 0.021554 -0.194300 -0.049616 0.151430 -0.047154 -0.057044 -0.104358 -0.059574 0.035787 0.041802 0.160285 -0.772939 -0.069032 -0.067751 0.008244 -1.064094 0.004355 0.150098 0.163727 -0.438280 0.168297 -0.041780 0.001829 -0.097187 -0.122018 -0.064009 -0.034357 0.428751 0.098288 0.029426 0.143987 0.481451 0.069376 -0.023505 0.009798 -0.194348 -0.098457 -0.068227 -0.044778 -0.022572 0.026361 -0.000415 -0.157987 0.005286 -0.087580 -0.192638 -0.075512 0.220982 -0.019958 -0.171836 -0.119784 0.444855 0.097755 -0.059879 -0.129421 0.358134 -0.084902 -0.127249 -0.108298 0.336314 0.004099 -0.016270 -0.010917 -0.013920 0.068187 -0.012301 -0.106002 -1.210682 -0.047582 -0.049339 -0.060975 -0.889375 -0.064213 -0.001170 -0.040657 -0.164739 0.058404 -0.011006 0.098654 -0.067902 -0.071838 0.002828 -0.040164 0.323973 -0.049671 0.067757 0.035079 0.499390 0.090884 0.048381 0.000127 -0.085374 -0.060143 -0.048967 0.075794 0.005426 -0.015143 0.194971 0.106434 0.004845 -0.077884 -0.138680 -0.047967 0.142359 -0.047849 0.094314 -0.131975 0.357076 0.039931 0.130531 0.101124 0.189203 -0.048283 -0.167670 0.125688 0.321796 0.111005 0.027488 -0.106290 -0.348223 0.115129 -0.070859 0.049345 -1.237996 -0.050777 0.001078 0.042277 -0.303638 -0.094618 0.104931 0.091389 0.109169 -0.153029 -0.008380 0.106036 0.099145 0.032395 0.063638 -0.117809 0.224247 -0.079892 0.012259 -0.067165 0.204717 0.084138 -0.011030 -0.013585 -0.070207 0.077773 0.079774 -0.023345 -0.076689 0.051076 -0.129254 -0.012998 -0.064348 -0.002366 -0.014250 0.076998 -0.015682 0.162273 0.005004 -0.026658 0.316481 -0.019597 0.179656 -0.044197 0.249501 0.097343 -0.011640 -0.057531 0.431287 -0.030891 0.069539 0.014119 -0.250538 -0.160738 -0.151249 -0.163026 -0.454719 -0.046777 -0.032487 -0.071558 0.085801 0.056306 0.063195 0.065764 0.182531 0.056974 0.153505 0.113937 -0.006952 0.148039 0.026971 -0.040788 0.100475 -0.041384 0.028905 0.013211 -0.008331 -0.021671 0.086111 -0.068200 -0.050332 -0.026785 -0.028047 -0.035213 0.034374 0.020927 -0.106923 0.006566 0.017670 -0.001300 -0.022637 0.101992 -0.010014 -0.031454 -0.053630 0.007067 0.176697 0.052601 -0.147506 -0.049256 0.070918 -0.120416 -0.129023 0.114782 0.523710 0.006000 -0.043899 -0.068972 0.363422 0.027270 -0.059902 -0.028976 -0.109539 0.015474 -0.066715 -0.012000 0.019945 0.163329 0.036436 0.015821 -0.115208 0.065174 0.054828 -0.034444 -0.121015 -0.025495 0.173046 0.097751 -0.034722 0.086964 0.064692 -0.081627 -0.117116 -0.004364 0.049612 -0.141099 -0.077895 -0.044156 -0.118433 0.045733 -0.087919 -0.051372 0.122006 -0.078648 -0.021534 0.012888 -0.079224 0.031848 -0.185449 -0.054330 0.063296 -0.128120 0.086364 -0.024915 -0.022661 -0.162055 0.169219 -0.116417 -0.086510 0.145775 0.344861 -0.077010 0.107495 0.062290 0.487549 0.108551 -0.046872 -0.032118 0.387632 -0.027052 -0.028157 0.011072 -0.059745 0.022075 0.072691 0.135663 -0.196676 0.121797 -0.113652 0.064119 -0.044107 0.111709 0.033442 -0.082690 -0.128386 -0.040108 -0.042708 -0.092324 -0.048654 -0.123578 -0.097124 -0.121688 0.163902 0.194052 -0.056432 -0.003392 0.172013 -0.040218 0.006134 0.021574 -0.055392 0.010237 -0.125296 0.031196 -0.051625 -0.095675 -0.012711 0.096024 -0.107064 -0.081343 -0.001923 0.015976 -0.135623 0.095610 0.062470 -0.025355 -0.017634 0.163041 -0.033283 -0.144100 -0.016662 -0.055800 -0.060380 -0.002577 -0.077907 -0.139865 -0.050436 0.180080 -0.162546 0.089973 0.102160 0.007708 -0.379359 -0.104084 0.069657 0.034271 -0.342561 -0.078141 -0.011827 -0.010445 -0.090166 0.130181 0.068985 -0.179017 0.052967 0.032876 -0.041576 -0.038385 0.062452 0.007980 0.127808 -0.063016 0.068095 -0.032053 -0.141239 -0.000924 0.140095 -0.040946 -0.094356 0.106272 0.126316 0.055951 -0.149706 -0.162062 -0.164446 0.077557 -0.042205 -0.089335 0.004938 -0.029221 -0.098987 -0.025431 -0.174761 -0.148657 0.122163 0.049598 -0.216072 -0.014736 -0.054336 -0.079237 -0.190501 0.078674 -0.096048 0.080658 -0.101892 0.027269 0.029475 -0.005788 -0.115116 0.038265 0.101435 0.015026 -0.065812 0.060407 -0.105143 -0.134598 -0.168107 -0.007888 0.032318 -0.165638 0.026360 -0.119264 -0.054784 0.101261 -0.034420 -0.035779 0.018580 -0.045091
-0.052791 0.109016 -0.052699 0.029283 0.081207 -0.192124 -0.142658 -0.010606 -0.037169 -0.142273 -0.108521 -0.126967 -0.134162 0.066704 0.087760 -0.039551 0.009479 -0.110738 -0.016287 0.071760 0.035165 -0.044842 -0.077847 -0.139729 -0.036731 0.109856 0.130739 -0.044454 -0.105968 -0.143827 0.040475 -0.160545 -0.044787 0.034323 0.096938 0.116168 0.154034 0.007065 0.070530 -0.058662 0.106485 -0.063066 -0.016417 0.117225 -0.056005 -0.031745 0.033540 0.125925 0.057115 -0.015175 0.038208 -0.064063 -0.009780 0.034865 -0.196902 0.001929 0.061301 -0.066276 0.054531 -0.067316 0.153606 -0.007975 0.065909 0.106338 -0.020284 0.002371 0.007382 0.050852 -0.054255 0.017749 -0.067578 -0.015309 -0.004970 -0.114315 0.035242 0.061428 0.023196 -0.038276 -0.049939 0.002840 0.019834 -0.049566 -0.184381 0.105906 0.159314 0.148437 0.034133 -0.158826 -0.003606 -0.094415 0.091915 -0.197929 -0.023627 0.033997 -0.016106 -0.021470 -0.171890 0.000853 0.005102 0.061985 -0.016367 0.158965 0.046785 0.038490 -0.012237 0.088437 -0.053888 0.100638 -0.157676 0.009960 0.065080 0.119076 0.006275 -0.069247 0.102207 -0.035004 0.201222 0.038618 -0.068565 0.079556 0.058561 0.184600 0.081920 -0.115453 -0.073857 -0.004446 0.142137 -0.124435 -0.075679 0.002257 -0.072759 -0.058500 -0.236392 0.090796 0.049406 -0.061141 0.176972 -0.110076 -0.111977 -0.016628 0.379245 -0.189830 -0.116949 -0.035634 0.292679 -0.058331 -0.015619 0.080082 0.145783 0.023065 -0.012400 -0.122436 0.192738 -0.124756 -0.076249 -0.128032 0.366395 0.033661 -0.114471 0.086930 -0.003458 -0.104819 0.095637 -0.040047 -0.052042 -0.084698 -0.056663 0.128898 -0.107144 -0.146726 -0.024285 0.040757 0.001781 0.106369 0.002758 -0.093343 0.007951 0.040412 0.002533 -0.011699 -0.116323 0.125545 -0.064532 -0.101115 -0.421221 -0.137491 -0.114798 -0.064608 -0.266323 0.009481 0.015001 0.059378 -0.228142 0.075700 0.082849 0.085532 -0.299274 0.171290 -0.114202 0.025572 -0.633069 -0.030127 -0.027195 0.042850 -0.277957 0.109690 0.032915 0.057461 0.126390 0.024624 -0.058802 -0.149257 0.059873 0.050174 0.111873 0.040626 -0.165975 0.088103 -0.068996 -0.089332 0.008535 -0.092569 -0.103566 -0.125165 0.109038 -0.091249 0.198429 -0.020052 0.020819 0.157700 -0.157741 0.003749 0.019315 -0.014097 -0.062271 0.029395 -0.209658 -0.042704 -0.057718 -0.003999 -0.438706 -0.053892 0.098507 -0.148934 -0.362143 -0.064471 0.047589 0.101272 -0.232793 -0.005689 -0.126754 0.000990 0.147412 -0.010540 0.030087 0.107881 0.161603 0.082406 -0.134088 0.004638 -0.075892 -0.153798 0.093607 -0.016110 -0.304901 -0.005471 -0.150760 -0.051472 -0.389513 0.070617 -0.003103 -0.076233 -0.399108 0.041663 0.153301 0.003744 -0.209444 0.053952 0.007152 0.020408 -0.082015 -0.188678 -0.028114 -0.062059 -0.045444 -0.125574 -0.034959 0.064873 -0.151758 0.015366 -0.057216 0.055998 -0.194742 -0.068892 -0.098036 -0.078919 -0.147550 -0.141031 -0.019621 0.082394 -0.229106 -0.118992 -0.033272 -0.180473 -0.309075 0.184545 -0.000327 -0.119242 0.927261 -0.116231 0.026169 0.136578 0.456934 0.035157 0.020002 -0.130904 -0.168126 0.024416 0.002065 0.148594 -0.392231 0.120035 -0.001326 0.072672 -0.375852 -0.084520 0.179966 -0.194195 -0.230709 0.139617 0.035525 -0.168482 -0.175580 0.114599 -0.069336 -0.038177 0.035324 -0.054484 0.158873 0.078637 -0.007368 -0.005369 0.161993 0.070676 -0.036642 -0.031267 0.008904 0.101916 -0.168899 0.102517 -0.022612 -0.062888 -0.171126 -0.003429 0.096613 -0.045112 -0.698884 0.097702 -0.081311 0.065196 -0.246219 -0.082811 0.057572 -0.027173 1.097335 0.092266 0.140345 0.053332 0.438331 0.040840 0.013809 -0.100731 -0.065983 -0.104066 0.067942 0.028414 -0.177668 -0.126878 -0.013171 0.105636 -0.072004 0.109521 -0.166475 -0.032515 -0.019828 -0.030987 -0.124156 -0.017866 0.027568 0.002746 -0.015412 -0.095772 -0.055216 -0.035708 0.078302 0.105157 0.006595 0.055619 -0.097320 0.067339 0.015583 0.079919 -0.026522 -0.042860 -0.141030 -0.092035 0.039096 -0.082868 -0.158424 -0.109539 0.001989 0.002971 -0.712894 -0.002297 -0.003079 0.058751 0.144519 -0.059035 -0.013952 -0.124491 0.959505 -0.165296 -0.060186 -0.130502 0.247021 -0.026368 0.052239 -0.033540 -0.676718 0.177966 -0.070005 0.027746 -0.413226 0.142490 0.130539 -0.180018 -0.285451 -0.033569 -0.081142 0.127223 0.016039 0.134140 0.045157 0.047346 -0.122486 -0.041447 -0.015212 -0.154307 0.036931 -0.039309 0.125923 0.040574 -0.158813 0.000913 0.084930 -0.056432 -0.084572 0.080628 0.175638 -0.083205 -0.406562 0.026422 -0.039193 0.156452 -0.430930 -0.017531 0.168420 0.116519 -0.237152 -0.040568 0.181818 0.029749 -0.042490 -0.068970 0.000650 0.190823 1.033265 0.136162 0.030415 -0.026938 -0.295501 0.196665 0.062458 0.096694 -0.891903 -0.027056 0.170002 0.002024 -0.291659 0.106802 -0.030245 0.074556 -0.143155 0.072980 -0.171690 -0.181823 -0.225394 0.170221 0.062154 0.163449 -0.110483 -0.122693 -0.011944 0.109446 0.131605 0.074529 -0.028432 -0.106449 0.131207 0.061044 0.106463 0.071358 -0.141167 -0.037600 -0.000671 -0.117140 -0.514274 0.070486 0.035608 0.109095 -0.164508 -0.053894 0.034184 -0.044195 -0.240171 -0.020988 -0.124081 0.140089 0.191864 -0.120999 0.026417 0.084593 0.433800 0.162178 0.003511 0.038592 -0.504970 0.081234 0.150952 -0.110701 -0.130191 0.096473 -0.056328 0.026722 -0.126670 0.047351 0.110065 0.019915 0.122815 -0.080212 0.014185 -0.060277 -0.081639 0.097073 0.057219 0.125106 -0.071708 -0.006939 0.070054 0.071061 0.090056 0.003558 -0.047022 -0.034013 0.022633 0.158600 -0.030260 -0.066410 0.071639 -0.101247 0.000497 0.032128 0.033415 0.102229 -0.016697 -0.087176 0.059748 -0.094060 0.043473 0.129300 0.037057 0.011102 -0.130825 0.144144 -0.099146 -0.006944 0.083459 0.141210 -0.293671 -0.083335 -0.032969 -0.134195 -0.016096 0.036984 -0.018911 0.078230 0.358087 0.158204 -0.027345 -0.147176 0.231384 0.069173 0.062502 -0.067648 0.014998 0.111482 -0.077521 0.036495 0.075878 0.041289 0.063296 -0.018575 -0.119602 -0.056351 -0.120054 -0.048607 0.109533 0.070038 0.141292 0.060035 0.079484 0.028067 -0.073453 0.035797 0.093392 0.114331 -0.122343 0.049029 0.297866 0.152717 0.068859 0.019072 0.232515 -0.157472 0.169000 -0.085780 -0.060633 -0.004624 0.045515 0.004244 -0.497465 0.079160 0.039467 0.039408 -0.123258 0.063519 0.043664 0.035893 0.208546 0.054600 -0.144914 -0.012711 0.356089 0.020854 -0.033607 0.043560 0.030212 -0.026605 0.078210 -0.124390 -0.005259 -0.078996 0.053565 0.059210 0.014803 0.002048 0.146190 0.071000 -0.064650 -0.017211 0.025690 0.033275 -0.020022 -0.020262 -0.016523 0.137201 0.082252 0.078570 0.062988 0.127384 -0.065620 0.069068 0.020217 -0.001439 -0.026695 -0.123775 -0.084753 -0.022120 -0.082173 -0.018867 -0.068735 -0.041695 -0.353945 0.146678 0.027254 0.050487 -0.231500 -0.041787 0.187697 0.005516 -0.339428 0.122209 -0.033325 0.089043 0.051406 -0.139448 0.024315 -0.007888 -0.118518 -0.022708 -0.126011 -0.064189 -0.023668 -0.069488 -0.151831 0.118296 -0.201480 0.152229 0.064365 -0.074874 -0.027774 0.037270 0.016370 -0.160333 0.151793 0.034672 0.064223 0.083343 -0.015914 -0.004606 -0.193028 -0.064836 0.017556 0.055091 0.039145 -0.071736 -0.064776 -0.183053 -0.006062 0.167392 -0.180918 0.047658 -0.018465 -0.138815 -0.067307 -0.028286 -0.132528 -0.109162 -0.065715 -0.115866 0.006182 0.155879 -0.200354 0.020603 -0.014843 -0.047305 -0.014947 0.028038 0.054260 -0.187498 -0.069165 0.011479 -0.019433 -0.009924 0.085957 0.047396 0.017852 0.083765 -0.008156 0.114080 -0.116087 -0.040863 0.048126 -0.080944 0.110030 -0.010396 -0.063407 -0.025168 0.070092 0.037887 0.033487 0.061891 -0.177216 0.180708
0.007328 -0.019673 -0.006962 -0.056469 -0.036524 -0.018401 0.142603 -0.005390 0.079039 -0.042194 0.054809 0.101977 0.077119 0.055418 -0.064395 0.020025 0.001892 -0.093435 -0.025051 -0.085262 -0.072822 0.041765 -0.107994 0.073361 0.047105 -0.079278 -0.036535 -0.041959 0.036065 -0.069803 0.000636 0.098887 -0.000188 -0.043954 -0.090015 0.072602 0.113423 -0.155495 -0.070614 -0.032198 -0.057352 0.083684 -0.000744 -0.052530 -0.050216 -0.025647 -0.040207 0.011467 -0.153902 -0.149884 0.111245 -0.058422 -0.099540 -0.010241 -0.066796 -0.081767 0.010006 -0.080457 -0.085681 0.119085 0.138381 0.091400 -0.021152 0.135737 -0.010151 -0.071066 0.010799 -0.085732 -0.023325 -0.141235 -0.025972 0.070790 0.240993 -0.065987 -0.030169 0.177674 0.098100 -0.119124 0.002181 0.050088 0.302534 0.116914 -0.103869 -0.076883 0.217114 -0.172935 0.107437 0.080690 0.010917 -0.029398 0.087137 0.015310 -0.005141 0.063691 -0.011968 0.058096 -0.073312 -0.070487 -0.063347 0.043872 -0.115085 0.083463 -0.003461 0.070854 -0.082102 -0.016249 -0.092368 0.146545 -0.074633 0.077524 0.086062 -0.070518 0.008012 -0.021507 0.009738 -0.100371 0.030152 -0.049557 0.133628 0.002204 -0.019502 -0.116008 -0.152113 -0.084306 0.006825 -0.160472 0.004251 -0.149183 0.255319 0.019114 -0.120869 0.199240 0.440202 0.092126 -0.180831 -0.135329 0.393479 0.072902 0.186195 0.009090 0.229848 -0.191482 -0.195195 -0.151041 0.334704 0.040784 0.059860 -0.031595 0.240324 -0.065811 0.013605 -0.027224 -0.035439 -0.047218 0.017759 0.043440 -0.100219 -0.020415 -0.038820 -0.077178 -0.146616 -0.014998 0.153761 -0.078403 0.106621 -0.052158 -0.069423 0.130337 0.064777 0.135758 -0.163785 0.053102 -0.110647 0.016165 0.104180 -0.038501 0.153258 0.160513 0.028023 0.018242 0.232032 0.057361 0.100794 0.087818 0.175492 0.043300 -0.194892 -0.192843 -0.065931 0.046431 -0.048734 -0.054543 -0.022349 0.112563 -0.191482 0.001502 0.028422 -0.087964 0.008547 0.113455 -0.105997 -0.045118 0.062331 -0.039907 -0.155729 -0.094504 -0.109363 0.083945 -0.117440 0.127226 -0.053814 -0.066858 -0.168164 -0.078571 0.101459 0.013833 -0.240561 -0.067070 -0.021701 -0.068400 -0.122125 -0.158828 -0.017165 0.051008 -0.012072 -0.162608 0.018307 -0.083498 0.202740 -0.142455 0.063052 -0.115298 0.322331 -0.016515 0.117808 -0.056654 0.147800 0.005738 -0.155682 0.139342 -0.054466 -0.027511 -0.076019 -0.048979 0.364656 0.152424 -0.124030 0.002567 0.185606 -0.014858 0.088917 -0.093042 0.336617 0.094613 -0.061377 -0.008373 0.185629 -0.096440 0.000473 0.184680 0.043701 0.108592 -0.055201 0.026019 -0.041012 -0.158100 -0.045152 -0.094893 -0.056503 0.024767 0.045241 0.010928 -0.378125 0.151519 -0.026054 0.079376 -0.023625 0.020339 0.090678 -0.014186 -0.004087 -0.158936 0.062766 -0.040116 0.142580 0.041826 0.019437 0.035998 0.032936 -0.080140 0.013444 0.047476 -0.205553 0.008658 0.140592 0.161276 -0.504566 0.132466 0.043905 0.105984 -0.650634 0.146361 0.163141 -0.080421 -0.839709 0.172927 0.053053 -0.075432 -0.754073 0.183552 0.042663 0.028668 -0.102342 0.029436 -0.097961 0.084169 -0.122724 -0.137748 -0.000884 0.070149 0.111294 0.047264 0.067930 0.166324 -0.085098 0.019931 0.084271 -0.007538 -0.138040 -0.022335 -0.188188 0.009409 0.035908 0.010589 0.017159 0.048002 0.107006 0.027816 0.109943 0.102667 0.058240 0.081268 0.016355 -0.112699 -0.314490 0.113409 0.018005 0.014326 -1.030094 0.041241 -0.055582 -0.018406 -0.858961 -0.082201 -0.108658 0.006136 -0.521528 0.015093 0.047461 0.045364 -0.746868 -0.123815 -0.094728 0.044543 -0.628014 0.041517 -0.033209 -0.088050 -0.450407 -0.148816 -0.105745 -0.012610 -0.341170 0.065902 -0.134637 0.049976 -0.001929 0.017542 0.061370 -0.164633 -0.227339 0.087367 -0.019707 -0.067343 -0.086615 0.121668 0.003403 0.078783 0.245367 -0.009492 -0.006617 -0.109598 -0.152125 -0.149884 0.042220 0.149237 0.022081 -0.173719 -0.023019 0.015448 -0.135843 -0.070214 -0.091012 -0.070267 -0.353356 -0.028633 0.095656 0.154349 -0.199748 -0.081215 0.061386 -0.037471 -0.098823 0.091040 -0.003787 -0.017079 0.212562 0.081603 -0.012534 -0.023762 0.409241 -0.108535 0.134000 -0.040669 -0.124764 -0.003073 0.031303 0.192494 -0.104750 -0.009026 -0.025246 -0.171431 -0.127079 -0.085918 -0.071940 -0.024677 -0.359081 -0.122183 -0.190182 0.084923 0.371054 -0.042533 -0.166972 -0.013224 0.321654 -0.086223 0.039655 0.080289 0.061717 -0.088698 -0.075762 -0.034113 0.064139 0.133846 0.181098 0.035171 0.512415 0.123721 0.093650 -0.065300 0.241154 0.067653 0.138698 0.004521 0.089325 -0.015161 -0.077845 -0.000262 0.055985 -0.053514 -0.100761 0.004383 0.398773 -0.015901 -0.023257 0.116591 0.299795 0.005872 -0.011323 -0.028104 0.146082 0.015288 -0.119829 0.032039 0.177457 -0.093282 0.027343 -0.068862 0.035265 -0.052540 -0.140020 -0.062848 0.203236 0.023683 0.100075 0.010560 0.751278 -0.073447 -0.015196 0.025647 0.488437 0.084983 -0.048138 -0.017215 -0.063315 0.172546 -0.027340 -0.076776 -0.035934 -0.061928 -0.038473 0.087966 0.512817 0.009532 0.018688 -0.169239 0.498861 0.064800 0.093032 0.118407 0.209360 0.031756 0.016260 0.030004 0.374949 -0.051381 -0.006883 0.009352 0.601912 0.020800 0.017428 -0.062946 0.278393 0.136623 -0.033358 -0.018318 0.163396 -0.055411 0.118419 0.134461 0.224837 0.035541 0.065300 -0.094808 0.107902 0.032920 0.016958 0.002033 0.446862 -0.019157 0.021541 0.012821 0.753673 0.072473 0.088700 -0.132210 0.406325 0.012019 -0.078884 -0.022586 0.043208 -0.120075 -0.131827 -0.009610 -0.029823 -0.057298 -0.025566 0.049996 0.190277 0.126380 -0.011813 0.063714 0.259229 -0.184864 0.097371 -0.058518 0.401975 0.043991 -0.013201 0.046801 0.200643 -0.036281 0.036344 -0.064129 0.056305 0.039719 0.004044 0.132648 -0.034613 0.042340 -0.090507 -0.008077 0.001325 -0.124208 0.058454 0.085553 0.228227 0.075794 0.001001 0.000917 0.409642 0.010399 -0.016730 -0.125389 0.403672 0.121215 -0.129513 0.108779 0.538962 0.094580 0.117263 0.056759 0.057367 -0.039433 0.028675 -0.033824 -0.170544 -0.079653 0.061783 -0.018444 -0.006970 -0.088945 -0.055179 0.022712 0.212331 -0.014706 0.023683 0.059489 -0.001880 -0.017220 -0.034801 -0.131471 0.161913 -0.057822 -0.028248 0.120110 0.001093 0.022175 -0.101607 0.023979 -0.014214 -0.117595 -0.059806 0.176851 -0.446237 -0.057410 0.098418 -0.172604 -0.209409 0.039451 -0.065724 -0.082367 0.249425 -0.036543 0.144645 -0.078302 0.392632 0.034042 -0.109327 -0.109854 0.295215 -0.065214 -0.084557 0.073831 0.202489 0.140159 0.018737 0.130019 0.047009 0.028450 0.119873 0.068843 -0.087680 0.056313 -0.062352 0.152751 0.017738 -0.002244 0.034525 0.112258 -0.176390 -0.080883 -0.107240 -0.040552 -0.346372 -0.096500 0.005652 -0.006184 -0.292718 0.129444 -0.122331 0.148752 -0.342686 0.122247 0.082750 0.024650 -0.180256 0.014922 -0.016573 0.130770 -0.141215 0.005158 -0.093783 -0.046139 -0.138272 0.052632 -0.035177 -0.058507 -0.132599 -0.146204 0.038147 0.053662 -0.155953 0.092807 -0.008531 0.057528 -0.074736 -0.144508 0.106422 0.040282 0.146037 0.146456 -0.066164 0.030785 0.164033 -0.062334 0.087398 0.127165 0.025202 0.075106 -0.029059 0.030871 0.004128 -0.052715 0.034946 0.041340 -0.020203 -0.065352 -0.138557 -0.124723 -0.100241 -0.019223 -0.039184 0.025182 -0.118931 -0.107115 0.090745 -0.131013 -0.085827 -0.046236 0.004908 -0.080442 -0.074779 0.022538 0.148141 -0.053480 -0.008751 -0.085732 -0.034700 0.054069 -0.224266 -0.047591 0.029343 0.043924 -0.025582 0.107135 0.015759 0.069163 0.044942 0.044167 0.051872 0.102362 0.086043 0.004934 -0.051511 -0.012162 -0.071871 0.139492 0.103230 0.018741 -0.118615 0.179966 -0.081084 -0.069023
0.021740 0.019319 0.046112 0.163111 0.080967 -0.108154 -0.058709 0.113791 -0.017359 0.033821 -0.008671 -0.052627 0.130173 0.080168 -0.118095 0.062323 -0.028469 0.146525 0.082374 0.048654 0.110861 -0.078315 -0.024041 0.040970 -0.065393 0.013574 -0.004640 -0.070878 0.148687 -0.064725 0.096635 0.125058 -0.109166 -0.008577 0.053289 0.151441 -0.055555 -0.031853 0.122626 -0.094312 -0.037188 0.041184 0.049664 -0.135968 0.001231 -0.065873 -0.002354 0.013957 -0.082071 -0.055115 -0.036089 -0.018282 -0.027305 -0.127256 -0.072333 -0.060214 0.037033 -0.070768 -0.096743 -0.075149 -0.025290 -0.077524 -0.026437 -0.005914 0.078690 -0.058677 0.189734 -0.132132 0.010611 -0.013844 0.084711 0.044062 0.073712 0.078035 0.068919 0.118688 0.239662 -0.031574 -0.011578 -0.083197 0.399486 0.054463 0.101521 0.079007 0.360027 -0.103526 0.077569 0.073138 0.359099 0.000348 -0.003772 -0.071156 0.066564 0.002920 0.065644 0.032011 0.049168 -0.063771 -0.131673 0.072624 -0.175621 0.045320 0.010199 -0.087971 0.020034 -0.176265 -0.164829 0.145335 0.165271 -0.099502 -0.056905 -0.051862 0.074913 0.134077 0.039667 0.193493 0.033953 -0.030850 -0.142876 -0.088257 0.168283 -0.022368 0.055798 -0.118899 0.307358 0.075363 0.011154 -0.022939 0.325830 0.138026 0.181374 0.034345 0.207929 -0.088934 -0.142396 -0.144922 0.233625 -0.074864 0.091468 0.078231 0.211869 -0.050557 0.027285 0.157835 0.176566 -0.121631 -0.034418 -0.119584 0.059068 0.129931 -0.051355 0.020908 -0.101327 0.071056 -0.056118 -0.137412 -0.296932 0.042470 -0.136487 0.016032 -0.078500 0.052940 0.032633 0.076402 -0.043907 -0.110408 0.028939 0.088157 -0.038404 -0.014214 -0.124250 0.070489 -0.101394 -0.114185 0.142045 -0.071804 0.342353 -0.020414 0.054322 0.178571 0.287975 0.031749 0.016265 -0.059315 0.319799 -0.019268 0.062225 -0.025113 0.331165 0.057580 0.092130 0.009070 0.426799 0.166487 -0.034278 0.121301 0.154108 0.098458 0.155063 -0.029558 0.215280 0.023531 -0.070355 -0.134346 0.023010 0.142269 -0.006534 -0.047545 0.084515 -0.042875 0.002990 -0.014705 -0.089971 -0.012445 0.010043 -0.065078 -0.304391 0.086241 -0.014890 -0.034146 -0.020490 0.014289 -0.033651 0.100951 0.146222 -0.031994 0.085279 -0.000866 0.061697 -0.066558 0.064810 -0.155115 0.303438 -0.057133 -0.016378 -0.132626 0.300352 0.044785 -0.013153 -0.128350 0.005077 -0.140913 0.022346 0.020798 -0.263283 -0.008755 -0.056263 0.136857 -0.447750 0.092594 0.039496 -0.132906 0.286685 -0.021136 0.094018 -0.090890 0.357537 0.010161 0.168526 -0.125253 0.228742 -0.061808 -0.113673 -0.012541 0.401695 -0.036256 0.144952 0.052880 0.202203 -0.026862 0.037483 0.036749 -0.312170 -0.069674 0.128200 0.022952 -0.142163 -0.044381 0.043207 -0.080305 0.014134 -0.018302 0.101529 0.115925 0.229316 -0.051141 0.020647 -0.046184 0.149680 -0.115641 -0.108953 0.019170 -0.326845 -0.036662 -0.082371 -0.172356 -0.483504 -0.161029 0.021570 -0.126447 -0.653611 -0.073168 0.080636 -0.084572 -0.509174 -0.102954 -0.082333 0.109617 0.179695 0.063963 0.140624 -0.097465 0.331961 0.097807 -0.095377 0.048962 0.251556 0.038547 0.159447 -0.003314 0.401329 -0.048557 0.043098 0.110220 0.141401 0.109843 -0.020372 0.066224 -0.209533 0.075304 0.034612 -0.003850 0.167169 0.012119 -0.088414 -0.001548 0.070291 0.142774 -0.043853 -0.094908 -0.050442 -0.078130 -0.173052 0.003010 -0.261587 0.024624 0.080571 -0.042978 -0.554615 -0.018844 -0.095897 -0.057794 -0.368044 0.069742 0.059952 0.005611 -0.222361 -0.015128 -0.019935 0.026158 0.158256 0.026339 0.020434 -0.000627 0.644267 -0.145308 -0.106003 -0.064251 0.092873 0.096120 0.074866 0.047945 0.135601 0.012488 0.011642 -0.018572 -0.180875 0.038468 0.023678 -0.059042 -0.504615 -0.002109 -0.020667 0.101344 -0.158181 0.025467 0.010881 -0.127818 0.048843 0.101131 0.110243 -0.095647 0.014645 -0.009071 0.017765 0.006363 0.224868 0.029095 -0.004067 0.019411 -0.026035 0.027389 0.050813 0.026518 -0.401056 0.100607 0.041277 -0.003669 -0.314031 0.039496 -0.013303 -0.085224 -0.055703 -0.019715 -0.068614 0.041243 0.113802 0.096512 0.031171 -0.142465 0.283262 -0.006666 0.116922 -0.117420 -0.102321 -0.124799 -0.148512 0.037946 0.021489 0.112503 -0.006633 0.080271 0.067020 -0.181445 -0.078600 -0.012339 0.048048 -0.129767 -0.020989 0.011391 -0.096887 -0.048568 0.088489 0.196700 -0.036347 0.107771 0.123821 0.004634 -0.176728 0.081886 -0.039739 -0.022968 0.175571 0.197380 0.053372 0.042569 0.157877 -0.077128 0.065917 0.171411 -0.122196 0.094401 0.146782 -0.058259 -0.533191 -0.112017 0.152596 -0.189560 -0.583316 -0.006512 0.085861 -0.041252 -0.325327 0.052482 0.091811 -0.061031 -0.109442 0.185052 -0.026217 -0.188318 -0.203690 0.174192 0.081236 0.004456 0.108088 0.088901 -0.092939 0.108672 0.231540 -0.038697 0.173896 0.093550 0.415440 -0.053150 -0.027012 0.129745 0.082409 0.027179 -0.051208 0.043326 -0.133912 0.022209 -0.149828 0.001198 0.060785 0.044017 0.022757 0.011611 0.146403 -0.024389 -0.142012 0.101546 0.657755 0.001399 -0.161081 0.005080 0.145061 0.011634 0.001640 0.051869 -0.062040 -0.039792 0.148323 -0.090025 -0.352768 0.020474 -0.167788 -0.010719 -0.646407 0.030466 -0.035287 0.038197 -0.316595 0.117924 0.086526 0.124057 0.208514 0.036491 0.113872 0.160140 0.380506 0.092166 0.024029 0.019559 0.203906 -0.089097 -0.086765 -0.090317 0.372816 -0.024895 0.041351 -0.013890 -0.087837 0.087229 -0.023329 -0.090309 -0.214145 -0.005515 0.050426 0.126810 0.160750 0.046886 -0.063455 0.103234 0.098141 -0.018779 -0.157473 0.088160 0.465894 0.109695 0.159318 -0.107043 0.471485 0.014046 -0.183412 -0.138030 0.181942 -0.035319 -0.020660 -0.080415 -0.067331 0.054777 -0.010649 0.049320 -0.163787 0.077673 -0.037267 -0.045963 -0.122965 0.107093 0.120571 0.093852 0.170012 0.061676 0.188452 0.045001 0.399506 -0.030279 0.026058 0.015829 0.244219 0.038308 0.118024 0.115301 0.123026 -0.064474 0.087673 0.056621 -0.132051 0.103651 -0.084451 0.155675 0.022446 -0.084822 0.065388 -0.117391 -0.018750 -0.049096 0.028367 0.043790 0.201984 0.088658 0.102906 -0.113289 0.345021 -0.107818 0.045542 0.013060 0.150352 -0.021588 0.086821 0.048877 -0.003024 0.060332 0.077806 0.110861 -0.039142 -0.054830 -0.160266 -0.110247 -0.102747 0.013017 -0.109350 0.148972 0.060641 0.120532 0.072317 -0.001640 0.126417 0.051151 0.022949 -0.076180 0.169575 0.125239 0.041479 -0.083256 0.186703 0.070187 -0.083875 0.028892 -0.252553 -0.083934 0.015450 0.011392 -0.091101 0.022693 -0.101093 -0.007946 -0.044059 -0.003237 0.132766 0.086767 0.080166 0.009715 -0.010203 -0.164138 -0.009636 -0.000454 -0.028191 0.045901 0.197430 0.064790 0.025513 0.045270 0.449717 0.005812 0.051573 0.151699 0.410813 -0.002067 0.160911 -0.156129 0.305129 -0.028527 -0.026482 0.111849 0.310892 0.030173 0.113067 -0.105767 0.065300 0.011283 -0.178784 -0.020215 0.041128 0.100303 0.076584 -0.012840 0.142063 0.008983 0.136065 -0.032052 -0.184183 -0.013258 -0.096153 0.035816 -0.105774 0.071840 0.157008 -0.140211 -0.034155 0.081426 0.045052 0.075457 0.144272 0.046052 0.069967 -0.013082 -0.075907 0.135908 -0.124147 0.030863 -0.038484 -0.015233 0.013643 -0.005571 -0.007424 -0.066230 -0.069667 0.079757 -0.023915 -0.110186 0.151114 -0.006130 -0.020903 0.036208 0.087643 -0.039930 0.102475 0.032504 0.064816 0.058746 0.256261 0.096386 -0.119478 0.019400 -0.034192 -0.008781 -0.060053 -0.062532 -0.023035 -0.176674 0.026676 -0.056086 -0.045728 -0.067023 0.021634 -0.127923 0.068809 0.009846 -0.136582 -0.010936 -0.100463 -0.123697 -0.075494 -0.133959 -0.044256 0.151714 -0.041162 0.099928 0.009234 -0.127934 -0.023178 -0.110845
0.022161 -0.187284 0.035514 -0.108175 -0.103310 0.084394 -0.103622 0.108917 -0.010272 -0.044463 0.011299 -0.001913 -0.095447 -0.113109 0.028139 0.044448 0.092049 -0.082967 0.141740 0.151987 -0.029395 -0.043071 0.058015 -0.104896 0.035774 -0.018574 -0.119395 -0.013034 -0.107305 -0.007036 -0.071410 0.144727 0.084221 -0.068891 -0.022705 0.023407 0.072995 0.078882 -0.064544 0.090782 -0.013002 0.136523 -0.065308 -0.020849 0.050905 0.062387 0.021087 -0.109796 0.051939 -0.042172 -0.003418 0.017940 -0.083669 -0.006787 -0.113271 0.019011 0.180149 -0.058774 0.022668 0.034313 0.108498 -0.055267 -0.056968 0.044368 0.034764 -0.015100 0.061625 0.092077 -0.054476 0.089500 -0.097606 -0.016445 -0.127775 -0.135064 -0.022874 0.087095 -0.170845 -0.001492 -0.047567 -0.000962 -0.515609 0.041470 0.025142 0.088062 -0.415605 0.147209 -0.007908 -0.088252 -0.380914 0.052921 -0.057450 0.016832 -0.100078 0.060067 0.051215 -0.030666 0.096934 0.148496 0.005984 -0.002011 -0.073806 0.198893 -0.095139 0.041561 -0.081077 -0.116179 0.091929 0.127402 0.019760 -0.076759 0.040712 -0.181390 -0.113328 0.125388 -0.118652 -0.046189 0.083216 -0.048214 -0.010137 0.045078 0.043249 -0.059927 0.114751 0.036765 0.173520 -0.054237 0.103368 -0.025265 0.023259 -0.045563 0.052883 -0.151372 -0.034406 -0.072675 -0.130626 0.095748 -0.213431 0.021283 -0.122040 0.127523 0.012857 -0.052057 -0.065844 -0.069940 0.076763 -0.006233 0.169904 -0.101519 0.317072 -0.070005 -0.070115 -0.107220 0.123782 -0.046939 -0.022925 0.034241 0.254252 -0.060121 0.086193 0.011454 0.315663 0.009533 0.141765 -0.088791 -0.057021 0.063624 -0.004467 -0.083906 -0.106976 0.010049 0.010471 -0.038567 0.147176 0.070009 0.061185 -0.083422 -0.007687 -0.103296 -0.042920 -0.120148 0.295878 0.078730 -0.049303 0.020168 0.130174 -0.046340 -0.013585 -0.049160 -0.121854 -0.058408 0.002631 -0.078290 -0.362440 0.001511 -0.093982 -0.096797 -0.468847 -0.049519 -0.044829 0.042734 -0.634647 0.120242 0.042255 -0.000515 -0.349078 -0.041846 0.064147 0.159059 -0.207437 0.181468 -0.062113 0.071856 0.474070 -0.032426 -0.017154 0.055777 0.496307 0.055556 0.058479 -0.022713 0.060181 0.035265 0.015704 -0.049692 -0.199573 0.127594 0.050857 0.057766 0.100384 0.012180 -0.080332 -0.066991 -0.072241 0.183135 0.061068 0.179199 -0.111421 0.004104 -0.035229 0.120149 -0.032685 -0.103970 0.041453 -0.154632 -0.214595 -0.047004 0.027354 0.069468 -0.233754 -0.008456 -0.120908 0.001135 -0.743918 0.028614 0.180650 0.048608 -0.549726 0.077240 -0.024509 -0.169818 -0.186271 -0.068079 0.083777 0.007101 -0.013927 0.168489 -0.070351 0.009006 -0.003774 -0.041272 0.172145 0.176636 -0.050886 0.045513 -0.120972 0.017559 -0.155119 0.035857 -0.085590 -0.006501 0.061204 -0.090562 0.012002 0.014197 -0.100924 0.151758 -0.011045 -0.007421 -0.272784 -0.132095 0.088250 0.104341 -0.265445 -0.087638 0.132817 -0.119875 0.101279 -0.136624 -0.002555 -0.026444 0.454066 0.027189 0.040252 -0.001892 0.401929 0.097043 -0.010335 -0.054548 -0.700010 -0.057926 0.054149 0.188887 0.139864 0.156332 -0.075288 0.012856 0.071897 0.047054 -0.013980 -0.036135 -0.244333 -0.077909 0.066747 -0.025328 -0.247884 0.186510 -0.050828 -0.076836 -0.337735 0.048523 -0.036377 0.104424 -0.143721 0.044444 -0.005939 0.075281 -0.090072 0.039862 -0.110576 -0.090166 -0.207440 0.150805 -0.046777 -0.089477 -0.023791 -0.081891 0.054991 -0.097072 0.417565 -0.127232 0.027613 -0.108601 0.489947 -0.109544 -0.088862 -0.019165 0.725617 -0.117756 0.171662 -0.033238 0.879257 -0.021763 -0.122652 -0.020150 -0.281383 -0.139542 -0.048410 -0.004507 0.540911 0.002657 0.094407 0.078131 0.058273 -0.157888 0.083113 0.063965 0.346654 0.142653 -0.089679 -0.011931 0.203350 -0.002542 -0.081424 -0.083059 -0.028744 0.135877 -0.115352 0.023427 -0.063334 0.020354 -0.034984 0.178078 0.044589 -0.103160 -0.008065 0.006776 -0.141959 0.115802 -0.116893 -0.031254 0.169415 0.123723 0.140327 0.086400 0.719602 0.017863 0.026265 -0.166332 0.644387 -0.096690 0.032281 -0.077052 0.495896 -0.138416 0.093807 0.172412 0.118552 -0.076290 -0.058311 -0.132352 -0.208036 -0.029468 -0.070942 0.030194 0.666421 0.120672 -0.109165 -0.089021 0.480263 0.102175 -0.011023 -0.028052 0.532716 -0.058868 0.028441 0.023323 0.233600 -0.011645 0.034350 -0.183874 -0.118624 -0.161502 -0.079300 -0.055373 -0.062946 -0.043038 0.090033 -0.073896 -0.004152 0.019209 -0.034623 0.102357 -0.216668 0.015882 0.067342 0.030402 -0.057000 -0.155360 -0.017933 0.081817 0.204795 0.011659 0.047055 0.092104 0.313545 -0.103247 -0.012487 0.077290 0.040097 0.009255 0.026966 0.149084 0.040865 -0.087031 0.041766 0.002459 0.545302 0.153683 0.042957 -0.061998 0.735659 0.099050 -0.058074 0.049104 0.208646 0.100791 0.051941 -0.078370 -0.097923 -0.113471 -0.149037 0.024749 -0.142299 0.010408 -0.011892 -0.063621 -0.188706 0.035952 0.058636 0.108215 -0.064584 -0.119048 0.084651 -0.056492 -0.129115 0.030377 0.003124 -0.103524 0.044019 0.055319 0.071807 -0.180143 -0.229165 0.129789 0.022155 0.041259 -0.364720 0.005787 0.022387 0.120445 -0.293662 -0.023061 0.070899 0.044416 -0.493905 0.043376 -0.062901 -0.136395 -0.160092 -0.004545 0.076210 -0.017124 0.226937 -0.013975 -0.103150 -0.019082 -0.063140 0.065851 0.037782 0.023812 -0.360272 0.021986 0.169799 0.096849 -0.410468 0.010959 0.103746 0.076434 -0.441902 0.002186 0.064270 0.002730 -0.162419 0.046019 -0.000303 -0.064184 -0.085584 0.082044 -0.110532 -0.102653 -0.050246 0.061977 -0.063771 -0.037733 -0.011983 -0.134705 -0.121249 0.120951 -0.189165 -0.087054 0.071648 0.006728 -0.528486 0.046331 -0.028008 0.086795 -0.521010 0.025300 0.048470 0.060983 -0.659373 0.122653 0.084514 -0.143860 -0.408089 0.106376 -0.052277 -0.030061 -0.207452 0.091424 0.059372 0.129092 -0.129458 0.114615 0.150562 -0.026350 -0.326925 -0.112908 -0.038989 -0.028016 -0.156533 -0.010565 -0.113972 0.089969 -0.130505 -0.119971 0.120090 -0.183299 -0.075161 -0.125373 -0.157748 -0.048808 0.104317 -0.040391 -0.109481 -0.065418 -0.040717 -0.060989 0.004382 -0.095676 0.131453 -0.011318 0.157223 0.071869 -0.239825 0.103398 0.055439 0.005105 -0.230360 -0.063900 -0.061723 -0.092118 -0.290341 -0.057299 0.066985 0.018380 -0.171239 0.051647 0.158753 -0.097137 -0.044039 0.019694 0.142280 -0.027791 -0.149966 -0.060270 0.010275 -0.061362 -0.079001 0.152162 -0.057972 0.067427 0.299576 -0.048816 -0.163118 0.025780 0.345679 -0.011016 -0.105466 0.079410 0.010929 0.020919 -0.167992 -0.145070 -0.060954 -0.123128 0.095773 -0.090222 0.108962 0.146161 0.059279 -0.172356 0.027255 -0.022191 0.056044 -0.030731 0.147879 0.106642 0.073865 0.019542 -0.113630 -0.091241 0.113683 -0.109184 -0.187973 0.115646 0.035378 -0.005085 -0.089624 -0.109685 -0.080668 0.013051 -0.034887 -0.024601 -0.131888 -0.017651 -0.227331 0.058543 0.192759 -0.147504 -0.086348 -0.016181 0.156962 -0.056503 -0.149600 0.039202 0.077771 0.018566 -0.092595 -0.020073 0.130958 0.082449 0.014083 -0.065252 -0.151074 -0.000720 0.144512 0.051805 0.079676 0.147139 -0.058565 -0.027234 -0.062478 -0.104560 0.179691 0.171258 0.013502 0.016274 0.158633 0.041152 -0.077152 -0.115678 0.007881 0.026702 0.056820 -0.051179 0.124737 -0.143275 -0.043535 0.027263 -0.053950 0.045233 -0.032255 0.008931 -0.359325 0.050535 -0.118129 0.064296 -0.271924 -0.057985 -0.095416 0.090049 -0.355545 -0.068199 -0.021918 -0.048250 -0.386485 -0.042544 0.070664 0.008914 -0.468843 -0.040704 -0.028367 -0.020146 -0.342094 -0.092617 -0.039093 0.108812 -0.306172 -0.042172 0.030353 -0.073451 -0.073947 0.115243 -0.042002 0.119151 0.102436 -0.075023 0.143495 0.029114 0.114950 0.028014 -0.075824 0.008036
-0.076208 -0.114385 -0.029181 -0.086807 0.047315 0.008630 0.069611 -0.074717 -0.040945 -0.163132 -0.094727 0.062519 -0.167720 0.073460 -0.059565 -0.168716 -0.192224 0.062125 0.031694 -0.119790 0.081130 0.083940 0.069650 0.028259 -0.040204 -0.008796 0.134921 -0.062964 0.057601 -0.050075 -0.053236 0.014319 0.155511 0.085298 0.000970 -0.001049 0.090633 -0.192598 -0.137057 0.008721 -0.097124 -0.061639 -0.051949 0.035053 0.115519 -0.112886 -0.037570 -0.099825 -0.026232 -0.013247 -0.065600 -0.004572 0.086591 0.047576 -0.000596 0.072159 -0.018408 0.027277 -0.083148 0.116768 -0.131619 -0.007558 0.071030 -0.097861 -0.011770 0.020837 -0.041550 0.041648 -0.000658 0.101962 -0.014200 0.066454 -0.000019 0.144995 -0.049420 -0.046841 -0.198574 -0.006379 -0.147247 0.183645 -0.166874 -0.085508 -0.161228 -0.003824 -0.054893 0.055495 0.067968 0.007047 0.065711 0.019229 0.194179 0.040849 0.144871 -0.117586 -0.086352 -0.049959 0.038844 0.014358 -0.107545 -0.037125 0.199984 0.064100 0.070359 -0.061897 -0.105706 0.198734 -0.018796 -0.156775 -0.001608 -0.051428 -0.061053 0.030162 -0.067867 0.117825 -0.119846 -0.080439 -0.154888 0.069080 0.099978 -0.001185 -0.226828 -0.007055 -0.061814 0.111635 -0.141015 0.000145 -0.044267 0.038965 -0.108815 -0.125637 0.116614 -0.079210 0.044721 -0.010211 0.007839 -0.090823 -0.030233 0.007789 0.086039 -0.077366 -0.068014 0.082538 0.007912 -0.030695 -0.111196 0.000081 0.002201 -0.013231 0.114886 -0.018146 -0.009906 0.008350 0.001553 0.133348 0.188261 0.084638 0.149927 -0.045327 0.151424 -0.168287 0.296090 0.010089 -0.016111 0.066357 -0.003388 -0.152279 0.074340 0.000808 -0.075037 -0.020884 -0.040405 0.019449 -0.070895 0.162627 0.014651 0.081196 -0.309183 0.009579 -0.188991 0.110271 -0.243586 -0.157910 -0.093361 0.055450 0.072925 -0.035245 0.076803 0.137071 0.179759 -0.071848 -0.013621 0.081451 0.060834 0.122054 -0.091601 -0.009956 -0.100471 0.174783 0.002130 -0.031525 -0.017495 0.174138 -0.060897 0.007598 0.149757 -0.040016 -0.032963 -0.141984 0.161126 0.021524 -0.069771 0.011041 0.221966 0.068742 0.003432 -0.043168 0.568271 0.002742 0.065064 -0.064951 0.405338 0.103785 0.042360 0.091009 -0.000837 -0.171376 -0.004205 -0.123502 -0.132708 -0.057584 -0.114717 -0.047091 -0.449401 -0.128652 -0.008008 -0.043558 -0.117457 -0.144939 -0.021153 0.090576 0.220026 -0.093849 -0.096494 -0.075840 0.330309 -0.023281 -0.044683 0.097432 0.210803 0.045175 -0.055647 -0.101125 -0.397563 -0.132393 -0.022755 -0.019394 -0.536777 -0.041734 0.000827 -0.019097 -0.365761 -0.042020 -0.035165 -0.174803 0.138681 -0.136840 0.021768 -0.011120 0.358966 0.019195 0.037048 -0.108430 1.264784 -0.036740 0.121108 -0.080686 0.722058 -0.140840 0.151206 0.121926 -0.060878 -0.021808 -0.092207 0.135621 0.010373 -0.043735 -0.053815 -0.020356 -0.024866 -0.034126 -0.135132 0.080869 0.200718 -0.010591 -0.097704 0.007005 0.327966 0.018719 0.038107 -0.030715 0.286702 -0.106484 0.100699 -0.087217 0.717749 -0.023897 0.051744 -0.091407 0.184878 -0.153585 0.187960 -0.082776 -0.343704 0.101288 0.016518 -0.026702 -0.420599 0.080858 0.161367 0.069837 -0.613813 -0.028786 0.083408 -0.017275 -0.637178 -0.015545 -0.099849 -0.056987 0.858221 0.054768 0.151526 -0.019570 0.544924 -0.179527 0.030725 -0.070393 0.119442 -0.025840 0.104641 -0.122749 0.113612 -0.018990 0.021211 0.133957 0.058545 0.114145 0.108542 0.014622 0.375097 0.119904 0.088013 0.000257 0.222867 -0.032586 0.091158 -0.013028 0.473767 0.056803 0.113443 -0.159802 0.690116 -0.123125 0.001753 0.098964 0.226513 -0.043711 0.078778 0.082313 -0.501912 0.102857 0.023894 0.084981 -0.473548 0.044742 0.110120 -0.030725 -0.423992 -0.042313 0.013272 -0.158806 -0.918838 -0.031371 0.050055 0.078699 -0.580160 -0.060761 -0.071462 0.018410 0.024058 0.077761 -0.008534 -0.182218 0.117683 0.092682 -0.054755 -0.080227 0.067547 -0.045673 0.089723 -0.136066 0.103645 -0.065930 -0.102959 0.074121 -0.013758 -0.096371 0.035234 -0.053813 0.011301 0.041063 -0.113256 0.047813 0.559817 0.126102 -0.058757 0.028261 0.150523 -0.092434 -0.020932 -0.055061 -0.272288 -0.062681 0.004977 -0.007338 -0.650798 0.091379 -0.021460 0.122312 -0.260205 -0.093892 -0.009823 0.074526 0.054618 0.134774 0.104282 0.128319 -0.134582 0.016970 -0.173085 0.091744 -0.279839 0.018448 0.026185 0.038006 -0.065049 -0.038457 -0.067441 -0.081605 0.046134 0.034608 -0.054346 -0.018370 -0.047590 -0.086495 -0.051921 -0.059359 0.142295 -0.049311 -0.184567 0.005576 -0.012855 0.174967 -0.071116 -0.032684 -0.236587 -0.012957 0.003484 0.042670 -0.404519 0.030642 -0.042312 0.121802 -0.435497 -0.027993 0.197440 0.020737 -0.492444 0.017460 -0.095472 0.135180 -0.268905 0.086666 -0.120770 0.036446 0.001632 0.096522 -0.197439 0.005435 -0.102008 0.020963 0.108400 -0.030580 -0.095984 -0.155797 0.016624 0.077059 0.165702 -0.006302 0.031431 -0.064292 -0.174211 0.130688 -0.048617 0.010003 -0.051021 -0.019195 -0.042714 -0.180197 0.034848 0.101667 0.013587 0.031790 0.365950 0.006933 -0.026943 -0.158988 0.709585 0.024098 0.044947 0.068856 -0.032021 -0.006451 0.034657 -0.092772 -0.127069 -0.003414 -0.056612 0.134033 -0.174970 -0.059245 -0.066622 0.022629 -0.084990 -0.176972 0.032993 -0.013913 0.132562 0.024950 -0.025215 -0.030539 0.086391 -0.045407 0.009987 -0.090186 -0.077046 0.000727 -0.065011 0.102462 0.248346 -0.130978 -0.012251 -0.063825 0.261986 -0.163779 -0.011782 0.140302 -0.035759 0.028990 0.115841 -0.104228 -0.038514 -0.179739 0.011504 0.158320 -0.128675 0.052535 -0.050141 0.024235 0.158720 0.027185 0.082879 0.089300 0.194773 0.107220 0.189123 -0.005805 0.417546 0.111961 -0.023274 -0.059867 0.260594 0.009973 0.049122 0.022858 0.163140 -0.065608 -0.073694 -0.096454 0.106477 -0.088869 0.126055 0.030542 0.134375 0.093100 0.036409 -0.167929 0.300647 -0.044560 0.151929 0.052115 0.255370 -0.083357 0.036307 -0.011092 0.428224 -0.004543 -0.023794 0.026694 0.272295 -0.018560 0.096334 -0.026674 0.070492 0.014864 0.113264 0.141932 -0.010508 0.042220 0.183973 -0.088672 -0.002710 0.010986 -0.030074 0.019237 0.111761 -0.002327 0.136480 -0.064570 -0.193729 -0.059128 0.070161 0.016160 0.075668 -0.007027 -0.049028 -0.016483 0.062248 -0.102173 -0.055716 0.093051 0.295433 0.148761 0.122653 0.038038 0.096296 0.041294 0.004651 -0.006097 0.220085 0.000470 -0.016995 -0.017209 0.004580 -0.084129 -0.014322 0.141669 0.230631 -0.153086 0.098809 -0.056695 0.294091 -0.075495 0.059608 -0.108124 0.090897 -0.030564 0.018657 0.145645 -0.103539 -0.064580 -0.086950 -0.064436 -0.142568 0.077230 -0.076767 -0.039407 0.028833 -0.048280 0.134660 -0.149744 -0.026119 -0.038994 -0.049236 0.044045 -0.044424 -0.060452 -0.112354 0.179279 0.088713 0.066702 0.040999 0.014803 0.242204 0.060035 0.085885 0.145791 0.339461 0.029778 -0.112430 -0.119680 0.189255 0.087313 0.037050 -0.196171 0.245789 -0.064480 0.003492 0.049120 0.024017 -0.078344 0.060504 -0.137659 -0.057313 0.184456 0.078325 -0.005373 0.111371 -0.085420 -0.041540 -0.034991 0.019183 -0.032791 0.076379 -0.126458 -0.072723 -0.132078 0.027510 -0.150881 0.027343 -0.098272 0.085877 0.000675 -0.089304 0.139345 0.195399 0.039086 -0.012918 -0.051107 0.085223 0.050652 0.022500 -0.138752 -0.066008 -0.052072 -0.015457 0.154274 0.148775 -0.140999 0.081091 0.006751 -0.046439 0.033351 -0.013681 0.189199 0.005880 0.097403 -0.009426 0.152700 0.104396 0.107840 0.057194 -0.172210 0.019988 0.093381 0.102156 -0.112048 -0.185919 -0.132767 -0.134825 -0.111809 -0.038667 0.139185 0.010214 -0.023886 -0.018086 -0.105552 -0.071592 0.135402 -0.057716 0.148789 -0.002906 0.157502 0.118619 0.046010
-0.162069 0.051312 -0.154204 -0.077815 0.145705 0.084991 -0.053706 0.031779 0.161093 -0.043781 -0.106992 0.042575 0.083061 -0.038323 0.073727 -0.138183 0.007879 -0.027996 0.043589 0.038078 0.221332 -0.014608 0.084477 0.172933 0.133717 0.150003 0.132607 0.097518 -0.103211 0.099292 -0.007804 0.057346 0.200097 0.006772 -0.127890 0.055055 0.062507 0.165076 0.120525 0.060142 -0.045510 -0.149611 0.004869 -0.015047 0.061166 0.139177 -0.077969 0.073575 0.063888 0.025282 0.003203 0.030522 0.005169 -0.137341 0.098412 -0.139633 -0.063213 0.129296 -0.177448 0.006129 0.046734 -0.061507 0.099668 -0.025770 0.060069 0.049506 -0.090415 0.017984 0.124122 0.115639 -0.078257 0.076021 0.227185 0.083189 -0.004492 -0.153215 0.321564 0.057663 0.108428 0.024499 0.448475 0.032682 -0.038967 -0.000086 0.327071 -0.136473 -0.020387 -0.137747 0.324025 0.133021 0.055227 -0.051939 0.334782 -0.004789 -0.149345 -0.079939 0.379813 -0.152963 -0.125114 0.021303 0.348954 -0.090119 0.057579 -0.134594 0.102337 -0.096899 -0.125830 0.093578 -0.077097 0.024847 -0.052517 0.127122 -0.017306 0.067011 0.094420 -0.025431 -0.103582 -0.001377 -0.138058 -0.048275 -0.042937 -0.080538 0.092706 0.031624 -0.042853 0.058207 -0.144179 -0.087867 -0.000068 0.088645 0.120040 0.156230 -0.023075 -0.040658 -0.018504 -0.003968 -0.326380 -0.091950 -0.030102 -0.004137 -0.225288 -0.038862 0.144832 0.032553 -0.166417 -0.021415 0.099977 0.028120 0.202518 -0.007236 0.000630 0.083384 0.248650 -0.081806 -0.036658 -0.169796 0.152615 -0.124459 0.059083 -0.115876 0.219357 0.054386 -0.093283 0.057403 -0.066649 0.056851 -0.028374 0.065990 -0.111421 0.081726 0.024750 0.004253 -0.180055 0.073933 0.000408 -0.030660 -0.118344 -0.074454 -0.021807 -0.018053 -0.211359 0.099317 -0.021875 -0.162993 -0.133110 0.125504 -0.045242 -0.071218 -0.382762 0.075126 -0.069250 0.099170 -0.400999 -0.002591 -0.042189 0.084604 -0.295510 0.048815 0.066623 0.095267 -0.310068 -0.063958 -0.011973 0.125850 -0.523704 -0.173231 0.000639 0.010477 -0.374507 -0.139472 0.064040 -0.134553 -0.200563 0.045408 0.028504 0.079542 -0.101146 -0.047384 -0.028812 0.043696 -0.107950 0.071254 0.003089 -0.089554 0.109410 -0.065123 -0.004882 0.086804 0.012240 -0.045960 -0.017392 0.027988 -0.015268 -0.094046 -0.038132 -0.108541 -0.251519 -0.038392 -0.055790 -0.106262 -0.201294 0.088156 0.174799 -0.076859 -0.279120 0.102306 -0.123871 -0.114040 -0.356201 -0.015941 -0.037754 -0.071443 -0.264681 0.062690 -0.113344 -0.061297 -0.699323 -0.116314 -0.054337 -0.010459 -0.853393 -0.029543 -0.090406 -0.027320 -0.698134 0.024937 0.111552 -0.052713 -0.573346 -0.147773 0.112456 -0.125668 -0.451733 -0.029545 -0.032625 0.055744 -0.147885 -0.085003 -0.095900 -0.014715 0.002779 0.035966 0.168087 0.159375 0.062864 -0.077077 0.060883 0.008825 -0.184891 -0.074790 -0.071949 0.111930 -0.031591 0.019676 -0.004971 0.164612 0.071317 -0.107870 0.127969 -0.059453 -0.116028 0.000241 0.196043 -0.046962 0.038422 0.151894 -0.090481 -0.082199 -0.417405 0.006241 -0.152737 -0.055592 -0.735034 0.127396 0.098573 -0.156418 -0.623510 -0.079595 0.034015 -0.123916 -0.251569 -0.011089 0.116956 -0.006877 -0.085257 -0.059317 -0.028290 -0.170492 -0.214435 -0.180434 0.132409 -0.000306 -0.313530 0.130079 -0.028518 0.023159 0.114683 -0.029079 -0.088023 0.042665 0.009530 -0.038829 0.049772 -0.063647 -0.011301 -0.091043 -0.025031 0.033517 0.328332 0.000631 -0.121749 -0.062809 0.142398 -0.048946 0.084136 0.121397 0.223081 0.104463 0.028381 0.037643 0.204756 0.022721 -0.015681 -0.134505 -0.193702 0.059920 -0.080828 -0.086517 -0.208604 -0.010911 0.157661 -0.116250 -0.158664 -0.129004 -0.032602 0.039495 0.008123 0.126345 -0.036650 0.115843 0.582787 0.144726 -0.014511 0.076718 0.457574 -0.015671 -0.090185 -0.076598 -0.145566 -0.032270 -0.020494 -0.173719 0.047860 -0.058891 -0.021678 -0.133980 -0.018441 0.063607 -0.053844 0.067845 0.005585 -0.030895 -0.066033 0.113320 0.287447 -0.065836 0.076180 0.094900 0.251937 0.006270 0.025301 -0.043178 0.463261 -0.064131 0.026886 -0.007466 0.180069 -0.160809 -0.058581 0.002626 0.281111 0.063155 0.112420 -0.121288 0.064103 0.062076 0.011015 0.048573 -0.296732 -0.062701 -0.020309 -0.079269 0.041667 0.006999 -0.119812 -0.019826 0.418128 -0.074404 -0.098868 -0.052454 0.309804 -0.026391 0.027904 -0.027765 -0.142089 0.058156 -0.020669 -0.011294 0.064629 -0.092481 -0.023283 -0.158614 -0.140381 0.058929 -0.010165 0.015547 -0.231218 0.043914 0.031115 0.164697 0.194945 0.016645 0.011908 0.000487 0.379603 -0.108708 -0.080263 -0.119203 0.855422 -0.029297 0.034372 0.049041 0.512731 -0.192108 -0.073341 -0.015177 0.283942 0.064467 0.022417 -0.059242 -0.153758 -0.053895 0.145489 -0.037455 0.041528 0.155494 -0.116545 -0.023538 0.201955 -0.056932 0.003191 -0.069487 0.025821 -0.022259 -0.026690 0.000166 0.059680 0.039117 0.050609 -0.082264 -0.146618 -0.002383 -0.118637 0.049321 0.025693 0.037178 0.149849 0.127541 -0.060601 0.032537 0.072674 0.057700 -0.379981 -0.058221 -0.129244 -0.094389 -0.005776 0.144526 0.077489 -0.104874 0.315290 0.109109 0.024879 0.012348 0.694307 -0.191395 0.110378 -0.026051 0.432814 0.024740 0.075094 0.076598 0.015786 0.082565 0.141323 0.011162 0.222348 0.048958 -0.077404 -0.143028 0.464164 -0.100317 0.039171 0.100091 0.320547 -0.081208 0.067539 0.175531 0.028469 0.050669 0.020991 -0.139622 -0.067030 0.114115 0.135116 0.033372 -0.151673 -0.099570 0.120612 -0.107324 0.133392 0.176993 -0.133953 -0.067306 0.148722 0.155677 -0.176621 0.002026 -0.391860 -0.016472 0.023621 0.015838 -0.249017 -0.081111 0.165624 -0.019934 0.115244 0.117358 -0.191877 -0.043757 0.545332 0.053688 -0.161747 -0.063532 0.921315 -0.116556 0.029045 0.065136 0.704845 -0.133022 0.045110 0.065398 0.602116 -0.052633 -0.095612 0.036350 0.355128 -0.053644 -0.100189 -0.005080 0.077069 0.002709 -0.076937 -0.121683 -0.043292 -0.057059 -0.029971 -0.036145 -0.082681 -0.050621 0.079501 -0.044009 0.089769 -0.067346 0.003756 -0.109843 -0.147598 0.024186 0.021528 -0.014992 0.042578 -0.096710 -0.050385 -0.041243 -0.002448 -0.109493 -0.041335 -0.016965 -0.426210 -0.048275 0.019136 0.066633 -0.286471 -0.119158 0.163098 0.155929 -0.048838 -0.102227 0.053273 0.048696 0.074717 -0.139890 -0.177510 0.081917 -0.025712 -0.085996 0.070924 0.039190 -0.137849 -0.018295 0.061645 -0.014217 -0.097890 0.059531 -0.050435 0.058717 -0.104535 -0.042043 0.057084 -0.073392 -0.117562 -0.022908 0.021461 -0.079737 -0.103377 0.053360 0.059356 -0.029065 0.069564 0.036287 -0.153369 0.096575 0.088918 -0.021376 0.042188 -0.010235 -0.062521 -0.043835 -0.066405 0.023739 0.056044 0.009536 -0.096575 0.111232 -0.042605 0.041475 -0.052919 0.038926 -0.186161 -0.001183 -0.009326 -0.010689 -0.369642 -0.056371 0.013877 0.122679 -0.417403 -0.084795 0.025237 0.195106 -0.417196 0.033080 -0.088605 -0.030526 -0.377651 0.135145 -0.023339 -0.132663 -0.184569 0.047360 -0.006753 -0.103701 -0.084082 -0.007433 0.078121 0.087979 -0.064615 0.053699 0.147754 -0.147673 -0.016466 0.023777 -0.010873 0.008462 0.127435 0.119028 -0.032377 0.061442 0.135362 -0.009653 0.064772 -0.049680 -0.027273 -0.098758 0.013310 -0.122601 -0.167861 0.017308 0.147984 0.013733 -0.028983 0.119731 -0.065795 0.097444 -0.056524 0.093070 0.023477 -0.042377 0.096318 -0.111336 -0.005483 0.033972 0.120609 0.122979 0.002805 -0.018203 -0.203496 -0.171686 -0.058908 -0.002757 -0.062394 -0.057124 0.118357 0.175234 -0.141465 0.044611 0.017127 -0.123967 -0.189856 0.107043 -0.003418 0.046563 0.144648 -0.051015 -0.064325 -0.110553 0.028459 -0.010568 -0.106026 -0.172647 -0.034724 0.011437 -0.010749 -0.098367
-0.076198 -0.094908 -0.068917 -0.112476 -0.100632 -0.031244 -0.022527 -0.093082 -0.008116 -0.093572 -0.155001 0.144414 -0.079691 -0.004862 -0.065499 -0.011496 0.001260 0.009774 -0.172048 -0.078038 -0.044760 -0.125970 0.034669 0.047560 -0.079016 -0.043523 0.079353 0.014853 0.045059 -0.027022 -0.171960 0.080880 0.000323 -0.067861 0.108749 0.042383 -0.085019 -0.070004 0.023978 0.124949 -0.079199 -0.077388 0.039145 0.147523 -0.081554 0.065950 0.043351 -0.005828 -0.072307 0.153167 0.079491 -0.134921 -0.080417 0.141924 0.075514 0.012885 0.005210 -0.062889 -0.069203 -0.043024 -0.009015 0.043624 -0.181746 0.093827 -0.037718 0.081468 0.162600 -0.117539 0.043084 -0.048095 0.047339 0.049221 0.005526 0.130165 -0.001511 -0.033166 -0.032930 0.124175 0.049664 -0.058681 -0.111608 -0.054956 -0.077260 -0.010928 -0.164419 0.027191 0.074036 -0.020489 -0.036327 0.011364 -0.151448 0.043460 0.035834 0.021499 0.045036 -0.070858 0.028003 0.046416 0.042265 -0.088157 0.149245 -0.090776 -0.081739 -0.150815 -0.002211 0.087031 -0.076405 0.011697 0.094893 0.069812 -0.026864 -0.080521 -0.105772 -0.037146 -0.093611 0.061856 -0.022089 0.083097 -0.062412 -0.145226 0.135648 0.008634 -0.120234 0.068768 0.085380 -0.053404 -0.099575 0.072518 0.081029 0.029934 0.017473 0.087647 -0.049285 -0.046078 0.055352 -0.055487 -0.319271 0.038807 0.072161 0.104735 -0.438017 0.038360 -0.024024 -0.027127 -0.495286 0.004259 -0.169398 0.167537 -0.512550 -0.042247 -0.133875 0.190297 -0.219747 0.085700 -0.074259 0.041541 -0.214018 -0.009140 -0.022284 -0.042621 -0.038780 0.027416 0.065380 -0.176448 -0.021449 -0.131958 0.002236 -0.041929 -0.129241 0.040055 0.025931 0.049254 0.133904 -0.099250 -0.074788 -0.148788 0.210679 -0.123673 0.095851 -0.056307 0.393875 0.045738 0.068519 -0.041335 0.244010 -0.087980 0.040986 0.023622 0.355219 -0.033399 -0.019443 -0.100287 0.140600 -0.121257 -0.010910 0.093312 -0.007287 -0.137122 -0.061549 -0.068187 0.149687 0.016603 0.016947 -0.100239 0.182916 -0.045543 0.004751 -0.166644 0.124874 -0.100920 -0.003503 0.024908 0.085860 0.052045 0.020617 -0.021712 -0.008727 0.134428 0.081042 0.041006 -0.096953 -0.031564 0.158684 0.038723 0.121400 -0.155749 -0.052119 0.016651 0.191260 -0.179444 0.053803 0.073190 0.305694 0.008124 -0.076946 -0.087671 0.309511 0.089502 0.089797 -0.002434 0.305649 -0.060137 0.138063 0.177520 0.264467 0.078421 -0.057976 -0.048654 0.339555 -0.038096 -0.048164 -0.043800 0.525599 -0.022111 0.038419 -0.041762 0.774014 0.057920 0.077928 0.104059 0.553834 0.051683 0.085681 0.061450 0.481990 -0.143254 -0.186969 -0.010449 0.294142 0.037118 0.106234 -0.153795 -0.178531 0.174102 -0.076527 -0.085869 -0.017438 -0.001443 0.076957 0.098774 -0.026327 0.142983 0.172532 0.144876 0.356692 -0.024598 0.095518 0.116581 0.451978 -0.086934 0.091788 -0.127773 0.192918 -0.052940 0.153949 0.006062 -0.025302 0.051075 -0.011089 0.119008 0.126746 0.146386 -0.070563 -0.158948 0.101406 0.105152 0.026257 0.007536 0.477822 0.059188 0.010951 0.145775 0.866601 -0.011790 0.072929 0.123174 0.625354 -0.081110 -0.054528 -0.112606 0.357957 0.024556 0.096371 -0.042874 0.275684 -0.048391 -0.092278 0.015640 -0.059258 -0.020199 -0.081590 -0.028830 0.013178 -0.038460 -0.028544 -0.062483 0.002968 -0.011389 0.031243 0.105319 0.279188 -0.000311 0.013146 0.087945 0.310027 0.066287 0.093466 -0.185035 0.091707 0.016213 -0.099876 0.051354 -0.054750 -0.092329 0.101706 0.091332 -0.159362 0.182239 -0.018066 0.116222 -0.946391 0.003849 0.095208 -0.004392 -0.698756 0.013838 0.083438 -0.110778 0.518782 -0.019159 -0.133058 0.093753 0.158918 0.015725 0.113980 0.035793 0.198338 -0.034782 -0.107671 -0.064600 0.156946 -0.154329 -0.026360 -0.021557 -0.024424 0.085208 0.104904 -0.075404 -0.030889 0.078129 0.005805 -0.073515 0.174217 -0.002403 0.084298 0.190954 0.213770 0.068544 0.139588 -0.014844 0.243454 -0.018378 0.104261 0.082124 -0.087787 -0.015175 -0.056520 -0.070843 -0.121976 0.014390 -0.111053 0.110067 -0.402536 -0.084509 0.027196 0.020468 -1.405641 0.045899 0.018752 0.009615 -0.535109 -0.057641 -0.075430 0.010093 0.113340 0.086076 0.025293 -0.167954 0.494467 -0.083853 -0.070944 0.038890 0.546137 0.110937 0.083754 -0.136061 0.409592 0.032071 0.054570 -0.120731 0.015413 -0.030808 0.036114 0.124332 0.034124 -0.058102 -0.171743 0.049529 0.028599 0.072049 0.008005 -0.010364 0.005050 0.112693 -0.012813 0.045724 -0.099352 0.087504 -0.061125 0.036402 -0.068106 0.101146 -0.023067 -0.013070 -0.214292 -0.076776 -0.050003 0.158987 -0.414068 -0.089732 0.110291 0.100664 -0.496520 -0.106139 -0.096578 0.029129 -0.010715 0.033551 -0.137729 0.006262 0.072665 0.083263 -0.146874 0.057073 0.385115 -0.139033 0.133898 0.006737 0.353867 0.050110 0.056917 -0.100569 -0.052053 0.032895 0.097163 -0.048128 -0.100322 -0.041211 -0.015306 0.014286 -0.061205 -0.023060 -0.133884 -0.125017 -0.027347 -0.033768 -0.075760 0.067400 0.014184 -0.072557 0.003284 -0.050044 -0.145215 -0.025577 -0.025516 0.172247 -0.457868 -0.021215 -0.138676 0.060304 -0.579601 -0.070354 -0.003206 -0.131606 -0.439411 0.060249 -0.046791 -0.114315 -0.178312 -0.018421 0.055155 0.072450 0.104123 -0.041189 0.104403 0.081037 -0.328429 0.043589 -0.039069 -0.057370 -0.374713 0.144200 0.051947 0.000712 -0.392902 0.035811 0.166682 -0.117335 -0.351918 -0.011738 -0.140860 0.110305 -0.331355 -0.005613 0.014508 0.052390 0.045357 0.021166 -0.111622 0.023540 -0.124265 0.124891 -0.010263 -0.039014 -0.066713 0.033401 -0.139037 0.053948 -0.221097 0.073428 0.134397 0.004089 -0.329092 0.081515 0.020532 -0.000994 -0.337067 -0.163210 0.087658 0.172565 -0.227914 -0.000477 0.002521 0.052774 -0.113505 0.063845 -0.147649 0.006202 -0.047372 0.028992 0.012682 0.029739 -0.418339 -0.125130 0.054454 -0.170643 -0.539200 0.059119 0.142548 -0.035844 -0.643703 0.152226 -0.140915 0.071067 -0.530943 -0.051761 -0.026205 -0.182666 -0.139886 0.132691 0.036156 0.132279 -0.031272 -0.016847 -0.104100 0.080350 0.006052 0.038046 0.145219 0.114332 -0.127446 -0.006981 0.074343 0.142037 0.073196 -0.103898 -0.118058 0.027527 0.046558 0.142561 -0.047222 -0.031106 -0.124484 -0.057439 -0.070439 -0.140508 -0.261409 -0.139911 0.174877 -0.076696 -0.132671 -0.004582 0.145584 0.027699 -0.155535 -0.008713 -0.012083 0.065392 -0.187922 -0.190337 -0.121559 0.085079 -0.298204 0.057619 0.124142 -0.154828 -0.420684 0.039247 -0.086935 -0.086443 -0.300121 0.002824 -0.032697 -0.109128 -0.273519 0.066699 -0.047253 0.171695 -0.155204 0.082105 0.150893 0.011560 0.114344 -0.008807 0.116245 0.184247 0.007289 -0.010426 -0.002940 0.022375 0.114809 0.003598 0.078939 -0.001471 0.430678 0.035866 0.030812 -0.052202 0.507376 -0.071146 -0.009856 -0.057584 0.343242 -0.063090 0.156230 0.069185 0.289532 0.062200 0.030732 0.175845 0.421390 0.008960 0.071373 0.051367 0.404701 0.181278 -0.094855 0.015157 -0.093655 0.002898 -0.045702 -0.087593 -0.249440 -0.050458 -0.028866 0.033783 -0.153387 0.015568 -0.095515 0.081227 -0.002473 -0.028784 0.042149 -0.046817 0.078619 -0.086678 0.008981 -0.071804 -0.051460 -0.041306 0.004544 -0.056546 0.077344 0.021908 0.067988 -0.086296 0.017894 -0.124562 -0.159946 -0.077632 -0.019922 0.012127 -0.011706 -0.097585 0.134179 -0.173722 -0.014315 -0.044714 0.411258 0.040881 -0.027089 0.069355 0.343294 -0.043786 -0.080346 0.141658 0.488707 -0.062361 0.067160 0.023051 0.496214 0.105496 -0.034033 -0.159448 0.323436 0.190704 0.099500 -0.117435 0.000218 -0.034221 -0.017765 -0.068669 0.177855 -0.123582 -0.084570 0.020997 0.052596 -0.123745 0.132979 0.149814 -0.026740 0.042633 -0.000371 0.070687
-0.043028 -0.018968 -0.113923 0.003407 -0.031831 0.137266 -0.023383 0.064900 0.080719 -0.048766 0.053654 -0.116120 0.122104 0.030222 -0.045300 0.003014 -0.085736 -0.166194 0.029787 0.053240 -0.069758 -0.042461 0.022284 0.131171 0.134705 0.033518 0.020832 -0.165204 -0.199674 -0.074156 0.066141 -0.024073 0.017806 -0.050433 -0.074174 -0.095572 -0.007036 -0.028684 0.157191 0.011033 0.013786 0.073057 -0.115214 0.055955 -0.020786 -0.051918 -0.029723 -0.196711 -0.073807 -0.069280 -0.124317 0.180985 0.027518 -0.027255 -0.177953 -0.052308 -0.030157 0.005311 -0.062848 0.105195 -0.066801 -0.084675 0.110927 0.034153 -0.008325 0.133456 0.107901 0.177111 0.025925 -0.038768 0.190478 0.022284 -0.104040 0.073049 -0.149046 -0.108020 0.030350 -0.067596 0.048097 -0.020453 -0.095328 0.163019 0.083893 0.069833 -0.115278 -0.038265 -0.126314 -0.066169 -0.175955 -0.045452 -0.006814 -0.146009 -0.110928 0.059719 -0.093297 0.017135 -0.125522 -0.020192 -0.106466 0.014591 -0.089867 0.101772 -0.141968 -0.074927 0.027018 0.057550 0.025016 0.030562 -0.094646 -0.101702 0.007372 0.103861 0.107180 -0.032865 0.097375 0.036906 0.133323 0.157659 -0.158153 -0.123523 0.013015 0.160703 0.040396 -0.005719 -0.068660 0.053890 -0.092305 0.040264 -0.028533 0.051873 0.050816 -0.102866 -0.066191 -0.102032 -0.103544 -0.051112 0.145779 0.009550 0.021056 -0.070536 0.088503 -0.032035 0.008184 0.001367 0.226697 0.068473 0.023694 0.146044 0.079123 -0.164198 -0.019012 -0.024116 0.108980 -0.120563 0.019746 0.022141 -0.139086 0.196080 -0.049380 -0.123159 -0.157986 -0.014950 -0.106153 0.024175 0.026950 -0.010764 0.026970 0.027425 0.034762 -0.074005 0.012187 -0.099116 0.025780 0.167031 -0.020110 0.110579 -0.121391 0.117751 0.064946 0.102509 -0.074217 0.147279 -0.073986 -0.012268 -0.027696 -0.036868 0.066319 0.159551 -0.037506 0.132427 0.091615 -0.071727 0.020390 -0.073306 0.042692 0.039083 0.161721 -0.028594 0.000839 -0.164876 0.148899 -0.064993 0.076825 0.015162 -0.064282 0.077103 0.074614 -0.053408 -0.057506 0.093241 0.022297 -0.159717 0.223461 -0.068386 0.031001 0.073040 0.415477 0.053596 0.017554 -0.179643 -0.038249 0.137094 -0.029648 -0.044863 0.039965 0.054338 0.098872 -0.197497 -0.044854 0.085704 -0.025003 0.051941 -0.023205 -0.090721 -0.020135 -0.075422 0.092388 -0.044462 0.055142 0.096017 0.372547 0.071670 -0.092398 -0.042411 0.263879 -0.035005 -0.152715 -0.070815 0.177308 0.013306 0.056877 -0.082218 -0.303076 0.133076 -0.108327 -0.045325 -0.325738 0.098583 0.033115 0.056980 -0.103810 -0.097456 0.000265 0.071585 0.115745 0.063192 -0.146710 -0.087145 0.027706 0.070608 0.149028 0.087482 0.306736 -0.047874 0.017685 0.017234 0.153601 -0.038274 -0.145905 0.036560 -0.089487 0.123913 -0.010467 0.171182 -0.180375 0.050794 0.170935 0.090223 0.216789 -0.072818 0.077656 -0.173926 0.355288 0.121017 0.010626 0.114152 0.507283 0.149286 -0.051292 0.030399 0.421526 -0.070381 -0.199282 0.098941 0.297637 -0.050248 -0.156285 0.063299 -0.007021 0.124724 -0.150103 -0.030954 -0.409213 0.030947 -0.032530 0.007148 0.020612 0.076759 0.118307 0.010588 0.098921 0.010448 -0.080928 0.008346 0.397265 0.039503 -0.079557 -0.027016 0.435091 -0.024254 0.031455 -0.061303 -0.207513 0.027093 -0.078526 0.003662 0.009626 0.185289 0.028147 -0.145199 0.014004 0.129953 0.170009 0.040906 0.137206 -0.023004 -0.064310 -0.027735 0.274516 -0.019094 0.166865 0.067731 0.233309 0.074080 0.078566 -0.060923 -0.144844 0.053312 0.040775 -0.147735 0.419739 -0.074995 -0.043366 -0.054876 0.293472 0.037292 0.055923 0.099536 0.186304 0.124407 -0.104882 0.165253 -0.052957 0.034635 -0.004700 -0.173804 0.210241 -0.088757 -0.115113 -0.143005 0.207061 -0.127115 -0.186167 0.113990 0.318530 -0.126336 -0.052386 -0.115115 -0.024155 0.141143 0.055994 -0.150216 0.051300 0.013115 -0.050001 -0.086387 -0.122890 0.069620 0.088552 0.154519 -0.114035 -0.063941 -0.036226 -0.048875 -0.522583 0.126034 0.014620 -0.084690 -0.500451 -0.104454 -0.162880 0.101093 -0.279246 0.100114 0.132958 0.017487 0.398463 -0.056538 -0.102301 -0.068356 0.514220 -0.001889 -0.092870 0.045640 0.073280 -0.027138 -0.012768 -0.006554 -0.255789 -0.066187 0.035803 -0.038279 -0.500576 -0.068767 -0.016018 -0.162832 -0.404674 0.027464 -0.054812 0.004280 -0.181194 0.043520 0.030086 -0.181621 -0.133113 0.166778 0.060536 0.105151 -0.056241 -0.115623 0.036360 -0.039591 0.025118 0.170343 -0.041028 0.099781 -0.318180 -0.030152 0.193456 0.058637 -0.332815 -0.000240 0.113731 -0.015630 -0.027866 0.008768 -0.119340 -0.140103 0.130393 -0.041199 0.066418 0.075246 0.576592 -0.046038 0.081388 0.009005 0.057397 -0.059993 -0.039064 0.035460 -0.185583 -0.014152 -0.035388 0.143896 -0.379269 -0.088393 0.012569 0.113635 -0.426711 0.040785 0.048239 0.032905 -0.418134 0.104193 0.148926 0.091727 -0.140021 -0.007017 -0.012728 -0.101050 -0.114496 -0.122480 0.001694 0.156746 -0.096653 0.028328 0.086734 -0.079306 -0.065178 -0.063211 -0.045007 -0.031700 -0.156567 -0.130277 0.051031 0.088083 0.045202 0.023528 -0.169115 0.046550 0.172554 -0.086088 0.048737 -0.032065 0.395963 -0.169352 -0.042288 0.012178 0.106526 0.194887 -0.185612 0.023868 -0.239123 -0.123679 0.117830 -0.136049 -0.163282 0.083772 0.044257 0.032179 -0.114922 -0.047686 -0.079380 -0.028370 0.016553 -0.006484 -0.016430 0.030137 0.005591 0.013086 -0.087089 0.048142 -0.031887 0.106101 0.034646 0.160017 -0.129138 -0.161041 0.005334 0.112654 -0.009536 0.016983 0.142891 -0.045717 -0.156661 -0.174966 0.162831 0.018229 -0.150192 0.093596 -0.062051 0.105181 0.285399 -0.001834 0.006694 -0.126237 0.213042 0.028174 0.133594 -0.051781 -0.071199 0.159384 -0.051950 -0.092490 -0.252733 0.053790 0.036346 -0.057451 -0.322746 -0.115993 0.022177 0.048951 -0.170042 0.122408 0.021533 0.142951 -0.046555 0.186641 -0.010018 -0.027810 0.073226 0.037430 0.048735 -0.065854 0.105606 0.089054 0.044996 -0.020071 0.036548 0.140808 -0.050725 -0.121302 -0.002343 -0.090958 0.011677 0.094991 -0.157111 -0.020979 -0.169063 -0.083459 0.039164 -0.007718 0.034732 -0.048424 -0.422873 -0.083378 -0.038977 0.076966 -0.059055 0.077550 0.098137 -0.089762 -0.105025 -0.061954 0.054957 -0.027480 -0.001046 0.058440 -0.006968 -0.190126 0.635038 0.001084 -0.072600 -0.027150 0.682306 -0.013858 0.104340 -0.126105 0.199082 -0.047573 0.124618 -0.089677 0.115374 -0.005165 -0.154817 -0.041938 0.094691 0.072068 -0.189018 0.067808 0.116768 0.030982 0.063207 -0.045488 -0.083056 0.022342 0.026799 0.047349 0.004828 -0.035343 -0.014479 -0.009121 0.006590 -0.161668 -0.167568 0.034863 -0.040379 0.072076 0.119371 -0.029499 -0.276560 0.159687 -0.082438 0.103052 -0.610312 -0.124887 0.159036 -0.185681 -0.219002 0.000218 -0.031890 0.031175 -0.077021 0.013725 0.018698 0.158843 0.010380 0.016048 0.130423 -0.164066 -0.000102 0.034561 0.111142 -0.005610 0.117811 0.118584 -0.035839 0.127752 0.190720 -0.064402 0.040770 0.148927 0.176023 0.125115 -0.114076 -0.025955 -0.110925 -0.060469 -0.119168 0.015494 0.155424 0.002866 0.034243 -0.038196 0.063959 0.138792 -0.005594 0.004273 -0.093576 0.063263 -0.167705 0.007174 0.097690 -0.103995 0.066420 -0.067611 0.003162 -0.107848 -0.050556 -0.036253 -0.221222 -0.121963 0.063781 0.017764 -0.178840 0.038990 0.038001 -0.019126 -0.182349 0.043543 0.062802 0.086404 -0.310589 -0.047194 0.014211 -0.175433 -0.099230 0.051615 -0.024221 -0.116873 -0.074855 -0.064220 0.069106 -0.001581 -0.135721 0.118049 0.028485 0.168941 -0.049006 0.012945 0.029052 -0.053471 -0.128925 -0.047084 0.000270 -0.128795 -0.067713 0.056679 0.008219 -0.048667 -0.065688 0.003059 0.050988 -0.041753
0.100446 0.156408 0.191142 -0.012167 0.132040 0.109922 0.017499 -0.029305 0.113769 0.127185 0.051870 0.035200 -0.018683 -0.164280 -0.067377 -0.002979 0.041396 0.130699 -0.100212 -0.127575 0.036071 0.110103 -0.030874 -0.004365 0.050772 0.067423 -0.001535 0.135308 -0.000147 -0.006704 0.000296 -0.011743 -0.082403 -0.036915 -0.018610 -0.128846 0.171370 -0.111874 -0.002547 0.061309 -0.062381 0.120504 -0.003450 -0.115949 0.012495 0.008932 -0.103642 0.025878 0.033065 0.122751 -0.080879 0.048033 -0.008874 0.008654 -0.079411 -0.158294 -0.017098 0.041020 0.009565 -0.036517 0.007116 -0.114129 -0.073999 -0.063242 -0.091286 -0.075234 -0.039714 -0.054612 0.030283 0.037921 -0.114250 -0.057811 -0.090008 -0.086225 0.131860 0.022716 -0.061613 0.076681 -0.042617 -0.072737 -0.267217 0.055412 0.080094 -0.063135 -0.129588 0.050417 0.185163 -0.110497 -0.201991 -0.019844 0.004641 -0.062556 -0.123395 -0.152097 -0.015661 0.047462 -0.020791 -0.086739 0.105702 0.027630 0.038616 -0.047912 -0.004898 0.094025 0.084363 -0.183224 -0.122964 -0.193621 0.039925 -0.002430 0.077830 0.049173 -0.151956 0.040384 -0.092907 0.094672 -0.024541 0.062269 0.032782 0.127437 -0.063146 -0.100935 -0.080813 -0.073193 -0.172752 -0.065033 -0.134776 0.015275 -0.104222 0.101637 0.088608 0.056356 -0.019807 -0.028701 0.033414 0.120144 -0.021028 -0.142706 0.138917 -0.078801 -0.380852 -0.008362 -0.088507 0.081694 -0.518319 0.053144 0.015478 -0.149361 -0.425437 0.093617 -0.029693 0.091982 -0.242410 0.050941 -0.035657 0.020197 -0.431654 0.087925 0.161700 0.019391 -0.018398 -0.035831 0.017052 0.052022 -0.102001 0.087735 0.126421 -0.005328 0.108808 -0.042632 -0.121250 0.023538 0.013212 -0.082036 -0.182209 0.000080 -0.086819 -0.076497 -0.016284 0.088699 -0.301854 -0.043250 0.049744 0.098778 -0.230680 0.125744 0.075086 -0.064633 -0.168025 0.097207 0.055252 -0.013235 0.049493 -0.082528 -0.064310 0.042772 0.765031 0.031957 0.014658 0.003470 0.914369 0.078788 0.037569 0.100174 0.425416 -0.142599 0.042894 0.156688 0.253205 -0.101774 -0.090373 0.120227 -0.374926 0.041036 0.120889 0.101343 -0.391584 -0.068852 -0.014961 -0.076761 -0.070984 -0.062890 -0.054048 -0.047457 -0.045105 0.041561 0.093910 -0.002702 -0.176122 -0.152116 -0.158769 -0.065071 -0.360761 0.011151 -0.054730 -0.088560 -0.145617 0.008957 0.015157 -0.048187 -0.118295 -0.174728 0.030003 0.016608 -0.082457 -0.088969 0.016121 -0.102302 0.309647 -0.103949 -0.069832 -0.042243 0.258732 -0.053999 0.095147 0.039230 0.095041 -0.053185 -0.005102 0.035535 -0.138255 0.029027 -0.030639 -0.049100 -0.115346 0.139242 0.135812 0.047637 -0.332400 -0.079654 -0.038097 -0.191069 -0.478070 -0.068500 -0.073945 0.004275 -0.264465 0.046721 -0.098668 0.153129 -0.099626 0.008419 0.049311 0.065547 -0.229840 0.104971 -0.028605 0.059187 -0.069856 -0.003158 0.034083 0.033767 0.340816 0.076374 -0.049025 0.004777 0.368419 -0.098076 -0.065400 -0.106338 0.588566 0.029380 0.025069 -0.102901 -0.010891 -0.159395 0.003889 0.082001 -0.051254 -0.128739 0.045555 -0.022066 0.052423 0.029096 0.028584 -0.036579 0.304852 -0.047706 -0.113382 -0.065384 0.320957 0.088506 -0.003956 0.002564 0.281600 -0.067219 -0.037995 0.052540 -0.157113 -0.027934 -0.063470 -0.028761 -0.246928 -0.105273 -0.126349 0.010741 0.082530 -0.196556 -0.029593 0.075816 0.005274 -0.182412 0.115679 -0.043302 0.497750 0.191067 0.087177 -0.101826 0.501669 0.147324 -0.014371 -0.053605 0.262285 -0.042010 0.054465 -0.101446 0.527342 -0.017801 -0.124584 -0.031388 -0.264640 0.004903 -0.016701 0.073623 0.354834 -0.060999 0.020832 0.049557 0.443263 -0.040868 -0.008277 -0.030960 0.630408 0.094306 -0.106014 -0.055908 0.645427 -0.089328 -0.064669 -0.103055 0.360456 0.088536 0.063993 -0.007026 -0.220459 0.006701 0.109617 -0.083243 -0.142670 0.043744 0.110439 0.020411 0.124558 -0.067120 -0.003160 -0.042184 -0.165601 0.055371 -0.091779 -0.018931 0.179634 -0.015514 -0.065345 0.071793 0.218708 -0.023794 -0.184203 -0.024026 0.143587 0.062932 0.013385 -0.157043 -0.066952 -0.132557 0.054923 0.046851 -0.223451 0.045153 -0.058979 0.079257 0.026772 -0.027766 0.070309 0.004921 0.173382 -0.008210 -0.074773 0.143762 0.243529 0.026576 -0.111857 -0.077282 -0.045989 -0.182068 0.160683 -0.029394 -0.226296 -0.142639 0.039802 0.007008 -0.438769 0.045894 0.165264 -0.072048 -0.103099 -0.103448 -0.041888 -0.087495 0.069414 0.105282 -0.015212 -0.072650 0.146699 -0.021045 -0.147099 0.160653 0.010836 -0.145665 0.029480 -0.148660 -0.141352 0.099448 -0.045023 0.090286 0.193084 0.088107 0.190055 -0.164345 0.198320 -0.060832 -0.030202 0.098491 -0.191469 -0.067708 -0.033412 0.084764 -0.338581 -0.062734 -0.181869 -0.109025 0.332319 0.047451 -0.010220 -0.114152 -0.085375 -0.003084 0.135348 -0.004729 -0.321378 -0.035694 0.023558 0.043267 -0.610990 -0.065163 0.009854 0.070392 -0.424322 0.049386 0.033272 -0.074704 -0.012428 -0.106109 -0.010509 -0.049567 -0.094809 0.048010 0.073688 -0.060498 -0.086537 -0.102905 -0.050495 0.031425 -0.316877 -0.068558 0.077296 0.194307 -0.274562 -0.035874 -0.020277 -0.029141 -0.221370 0.153038 0.013710 -0.065556 -0.147546 0.143619 -0.062999 -0.075481 -0.465224 -0.090988 -0.161780 -0.016066 -0.097431 -0.032966 -0.123162 0.037863 -0.083423 0.038838 -0.093466 -0.053660 -0.387361 -0.131223 0.052039 0.181621 -0.097914 0.084575 0.048694 0.052408 -0.383425 -0.116211 0.081936 0.058041 -0.179674 -0.119737 -0.055285 0.192017 -0.115251 -0.138843 -0.120040 0.029191 0.059942 -0.005649 0.143019 -0.011558 0.021407 0.194412 0.050659 0.042743 -0.183836 0.046057 -0.078995 0.010356 -0.401486 0.078870 0.015178 -0.036010 -0.408743 -0.009897 -0.009419 -0.080539 -0.566122 0.019571 -0.157049 -0.087008 -0.410256 -0.051522 0.023529 0.042784 -0.248942 0.050276 0.137032 -0.067371 -0.215540 -0.138071 -0.044333 -0.014640 -0.341385 0.040387 -0.059403 0.019898 -0.255030 -0.046185 -0.028835 0.060216 -0.067184 0.191425 -0.063706 0.108296 0.061779 0.119839 -0.104330 -0.053206 -0.105886 0.017263 -0.115304 -0.082597 0.010338 0.073982 0.049906 -0.146905 -0.001623 0.038107 0.129858 -0.062442 -0.243509 -0.087867 -0.085389 -0.039302 -0.086689 -0.068107 0.059001 -0.109153 -0.111330 -0.100742 -0.075244 -0.140084 -0.055770 0.089417 -0.010609 -0.037474 -0.083933 -0.104389 0.065472 0.049829 -0.305540 0.053497 0.016141 0.091785 -0.348190 0.038760 -0.067273 0.003794 -0.375474 0.023567 -0.133035 0.051798 -0.200872 -0.048081 0.088629 -0.018054 0.065810 0.086090 -0.057818 -0.032729 -0.042118 0.146526 0.110443 0.030830 0.094665 -0.061824 -0.148170 0.037724 -0.058764 -0.022721 -0.172133 -0.120926 0.017213 0.020511 0.132128 -0.019355 -0.013212 -0.139962 0.013060 0.013475 0.019104 0.005469 0.197572 -0.057014 0.187706 -0.092978 0.128644 -0.154196 0.234044 0.035645 0.078702 -0.015753 0.089614 0.081302 -0.001198 0.047350 -0.163679 -0.027363 0.046491 -0.049942 0.149100 -0.029035 0.022440 0.083095 0.221218 -0.065501 0.011176 0.005133 0.326277 -0.084439 -0.017925 -0.164081 0.519154 0.112241 0.076580 -0.108498 0.141719 0.021890 -0.006263 -0.128055 0.064341 -0.019085 0.042308 0.016123 0.080863 -0.103733 -0.007353 0.081421 -0.116493 0.150071 0.067460 -0.124459 0.055261 0.061385 0.008671 0.082272 0.157260 -0.077985 0.002132 -0.092044 0.234354 -0.115011 0.092408 0.017874 0.235146 -0.016562 -0.004531 0.055735 0.357210 0.112828 -0.159051 0.037003 0.425271 -0.089379 -0.029004 -0.122021 0.330182 0.090079 -0.029245 -0.067917 0.357026 0.060795 -0.001278 -0.038030 0.166727 -0.132363 -0.099355 -0.007410 0.110168 -0.037392 0.041644 0.084596 0.086670 -0.141461 -0.154928 0.141284 -0.024575 0.124272 -0.063932 -0.034483
